\data\
ngram 1=2641
ngram 2=8626
ngram 3=11402
ngram 4=12043
ngram 5=11851

\1-grams:
-3.9824703	<unk>	0
0	<s>	-0.6277204
-1.6697128	</s>	0
-2.528544	Barça	-0.17848629
-2.2321517	-	-0.21015972
-2.0935583	Juventus	-0.23944913
-2.8041067	sa	-0.08392991
-3.7040284	seras	-0.073381126
-2.191183	du	-0.20792368
-3.8654444	gâteau	-0.073381126
-1.9601818	pour	-0.34160298
-1.8167429	le	-0.2982514
-3.8654444	BARRRCA	-0.073381126
-2.0244248	__EMOTICON__	-0.47531688
-3.8654444	//	-0.073381126
-1.6840675	,	-0.21237953
-2.3278975	je	-0.18865798
-3.7040284	sens	-0.073381126
-3.7040284	Neymar	-0.073381096
-2.3173156	il	-0.21291934
-2.38506	va	-0.14645724
-3.530527	mettre	-0.073381126
-2.8735049	son	-0.073381126
-3.8654444	doublé	-0.073381126
-1.7248422	.	-0.39085475
-3.7040284	B	-0.073381126
-3.8654444	draw	-0.073381126
-3.8654444	1–1	-0.073381126
-3.8654444	with	-0.073381126
-3.8654444	Racing	-0.073381126
-3.8654444	settle	-0.073381126
-3.3864844	for	-0.073381126
-3.8654444	insufficient	-0.073381126
-3.8654444	point	-0.073381126
-2.1834335	✪	-0.2565379
-2.2152977	__URL__	-0.71215266
-3.8654444	committed	-0.073381126
-3.1200573	to	-0.073381126
-3.7040284	the	-0.073381096
-3.8654444	fight	-0.073381126
-3.8654444	against	-0.073381126
-3.8654444	homophobia	-0.073381126
-1.9789563	__SHARP__	-0.33012637
-2.7731667	y	-0.09705205
-3.7040284	pa	-0.073381126
-1.8069495	la	-0.33938622
-2.9561415	final	-0.10302772
-1.6187022	de	-0.2634608
-3.3864844	champions	-0.089301914
-3.7040284	league	-0.19945993
-3.2785025	Barça-Juventus	-0.073381096
-2.8041067	La	-0.19679031
-3.3864844	Finale	-0.128144
-2.2679586	c'	-1.0556256
-2.2587264	est	-0.15586156
-2.528544	ça	-0.19292818
-3.8654444	Papa	-0.073381126
-1.7168996	!	-0.46625996
-3.2785025	mes	-0.11951829
-3.1200573	joueurs	-0.108427994
-3.3864844	Sa	-0.073381126
-3.530527	risque	-0.19945993
-3.7040284	vite	-0.073381126
-3.8654444	tourner	-0.073381126
-2.1127095	a	-0.18957298
-2.3612847	l'	-0.124366134
-3.8654444	aventage	-0.073381126
-3.7040284	barça	-0.073381096
-3.3864844	Mais	-0.089301914
-2.3278975	on	-0.21737652
-3.2785025	sais	-0.105828665
-3.2785025	jamais	-0.073381096
-3.1200573	Bayern	-0.095837325
-3.8654444	Munich	-0.073381126
-3.7040284	3-2	-0.073381126
-2.8041067	Barcelone	-0.15574142
-1.9510903	en	-0.26385278
-3.7040284	soit	-0.073381126
-2.4509032	contre	-0.32255298
-3.1920938	là	-0.073381096
-2.6231534	ou	-0.09016558
-2.38506	Real	-0.29940864
-2.837421	Madrid	-0.10525496
-3.2785025	BBC	-0.073381126
-3.8654444	Afrique	-0.073381126
-3.1920938	LDC	-0.16199614
-1.9647999	:	-0.2042255
-2.9561415	Juve	-0.0983329
-2.1259627	__DIGIT__	-0.18820599
-3.7040284	ans	-0.1318613
-2.8735049	après	-0.108427994
-1.9206903	...	-0.5345895
-3.058287	Turin	-0.11806925
-3.530527	rejoint	-0.1318613
-2.528544	finale	-0.17005464
-3.058287	Ligue	-0.41128975
-2.4803154	des	-0.09696454
-3.8654444	Cha	-0.073381126
-3.7040284	Beau	-0.073381126
-3.8654444	papa	-0.073381126
-3.1200573	doit	-0.09840569
-3.004218	être	-0.08571317
-3.530527	heureux	-0.073381096
-2.040704	que	-0.32899922
-3.3864844	gagné	-0.073381126
-3.3864844	🇮🇹	-0.1318613
-3.8654444	BELLE	-0.073381126
-3.8654444	QUALIFICATION	-0.073381126
-3.8654444	DU	-0.073381126
-2.1396334	__MENTION__	-0.19301763
-3.7040284	POUR	-0.19945993
-2.9128606	LA	-0.20633116
-3.7040284	FINALE	-0.15324606
-3.1200573	DE	-0.19455492
-3.058287	Benzema	-0.09374722
-3.2785025	+	-0.073381126
-2.9561415	Bale	-0.09374722
-3.1200573	Cristiano	-0.21499513
-3.2785025	=	-0.11951829
-3.530527	Bye	-0.105828665
-3.8654444	Championat	-0.073381126
-2.3173156	d'	-0.14392431
-3.7040284	Espagne	-0.073381126
-3.2785025	Coupe	-0.28773236
-3.8654444	roi	-0.073381126
-2.837421	Champions	-0.37241763
-3.2785025	League	-0.0999236
-3.7040284	BENZEMA	-0.19945993
-2.691715	vs	-0.19703692
-3.8654444	POGBA	-0.073381126
-3.7040284	Quel	-0.073381096
-3.1920938	retour	-0.10163761
-2.495804	plus	-0.10244188
-3.8654444	important	-0.073381096
-2.2679586	?	-0.26652813
-3.8654444	Bien	-0.073381126
-3.2785025	joué	-0.073381126
-3.3864844	ces	-0.1318613
-3.1920938	deux	-0.14089754
-3.530527	matchs	-0.073381126
-3.8654444	haut	-0.073381126
-3.8654444	niveaux	-0.073381126
-2.8735049	rien	-0.1114803
-3.058287	dire	-0.15029947
-3.7040284	good	-0.073381126
-3.8654444	job	-0.073381126
-2.5118656	sur	-0.1477618
-3.530527	droit	-0.073381096
-3.7040284	fier	-0.073381126
-3.2785025	ses	-0.073381126
-3.2785025	Bravo	-0.1445654
-3.7040284	évidemment	-0.073381126
-3.2785025	sans	-0.073381126
-3.7040284	Modric	-0.073381126
-2.3278975	qui	-0.157924
-3.058287	toujours	-0.073381126
-3.530527	blessé	-0.073381096
-3.8654444	verra	-0.073381126
-2.9128606	si	-0.1114803
-2.9128606	peut	-0.073381126
-3.8654444	amener	-0.073381126
-3.8654444	fluidité	-0.073381126
-2.3278975	ce	-0.28464168
-3.1200573	m'	-0.105828665
-3.8654444	étonnera	-0.073381126
-3.8654444	Bienfait	-0.073381126
-2.5118656	vous	-0.14199631
-3.1920938	avez	-0.09840569
-3.8654444	mémoire	-0.073381126
-3.8654444	courte	-0.073381126
-3.2785025	Monaco	-0.073381126
-2.9561415	était	-0.13484734
-2.1192856	pas	-0.17516686
-2.191183	un	-0.118275985
-3.8654444	péno	-0.073381126
-3.8654444	siffler	-0.073381126
-3.8654444	imaginaire	-0.073381126
-3.8654444	Bilan	-0.073381126
-3.8654444	Mi	-0.073381126
-3.8654444	Temps	-0.073381126
-3.8654444	Milieu	-0.073381126
-3.8654444	terrain	-0.073381126
-3.8654444	inexistant	-0.073381126
-3.8654444	Bim	-0.073381126
-3.004218	gagner	-0.073381126
-3.004218	mon	-0.09840569
-3.8654444	dieu	-0.073381126
-3.8654444	direction	-0.073381126
-3.2785025	>	-0.105828665
-3.8654444	DÉFONCE	-0.073381126
-3.8654444	Bin	-0.073381126
-3.2785025	coup	-0.073381096
-3.8654444	jvai	-0.073381126
-3.530527	pouvoir	-0.073381096
-3.8654444	mater	-0.073381126
-2.5639546	)	-0.21511766
-3.7040284	Blaugrana	-0.19945993
-3.8654444	al	-0.073381126
-3.8654444	vent	-0.073381126
-3.2785025	Un	-0.10163761
-3.8654444	cri	-0.073381126
-3.530527	valent	-0.073381096
-3.8654444	Tenim	-0.073381126
-3.7040284	nom	-0.073381126
-3.7040284	El	-0.073381096
-3.7040284	sap	-0.19945993
-3.8654444	tothom	-0.073381126
-3.7040284	BARÇA	-0.1318613
-3.8654444	⚽️	-0.073381126
-3.8654444	crit	-0.073381126
-3.8654444	tenim	-0.073381126
-3.2785025	el	-0.11951829
-3.2785025	Bon	-0.119518325
-3.8654444	plan	-0.073381126
-3.8654444	sportif	-0.073381126
-3.8654444	incroyable	-0.073381126
-3.8654444	nier	-0.073381126
-3.8654444	aspect	-0.073381126
-3.8654444	financier	-0.073381126
-3.7040284	Cette	-0.073381126
-3.8654444	rapporter	-0.073381126
-3.058287	gros	-0.073381126
-3.7040284	ba	-0.073381096
-2.2870336	mais	-0.12055367
-2.4509032	j'	-0.23955512
-3.530527	espère	-0.13656299
-3.8654444	Juventue	-0.073381126
-3.8654444	gagneront	-0.073381126
-2.6676383	face	-0.54406804
-1.9837797	à	-0.22921717
-3.8654444	salopes	-0.073381126
-3.530527	bah	-0.073381126
-2.9561415	bon	-0.073381126
-3.2785025	maintenant	-0.073381126
-3.7040284	balles	-0.073381126
-3.8654444	couilles	-0.073381126
-3.1920938	suis	-0.073381126
-3.530527	Forza	-0.1318613
-3.8654444	oa	-0.073381126
-2.744285	juventus	-0.09632722
-3.3864844	demain	-0.073381126
-3.8654444	sachez	-0.073381126
-3.8654444	êtes	-0.073381126
-2.582805	dans	-0.33444467
-3.8654444	kaka	-0.073381126
-3.530527	psq	-0.073381096
-3.2785025	moins	-0.10163761
-2.5639546	qu'	-0.324365
-3.8654444	mort	-0.073381126
-3.530527	aime	-0.073381126
-3.8654444	BON	-0.073381126
-3.7040284	RETOUR	-0.073381126
-3.2785025	À	-0.073381126
-3.8654444	MAISON	-0.073381126
-3.2785025	LE	-0.073381126
-3.3864844	RÉAL	-0.1318613
-3.530527	ai	-0.073381126
-3.7040284	confiance	-0.073381126
-2.8735049	équipe	-0.10358839
-3.8654444	fumer	-0.073381126
-2.0752163	et	-0.13346373
-3.8654444	Fc	-0.073381126
-3.7040284	bande	-0.073381126
-3.3864844	pute	-0.1318613
-3.2785025	sortir	-0.11951829
-3.1200573	hein	-0.10163761
-3.2785025	Tevez	-0.073381126
-3.1920938	Evra	-0.073381126
-2.8041067	Pogba	-0.122499175
-3.3864844	compte	-0.1318613
-2.9561415	Messi	-0.073381126
-3.2785025	ta	-0.073381096
-3.8654444	daronne	-0.073381126
-3.8654444	naine	-0.073381126
-2.8735049	dit	-0.08644964
-3.7040284	mets	-0.073381126
-2.8735049	but	-0.12480608
-3.530527	fin	-0.073381096
-2.691715	match	-0.15618864
-3.1920938	me	-0.073381126
-3.8654444	enflammé	-0.073381126
-3.8654444	disant	-0.073381126
-3.530527	premier	-0.073381096
-3.8654444	Chilien	-0.073381126
-3.8654444	disputer	-0.073381126
-2.338744	une	-0.11997669
-3.1920938	C1	-0.21499513
-3.1920938	eu	-0.073381126
-3.8654444	Claudio	-0.073381126
-3.2785025	hier	-0.073381126
-3.8654444	simple	-0.073381126
-2.9128606	JUVENTUS	-0.10938956
-3.7040284	pck	-0.073381126
-2.602511	ne	-0.13195384
-2.5458884	se	-0.081268586
-3.8654444	jou	-0.073381126
-2.9561415	gagne	-0.10172679
-3.530527	Mdr	-0.073381126
-3.8654444	AAAAA_	-0.073381126
-3.7040284	finit	-0.073381126
-3.7040284	tant	-0.073381126
-3.8654444	besoin	-0.073381126
-3.530527	marquer	-0.073381126
-3.530527	buts	-0.10163761
-3.7040284	Donc	-0.19945993
-2.9561415	sera	-0.073381096
-3.2785025	Vs	-0.11951829
-3.530527	belle	-0.11951829
-2.6231534	nous	-0.0925055
-3.8654444	attends	-0.073381126
-2.582805	avec	-0.23841101
-3.8654444	Tant	-0.073381126
-3.1200573	mieux	-0.105828665
-3.8654444	connait	-0.073381126
-3.7040284	Bonne	-0.15324606
-3.530527	chance	-0.15324606
-3.2785025	aux	-0.073381126
-3.3864844	équipes	-0.073381126
-3.8654444	italiennes	-0.073381126
-2.8041067	encore	-0.1387248
-3.8654444	présentes	-0.073381126
-3.7040284	Europa	-0.19945993
-3.8654444	Direction	-0.073381126
-3.8654444	Ber..	-0.073381126
-3.8654444	Oups	-0.073381126
-3.8654444	Varsovie	-0.073381126
-3.7040284	🇮🇹🇮🇹	-0.19945993
-3.7040284	journée	-0.073381096
-3.004218	tous	-0.073381126
-2.9561415	faut	-0.10163761
-3.8654444	qu	-0.073381126
-3.7040284	dise	-0.073381126
-3.8654444	vérité	-0.073381126
-3.530527	Bâle	-0.073381096
-3.1200573	mérite	-0.14089754
-3.3864844	réal	-0.089301914
-2.338744	au	-0.18423711
-3.7040284	Dommage	-0.19945993
-3.1920938	real	-0.092013076
-3.8654444	félicitation	-0.073381126
-3.1200573	leur	-0.073381126
-3.058287	qualification	-0.1555186
-3.7040284	route	-0.19945993
-3.7040284	vers	-0.073381126
-3.2785025	Berlin	-0.15324603
-3.2785025	mérité	-0.073381096
-3.2785025	Si	-0.13656299
-3.1200573	t'	-0.10163761
-3.3864844	es	-0.1114803
-3.8654444	capable	-0.073381126
-3.8654444	marqué	-0.073381126
-2.9128606	tu	-0.092013076
-3.8654444	mtn	-0.073381126
-3.1200573	saison	-0.13758987
-3.7040284	prochaine	-0.073381126
-2.3173156	les	-0.112512045
-3.8654444	applaudissements	-0.073381126
-3.7040284	vrais	-0.073381126
-3.2785025	supporters	-0.11951829
-3.2785025	bravo	-0.16465588
-3.8654444	qualificaiton	-0.073381126
-3.2785025	y'	-0.17114592
-3.8654444	méritée	-0.073381126
-2.717205	fait	-0.08259719
-3.8654444	fallait	-0.073381126
-3.2785025	élimine	-0.28773236
-3.058287	très	-0.073381126
-3.530527	content	-0.073381096
-3.7040284	Bref	-0.073381126
-3.530527	chose	-0.15324606
-3.004218	avant	-0.073381126
-3.8654444	eclipser	-0.073381126
-3.8654444	VIVE	-0.073381126
-3.8654444	Bsahtek	-0.073381126
-3.004218	c	-0.1445654
-3.8654444	etais	-0.073381126
-2.837421	quand	-0.25217277
-3.530527	meme	-0.073381096
-3.8654444	HALA	-0.073381126
-3.3864844	MADRID	-0.073381096
-3.1920938	Buffon	-0.073381126
-3.3864844	te	-0.1318613
-3.7040284	respect	-0.073381126
-2.8735049	trop	-0.10163761
-3.3864844	soir	-0.10047841
-3.8654444	Butttttttttt	-0.073381126
-3.004218	1-1	-0.073381126
-3.530527	quelle	-0.073381096
-3.530527	tête	-0.15324606
-3.8654444	corner	-0.073381126
-3.7040284	leçon	-0.073381126
-3.8654444	bye	-0.073381126
-3.530527	avais	-0.073381126
-2.9561415	aller	-0.10382409
-3.8654444	ciao	-0.073381126
-2.9128606	Réal	-0.1620778
-2.8735049	Le	-0.1154324
-3.8654444	Juin	-0.073381126
-3.1920938	De	-0.1114803
-3.8654444	justesse	-0.073381126
-3.8654444	rythme	-0.073381126
-3.7040284	commence	-0.19945993
-3.7040284	croire	-0.073381126
-3.8654444	vaudou	-0.073381126
-3.004218	C	-0.092013076
-3.3864844	fou	-0.073381126
-3.530527	parle	-0.15324606
-3.8654444	raconter	-0.073381126
-3.7040284	merde	-0.105828665
-3.7040284	transfert	-0.073381096
-3.530527	niveau	-0.073381096
-3.8654444	cerveau	-0.073381126
-3.530527	grave	-0.073381126
-3.8654444	participer	-0.073381126
-3.1920938	non	-0.1936825
-3.7040284	o	-0.073381126
-3.8654444	caralho	-0.073381126
-3.8654444	leve	-0.073381126
-3.8654444	no	-0.073381126
-3.8654444	cul	-0.073381126
-3.8654444	fodasse	-0.073381126
-3.8654444	swr	-0.073381126
-2.8041067	faire	-0.104491234
-3.8654444	respecté	-0.073381126
-3.8654444	hala	-0.073381126
-3.3864844	madrid	-0.073381126
-3.8654444	TT	-0.073381126
-3.3864844	REAL	-0.1318613
-3.8654444	VOUS	-0.073381126
-3.8654444	ÊTES	-0.073381126
-3.8654444	NUL	-0.073381126
-3.8654444	ON	-0.073381126
-3.8654444	QUE	-0.073381126
-3.3864844	LES	-0.19082235
-3.8654444	MEILLEUR	-0.073381126
-2.495804	(	-0.12019636
-3.1200573	mdr	-0.13656299
-2.6231534	bien	-0.089902915
-3.8654444	Fiat	-0.073381126
-3.8654444	propriétaire	-0.073381126
-2.9128606	C'	-0.56165934
-3.1920938	donc	-0.09840569
-3.8654444	environ	-0.073381126
-3.8654444	millions	-0.073381126
-3.8654444	recevoir	-0.073381126
-3.8654444	oublier	-0.073381126
-3.7040284	possible	-0.073381126
-3.8654444	SuperCoupe	-0.073381126
-3.530527	Europe	-0.073381096
-3.8654444	🇮🇹🏆	-0.073381126
-3.8654444	raflé	-0.073381126
-3.1920938	Dybala	-0.073381126
-3.8654444	Hâte	-0.073381126
-3.2785025	voir	-0.105828665
-3.3864844	donner	-0.073381126
-3.530527	peur	-0.15324606
-3.8654444	surcote	-0.073381126
-3.8654444	exactement	-0.073381126
-2.691715	«	-0.079336785
-3.2785025	Ancelotti	-0.13656299
-2.9561415	jouer	-0.11662504
-2.4233568	»	-0.2073981
-3.530527	monde	-0.073381126
-3.8654444	découvert	-0.073381126
-3.058287	joueur	-0.11511547
-3.8654444	fini	-0.073381126
-2.9128606	FC	-0.40338007
-3.1920938	VS	-0.15324606
-3.8654444	dég	-0.073381126
-3.7040284	FINI	-0.073381126
-3.8654444	Estadio	-0.073381126
-3.8654444	Santiago	-0.073381126
-3.8654444	Bernabéu	-0.073381126
-3.8654444	C.F.	-0.073381126
-3.8654444	Tenu	-0.073381126
-3.8654444	Echec	-0.073381126
-3.2785025	éliminé	-0.073381096
-2.744285	par	-0.15632764
-3.1920938	On	-0.14089754
-3.1920938	ligue	-0.3669136
-3.530527	Salut	-0.15324606
-3.8654444	sortez	-0.073381126
-3.8654444	fini..	-0.073381126
-3.8654444	1/3	-0.073381126
-3.7040284	viens	-0.19945993
-3.2785025	arbitre	-0.13656299
-3.058287	avait	-0.09840569
-3.7040284	choisi	-0.073381126
-3.7040284	camp	-0.073381126
-3.3864844	dès	-0.073381126
-3.8654444	quarts	-0.073381126
-2.9561415	lui	-0.073381126
-3.8654444	mi	-0.073381126
-3.1200573	temps	-0.073381126
-3.8654444	1-2	-0.073381126
-3.8654444	pause	-0.073381126
-3.7040284	Santiago-Bernabeu	-0.073381126
-3.8654444	mène	-0.073381126
-3.3864844	1-0	-0.073381126
-3.8654444	grace	-0.073381126
-3.1920938	Ronaldo	-0.073381126
-3.530527	penalty	-0.073381096
-3.7040284	Jour	-0.19945993
-3.7040284	J	-0.073381096
-3.8654444	minutes	-0.073381126
-3.8654444	Va-t-elle	-0.073381126
-3.7040284	sale	-0.073381126
-3.8654444	geste	-0.073381126
-3.530527	gars	-0.073381126
-3.7040284	donne	-0.15324606
-3.8654444	ballons	-0.073381126
-3.7040284	win	-0.073381126
-3.530527	genre	-0.073381096
-3.8654444	esprit	-0.073381126
-3.8654444	stade	-0.073381126
-3.1920938	été	-0.073381126
-3.7040284	solide	-0.073381126
-3.7040284	parti	-0.073381126
-3.2785025	Pour	-0.073381096
-3.7040284	Mon	-0.073381126
-3.7040284	sait	-0.073381096
-3.530527	・	-0.073381096
-3.1920938	_	-0.14089754
-3.530527	∫	-0.1318613
-3.7040284	\	-0.073381096
-3.7040284	défaite	-0.073381126
-3.1200573	victoire	-0.14182618
-3.8654444	seerais	-0.073381126
-3.8654444	bundesliga	-0.073381126
-3.7040284	LIGUE	-0.19945993
-3.8654444	DES	-0.073381126
-3.3864844	CHAMPIONS	-0.17431857
-3.8654444	ICI	-0.073381126
-2.9561415	même	-0.17194499
-3.8654444	1ere	-0.073381126
-3.2785025	fois	-0.073381096
-3.8654444	souffre	-0.073381126
-2.7731667	aussi	-0.0999236
-3.530527	peu	-0.073381126
-3.8654444	mn	-0.073381126
-3.7040284	qualifiés	-0.073381126
-3.8654444	EST	-0.073381126
-3.8654444	TERMINÉ	-0.073381126
-3.3864844	EN	-0.19945993
-3.8654444	BARCELONE-JUVENTUS	-0.073381126
-3.7040284	BERLIN	-0.073381126
-3.3864844	vrai	-0.073381126
-3.8654444	otmbe	-0.073381126
-3.8654444	coté	-0.073381126
-3.530527	mis	-0.073381096
-3.530527	voila	-0.15324606
-2.717205	s'	-0.15415251
-3.7040284	offre	-0.073381126
-3.8654444	rêve	-0.073381126
-3.058287	Morata	-0.073381126
-3.7040284	Nous	-0.15324606
-3.8654444	devons	-0.073381126
-3.8654444	histoire	-0.073381126
-3.1200573	[	-0.12333079
-3.8654444	TOPMERCATO	-0.073381126
-2.8735049	]	-0.15632764
-3.1920938	/	-0.1318613
-3.8654444	DEMI-FINALES	-0.073381126
-3.8654444	Madrid-Juventus	-0.073381096
-3.058287	Les	-0.1297555
-3.8654444	compos	-0.073381126
-3.7040284	probables	-0.073381126
-3.8654444	Retrouvez	-0.073381126
-3.8654444	compositions	-0.073381126
-3.8654444	é	-0.073381126
-3.530527	TURIN	-0.11951829
-3.8654444	tendra	-0.073381126
-3.8654444	main	-0.073381126
-3.530527	Suarez	-0.073381096
-3.8654444	Victime	-0.073381126
-3.8654444	injures	-0.073381126
-3.8654444	racistes	-0.073381126
-3.530527	part	-0.073381126
-3.8654444	CA	-0.073381126
-3.8654444	CHAUFFE	-0.073381126
-3.8654444	DANS	-0.073381126
-3.8654444	SURFACE	-0.073381126
-3.8654444	AHHH	-0.073381126
-3.8654444	JE	-0.073381126
-3.8654444	SUIS	-0.073381126
-3.7040284	BIEN	-0.073381126
-3.8654444	SALE	-0.073381126
-3.8654444	Can'	-0.073381126
-3.2785025	t	-0.11951829
-3.8654444	wait	-0.073381126
-3.8654444	second	-0.073381126
-3.8654444	leg	-0.073381126
-3.8654444	Força	-0.073381126
-3.7040284	Let'	-0.19945993
-3.3864844	s	-0.073381126
-3.7040284	this	-0.073381126
-3.8654444	boys	-0.073381126
-3.3864844	Carlo	-0.19945993
-3.1920938	J'	-0.121706866
-3.8654444	aimerai	-0.073381126
-3.7040284	remercier	-0.073381126
-3.1200573	parce	-0.43386042
-2.744285	ils	-0.2017954
-3.1200573	ont	-0.073381126
-3.8654444	travaillé	-0.073381126
-3.8654444	maximum	-0.073381126
-3.2785025	Je	-0.095837325
-3.7040284	satisfait	-0.073381126
-3.7040284	bonne	-0.073381126
-3.8654444	relation	-0.073381126
-3.8654444	soutien	-0.073381126
-3.8654444	constant	-0.073381126
-3.2785025	club	-0.073381096
-3.8654444	Carlos	-0.073381126
-3.8654444	MESSI	-0.073381126
-3.2785025	vient	-0.2223298
-3.530527	autre	-0.073381126
-3.8654444	planète	-0.073381126
-3.8654444	certes	-0.073381126
-3.8654444	prete	-0.073381126
-3.3864844	Casillas	-0.073381096
-3.8654444	Cheval	-0.073381126
-3.8654444	Troie	-0.073381126
-3.8654444	envoyé	-0.073381126
-3.8654444	décisif	-0.073381126
-3.3864844	devant	-0.073381126
-3.8654444	portier	-0.073381126
-3.7040284	madrilène	-0.073381126
-3.8654444	maintient	-0.073381126
-3.530527	vie	-0.073381126
-3.7040284	arrêt	-0.073381126
-3.530527	Marchisio	-0.1318613
-3.7040284	mauvaises	-0.073381126
-3.8654444	langues..	-0.073381126
-3.8654444	Catastrophique	-0.073381126
-3.8654444	terriblement	-0.073381126
-3.8654444	maladroit	-0.073381126
-3.7040284	sorti	-0.073381126
-3.3864844	eux	-0.073381126
-3.530527	Cavani	-0.073381096
-3.8654444	quitte	-0.073381126
-3.2785025	PSG	-0.073381096
-2.8735049	cette	-0.15699077
-3.1920938	aurait	-0.073381096
-3.530527	trouvé	-0.15324606
-3.530527	accord	-0.15324606
-3.3864844	Ce	-0.073381126
-3.7040284	supporte	-0.073381126
-3.3864844	comment	-0.073381126
-3.8654444	jalouse	-0.073381126
-3.7040284	année	-0.073381126
-3.8654444	croit	-0.073381126
-3.8654444	diffusion	-0.073381126
-3.7040284	Match	-0.073381096
-3.1920938	|	-0.16746436
-3.8654444	20h15	-0.073381126
-3.8654444	Dès	-0.073381126
-3.8654444	23h	-0.073381126
-3.530527	meilleur	-0.073381126
-3.8654444	Hip-Hop	-0.073381126
-3.3864844	demi-finale	-0.1114803
-3.1920938	entre	-0.21499513
-3.3864844	devrait	-0.073381126
-3.8654444	permettre	-0.073381126
-3.7040284	montrer	-0.073381126
-3.8654444	talent	-0.073381126
-3.530527	continue	-0.073381096
-3.8654444	série	-0.073381126
-3.8654444	Over	-0.073381126
-3.8654444	BTTS	-0.073381126
-3.8654444	Good	-0.073381126
-3.8654444	luck	-0.073381126
-3.8654444	Dixit	-0.073381126
-3.8654444	Bar	-0.073381126
-3.8654444	Dax	-0.073381126
-3.8654444	20:35	-0.073381126
-3.7040284	Football	-0.073381126
-3.8654444	Esp	-0.073381126
-3.8654444	Ita	-0.073381126
-3.8654444	Happy	-0.073381126
-3.8654444	suivi	-0.073381126
-3.8654444	apéro	-0.073381126
-3.7040284	choix	-0.073381126
-3.7040284	regarder	-0.073381126
-3.8654444	Essor3	-0.073381126
-3.3864844	alors	-0.073381096
-3.530527	grande	-0.073381096
-3.8654444	classe	-0.073381126
-3.8654444	Que	-0.073381126
-3.8654444	choisir	-0.073381126
-3.8654444	kifferai	-0.073381126
-3.7040284	tellement	-0.073381126
-3.8654444	chiudete	-0.073381126
-3.8654444	valigie	-0.073381126
-3.8654444	andiamo	-0.073381126
-3.8654444	Berlino	-0.073381126
-3.8654444	répète	-0.073381126
-3.7040284	veut	-0.073381096
-3.8654444	Classico	-0.073381126
-3.7040284	Hala	-0.073381126
-3.7040284	vois	-0.1318613
-3.7040284	qualifier	-0.073381126
-3.7040284	juve	-0.073381126
-3.8654444	affronte	-0.073381126
-3.7040284	forza	-0.073381126
-3.8654444	.hallamadrid	-0.073381126
-3.8654444	décroché	-0.073381126
-3.3864844	Real-Juventus	-0.073381126
-3.530527	20h45	-0.073381126
-3.8654444	jss	-0.073381126
-3.8654444	tele	-0.073381126
-3.3864844	derrière	-0.073381126
-2.9561415	En	-0.11583371
-3.8654444	Centre	-0.073381126
-3.7040284	Müller	-0.073381126
-3.8654444	Lahm	-0.073381126
-3.530527	dernier	-0.073381126
-3.8654444	court	-0.073381126
-3.8654444	dommage	-0.073381126
-3.7040284	Cest	-0.073381126
-3.1200573	passer	-0.073381126
-3.8654444	arrêter	-0.073381126
-3.8654444	directo	-0.073381126
-3.7040284	Chau	-0.073381126
-3.8654444	Copa	-0.073381126
-3.3864844	Del	-0.19082235
-3.8654444	Rey	-0.073381126
-3.8654444	Liga	-0.073381126
-3.8654444	Champios	-0.073381126
-3.8654444	Chicarito	-0.073381126
-3.8654444	91eme	-0.073381126
-3.8654444	prolongations	-0.073381126
-3.8654444	califes	-0.073381126
-2.9561415	;	-0.15801774
-3.8654444	Chicharito	-0.073381126
-3.8654444	remplace	-0.073381126
-3.1920938	L'	-0.073381126
-3.8654444	meilleurs	-0.073381126
-3.8654444	madrilènes	-0.073381126
-3.8654444	revient	-0.073381126
-3.8654444	blessure	-0.073381126
-2.6676383	comme	-0.10751644
-3.8654444	hab	-0.073381126
-3.8654444	lis	-0.073381126
-3.8654444	posts	-0.073381126
-3.7040284	lire	-0.073381126
-3.1920938	CR7	-0.15324606
-3.2785025	fan	-0.11951829
-3.530527	messi	-0.073381096
-3.8654444	Comment	-0.073381126
-3.7040284	exploser	-0.073381126
-3.530527	première	-0.073381096
-3.2785025	qualifiée	-0.28773236
-3.8654444	fina	-0.073381126
-3.058287	Barca	-0.073381126
-3.1920938	joue	-0.105828665
-3.1200573	déjà	-0.073381126
-3.530527	Ils	-0.1318613
-3.058287	sont	-0.092013076
-3.058287	pourquoi	-0.16034201
-3.8654444	latéral	-0.073381126
-3.8654444	Compos	-0.073381126
-3.8654444	hommes	-0.073381126
-3.8654444	Congrats	-0.073381126
-3.8654444	buat	-0.073381126
-3.7040284	fans	-0.073381126
-3.8654444	lolos	-0.073381126
-3.8654444	ke	-0.073381126
-3.8654444	UCL	-0.073381126
-3.8654444	now	-0.073381126
-3.8654444	you	-0.073381126
-3.8654444	meet	-0.073381126
-3.8654444	your	-0.073381126
-3.8654444	challenge	-0.073381126
-3.8654444	Congratulations	-0.073381126
-3.7040284	malgré	-0.073381126
-3.8654444	Score	-0.073381126
-3.8654444	5-3	-0.073381126
-3.7040284	CONTRE	-0.073381126
-3.8654444	MADRILÈNE	-0.073381126
-3.8654444	centre	-0.073381126
-3.530527	Vidal	-0.073381096
-3.8654444	revenu	-0.073381126
-3.530527	Corner	-0.15324606
-3.8654444	désigne	-0.073381126
-3.8654444	6metres	-0.073381126
-3.8654444	Lewandowski	-0.073381126
-3.3864844	prend	-0.1318613
-3.8654444	jaune	-0.073381126
-3.8654444	cosoleto	-0.073381126
-3.8654444	josé	-0.073381126
-3.530527	monaco	-0.073381096
-3.8654444	passé	-0.073381126
-3.8654444	prés	-0.073381126
-3.8654444	eliminer	-0.073381126
-3.530527	Italie	-0.073381126
-3.8654444	Juventus-Lazio	-0.073381126
-3.8654444	avancée	-0.073381126
-3.8654444	mai	-0.073381126
-3.8654444	Couronne	-0.073381126
-3.8654444	dessus	-0.073381126
-3.7040284	nos	-0.073381126
-3.8654444	têtes	-0.073381126
-3.8654444	avons	-0.073381126
-3.8654444	laissé	-0.073381126
-3.8654444	plumes	-0.073381126
-3.8654444	poulets	-0.073381126
-3.8654444	Meilleur	-0.073381126
-3.8654444	Certifié	-0.073381126
-3.8654444	égale	-0.073381126
-3.8654444	Di	-0.073381126
-3.8654444	Stefano	-0.073381126
-3.8654444	trouvant	-0.073381126
-3.8654444	faille	-0.073381126
-3.8654444	devenu	-0.073381126
-3.8654444	Croyez	-0.073381126
-3.8654444	jsais	-0.073381126
-3.2785025	quoi	-0.073381126
-3.7040284	vont	-0.073381126
-3.1920938	barca	-0.073381126
-3.7040284	nan	-0.073381126
-3.8654444	Daba	-0.073381126
-3.8654444	joueront	-0.073381126
-3.8654444	3ème	-0.073381126
-3.530527	place	-0.073381096
-3.8654444	yak	-0.073381126
-3.8654444	Daniel	-0.073381126
-3.8654444	Lévy	-0.073381126
-3.8654444	président	-0.073381126
-3.8654444	tottenham	-0.073381126
-3.8654444	vendu	-0.073381126
-3.8654444	Gareth	-0.073381126
-3.7040284	100M	-0.073381126
-3.7040284	€	-0.073381126
-3.530527	David	-0.15324606
-3.7040284	Alaba	-0.15324606
-3.8654444	effectué	-0.073381126
-3.8654444	entraînement	-0.073381126
-3.8654444	individuel	-0.073381126
-3.1200573	Il	-0.13484734
-3.8654444	Via	-0.073381126
-3.3864844	Demain	-0.073381126
-3.058287	ma	-0.073381126
-3.530527	deuxième	-0.073381096
-3.8654444	team	-0.073381126
-3.8654444	cœur	-0.073381126
-3.7040284	finir	-0.073381126
-3.8654444	coco	-0.073381126
-3.8654444	heures	-0.073381126
-3.8654444	conduite	-0.073381126
-3.8654444	révisions	-0.073381126
-3.8654444	bac	-0.073381126
-3.8654444	Juve-Real	-0.073381126
-2.744285	n'	-0.23671143
-3.8654444	jamain	-0.073381126
-3.8654444	Demi-finales	-0.073381126
-3.530527	Varane	-0.073381096
-3.530527	groupe	-0.073381096
-3.530527	Des	-0.19082235
-3.8654444	fdp	-0.073381126
-3.8654444	mettent	-0.073381126
-3.8654444	Tn	-0.073381126
-3.8654444	chipoter	-0.073381126
-3.8654444	mois	-0.073381126
-3.7040284	italiens	-0.073381126
-3.8654444	éjectent	-0.073381126
-3.8654444	métro	-0.073381126
-3.8654444	homme	-0.073381126
-3.7040284	noir	-0.073381096
-3.8654444	Devant	-0.073381126
-3.8654444	Dino	-0.073381126
-3.8654444	Zoff	-0.073381126
-3.8654444	ex-joueur	-0.073381126
-3.8654444	Johan	-0.073381126
-3.8654444	Cruyff	-0.073381126
-3.8654444	Pelé	-0.073381126
-3.8654444	Maradona	-0.073381126
-3.8654444	phénomène	-0.073381126
-3.8654444	Cope	-0.073381126
-3.530527	Dites	-0.073381096
-3.530527	défendre	-0.073381096
-3.530527	difficile	-0.073381096
-3.7040284	bordel	-0.073381126
-3.7040284	Allez	-0.19945993
-3.8654444	juveeeeeeeeeeeeeeeeee	-0.073381126
-3.7040284	classico	-0.073381126
-3.8654444	voulais	-0.073381126
-3.8654444	voire	-0.073381126
-3.530527	exploit	-0.073381096
-3.8654444	Respect	-0.073381126
-3.8654444	DONC	-0.073381126
-3.8654444	COMME	-0.073381126
-3.8654444	ÇA	-0.073381126
-3.7040284	SE	-0.073381126
-3.8654444	PERMET	-0.073381126
-3.8654444	PERDRE	-0.073381126
-3.8654444	serra	-0.073381126
-3.8654444	barça-juventus	-0.073381126
-3.530527	Du	-0.073381096
-3.7040284	évite	-0.073381126
-3.7040284	Chelsea	-0.073381126
-3.8654444	Galatasaray	-0.073381126
-3.8654444	Benfica	-0.073381126
-3.8654444	etc	-0.073381126
-3.8654444	Début	-0.073381126
-3.8654444	parfait	-0.073381126
-3.8654444	international	-0.073381126
-3.8654444	Marocain	-0.073381126
-3.8654444	plaignons	-0.073381126
-3.8654444	Dégouté	-0.073381126
-3.530527	qualifié	-0.073381126
-3.7040284	super	-0.073381126
-3.530527	E	-0.073381096
-3.8654444	S	-0.073381126
-3.8654444	P	-0.073381126
-3.8654444	T	-0.073381126
-2.9561415	A	-0.073381126
-3.8654444	U	-0.073381126
-3.8654444	L	-0.073381126
-3.8654444	R	-0.073381126
-3.7040284	Eh	-0.073381126
-3.8654444	Barcelonais	-0.073381126
-3.7040284	trophée	-0.073381126
-3.8654444	offert	-0.073381126
-3.8654444	faite	-0.073381126
-3.8654444	CADEAU	-0.073381126
-3.8654444	HALAMADRID	-0.073381126
-3.7040284	Lichsteiner	-0.19945993
-3.8654444	Bonucci	-0.073381126
-3.3864844	Chiellini	-0.073381126
-3.7040284	Pirlo	-0.19945993
-3.7040284	Tévez	-0.073381126
-3.8654444	bar	-0.073381126
-3.8654444	davant	-0.073381126
-3.8654444	està	-0.073381126
-3.8654444	petar	-0.073381126
-3.8654444	tifosi	-0.073381126
-3.8654444	celebrant	-0.073381126
-3.8654444	gol	-0.073381126
-3.8654444	Italians	-0.073381126
-3.8654444	han	-0.073381126
-3.8654444	desplaçat	-0.073381126
-3.8654444	Girona	-0.073381126
-3.530527	per	-0.073381096
-3.8654444	veure	-0.073381126
-3.7040284	partit	-0.073381126
-3.8654444	TV	-0.073381126
-3.7040284	cours	-0.073381126
-3.7040284	allemand	-0.073381126
-3.8654444	apprend	-0.073381126
-3.530527	Tu	-0.073381096
-3.8654444	deviens	-0.073381126
-3.8654444	Bavarois	-0.073381126
-3.7040284	Toi	-0.073381126
-3.8654444	Ah	-0.073381126
-3.7040284	punaise	-0.073381126
-3.8654444	fougue	-0.073381126
-3.530527	chez	-0.073381096
-3.058287	toi	-0.073381126
-3.7040284	DIRECT	-0.073381126
-3.7040284	démarre	-0.073381126
-3.3864844	fort	-0.073381126
-3.8654444	Trois	-0.073381126
-3.8654444	français	-0.073381126
-3.8654444	pelouse	-0.073381126
-2.9561415	moi	-0.089301914
-3.7040284	j	-0.073381126
-3.8654444	voisin	-0.073381126
-3.8654444	zinda	-0.073381126
-3.530527	i	-0.073381096
-3.8654444	délicatesse	-0.073381126
-3.8654444	Manchester	-0.073381126
-3.7040284	United	-0.073381096
-3.8654444	Falcao	-0.073381126
-3.2785025	pourrait	-0.073381126
-3.8654444	rebondir	-0.073381126
-3.8654444	révolutionner	-0.073381126
-3.3864844	attaque	-0.073381126
-3.8654444	an	-0.073381126
-3.8654444	prochain	-0.073381126
-3.8654444	parlant	-0.073381126
-3.7040284	mercredi	-0.073381126
-3.7040284	surprendre	-0.073381126
-3.8654444	serein	-0.073381126
-3.8654444	Fumer	-0.073381126
-3.7040284	normal	-0.073381126
-3.7040284	Tt	-0.073381126
-3.8654444	lmonde	-0.073381126
-3.8654444	rigolai	-0.073381126
-3.8654444	trahis	-0.073381126
-3.7040284	soirée	-0.073381096
-3.8654444	pourrie	-0.073381126
-2.837421	tout	-0.105828665
-3.7040284	cas	-0.073381126
-3.8654444	Cst	-0.073381126
-3.8654444	sentais	-0.073381126
-3.8654444	Enhorabona	-0.073381126
-3.8654444	accés	-0.073381126
-3.2785025	Final	-0.13656299
-3.8654444	Entraînement	-0.073381126
-3.7040284	départ	-0.073381126
-3.3864844	Allegri	-0.073381126
-3.8654444	dirige	-0.073381126
-3.3864844	titulaire	-0.073381126
-3.7040284	Eriksson	-0.073381126
-3.8654444	Suédois	-0.073381126
-3.8654444	Jonas	-0.073381126
-3.8654444	Est-ce	-0.073381126
-3.7040284	réussir	-0.073381126
-3.7040284	compliqué	-0.073381126
-3.8654444	historique	-0.073381126
-3.8654444	arriver	-0.073381126
-3.2785025	^	-0.21499513
-3.3864844	Et	-0.09840569
-3.8654444	magl	-0.073381126
-3.7040284	ben	-0.073381126
-3.7040284	voilà	-0.073381126
-3.8654444	vielle	-0.073381126
-3.8654444	dame	-0.073381126
-3.8654444	Lancé	-0.073381126
-3.8654444	X	-0.073381126
-3.530527	ceux	-0.15324606
-3.3864844	pense	-0.11951829
-3.7040284	abuse	-0.073381126
-3.8654444	connaissez	-0.073381126
-3.1920938	mal	-0.1114803
-3.8654444	malédiction	-0.073381126
-3.8654444	confirme	-0.073381126
-3.8654444	suite	-0.073381126
-3.8654444	kebab	-0.073381126
-3.8654444	EXCEPTIONNEL	-0.073381126
-3.8654444	vidéos	-0.073381126
-3.3864844	Une	-0.105828665
-3.8654444	champagne	-0.073381126
-3.8654444	Exemple	-0.073381126
-3.7040284	suivre	-0.1318613
-3.8654444	disqualification	-0.073381126
-3.8654444	assurée	-0.073381126
-3.8654444	battent	-0.073381126
-3.8654444	Allianz	-0.073381126
-3.8654444	Arena	-0.073381126
-3.8654444	chante	-0.073381126
-3.8654444	Faire	-0.073381126
-3.2785025	Karim	-0.073381096
-3.8654444	risqué	-0.073381126
-3.530527	Après	-0.073381126
-3.3864844	aura	-0.073381126
-3.8654444	crampes	-0.073381126
-3.8654444	discours	-0.073381126
-3.3864844	Paul	-0.19082235
-3.530527	foot	-0.073381096
-3.058287	'	-0.09840569
-3.8654444	Équitable	-0.073381126
-3.8654444	Sinon	-0.073381126
-3.7040284	Faut	-0.073381096
-3.8654444	vanne	-0.073381126
-3.7040284	éliminer	-0.073381126
-3.8654444	tenant	-0.073381126
-3.8654444	Fifa	-0.073381126
-3.8654444	prévu	-0.073381126
-3.8654444	Fin	-0.073381096
-3.8654444	VICTOIRE	-0.073381126
-3.7040284	SVP	-0.073381126
-3.8654444	Ma	-0.073381126
-3.7040284	Team	-0.073381126
-3.8654444	QUALIFIEZ-VS	-0.073381126
-3.7040284	Olé	-0.15324606
-3.530527	JUVE	-0.073381096
-3.7040284	cool	-0.073381126
-3.8654444	ticket	-0.073381126
-3.1920938	serait	-0.073381096
-3.8654444	top	-0.073381126
-3.3864844	FINAL	-0.1318613
-3.8654444	LEAGUE	-0.073381126
-3.8654444	F.C	-0.073381126
-3.7040284	BARCELONA	-0.1318613
-3.7040284	6/6/15	-0.19945993
-3.3864844	Barcelona	-0.11951829
-3.8654444	dodd	-0.073381126
-3.8654444	enno	-0.073381126
-3.8654444	ma3roufe	-0.073381126
-3.8654444	Barcellona	-0.073381126
-3.8654444	chauds	-0.073381126
-3.7040284	moment	-0.073381126
-3.530527	crois	-0.15324606
-3.7040284	chaud	-0.073381126
-3.8654444	FCB-JUV	-0.073381126
-3.530527	peuvent	-0.073381096
-3.530527	triplé	-0.073381096
-3.7040284	annonce	-0.073381126
-3.7040284	serré	-0.073381126
-3.8654444	/2015	-0.073381126
-3.7040284	samedi	-0.073381126
-3.8654444	juin	-0.073381126
-3.7040284	BARCELONE	-0.073381096
-3.8654444	Flash	-0.073381126
-3.8654444	Actu	-0.073381126
-3.2785025	Foot	-0.46012282
-3.8654444	retenu	-0.073381126
-3.8654444	affronter	-0.073381126
-3.8654444	type	-0.073381126
-3.7040284	maudits	-0.073381126
-3.8654444	éliminant	-0.073381126
-3.3864844	2-1	-0.073381126
-3.8654444	Gianluigi	-0.073381126
-3.2785025	RT	-0.105828665
-3.8654444	FLord_TVA	-0.073381126
-3.8654444	Journée	-0.073381126
-3.7040284	1/2	-0.073381126
-3.8654444	finales	-0.073381126
-3.8654444	TVASports	-0.073381126
-3.7040284	14h30	-0.19945993
-3.7040284	c.	-0.073381126
-3.8654444	19h30	-0.073381126
-3.8654444	Toronto	-0.073381126
-3.8654444	serez	-0.073381126
-3.8654444	Borussia	-0.073381126
-3.7040284	Dortmund	-0.073381126
-3.8654444	argent	-0.073381126
-3.3864844	beau	-0.073381126
-3.8654444	hargne	-0.073381126
-3.530527	UEFA	-0.073381096
-3.8654444	a.k.a	-0.073381126
-3.8654444	Bites	-0.073381126
-3.8654444	Back	-0.073381126
-3.8654444	Assia	-0.073381126
-3.3864844	prendre	-0.11951829
-3.8654444	7-0	-0.073381126
-3.8654444	Avis	-0.073381126
-3.8654444	recherche	-0.073381126
-3.8654444	disparu	-0.073381126
-3.2785025	depuis	-0.073381126
-3.2785025	RealMadrid	-0.073381126
-3.8654444	Prévenez	-0.073381126
-3.8654444	cest	-0.073381126
-3.8654444	qd	-0.073381126
-3.8654444	entends	-0.073381126
-3.8654444	huitième	-0.073381126
-3.530527	revoir	-0.073381096
-3.8654444	casse-croûte	-0.073381126
-3.8654444	restent	-0.073381126
-3.8654444	seules	-0.073381126
-3.7040284	réaliser	-0.19945993
-3.8654444	Triplé	-0.073381126
-3.8654444	éspère	-0.073381126
-3.7040284	enculé	-0.073381126
-3.8654444	profond	-0.073381126
-3.8654444	finaaaaal	-0.073381126
-3.1920938	allez	-0.073381126
-3.7040284	inédite	-0.073381126
-3.530527	forte	-0.073381096
-3.530527	football	-0.1318613
-3.7040284	connais	-0.073381126
-3.8654444	géographie	-0.073381126
-3.8654444	madame	-0.073381126
-3.7040284	savais	-0.073381126
-3.8654444	allé	-0.073381126
-3.7040284	facile	-0.073381126
-3.7040284	outsider	-0.073381126
-3.7040284	as	-0.073381096
-3.8654444	perdre	-0.073381126
-3.8654444	donnes	-0.073381126
-3.8654444	finaliste	-0.073381126
-3.7040284	terminé	-0.073381126
-3.1200573	ca	-0.073381126
-3.8654444	etre	-0.073381126
-3.3864844	dur	-0.19082235
-3.8654444	phénomènes	-0.073381126
-3.8654444	rapport	-0.073381126
-3.3864844	notre	-0.073381126
-3.8654444	Nancy-Angers	-0.073381126
-3.8654444	vendredi	-0.073381126
-3.8654444	Mdrr	-0.073381126
-3.8654444	ex-miss	-0.073381126
-3.8654444	brésilienne	-0.073381126
-3.8654444	semble	-0.073381126
-3.7040284	Coup	-0.19945993
-3.8654444	envoi	-0.073381096
-3.8654444	BeIN	-0.073381126
-3.7040284	tirs	-0.073381126
-3.7040284	seul	-0.073381126
-3.7040284	cadré	-0.073381126
-3.8654444	PENALTY	-0.073381126
-3.7040284	Dans	-0.073381126
-3.8654444	grec	-0.073381126
-3.8654444	hein..	-0.073381126
-3.8654444	Dire	-0.073381126
-3.8654444	dernière	-0.073381126
-3.530527	demi	-0.073381126
-3.8654444	reviennent	-0.073381126
-3.7040284	loin	-0.073381126
-3.7040284	petite	-0.073381126
-3.8654444	Donnez	-0.073381126
-3.8654444	disaient	-0.073381126
-3.8654444	pleurs	-0.073381126
-3.8654444	mdrr	-0.073381126
-3.8654444	Dégoûter	-0.073381126
-3.530527	atteint	-0.15324606
-3.8654444	Edinson	-0.073381126
-3.8654444	vas-y	-0.073381126
-3.7040284	début	-0.073381126
-3.8654444	disait	-0.073381126
-3.8654444	celui	-0.073381126
-3.8654444	prenait	-0.073381126
-3.8654444	celle	-0.073381126
-3.8654444	bz	-0.073381126
-3.8654444	partout	-0.073381126
-3.7040284	ok	-0.073381126
-3.8654444	Championsssss	-0.073381126
-3.8654444	serais	-0.073381126
-3.8654444	soutenir	-0.073381126
-3.8654444	enfaite	-0.073381126
-3.1920938	juste	-0.073381096
-3.7040284	viré	-0.073381126
-3.3864844	Reus	-0.073381126
-3.7040284	Aguero	-0.073381126
-3.8654444	Hazard	-0.073381126
-3.7040284	svp	-0.073381096
-3.8654444	dégager	-0.073381126
-3.8654444	Enft	-0.073381126
-3.8654444	préfère	-0.073381126
-3.8654444	real-barca	-0.073381126
-3.8654444	Sera	-0.073381126
-3.8654444	Vainqueur	-0.073381126
-3.8654444	Vos	-0.073381126
-3.8654444	impressions	-0.073381126
-3.8654444	Florentino	-0.073381126
-3.8654444	Perez	-0.073381126
-3.7040284	fout	-0.073381126
-3.7040284	Qu'	-0.073381126
-3.8654444	achète	-0.073381126
-3.8654444	Gea	-0.073381096
-3.2785025	&	-0.073381126
-3.8654444	Verrati	-0.073381126
-3.8654444	Demie	-0.073381126
-3.7040284	détrône	-0.19945993
-3.8654444	combien	-0.073381126
-3.8654444	Imaginez	-0.073381126
-3.8654444	Dnipropetrovsk	-0.073381126
-3.8654444	europa	-0.073381126
-3.8654444	revendre	-0.073381126
-3.8654444	places	-0.073381126
-3.8654444	trisomie	-0.073381126
-3.8654444	failli	-0.073381126
-3.8654444	GAV	-0.073381126
-3.530527	rater	-0.073381096
-3.8654444	hâté	-0.073381126
-3.7040284	connaître	-0.073381096
-3.7040284	cote	-0.19945993
-3.8654444	rêvé	-0.073381126
-3.8654444	faisait	-0.073381126
-3.1200573	blanche	-0.1318613
-3.8654444	Heureusement	-0.073381126
-3.8654444	flippé	-0.073381126
-3.7040284	ouf	-0.073381126
-3.8654444	fière	-0.073381126
-3.8654444	malgés	-0.073381126
-3.8654444	defaite	-0.073381126
-3.8654444	aimerais	-0.073381126
-3.058287	elle	-0.19553152
-3.8654444	représenter	-0.073381126
-3.8654444	italienne	-0.073381126
-3.7040284	envie	-0.073381126
-3.8654444	tacler	-0.073381126
-3.8654444	arabien	-0.073381126
-3.8654444	psahtek	-0.073381126
-3.8654444	cheh	-0.073381126
-3.8654444	D	-0.073381126
-3.8654444	Goliath	-0.073381126
-3.8654444	Lichtsteiner	-0.073381126
-3.3864844	sommes	-0.1114803
-3.8654444	prêts	-0.073381126
-3.8654444	Zebina	-0.073381126
-3.8654444	optimiste	-0.073381126
-3.8654444	GOAL	-0.073381126
-3.8654444	tacle	-0.073381126
-3.8654444	Ferguson	-0.073381126
-3.8654444	sujet	-0.073381126
-3.8654444	acté	-0.073381126
-3.7040284	jeudi	-0.073381126
-3.7040284	prêt	-0.073381126
-3.8654444	italien	-0.073381126
-3.8654444	Coman	-0.073381126
-3.8654444	photo	-0.073381126
-3.8654444	doigts	-0.073381126
-3.8654444	embrasser	-0.073381126
-3.7040284	font	-0.073381126
-3.7040284	dirais	-0.073381126
-3.8654444	quelque	-0.073381126
-3.8654444	vdm	-0.073381126
-3.8654444	arrive	-0.073381126
-3.8654444	remporter	-0.073381126
-3.8654444	aurai	-0.073381126
-3.7040284	haine	-0.073381126
-3.8654444	sure	-0.073381126
-3.8654444	desteste	-0.073381126
-3.8654444	malgres	-0.073381126
-3.8654444	niker	-0.073381126
-3.8654444	2e	-0.073381126
-3.530527	mi-temps	-0.073381096
-3.8654444	va-t-elle	-0.073381126
-3.8654444	égaliser	-0.073381126
-3.8654444	couverture	-0.073381126
-3.7040284	jeu	-0.073381096
-3.7040284	FIFA	-0.073381126
-3.8654444	prédit	-0.073381126
-3.7040284	défense	-0.073381126
-3.8654444	village	-0.073381126
-3.8654444	of	-0.073381126
-3.8654444	clans	-0.073381126
-3.7040284	cet	-0.073381126
-3.8654444	recrutant	-0.073381126
-3.8654444	possibilité	-0.073381126
-3.7040284	Lazio	-0.073381126
-3.7040284	OM	-0.073381126
-3.8654444	conclus	-0.073381126
-3.8654444	affrontera	-0.073381126
-3.3864844	meilleure	-0.11951829
-3.8654444	d	-0.073381126
-3.8654444	niquez	-0.073381126
-3.7040284	vos	-0.073381126
-3.8654444	mères	-0.073381126
-3.8654444	grosses	-0.073381126
-3.8654444	putes	-0.073381126
-3.8654444	Unibet	-0.073381126
-3.530527	MSN	-0.073381096
-3.8654444	entrain	-0.073381126
-3.8654444	branler	-0.073381126
-3.8654444	supercoupe	-0.073381126
-3.8654444	Juventus-Dniprodkkdkfkjdjsks	-0.073381126
-3.8654444	comprendre	-0.073381126
-3.530527	touche	-0.1318613
-3.7040284	totalement	-0.073381126
-3.8654444	ratée	-0.073381126
-3.8654444	moquée	-0.073381126
-3.8654444	Twitter	-0.073381126
-3.8654444	stats	-0.073381126
-3.8654444	Madrilènes	-0.073381126
-3.8654444	ragent	-0.073381126
-3.8654444	pourtant	-0.073381126
-3.8654444	calculer	-0.073381126
-3.8654444	titulaires	-0.073381126
-3.3864844	nul	-0.073381126
-3.8654444	Lista	-0.073381126
-3.8654444	2014-2015	-0.073381126
-3.7040284	rigoler	-0.073381126
-3.8654444	Maintenant	-0.073381126
-3.7040284	cru	-0.19945993
-3.8654444	demis	-0.073381126
-3.7040284	clair	-0.073381126
-3.8654444	aiment	-0.073381126
-3.8654444	rigole	-0.073381126
-3.8654444	ambiance	-0.073381126
-3.8654444	falloir	-0.073381126
-3.8654444	réveiller	-0.073381126
-3.8654444	daronnes	-0.073381126
-3.8654444	Mdrrr	-0.073381126
-3.7040284	veux	-0.073381096
-3.8654444	Mdrrrriiiir	-0.073381126
-3.8654444	annee	-0.073381126
-3.8654444	FORZA	-0.073381126
-3.7040284	Mercato	-0.073381126
-3.8654444	signer	-0.073381126
-3.7040284	Moi	-0.19945993
-3.8654444	Médias	-0.073381126
-3.8654444	EDS	-0.073381126
-3.8654444	est-ce	-0.073381126
-3.530527	vraiment	-0.073381096
-3.8654444	sous	-0.073381126
-3.3864844	maillot	-0.073381096
-3.530527	grand	-0.073381096
-3.8654444	déroute	-0.073381126
-3.8654444	VIDEOS	-0.073381126
-3.7040284	The	-0.073381126
-3.8654444	goals	-0.073381126
-3.8654444	from	-0.073381126
-3.8654444	Barça'	-0.073381126
-3.8654444	four	-0.073381126
-3.8654444	victories	-0.073381126
-3.8654444	passes	-0.073381126
-3.8654444	décisives	-0.073381126
-3.8654444	live	-0.073381126
-3.8654444	Penalty	-0.073381126
-3.8654444	accordé	-0.073381126
-3.7040284	faute	-0.073381126
-3.7040284	James	-0.073381126
-3.8654444	Rodriguez	-0.073381126
-3.8654444	22e	-0.073381126
-3.8654444	revu	-0.073381126
-3.8654444	corrigé	-0.073381126
-3.8654444	internautes	-0.073381126
-3.8654444	seny	-0.073381126
-3.8654444	moooolt	-0.073381126
-3.8654444	Son-hi	-0.073381126
-3.8654444	remportera	-0.073381126
-3.8654444	71%	-0.073381126
-3.8654444	29%	-0.073381126
-3.8654444	accède	-0.073381126
-3.3864844	champion	-0.073381126
-3.7040284	tour	-0.073381126
-3.8654444	renvois	-0.073381126
-3.8654444	aimerait	-0.073381126
-3.3864844	rester	-0.073381126
-3.8654444	poste	-0.073381126
-3.8654444	Belle	-0.073381126
-3.8654444	cadrée	-0.073381126
-3.8654444	captée	-0.073381126
-3.8654444	Avec	-0.073381126
-3.8654444	Once	-0.073381126
-3.8654444	Petit	-0.073381126
-3.8654444	rappel	-0.073381126
-3.8654444	JAMAIS	-0.073381126
-3.8654444	éliminée	-0.073381126
-3.530527	avoir	-0.073381096
-3.8654444	domicile	-0.073381126
-3.8654444	Rien	-0.073381126
-3.3864844	reste	-0.073381126
-3.8654444	supporteur	-0.073381126
-3.8654444	VIENE	-0.073381126
-3.8654444	barcelone	-0.073381126
-3.8654444	Juv	-0.073381096
-3.8654444	petit	-0.073381126
-3.7040284	gueule	-0.073381126
-3.8654444	AIME	-0.073381126
-3.8654444	VIVA	-0.073381126
-3.8654444	PUTA	-0.073381126
-3.8654444	juv	-0.073381126
-3.8654444	l	-0.073381126
-3.8654444	exploi	-0.073381126
-3.8654444	Réveillez	-0.073381126
-3.530527	vais	-0.073381126
-3.8654444	betise	-0.073381126
-3.7040284	chauffe	-0.073381126
-3.8654444	heun	-0.073381126
-3.530527	mdrrr	-0.073381096
-3.8654444	Wesh	-0.073381126
-3.8654444	Serre	-0.073381126
-3.8654444	Cui	-0.073381126
-3.8654444	bus	-0.073381126
-3.8654444	Turinois	-0.073381126
-3.8654444	pris	-0.073381126
-3.7040284	Saccomano	-0.19945993
-3.8654444	Point	-0.073381126
-3.8654444	Lire	-0.073381126
-3.8654444	article	-0.073381126
-3.8654444	Sacré	-0.073381126
-3.8654444	visionnaire	-0.073381126
-3.530527	via	-0.23827411
-3.8654444	changer	-0.073381126
-3.8654444	bcp	-0.073381126
-3.8654444	commencé	-0.073381126
-3.8654444	recrutement	-0.073381126
-3.8654444	Saison	-0.073381126
-3.8654444	maison	-0.073381126
-3.8654444	Blanche	-0.073381126
-3.7040284	Triste	-0.073381126
-3.8654444	rafler	-0.073381126
-3.530527	défenseur	-0.073381096
-3.8654444	central	-0.073381126
-3.7040284	coûte	-0.073381126
-3.8654444	cher	-0.073381126
-3.8654444	Samy	-0.073381126
-3.8654444	annim	-0.073381126
-3.8654444	paj	-0.073381126
-3.8654444	5e	-0.073381126
-3.8654444	hella	-0.073381126
-3.8654444	Scarlet	-0.073381126
-3.8654444	blue	-0.073381126
-3.8654444	my	-0.073381126
-3.8654444	favorite	-0.073381126
-3.8654444	colors	-0.073381126
-3.530527	Selon	-0.073381096
-3.8654444	Lequipe	-0.073381126
-3.8654444	viseur	-0.073381126
-3.8654444	ASM	-0.073381126
-3.8654444	Millions	-0.073381126
-3.1920938	milieu	-0.105828665
-3.7040284	Sergio	-0.073381126
-3.8654444	Souhaitez-vous	-0.073381126
-3.7040284	Cela	-0.073381126
-3.7040284	dépend	-0.073381126
-3.7040284	SERIE	-0.19945993
-3.8654444	détails	-0.073381126
-3.8654444	TMW	-0.073381126
-3.8654444	parv	-0.073381126
-3.8654444	surveille	-0.073381126
-3.8654444	Nabil	-0.073381126
-3.7040284	Fekir	-0.073381126
-3.8654444	Qualifiée	-0.073381126
-3.8654444	ldc	-0.073381126
-3.7040284	v	-0.073381126
-3.8654444	passent	-0.073381126
-3.8654444	paye	-0.073381126
-3.8654444	King	-0.073381126
-3.8654444	Chicken	-0.073381126
-3.7040284	KFC	-0.073381126
-3.8654444	qualifie	-0.073381096
-3.8654444	intelligence	-0.073381126
-3.8654444	hype	-0.073381126
-3.8654444	certains	-0.073381126
-3.3864844	clubs	-0.073381126
-3.7040284	commencer	-0.19945993
-3.8654444	Madrid.#RMAJUV	-0.073381126
-3.8654444	pète	-0.073381126
-3.8654444	plomb	-0.073381126
-3.8654444	ALLEZ	-0.073381126
-3.8654444	reussi	-0.073381126
-3.7040284	titre	-0.073381126
-3.8654444	dma	-0.073381126
-3.7040284	mere	-0.073381126
-3.530527	question	-0.073381126
-3.7040284	critiquer	-0.073381126
-3.8654444	voyez	-0.073381126
-3.8654444	normand	-0.073381126
-3.8654444	couleur	-0.073381126
-3.8654444	champs	-0.073381126
-3.8654444	tranquille	-0.073381126
-3.8654444	teambarca	-0.073381126
-3.8654444	SIIIIII	-0.073381126
-3.8654444	CAP	-0.073381126
-3.8654444	SOMI	-0.073381126
-3.8654444	NOIS	-0.073381126
-3.8654444	FINS	-0.073381126
-3.8654444	AL	-0.073381126
-3.8654444	Sky	-0.073381126
-3.530527	Sport	-0.073381096
-3.7040284	contrat	-0.19945993
-3.8654444	seraient	-0.073381126
-3.7040284	SPORTS	-0.073381126
-3.8654444	Monsieur	-0.073381126
-3.8654444	cinq	-0.073381126
-3.8654444	spécialiste	-0.073381126
-3.7040284	Patrice	-0.19945993
-3.7040284	Sports	-0.073381126
-3.7040284	by	-0.073381126
-3.8654444	InfoZ.re	-0.073381126
-3.8654444	Stress	-0.073381126
-3.7040284	stress	-0.073381126
-3.8654444	bro	-0.073381126
-3.8654444	and	-0.073381126
-3.8654444	Suarez-Chellini-Evra	-0.073381126
-3.8654444	chauffer	-0.073381126
-3.7040284	occasion	-0.073381126
-3.7040284	Luis	-0.073381096
-3.8654444	Suarez-Chiellini-Evra	-0.073381126
-3.8654444	Suis	-0.073381126
-3.8654444	parier	-0.073381126
-3.8654444	somme	-0.073381126
-3.8654444	colossale	-0.073381126
-3.8654444	Suivez	-0.073381126
-3.7040284	direct	-0.073381126
-3.8654444	commenté	-0.073381126
-3.8654444	Suivez-moi	-0.073381126
-3.7040284	rencontre	-0.19945993
-3.8654444	alentours	-0.073381126
-3.8654444	20:45	-0.073381126
-3.8654444	Aller	-0.073381126
-3.8654444	Super	-0.073381126
-3.1920938	passe	-0.073381096
-3.530527	tape	-0.073381096
-3.8654444	atletico	-0.073381126
-3.8654444	Tous	-0.073381126
-3.7040284	Sur	-0.073381126
-3.8654444	coran	-0.073381126
-3.8654444	Svp	-0.073381126
-3.8654444	respecter	-0.073381126
-3.8654444	massacrer	-0.073381126
-3.8654444	forme	-0.073381126
-3.530527	T'	-0.073381096
-3.8654444	côté	-0.073381126
-3.8654444	regrets	-0.073381126
-3.8654444	ouej	-0.073381126
-3.8654444	is	-0.073381126
-3.8654444	back	-0.073381126
-3.8654444	Meme	-0.073381126
-3.8654444	Leur	-0.073381126
-3.8654444	public	-0.073381126
-3.8654444	énerve	-0.073381126
-3.8654444	Ter	-0.073381126
-3.8654444	Stegen	-0.073381126
-3.7040284	gardien	-0.073381126
-3.7040284	signe	-0.073381126
-3.8654444	nouvel	-0.073381126
-3.3864844	puis	-0.073381126
-3.8654444	jette	-0.073381126
-3.8654444	repousser	-0.073381126
-3.7040284	ballon	-0.073381126
-3.8654444	filait	-0.073381126
-3.8654444	peut-il	-0.073381126
-3.8654444	surpasser	-0.073381126
-3.8654444	assurer	-0.073381126
-3.8654444	sommet	-0.073381126
-3.8654444	dufootball	-0.073381126
-3.8654444	europeen	-0.073381126
-3.8654444	Recevez	-0.073381126
-3.8654444	toutes	-0.073381126
-3.8654444	infos	-0.073381126
-3.8654444	e	-0.073381126
-3.8654444	old	-0.073381126
-3.8654444	lady	-0.073381126
-3.8654444	song	-0.073381126
-3.8654444	Alé	-0.073381126
-3.8654444	Ale	-0.073381126
-3.8654444	FanChants	-0.073381126
-3.8654444	Chants	-0.073381126
-3.8654444	Tiens	-0.073381126
-3.8654444	parlé	-0.073381126
-3.7040284	lors	-0.073381126
-3.8654444	tirages	-0.073381126
-3.8654444	taxi	-0.073381126
-3.3864844	rentrer	-0.073381126
-3.8654444	TIM	-0.073381126
-3.8654444	Cup	-0.073381126
-3.8654444	Time	-0.073381126
-3.8654444	catch	-0.073381126
-3.8654444	wreck	-0.073381126
-3.8654444	Don'	-0.073381126
-3.8654444	stand	-0.073381126
-3.8654444	Tonton	-0.073381126
-3.8654444	Pat	-0.073381126
-3.8654444	douté	-0.073381126
-3.8654444	Félicitations	-0.073381126
-3.8654444	Top	-0.073381126
-3.7040284	tweets	-0.073381126
-3.7040284	propos	-0.073381126
-3.8654444	Enrique	-0.073381126
-3.8654444	/w	-0.073381126
-3.8654444	Tout	-0.073381126
-3.8654444	changent	-0.073381126
-3.530527	Transfert	-0.073381126
-3.7040284	oui	-0.073381126
-3.7040284	selon	-0.073381126
-3.8654444	Gazetta	-0.073381126
-3.8654444	Dello	-0.073381126
-3.8654444	trendinaliaPL	-0.073381126
-3.8654444	More	-0.073381126
-3.8654444	trends	-0.073381126
-3.8654444	at	-0.073381126
-3.530527	dis	-0.15324606
-3.8654444	psg	-0.073381126
-3.7040284	ridicule	-0.073381126
-3.8654444	coach	-0.073381126
-3.8654444	Rafa	-0.073381126
-3.8654444	Benitez	-0.073381126
-3.8654444	occuper	-0.073381126
-3.8654444	parfaitement	-0.073381126
-3.8654444	UN	-0.073381126
-3.8654444	COUP	-0.073381126
-3.8654444	Ca	-0.073381126
-3.8654444	poulet	-0.073381126
-3.8654444	débordé	-0.073381126
-3.8654444	seau	-0.073381126
-3.8654444	explosif	-0.073381126
-3.8654444	trouver	-0.073381126
-3.8654444	solution	-0.073381126
-3.8654444	créatif	-0.073381126
-3.8654444	brillamment	-0.073381126
-3.8654444	énième	-0.073381126
-3.8654444	Barça-real	-0.073381126
-3.8654444	bilan	-0.073381126
-3.8654444	BAYERN	-0.073381126
-3.530527	Ça	-0.105828665
-3.8654444	précise	-0.073381126
-3.8654444	ptite	-0.073381126
-3.8654444	trèèès	-0.073381126
-3.530527	personne	-0.15324606
-3.8654444	allait	-0.073381126
-3.8654444	CHAPEAU	-0.073381126
-3.7040284	Vamos	-0.073381126
-3.7040284	chau	-0.15324606
-3.8654444	Vas	-0.073381126
-3.7040284	met	-0.073381126
-3.8654444	numéro	-0.073381126
-3.7040284	Victoire	-0.073381096
-3.8654444	amplement	-0.073381126
-3.8654444	Juventus..	-0.073381126
-3.530527	5ème	-0.073381096
-3.8654444	or	-0.073381126
-3.8654444	mémorisez	-0.073381126
-3.7040284	tweet	-0.073381126
-3.7040284	VIDEO	-0.073381096
-3.8654444	tifo	-0.073381126
-3.8654444	degrés	-0.073381126
-3.8654444	avenir	-0.073381126
-3.8654444	décidé	-0.073381126
-3.8654444	20minutes.fr	-0.073381126
-3.8654444	troller	-0.073381126
-3.8654444	ramasseur	-0.073381126
-3.8654444	VIDÉO	-0.073381126
-3.7040284	opposera	-0.073381126
-3.8654444	Égalisation	-0.073381126
-3.8654444	But	-0.073381126
-3.8654444	Goal	-0.073381126
-3.7040284	VIDÉOS	-0.19945993
-3.8654444	résumé	-0.073381126
-3.7040284	FOOTBALL	-0.073381126
-3.8654444	VIOLEZ	-0.073381126
-3.8654444	NIQUEZ	-0.073381126
-3.8654444	TUEZ	-0.073381126
-3.8654444	Voila	-0.073381126
-3.8654444	faux	-0.073381126
-3.8654444	pénalty	-0.073381126
-3.8654444	roue	-0.073381126
-3.7040284	tourne	-0.073381126
-3.530527	Voilà	-0.073381096
-3.8654444	Voir	-0.073381126
-3.8654444	Brivistes	-0.073381126
-3.8654444	enfin	-0.073381126
-3.8654444	zébré	-0.073381126
-3.7040284	Vous	-0.1318613
-3.8654444	pensent	-0.073381126
-3.7040284	Ibrahimovic	-0.073381126
-3.8654444	Mutu	-0.073381126
-3.8654444	Nedved	-0.073381126
-3.8654444	Piero	-0.073381126
-3.8654444	jouent	-0.073381126
-3.8654444	parlent	-0.073381126
-3.8654444	voyer	-0.073381126
-3.8654444	RDM	-0.073381126
-3.8654444	Vu	-0.073381126
-3.8654444	jaime	-0.073381126
-3.8654444	jaurai	-0.073381126
-3.8654444	preferé	-0.073381126
-3.8654444	flow	-0.073381126
-3.3864844	franchement	-0.073381126
-3.8654444	Willem	-0.073381126
-3.8654444	Hesselink	-0.073381126
-3.7040284	entraîneur	-0.073381126
-3.8654444	FCBayern	-0.073381126
-3.8654444	Xavi	-0.073381126
-3.8654444	Mathieu	-0.073381126
-3.8654444	Rafinha	-0.073381126
-3.8654444	échauffement	-0.073381126
-3.8654444	bereikt	-0.073381126
-3.8654444	magische	-0.073381126
-3.8654444	grens	-0.073381126
-3.8654444	van	-0.073381126
-3.8654444	duels	-0.073381126
-3.004218	in	-0.14977403
-3.8654444	Y	-0.073381126
-3.8654444	Alexis	-0.073381126
-3.8654444	Florence	-0.073381126
-3.8654444	Sienne	-0.073381126
-3.8654444	Y'	-0.073381126
-3.8654444	viole	-0.073381126
-3.7040284	Ya	-0.073381096
-3.7040284	gens	-0.073381126
-3.8654444	savaient	-0.073381126
-3.8654444	appelait	-0.073381126
-3.7040284	supporter	-0.073381126
-3.8654444	ahhh	-0.073381126
-3.8654444	Juventussois	-0.073381126
-3.8654444	Euhh	-0.073381126
-3.8654444	ville	-0.073381126
-3.7040284	Yes	-0.19945993
-3.8654444	🇮🇹🇮🇹🇮🇹	-0.073381126
-3.7040284	Qui	-0.073381126
-3.8654444	Football.fr	-0.073381126
-3.8654444	jubile	-0.073381126
-3.8654444	supporteurs	-0.073381126
-3.8654444	crée	-0.073381126
-3.7040284	Clasico	-0.073381126
-3.8654444	attendu	-0.073381126
-3.8654444	finalement	-0.073381126
-3.7040284	lieu	-0.073381126
-3.8654444	LIVE	-0.073381126
-3.8654444	exclusivité	-0.073381126
-3.8654444	beIN	-0.073381126
-3.8654444	compo	-0.073381126
-3.8654444	MaxiFoot	-0.073381126
-3.8654444	Maladroit	-0.073381126
-3.8654444	finition	-0.073381126
-3.8654444	m	-0.073381126
-3.8654444	POINT	-0.073381126
-3.8654444	BLESSURE	-0.073381126
-3.8654444	Arjen	-0.073381126
-3.7040284	Robben	-0.073381126
-3.8654444	Holger	-0.073381126
-3.7040284	Badstuber	-0.19945993
-3.8654444	Franck	-0.073381126
-3.8654444	Ribéry	-0.073381126
-3.8654444	absents	-0.073381126
-3.8654444	are	-0.073381126
-3.7040284	FR	-0.19945993
-3.8654444	Fr	-0.073381126
-3.8654444	Choc	-0.073381126
-3.8654444	Footballogue	-0.073381126
-3.8654444	agent	-0.073381126
-3.8654444	reparti	-0.073381126
-3.7040284	rejoindre	-0.073381126
-3.8654444	Réponse	-0.073381126
-3.8654444	45min	-0.073381126
-3.8654444	gênante	-0.073381126
-3.7040284	pendant	-0.073381126
-3.7040284	notes	-0.073381126
-3.8654444	attribuées	-0.073381126
-3.8654444	rédaction	-0.073381126
-3.8654444	MadeInFOOT	-0.073381126
-3.8654444	-@juventusfcen	-0.073381126
-3.8654444	arbitres	-0.073381126
-3.8654444	affectueux	-0.073381126
-3.8654444	leo	-0.073381126
-3.7040284	grâce	-0.19945993
-3.8654444	dirigeants	-0.073381126
-3.8654444	vivo	-0.073381126
-3.8654444	online	-0.073381126
-3.8654444	Directo	-0.073381126
-3.7040284	"	-0.073381126
-3.8654444	jouerons	-0.073381126
-3.8654444	68%	-0.073381126
-3.8654444	misent	-0.073381126
-3.8654444	massue	-0.073381126
-3.8654444	Alvaro	-0.073381126
-3.7040284	buteur	-0.073381126
-3.8654444	formation	-0.073381126
-3.7040284	vue	-0.073381126
-3.8654444	18h	-0.073381126
-3.8654444	médias	-0.073381126
-3.8654444	spéculent	-0.073381126
-3.8654444	Madrid/Juventus	-0.073381126
-3.8654444	Sans	-0.073381126
-3.8654444	caractère	-0.073381126
-3.8654444	imagination	-0.073381126
-3.8654444	ni	-0.073381126
-3.8654444	équilibre	-0.073381126
-3.8654444	méritait	-0.073381126
-3.8654444	Au	-0.073381126
-3.8654444	merveilleux	-0.073381126
-3.8654444	S'	-0.073381126
-3.8654444	demandait	-0.073381126
-3.8654444	essaieraient	-0.073381126
-3.8654444	offrir	-0.073381126
-3.8654444	°	-0.073381126
-3.8654444	réclame	-0.073381126
-3.8654444	morts	-0.073381126
-3.8654444	Info	-0.073381126
-3.8654444	chaque	-0.073381126
-3.7040284	blesse	-0.073381126
-3.8654444	rage	-0.073381126
-3.8654444	mot	-0.073381126
-3.8654444	écrire	-0.073381126
-3.8654444	colère	-0.073381126
-3.8654444	honte	-0.073381126
-3.8654444	acheté	-0.073381126
-3.8654444	OLIVER	-0.073381126
-3.8654444	KAHN	-0.073381126
-3.7040284	seule	-0.073381126
-3.7040284	erreur	-0.073381126
-3.8654444	sept	-0.073381126
-3.8654444	matches	-0.073381126
-3.8654444	sanctionnée	-0.073381126
-3.8654444	dix	-0.073381126
-3.8654444	amer	-0.073381126
-3.7040284	BENATIA	-0.073381126
-3.8654444	LUI	-0.073381126
-3.8654444	AFP	-0.073381126
-3.8654444	ah	-0.073381126
-3.8654444	préférerai	-0.073381126
-3.8654444	pzrceque	-0.073381126
-3.8654444	tactique	-0.073381126
-3.8654444	malin	-0.073381126
-3.8654444	singe	-0.073381126
-3.8654444	ahaha	-0.073381126
-3.8654444	compenser	-0.073381126
-3.7040284	blessures	-0.073381126
-3.8654444	bons	-0.073381126
-3.3864844	excellent	-0.073381126
-3.8654444	Aujourd'	-0.073381126
-3.7040284	hui	-0.073381126
-3.8654444	sauvé	-0.073381126
-3.8654444	champina	-0.073381126
-3.8654444	Serie	-0.073381126
-3.8654444	ever	-0.073381126
-3.8654444	jparlais	-0.073381126
-3.8654444	réaction	-0.073381126
-3.8654444	élimination	-0.073381126
-3.8654444	attention	-0.073381126
-3.8654444	delbosque	-0.073381126
-3.8654444	bonjour	-0.073381126
-3.8654444	klopp	-0.073381126
-3.8654444	porter	-0.073381126
-3.8654444	Hummels	-0.073381126
-3.8654444	remplacer	-0.073381126
-3.8654444	pépé	-0.073381126
-3.8654444	rénové	-0.073381126
-3.530527	merci	-0.073381096
-3.8654444	monté	-0.073381126
-3.8654444	puissance	-0.073381126
-3.8654444	long	-0.073381126
-3.530527	beaucoup	-0.15324606
-3.8654444	aujourd'	-0.073381126
-3.8654444	célébrer	-0.073381126
-3.7040284	attend	-0.073381126
-3.8654444	subir	-0.073381126
-3.8654444	enterre	-0.073381126
-3.8654444	MU	-0.073381126
-3.7040284	calme	-0.073381126
-3.8654444	défenses	-0.073381126
-3.7040284	Dnipro	-0.073381126
-3.8654444	dégoûtent	-0.073381126
-3.8654444	-P	-0.073381126
-3.8654444	réalise	-0.073381126
-3.8654444	HOLD-UP	-0.073381126
-3.8654444	cadrant	-0.073381126
-3.8654444	concrétisant	-0.073381126
-3.8654444	Ces	-0.073381126
-3.8654444	blessés	-0.073381126
-3.530527	Non	-0.15324606
-3.8654444	Robbery	-0.073381126
-3.7040284	auraient	-0.073381126
-3.8654444	différents	-0.073381126
-3.8654444	clopi	-0.073381126
-3.8654444	berlin	-0.073381126
-3.8654444	turin	-0.073381126
-3.2785025	Ramos	-0.073381096
-3.7040284	Comme	-0.073381126
-3.8654444	bruyne	-0.073381126
-3.8654444	griezi	-0.073381126
-3.8654444	fondamentaux	-0.073381126
-3.8654444	voulu	-0.073381126
-3.8654444	mardi	-0.073381126
-3.8654444	Spécial	-0.073381126
-3.8654444	retrouve	-0.073381126
-3.7040284	nombreux	-0.073381126
-3.8654444	changements	-0.073381126
-3.8654444	imposent	-0.073381126
-3.8654444	pur	-0.073381126
-3.8654444	défensif	-0.073381126
-3.8654444	aillier	-0.073381126
-3.8654444	cite	-0.073381126
-3.8654444	DI-MARIA	-0.073381126
-3.8654444	pardon	-0.073381126
-3.8654444	bale	-0.073381126
-3.8654444	casillas	-0.073381126
-3.8654444	doivent	-0.073381126
-3.8654444	vfaire	-0.073381126
-3.8654444	leurs	-0.073381126
-3.8654444	valises	-0.073381126
-3.8654444	eh	-0.073381126
-3.8654444	revez	-0.073381126
-3.8654444	tordre	-0.073381126
-3.8654444	EH	-0.073381126
-3.8654444	AS	-0.073381126
-3.8654444	VU	-0.073381126
-3.8654444	MAROCAIN	-0.073381126
-3.8654444	AVC	-0.073381126
-3.8654444	FCBAYERN	-0.073381126
-3.8654444	IL	-0.073381126
-3.8654444	JOUE	-0.073381126
-3.8654444	MASHALLAH	-0.073381126
-3.8654444	UNE	-0.073381126
-3.8654444	FIERTE	-0.073381126
-3.8654444	MM	-0.073381126
-3.8654444	SI	-0.073381126
-3.8654444	JSUIS	-0.073381126
-3.8654444	PR	-0.073381126
-3.8654444	BARCA	-0.073381126
-3.7040284	Elle	-0.073381126
-3.8654444	côte	-0.073381126
-3.8654444	suivez	-0.073381126
-3.7040284	effet	-0.073381126
-3.8654444	triple	-0.073381126
-3.7040284	jusqu'	-0.073381126
-3.8654444	bout	-0.073381126
-3.8654444	espere	-0.073381126
-3.8654444	gagnerait	-0.073381126
-3.8654444	actuellement	-0.073381126
-3.530527	souvent	-0.073381126
-3.8654444	critiqué	-0.073381126
-3.8654444	tort	-0.073381126
-3.3864844	raison	-0.073381126
-3.8654444	voit	-0.073381126
-3.8654444	sûr	-0.073381126
-3.8654444	Maillot	-0.073381126
-3.8654444	chapeau	-0.073381126
-3.8654444	mecs	-0.073381126
-3.8654444	lâchent	-0.073381126
-3.8654444	Loisirs	-0.073381126
-3.8654444	Casquette	-0.073381126
-3.8654444	Collection	-0.073381126
-3.8654444	officielle	-0.073381126
-3.8654444	Calcio	-0.073381126
-3.8654444	Seri	-0.073381126
-3.8654444	Zidane	-0.073381126
-3.8654444	mec	-0.073381126
-3.8654444	ptdrr	-0.073381126
-3.8654444	tantoine	-0.073381126
-3.8654444	Exact	-0.073381126
-3.8654444	Roma	-0.073381126
-3.8654444	faudrait	-0.073381126
-3.7040284	marque	-0.073381126
-3.8654444	fermé	-0.073381126
-3.7040284	bouche	-0.073381126
-3.8654444	cons	-0.073381126
-3.8654444	honnête	-0.073381126
-3.8654444	pourra	-0.073381126
-3.8654444	Massimiliano	-0.073381126
-3.8654444	Alle	-0.073381126
-3.7040284	tient	-0.073381126
-3.8654444	corde	-0.073381126
-3.8654444	informations	-0.073381126
-3.530527	Paulo	-0.23827411
-3.8654444	Palerme	-0.073381126
-3.8654444	ME	-0.073381126
-3.8654444	Convoité	-0.073381126
-3.8654444	notamment	-0.073381126
-3.8654444	força	-0.073381126
-3.7040284	coeur	-0.073381126
-3.8654444	courage	-0.073381126
-3.8654444	Gros	-0.073381126
-3.8654444	imagine	-0.073381126
-3.8654444	dnipro	-0.073381126
-3.8654444	prolongation	-0.073381126
-3.530527	Hahaha	-0.073381096
-3.8654444	apparemment	-0.073381126
-3.8654444	fino	-0.073381126
-3.8654444	alla	-0.073381126
-3.8654444	bicrave	-0.073381126
-3.8654444	action	-0.073381126
-3.8654444	autant	-0.073381126
-3.8654444	ds	-0.073381126
-3.7040284	garder	-0.073381126
-3.7040284	sinon	-0.073381126
-3.8654444	croyait	-0.073381126
-3.8654444	ailiers	-0.073381126
-3.8654444	ribery	-0.073381126
-3.8654444	absent	-0.073381126
-3.8654444	robben	-0.073381126
-3.8654444	enplus	-0.073381126
-3.8654444	surnote	-0.073381126
-3.8654444	sauf	-0.073381126
-3.8654444	Marcelo	-0.073381126
-3.8654444	archi	-0.073381126
-3.8654444	fautif	-0.073381126
-3.8654444	provoque	-0.073381126
-3.8654444	couvre	-0.073381126
-3.7040284	perd	-0.073381126
-3.8654444	duel	-0.073381126
-3.7040284	défier	-0.073381126
-3.8654444	comprends	-0.073381126
-3.8654444	déteste	-0.073381126
-3.8654444	réagi	-0.073381126
-3.8654444	Benatia	-0.073381126
-3.8654444	comprend	-0.073381126
-3.8654444	prquoi	-0.073381126
-3.8654444	close	-0.073381126
-3.8654444	concernant	-0.073381126
-3.8654444	bossais	-0.073381126
-3.8654444	Pierro	-0.073381126
-3.8654444	efficace	-0.073381126
-3.8654444	créer	-0.073381126
-3.530527	surprise	-0.073381096
-3.8654444	Sports.fr	-0.073381126
-3.8654444	Alessandro	-0.073381126
-3.8654444	Ancien	-0.073381126
-3.8654444	capitaine	-0.073381126
-3.8654444	emblématique	-0.073381126
-3.8654444	Sonia	-0.073381126
-3.8654444	hasard	-0.073381126
-3.8654444	plait	-0.073381126
-3.8654444	ira	-0.073381126
-3.8654444	malheureusement	-0.073381126
-3.8654444	dortmund/atlético/chelsea/juv	-0.073381126
-3.8654444	attendant	-0.073381126
-3.8654444	surprenante	-0.073381126
-3.8654444	louper	-0.073381126
-3.8654444	occasions	-0.073381126
-3.8654444	décrochant	-0.073381126
-3.8654444	héroïque	-0.073381126
-3.8654444	peux	-0.073381126
-3.8654444	partira	-0.073381126
-3.8654444	Pas	-0.073381126
-3.8654444	Lacazette	-0.073381126
-3.8654444	Abdennour	-0.073381126
-3.8654444	Motta	-0.073381126
-3.8654444	Kondogbia	-0.073381126
-3.7040284	idées	-0.073381126
-3.8654444	Pog	-0.073381126
-3.8654444	Banc	-0.073381126
-3.8654444	changement	-0.073381126
-3.8654444	Shaqiri	-0.073381126
-3.8654444	sachant	-0.073381126
-3.8654444	blessera	-0.073381126
-3.8654444	chanceux	-0.073381126
-3.8654444	demi-finaliste	-0.073381126
-3.8654444	européen	-0.073381126
-3.8654444	instant	-0.073381126
-3.8654444	BRP	-0.073381126
-3.8654444	supérieur	-0.073381126
-3.8654444	battu	-0.073381126
-3.8654444	repris	-0.073381126
-3.8654444	pauvre	-0.073381126
-3.8654444	OmarDaF	-0.073381126
-3.8654444	pressent	-0.073381126
-3.7040284	Iker	-0.073381126
-3.8654444	metronews	-0.073381126
-3.8654444	manqué	-0.073381126
-3.8654444	opportunisme	-0.073381126
-3.8654444	adios	-0.073381126
-3.2785025	lol	-0.13656299
-3.8654444	sauver	-0.073381126
-3.8654444	dehors	-0.073381126
-3.8654444	mdrrrr	-0.073381126
-3.8654444	sincèrement	-0.073381126
-3.8654444	remettre	-0.073381126
-3.8654444	Muais	-0.073381126
-3.8654444	conquise	-0.073381126
-3.8654444	NIQUE	-0.073381126
-3.8654444	AVEC	-0.073381126
-3.8654444	SON	-0.073381126
-3.8654444	FOOT	-0.073381126
-3.8654444	SALOPES	-0.073381126
-3.8654444	Ici	-0.073381126
-3.8654444	STREET	-0.073381126
-3.8654444	POTO	-0.073381126
-3.8654444	Tah	-0.073381126
-3.8654444	RONALDINHO	-0.073381126
-3.8654444	contraire	-0.073381126
-3.8654444	Ultra-favori	-0.073381126
-3.8654444	offer	-0.073381126
-3.8654444	Yaya	-0.073381126
-3.8654444	Touré	-0.073381126
-3.8654444	try	-0.073381126
-3.8654444	land	-0.073381126
-3.8654444	Juventus'	-0.073381126
-3.8654444	oh	-0.073381126
-3.8654444	réalmadrid	-0.073381126
-3.8654444	saisons	-0.073381126
-3.8654444	vive	-0.073381126
-3.8654444	Ok.Real	-0.073381126
-3.8654444	-Juventus	-0.073381126
-3.8654444	penaltys	-0.073381126
-3.8654444	futur	-0.073381126
-3.8654444	vainqueur	-0.073381126
-3.8654444	goal	-0.073381126
-3.8654444	line	-0.073381126
-3.8654444	technology	-0.073381126
-3.8654444	rentré..	-0.073381126
-3.8654444	dedans	-0.073381126
-3.8654444	jouera	-0.073381126
-3.8654444	modifiable	-0.073381126
-3.8654444	efficacité	-0.073381126
-3.8654444	1ère	-0.073381126
-3.8654444	intention	-0.073381126
-3.530527	grosse	-0.073381096
-3.8654444	arranger	-0.073381126
-3.7040284	car	-0.073381126
-3.8654444	opposition	-0.073381126
-3.8654444	style	-0.073381126
-3.8654444	perspective	-0.073381126
-3.8654444	permet	-0.073381126
-3.8654444	espoirs	-0.073381126
-3.8654444	juventus-barça	-0.073381126
-3.8654444	adidas	-0.073381126
-3.7040284	adore	-0.073381126
-3.8654444	choses	-0.073381126
-3.8654444	su	-0.073381126
-3.8654444	bloquer	-0.073381126
-3.7040284	pareil	-0.073381126
-3.8654444	Allah	-0.073381126
-3.8654444	pfff	-0.073381126
-3.8654444	sacrée	-0.073381126
-3.8654444	Boul	-0.073381126
-3.8654444	ventre	-0.073381126
-3.8654444	nerfs	-0.073381126
-3.8654444	vifs	-0.073381126
-3.8654444	pk	-0.073381126
-3.7040284	Alonso	-0.073381126
-3.7040284	Dante	-0.073381126
-3.8654444	jsuis	-0.073381126
-3.8654444	magnifique	-0.073381126
-3.8654444	Dédicace	-0.073381126
-3.8654444	commentaires	-0.073381126
-3.8654444	popopopo	-0.073381126
-3.8654444	voter	-0.073381126
-3.8654444	voici.les	-0.073381126
-3.8654444	dois	-0.073381126
-3.8654444	recruté	-0.073381126
-3.8654444	paul	-0.073381126
-3.530527	pogba	-0.073381096
-3.8654444	robert	-0.073381126
-3.8654444	lewandowski	-0.073381126
-3.8654444	éden	-0.073381126
-3.8654444	hazard	-0.073381126
-3.8654444	porte	-0.073381126
-3.7040284	casse	-0.073381126
-3.8654444	abusé	-0.073381126
-3.8654444	ailles	-0.073381126
-3.8654444	enculer	-0.073381126
-3.8654444	fils	-0.073381126
-3.530527	aurais	-0.073381126
-3.8654444	peno	-0.073381126
-3.8654444	put	-0.073381126
-3.8654444	clown	-0.073381126
-3.8654444	cojones	-0.073381126
-3.8654444	isco	-0.073381126
-3.8654444	étonner	-0.073381126
-3.7040284	streaming	-0.19945993
-3.8654444	exact	-0.073381126
-3.8654444	cata	-0.073381126
-3.8654444	matchs.Bale	-0.073381126
-3.8654444	vendre	-0.073381126
-3.8654444	possible.Fiasco	-0.073381126
-3.8654444	enfermé	-0.073381126
-3.8654444	Madri	-0.073381126
-3.8654444	h	-0.073381126
-3.8654444	recruter	-0.073381126
-3.8654444	ailier	-0.073381126
-3.8654444	terrible	-0.073381126
-3.8654444	renforcer	-0.073381126
-3.8654444	Défense	-0.073381126
-3.7040284	où	-0.073381126
-3.8654444	Verratti	-0.073381126
-3.8654444	San	-0.073381126
-3.8654444	donnez	-0.073381126
-3.8654444	score	-0.073381126
-3.8654444	correct	-0.073381126
-3.8654444	1er	-0.073381126
-3.8654444	1-3	-0.073381126
-3.8654444	Ru	-0.073381126
-3.8654444	supportes	-0.073381126
-3.8654444	Vraiment	-0.073381126
-3.8654444	3-1	-0.073381126
-3.8654444	sergio	-0.073381126
-3.8654444	ramos	-0.073381126
-3.8654444	tenir	-0.073381126
-3.7040284	cause	-0.073381126
-3.7040284	égalisation	-0.19945993
-3.8654444	Juninho	-0.073381126
-3.8654444	déconseille	-0.073381126
-3.8654444	supérieurs	-0.073381126
-3.7040284	veulent	-0.073381126
-3.8654444	Juve-Barca	-0.073381126
-3.8654444	puer	-0.073381126
-3.7040284	frère	-0.073381126
-3.8654444	Champoins	-0.073381126
-3.8654444	aurez	-0.073381126
-3.8654444	excuses	-0.073381126
-3.8654444	adversaire	-0.073381126
-3.8654444	abonnés	-0.073381126
-3.8654444	croient	-0.073381126
-3.8654444	arrêtez	-0.073381126
-3.7040284	ns	-0.073381096
-3.7040284	autres	-0.073381126
-3.8654444	affaires	-0.073381126
-3.8654444	Juv.ou	-0.073381126
-3.8654444	Eur..Suis	-0.073381126
-3.8654444	Ouakam	-0.073381126
-3.8654444	seuls	-0.073381126
-3.8654444	capables	-0.073381126
-3.7040284	niquer	-0.073381126
-3.8654444	ÉTAIS	-0.073381126
-3.8654444	MÊME	-0.073381126
-3.8654444	PAS	-0.073381126
-3.8654444	AU	-0.073381126
-3.8654444	DÉBUT	-0.073381126
-3.8654444	naple	-0.073381126
-3.8654444	fio	-0.073381126
-3.7040284	mère	-0.073381126
-3.8654444	tes	-0.073381126
-3.8654444	Vaut	-0.073381126
-3.8654444	dab	-0.073381126
-3.8654444	transfer	-0.073381126
-3.8654444	gea	-0.073381126
-3.8654444	Ilaramendi	-0.073381126
-3.7040284	out	-0.19945993
-3.8654444	marco	-0.073381126
-3.8654444	reus	-0.073381126
-3.8654444	Khedira	-0.073381126
-3.8654444	Stadium	-0.073381126
-3.8654444	etait	-0.073381126
-3.8654444	penses	-0.073381126
-3.8654444	rages	-0.073381126
-3.8654444	noooon	-0.073381126
-3.8654444	Bianconeri	-0.073381126
-3.8654444	retenus	-0.073381126
-3.8654444	manque	-0.073381126
-3.8654444	essayer	-0.073381126
-3.8654444	Casemiro	-0.073381126
-3.8654444	Voici	-0.073381126
-3.8654444	TUTTOSPORT	-0.073381126
-3.8654444	ITALIE	-0.073381126
-3.8654444	perdu	-0.073381126
-3.8654444	qualifiera	-0.073381126
-3.8654444	bit	-0.073381126
-3.8654444	Yay	-0.073381126
-3.7040284	Go	-0.073381126
-3.8654444	Quelle	-0.073381126
-3.8654444	massa	-0.073381126
-3.8654444	remportaient	-0.073381126
-3.8654444	zidane	-0.073381126
-3.8654444	Deschamps	-0.073381126
-3.7040284	réussi	-0.19945993
-3.8654444	zizou	-0.073381126
-3.8654444	suspens	-0.073381126
-3.8654444	FIN	-0.073381126
-3.8654444	internet	-0.073381126
-3.8654444	Ahah	-0.073381126
-3.8654444	Buts	-0.073381126
-3.8654444	l&rsquo	-0.073381126
-3.8654444	bayerme	-0.073381126
-3.530527	problème	-0.073381096
-3.8654444	retransmission	-0.073381126
-3.8654444	K7	-0.073381126
-3.8654444	audio	-0.073381126
-3.8654444	cruel	-0.073381126
-3.8654444	souvenir	-0.073381126
-3.8654444	souvient	-0.073381126
-3.8654444	vol	-0.073381126
-3.8654444	exigeant	-0.073381126
-3.7040284	Man	-0.19945993
-3.8654444	longtemp	-0.073381126
-3.8654444	mediter	-0.073381126
-3.8654444	refaire	-0.073381126
-3.7040284	tete	-0.073381126
-3.8654444	train	-0.073381126
-3.8654444	vendanger	-0.073381126
-3.8654444	tte	-0.073381126
-3.8654444	actions	-0.073381126
-3.8654444	immence	-0.073381126
-3.8654444	CHRIS	-0.073381126
-3.7040284	quelques	-0.073381126
-3.8654444	reussit	-0.073381126
-3.8654444	grands	-0.073381126
-3.8654444	verrai	-0.073381126
-3.8654444	Angleterre	-0.073381126
-3.8654444	exemple	-0.073381126
-3.8654444	matin	-0.073381126
-3.8654444	trouve	-0.073381126
-3.8654444	aucune	-0.073381126
-3.8654444	nouvelles	-0.073381126
-3.8654444	côtés	-0.073381126
-3.7040284	Undecima	-0.073381126
-3.8654444	rêves	-0.073381126
-3.8654444	mdrrrrrr	-0.073381126
-3.8654444	pue	-0.073381126
-3.8654444	Agüero	-0.073381126
-3.8654444	dmoi	-0.073381126
-3.8654444	jvoulai	-0.073381126
-3.8654444	pleurer	-0.073381126
-3.8654444	jour	-0.073381126
-3.8654444	Gt	-0.073381126
-3.8654444	triste	-0.073381126
-3.7040284	LdC	-0.073381126
-3.8654444	renverse	-0.073381126
-3.8654444	dépendant	-0.073381126
-3.8654444	AD	-0.073381126
-3.8654444	effenberg	-0.073381126
-3.8654444	ya	-0.073381126
-3.8654444	apres	-0.073381126
-3.8654444	débile	-0.073381126
-3.7040284	entendu	-0.073381126
-3.8654444	Gotze	-0.073381126
-3.8654444	Thiago	-0.073381126
-3.8654444	OL	-0.073381126
-3.8654444	lutte	-0.073381126
-3.8654444	espoir	-0.073381126
-3.8654444	Bingourou	-0.073381126
-3.8654444	Kamar	-0.073381126
-3.8654444	importe	-0.073381126
-3.8654444	violer	-0.073381126
-3.8654444	nouveau	-0.073381126
-3.8654444	neuer	-0.073381126
-3.8654444	tjrs	-0.073381126
-3.8654444	patron	-0.073381126
-3.8654444	Ahhh	-0.073381126
-3.8654444	prochainement	-0.073381126
-3.8654444	trucs	-0.073381126
-3.8654444	Prout	-0.073381126
-3.8654444	Weiser	-0.073381126
-3.8654444	Hojbjerg	-0.073381126
-3.8654444	chpa	-0.073381126
-3.8654444	parler	-0.073381126
-3.8654444	PTDR	-0.073381126
-3.7040284	votre	-0.073381126
-3.8654444	Putain	-0.073381126
-3.8654444	chier	-0.073381126
-3.8654444	sal	-0.073381126
-3.8654444	pd	-0.073381126
-3.8654444	jv	-0.073381126
-3.8654444	pointillés	-0.073381126
-3.8654444	chatte	-0.073381126
-3.8654444	nioy	-0.073381126
-3.8654444	démarrer	-0.073381126
-3.8654444	Pepe	-0.073381126
-3.8654444	mo	-0.073381126
-3.8654444	ngui	-0.073381126
-3.8654444	ci	-0.073381126
-3.8654444	banc	-0.073381126
-3.8654444	bi	-0.073381126
-3.8654444	laissez	-0.073381126
-3.8654444	kestu	-0.073381126
-3.8654444	raconte	-0.073381126
-3.8654444	règle	-0.073381126
-3.8654444	chelou	-0.073381126
-3.8654444	suffit	-0.073381126
-3.8654444	rwanda	-0.073381126
-3.8654444	Tkt	-0.073381126
-3.8654444	chui	-0.073381126
-3.8654444	catalan	-0.073381126
-3.8654444	nègro	-0.073381126
-3.8654444	jvoulais	-0.073381126
-3.8654444	clasico	-0.073381126
-3.8654444	la..	-0.073381126
-3.8654444	venant	-0.073381126
-3.8654444	1/1	-0.073381126
-3.8654444	BARSA	-0.073381126
-3.8654444	CAROOO	-0.073381126
-3.8654444	Boateng	-0.073381126
-3.8654444	CKI	-0.073381126
-3.8654444	LPATRON	-0.073381126
-3.7040284	con	-0.073381126
-3.8654444	aimé	-0.073381126
-3.8654444	vieux..	-0.073381126
-3.8654444	respecte	-0.073381126
-3.8654444	kan	-0.073381126
-3.8654444	pn	-0.073381126
-3.8654444	seulement	-0.073381126
-3.8654444	4-0	-0.073381126
-3.8654444	clairement	-0.073381126
-3.7040284	trio	-0.073381126
-3.8654444	choc	-0.073381126
-3.8654444	barcelonais	-0.073381126
-3.8654444	paraît	-0.073381126
-3.8654444	inaretable	-0.073381126
-3.8654444	sûre	-0.073381126
-3.8654444	méchant	-0.073381126
-3.8654444	dsl	-0.073381126
-3.8654444	morata	-0.073381126
-3.8654444	cuit	-0.073381126
-3.8654444	débat	-0.073381126
-3.8654444	marrer	-0.073381126
-3.8654444	Juve.on	-0.073381126
-3.8654444	reparler	-0.073381126
-3.8654444	dépit	-0.073381126
-3.8654444	aide	-0.073381126
-3.8654444	RM	-0.073381126
-3.8654444	Forma	-0.073381126
-3.8654444	mordant	-0.073381126
-3.8654444	cannibale	-0.073381126
-3.8654444	Brahimi	-0.073381126
-3.530527	vas	-0.073381096
-3.7040284	plutôt	-0.073381126
-3.8654444	guardiola	-0.073381126
-3.8654444	cycle	-0.073381126
-3.8654444	Guardiola	-0.073381126
-3.8654444	Sammer	-0.073381126
-3.8654444	deja	-0.073381126
-3.8654444	Meuf	-0.073381126
-3.8654444	Ludo	-0.073381126
-3.8654444	éléphant	-0.073381126
-3.8654444	Ouiiiii	-0.073381126
-3.8654444	beeauu	-0.073381126
-3.8654444	annoncé	-0.073381126
-3.8654444	venge	-0.073381126
-3.8654444	Brésil	-0.073381126
-3.8654444	Allemands	-0.073381126
-3.8654444	décrocher	-0.073381126
-3.8654444	ouais	-0.073381096
-3.8654444	oublie	-0.073381126
-3.8654444	coupe	-0.073381126
-3.8654444	vu	-0.073381126
-3.8654444	aprèm	-0.073381126
-3.8654444	résultat	-0.073381126
-3.8654444	avantage	-0.073381126
-3.8654444	précisez	-0.073381126
-3.8654444	SP	-0.073381126
-3.8654444	dribblé	-0.073381126
-3.8654444	quelqu'	-0.073381126
-3.8654444	responsable	-0.073381126
-3.8654444	planter	-0.073381126
-3.8654444	dite	-0.073381126
-3.8654444	p	-0.073381126
-3.8654444	tema	-0.073381126
-3.8654444	calendrier	-0.073381126
-3.8654444	clause	-0.073381126
-3.8654444	rachat	-0.073381126
-3.8654444	effectivement	-0.073381126
-3.8654444	opinion	-0.073381126
-3.8654444	croyez	-0.073381126
-3.7040284	acheter	-0.073381126
-3.8654444	joeur	-0.073381126
-3.8654444	million	-0.073381126
-3.8654444	compris	-0.073381126
-3.2785025	¡	-0.073381126
-3.8654444	Estar	-0.073381126
-3.8654444	vuelta	-0.073381126
-3.8654444	oklm	-0.073381126
-3.8654444	sorte	-0.073381126
-3.8654444	siècle	-0.073381126
-3.8654444	Direct	-0.073381126
-3.8654444	1-1/2	-0.073381126
-3.8654444	Contre	-0.073381126
-3.8654444	parcours	-0.073381126
-3.8654444	rapportera	-0.073381126
-3.8654444	Ou	-0.073381126
-3.8654444	affiche	-0.073381126
-3.8654444	SEMIFINALES	-0.073381126
-3.8654444	VUELTA	-0.073381126
-3.8654444	ST	-0.073381126
-3.8654444	IDA	-0.073381126
-3.8654444	BAR	-0.073381126
-3.8654444	3-0	-0.073381126
-3.8654444	BAY	-0.073381126
-3.8654444	►	-0.073381126
-3.8654444	Co	-0.073381126
-3.8654444	◄	-0.073381126
-3.8654444	pensez	-0.073381126
-3.8654444	Quand	-0.073381126
-3.8654444	crucifie	-0.073381126
-3.8654444	Maison	-0.073381126
-3.8654444	côtes	-0.073381126
-3.8654444	enflammer	-0.073381126
-3.8654444	favoris	-0.073381126
-3.8654444	période	-0.073381126
-3.8654444	ouvrirais	-0.073381126
-3.8654444	collector	-0.073381126
-3.8654444	lorsque	-0.073381126
-3.8654444	sécurise	-0.073381126
-3.8654444	entrée	-0.073381126
-3.8654444	surtout	-0.073381126
-3.8654444	parais	-0.073381126
-3.8654444	folie	-0.073381126
-3.8654444	yohan	-0.073381126
-3.8654444	tricher	-0.073381126
-3.8654444	bat	-0.073381126
-3.8654444	facilement	-0.073381126
-3.8654444	lmaoo..mais	-0.073381126
-3.8654444	😐..	-0.073381126
-3.7040284	sorry	-0.19945993
-3.8654444	jolies	-0.073381126
-3.8654444	espagnoles	-0.073381126
-3.8654444	bières	-0.073381126
-3.8654444	Atletico	-0.073381126
-3.8654444	étaient	-0.073381126
-3.8654444	realmadridfra	-0.073381126
-3.8654444	.MrAncelotti	-0.073381126
-3.8654444	donné	-0.073381126
-3.8654444	avions	-0.073381126
-3.8654444	Manque	-0.073381126
-3.8654444	parfaite	-0.073381126
-3.8654444	bonnes	-0.073381126
-3.8654444	ondes	-0.073381126
-3.8654444	Bouffon	-0.073381126
-3.8654444	buts.Le	-0.073381126
-3.8654444	plusieurs	-0.073381126
-3.8654444	étape	-0.073381126
-3.8654444	can'	-0.073381126
-3.8654444	see	-0.073381126
-3.8654444	finals	-0.073381126
-3.8654444	June	-0.073381126
-3.8654444	honteux	-0.073381126
-3.8654444	prépare	-0.073381126
-3.8654444	négocient	-0.073381126
-3.8654444	contracts	-0.073381126
-3.8654444	passera	-0.073381126
-3.8654444	savourer	-0.073381126
-3.8654444	pire	-0.073381126
-3.8654444	sérieux	-0.073381126
-3.8654444	assume	-0.073381126
-3.8654444	soeur	-0.073381126
-3.8654444	empêche	-0.073381126
-3.8654444	Ns	-0.073381126
-3.8654444	fiers	-0.073381126
-3.8654444	seulmnt	-0.073381126
-3.8654444	joueurs.Ns	-0.073381126
-3.8654444	Ne	-0.073381126
-3.8654444	soyez	-0.073381126
-3.8654444	tristes.Ns	-0.073381126
-3.8654444	dattaque	-0.073381126
-3.8654444	Parce	-0.073381126
-3.7040284	moments	-0.19945993
-3.8654444	mauvais	-0.073381126
-3.8654444	madridista	-0.073381126
-3.8654444	pouffff	-0.073381126
-3.8654444	Ai-je	-0.073381126
-3.8654444	appeler	-0.073381126
-3.8654444	Porto	-0.073381126
-3.8654444	Réponds-moi	-0.073381126
-3.8654444	2014/15	-0.073381126
-3.8654444	fâchée	-0.073381126
-3.8654444	fermée	-0.073381126
-3.8654444	FAVORISEZ	-0.073381126
-3.8654444	HEIN	-0.073381126
-3.7040284	PD	-0.073381126
-3.8654444	Dame	-0.073381126
-3.8654444	phases	-0.073381126
-3.8654444	poules	-0.073381126
-3.8654444	Sale	-0.073381126
-3.8654444	faciliter	-0.073381126
-3.8654444	tâche	-0.073381126
-3.8654444	veille	-0.073381126
-3.8654444	Barcelone-Juventus	-0.073381126
-3.8654444	connaît	-0.073381126
-3.8654444	amnésie	-0.073381126
-3.8654444	générale	-0.073381126
-3.8654444	plaidoirie	-0.073381126
-3.8654444	ici	-0.073381126
-3.8654444	Toni	-0.073381126
-3.8654444	Kroos	-0.073381126
-3.8654444	XI	-0.073381126
-3.8654444	Mes	-0.073381126
-3.8654444	ex	-0.073381126
-3.8654444	collègues	-0.073381126
-3.8654444	voulaient	-0.073381126
-3.8654444	TVA	-0.073381126
-3.8654444	comblera-t-il	-0.073381126
-3.8654444	écart	-0.073381126
-3.8654444	tuerait	-0.073381126
-3.8654444	suspense	-0.073381126
-3.8654444	serai	-0.073381126
-3.8654444	aha	-0.073381126
-3.8654444	retournent	-0.073381126
-3.8654444	échec	-0.073381126
-3.8654444	90+3	-0.073381126
-3.8654444	Llorente	-0.073381126
-3.8654444	verrez	-0.073381126
-3.8654444	ailleurs	-0.073381126
-3.8654444	performance	-0.073381126
-3.8654444	Tur	-0.073381126
-3.8654444	Qualifié	-0.073381126
-3.8654444	cinquième	-0.073381126
-3.8654444	compare	-0.073381126
-3.8654444	NBA	-0.073381126
-3.8654444	ancienne	-0.073381126
-3.8654444	star	-0.073381126
-3.8654444	Al	-0.073381126
-3.8654444	Alors	-0.073381126
-3.8654444	apprête	-0.073381126
-3.8654444	désormais	-0.073381126
-3.8654444	réalité	-0.073381126
-3.8654444	retrouver	-0.073381126
-3.8654444	Neuf	-0.073381126
-3.8654444	fac	-0.073381126
-3.8654444	Su	-0.073381126
-3.8654444	ancien	-0.073381126
-3.8654444	déconsei	-0.073381126
-3.8654444	rédac	-0.073381126
-3.8654444	répond	-0.073381126
-3.8654444	Présent	-0.073381126
-3.8654444	convoqué	-0.073381126

\2-grams:
-1.5594804	Barça </s>	0
-1.3807961	Juventus </s>	0
-0.51997435	__EMOTICON__ </s>	0
-0.57710063	. </s>	0
-0.33654258	__URL__ </s>	0
-0.8053372	__SHARP__ </s>	0
-1.9818319	la </s>	0
-1.5448207	champions </s>	0
-0.79694325	! </s>	0
-1.5432434	joueurs </s>	0
-1.155593	barça </s>	0
-1.4092019	sais </s>	0
-1.6998038	Barcelone </s>	0
-1.3567618	là </s>	0
-1.8924601	Real </s>	0
-1.6997961	Madrid </s>	0
-0.95008606	LDC </s>	0
-1.6893878	__DIGIT__ </s>	0
-1.2630724	... </s>	0
-1.694913	Turin </s>	0
-1.3160973	finale </s>	0
-1.6713237	des </s>	0
-0.699143	🇮🇹 </s>	0
-1.107833	__MENTION__ </s>	0
-0.79305017	? </s>	0
-1.3083849	joué </s>	0
-1.3949453	matchs </s>	0
-1.155593	droit </s>	0
-1.7987229	pas </s>	0
-1.7324932	un </s>	0
-0.7606243	inexistant </s>	0
-0.8915844	) </s>	0
-1.4221579	espère </s>	0
-1.5350292	bon </s>	0
-1.4374696	juventus </s>	0
-1.5651436	équipe </s>	0
-0.699143	pute </s>	0
-1.4734786	Messi </s>	0
-0.7606243	naine </s>	0
-1.5738612	dit </s>	0
-1.1180657	match </s>	0
-1.256536	JUVENTUS </s>	0
-1.5639899	gagne </s>	0
-1.0186384	AAAAA_ </s>	0
-1.6133949	nous </s>	0
-0.41819495	🇮🇹🇮🇹 </s>	0
-0.91835445	mérite </s>	0
-1.5448207	réal </s>	0
-1.5190693	real </s>	0
-1.3567618	mérité </s>	0
-1.2446321	prochaine </s>	0
-1.3247776	supporters </s>	0
-1.4517155	avant </s>	0
-1.5536311	aller </s>	0
-0.7606243	ciao </s>	0
-1.216365	Réal </s>	0
-0.91369873	merde </s>	0
-0.7606243	fodasse </s>	0
-1.6659027	( </s>	0
-0.7064301	mdr </s>	0
-1.0186384	possible </s>	0
-0.7606243	🇮🇹🏆 </s>	0
-1.6571147	« </s>	0
-1.1463395	» </s>	0
-1.4517155	monde </s>	0
-1.5150548	joueur </s>	0
-0.7606243	sortez </s>	0
-0.7606243	1/3 </s>	0
-1.5623755	victoire </s>	0
-1.6281163	même </s>	0
-0.58412915	voila </s>	0
-0.8289523	] </s>	0
-1.4531561	/ </s>	0
-1.2446321	autre </s>	0
-0.7606243	langues.. </s>	0
-1.2446321	eux </s>	0
-1.155593	grande </s>	0
-1.2446321	juve </s>	0
-1.4517155	passer </s>	0
-1.4517155	Barca </s>	0
-1.155593	monaco </s>	0
-1.0186384	mai </s>	0
-1.3949453	barca </s>	0
-1.0186384	nan </s>	0
-0.7606243	coco </s>	0
-1.155593	noir </s>	0
-1.155593	défendre </s>	0
-1.4734786	toi </s>	0
-1.2446321	fort </s>	0
-1.155593	United </s>	0
-0.7606243	rigolai </s>	0
-1.5548382	tout </s>	0
-1.4528484	^ </s>	0
-1.155593	foot </s>	0
-1.0048424	' </s>	0
-1.155593	JUVE </s>	0
-1.0186384	cool </s>	0
-0.7606243	ticket </s>	0
-0.41819495	6/6/15 </s>	0
-1.155593	triplé </s>	0
-1.0186384	serré </s>	0
-1.0186384	1/2 </s>	0
-0.7606243	profond </s>	0
-1.0186384	facile </s>	0
-0.7606243	finaliste </s>	0
-0.7606243	Mdrr </s>	0
-0.7606243	hein.. </s>	0
-1.0186384	loin </s>	0
-0.7606243	mdrr </s>	0
-1.155593	rater </s>	0
-1.0186384	ouf </s>	0
-0.7606243	defaite </s>	0
-1.155593	jeu </s>	0
-0.7606243	clans </s>	0
-0.7606243	putes </s>	0
-1.0186384	comprendre </s>	0
-1.3567618	maillot </s>	0
-0.7606243	29% </s>	0
-1.2446321	champion </s>	0
-1.2446321	rester </s>	0
-1.155593	Juv </s>	0
-1.155593	mdrrr </s>	0
-1.0186384	KFC </s>	0
-0.7606243	Madrid.#RMAJUV </s>	0
-1.0186384	titre </s>	0
-1.0186384	mere </s>	0
-0.7606243	teambarca </s>	0
-0.7606243	InfoZ.re </s>	0
-0.7606243	seau </s>	0
-1.0186384	tweet </s>	0
-1.0186384	tourne </s>	0
-1.2446321	franchement </s>	0
-0.7606243	ville </s>	0
-0.7606243	🇮🇹🇮🇹🇮🇹 </s>	0
-1.0186384	" </s>	0
-0.7606243	LUI </s>	0
-0.7606243	ever </s>	0
-1.155593	merci </s>	0
-0.7606243	concrétisant </s>	0
-0.7606243	turin </s>	0
-0.7606243	valises </s>	0
-1.0186384	bout </s>	0
-1.2446321	raison </s>	0
-0.7606243	tantoine </s>	0
-0.7606243	cons </s>	0
-0.7606243	prolongation </s>	0
-0.7606243	enplus </s>	0
-0.7606243	duel </s>	0
-0.7606243	Benatia </s>	0
-1.0186384	efficace </s>	0
-1.0186384	idées </s>	0
-0.7606243	BRP </s>	0
-0.7606243	OmarDaF </s>	0
-0.7064301	lol </s>	0
-0.7606243	dehors </s>	0
-0.7606243	RONALDINHO </s>	0
-0.7606243	espoirs </s>	0
-0.7606243	hazard </s>	0
-0.7606243	abusé </s>	0
-0.7606243	étonner </s>	0
-0.7606243	Défense </s>	0
-1.0186384	frère </s>	0
-0.7606243	Ouakam </s>	0
-0.7606243	qualifiera </s>	0
-1.155593	problème </s>	0
-0.7606243	souvenir </s>	0
-1.0186384	tete </s>	0
-0.7606243	actions </s>	0
-0.7606243	matin </s>	0
-0.7606243	triste </s>	0
-0.7606243	apres </s>	0
-0.7606243	Ahhh </s>	0
-0.7606243	parler </s>	0
-0.7606243	chier </s>	0
-0.7606243	bi </s>	0
-0.7606243	rwanda </s>	0
-0.7606243	la.. </s>	0
-0.7606243	vieux.. </s>	0
-0.7606243	4-0 </s>	0
-0.7606243	méchant </s>	0
-0.7606243	cuit </s>	0
-0.7606243	Sammer </s>	0
-0.7606243	compris </s>	0
-1.0186384	PD </s>	0
-0.7606243	verrez </s>	0
-2.292891	<s> Barça	-0.030166622
-1.7626072	- Barça	-0.030166622
-2.3582158	du Barça	-0.030166622
-1.2743117	le Barça	-0.06219002
-2.138095	, Barça	-0.1012859
-2.7096655	. Barça	-0.030166622
-2.163436	✪ Barça	-0.030166622
-2.5145032	est Barça	-0.030166622
-2.368005	! Barça	-0.030166622
-1.9394444	: Barça	-0.086099796
-2.5241947	que Barça	-0.030166622
-2.015281	vs Barça	-0.030166622
-1.3833519	Bien Barça	-0.030166622
-1.6071322	matchs Barça	-0.030166622
-1.8935773	un Barça	-0.030166622
-1.3866723	Forza Barça	-0.030166622
-2.2743316	au Barça	-0.030166622
-2.083582	Le Barça	-0.030166622
-1.9110076	FC Barça	-0.030166622
-0.8014436	1-2 Barça	-0.030166622
-1.9503614	] Barça	-0.030166622
-0.8014436	Força Barça	-0.030166622
-1.0956519	this Barça	-0.030166622
-1.0956519	Vamos Barça	-0.030166622
-0.8014436	força Barça	-0.030166622
-0.8014436	see Barça	-0.030166622
-1.1987252	Barça -	-0.4608005
-1.8548493	Juventus -	-0.030166622
-2.5044973	. -	-0.030166622
-2.361682	✪ -	-0.030166622
-1.8953166	__SHARP__ -	-0.12402589
-1.51062	Barça-Juventus -	-0.030166622
-2.0568714	ça -	-0.030166622
-1.1122905	Barcelone -	-0.36389047
-1.8941212	Real -	-0.030166622
-2.109525	Madrid -	-0.030166622
-0.7947657	Afrique -	-0.030166622
-1.7960498	LDC -	-0.030166622
-1.875914	: -	-0.1012859
-1.9725906	Juve -	-0.030166622
-1.6190997	__DIGIT__ -	-0.030166622
-2.0722165	... -	-0.030166622
-1.6405926	Turin -	-0.030166622
-2.359381	__MENTION__ -	-0.030166622
-1.8224294	? -	-0.030166622
-1.5661123	Monaco -	-0.030166622
-1.0826008	RETOUR -	-0.030166622
-0.48492005	C1 -	-0.064272106
-1.8949351	JUVENTUS -	-0.030166622
-1.7521288	real -	-0.030166622
-1.3004527	Réal -	-0.030166622
-1.6474403	» -	-0.030166622
-0.8188635	TURIN -	-0.030166622
-1.3583863	Real-Juventus -	-0.030166622
-1.739805	; -	-0.030166622
-1.6532158	Barca -	-0.030166622
-1.5661123	barca -	-0.030166622
-0.7947657	Demi-finales -	-0.030166622
-1.2458864	JUVE -	-0.030166622
-1.3646101	BARCELONA -	-0.030166622
-1.4492555	Barcelona -	-0.030166622
-1.2458864	BARCELONE -	-0.030166622
-0.7947657	Actu -	-0.030166622
-0.18349867	Foot -	-0.29633355
-0.7947657	Demie -	-0.030166622
-0.7947657	Médias -	-0.030166622
-1.0826008	EDS -	-0.030166622
-0.7947657	blue -	-0.030166622
-0.7947657	Chants -	-0.030166622
-1.3583863	Transfert -	-0.030166622
-1.2458864	VIDEO -	-0.030166622
-1.0826008	VIDÉO -	-0.030166622
-0.4295048	FR -	-0.030166622
-0.7947657	online -	-0.030166622
-0.7947657	Casquette -	-0.030166622
-0.7947657	officielle -	-0.030166622
-0.7947657	SEMIFINALES -	-0.030166622
-0.8854754	- Juventus	-0.17797036
-2.1224349	du Juventus	-0.030166622
-2.2958908	pour Juventus	-0.030166622
-1.7202827	le Juventus	-0.030166622
-2.4020376	__EMOTICON__ Juventus	-0.030166622
-0.7897584	// Juventus	-0.030166622
-1.7206782	, Juventus	-0.030166622
-2.3952072	. Juventus	-0.030166622
-1.3403281	for Juventus	-0.030166622
-1.8712685	✪ Juventus	-0.030166622
-1.5373387	to Juventus	-0.030166622
-2.1540136	__SHARP__ Juventus	-0.1012859
-1.8347641	y Juventus	-0.030166622
-0.7154918	la Juventus	-0.22580613
-2.3012218	de Juventus	-0.030166622
-0.65233433	La Juventus	-0.13553995
-1.972756	Barcelone Juventus	-0.030166622
-2.0681825	contre Juventus	-0.030166622
-1.485199	là Juventus	-0.030166622
-1.8938421	ou Juventus	-0.030166622
-2.2133265	Real Juventus	-0.030166622
-1.6704444	Madrid Juventus	-0.030166622
-1.7226472	: Juventus	-0.052603457
-2.1095667	finale Juventus	-0.030166622
-1.7736727	que Juventus	-0.030166622
-2.0925708	__MENTION__ Juventus	-0.030166622
-0.66062427	vs Juventus	-0.06937052
-1.605607	? Juventus	-0.030166622
-1.5373387	Monaco Juventus	-0.030166622
-2.1555967	pas Juventus	-0.030166622
-1.5447373	> Juventus	-0.030166622
-1.3403281	bah Juventus	-0.030166622
-2.1211681	et Juventus	-0.030166622
-0.81410265	Vs Juventus	-0.030166622
-1.8670424	nous Juventus	-0.030166622
-1.963583	avec Juventus	-0.030166622
-2.0627627	au Juventus	-0.030166622
-1.485199	mérité Juventus	-0.030166622
-1.6506271	1-1 Juventus	-0.030166622
-1.5015525	( Juventus	-0.18637685
-1.9618727	« Juventus	-0.030166622
-0.89137596	VS Juventus	-0.030166622
-1.2318836	\ Juventus	-0.030166622
-1.8365085	même Juventus	-0.030166622
-1.8306268	] Juventus	-0.030166622
-1.0087063	/ Juventus	-0.030166622
-1.7767435	cette Juventus	-0.030166622
-1.072938	supporte Juventus	-0.030166622
-1.6771867	| Juventus	-0.030166622
-1.072938	forza Juventus	-0.030166622
-0.7897584	Daba Juventus	-0.030166622
-1.6183026	Demain Juventus	-0.030166622
-0.7897584	Dégouté Juventus	-0.030166622
-1.5513595	Final Juventus	-0.030166622
-1.5447373	Une Juventus	-0.030166622
-1.6252327	' Juventus	-0.030166622
-0.7897584	dodd Juventus	-0.030166622
-1.072938	c. Juventus	-0.030166622
-1.2318836	as Juventus	-0.030166622
-1.485199	juste Juventus	-0.030166622
-1.072938	petit Juventus	-0.030166622
-0.7897584	Wesh Juventus	-0.030166622
-1.072938	by Juventus	-0.030166622
-0.7897584	Voila Juventus	-0.030166622
-0.7897584	appelait Juventus	-0.030166622
-0.7897584	Info Juventus	-0.030166622
-0.7897584	imagine Juventus	-0.030166622
-0.7897584	Vraiment Juventus	-0.030166622
-0.7897584	3-1 Juventus	-0.030166622
-0.7897584	Contre Juventus	-0.030166622
-2.7875366	Juventus sa	-0.030166622
-1.9198881	pour sa	-0.12783933
-2.4305525	de sa	-0.030166622
-2.6805263	est sa	-0.030166622
-1.8847277	LDC sa	-0.030166622
-1.4632592	que sa	-0.030166622
-1.5648512	coup sa	-0.030166622
-2.0502498	et sa	-0.030166622
-1.7304981	tous sa	-0.030166622
-1.6318257	mérite sa	-0.030166622
-1.3958651	Après sa	-0.030166622
-0.8046857	entends sa	-0.030166622
-1.1020585	car sa	-0.030166622
-0.8046857	prépare sa	-0.030166622
-2.1211379	sa seras	-0.030166622
-2.3718905	plus seras	-0.030166622
-1.0800371	seras du	-0.030166622
-1.0800371	vite du	-0.030166622
-2.2496405	a du	-0.030166622
-0.79344237	aventage du	-0.030166622
-1.7139524	Bale du	-0.030166622
-1.4632885	Coupe du	-0.030166622
-1.6781071	toujours du	-0.030166622
-2.2288165	pas du	-0.030166622
-0.79344237	Bin du	-0.030166622
-1.5037847	coup du	-0.030166622
-1.2662125	équipe du	-0.18637685
-1.7749655	but du	-0.030166622
-2.0606983	match du	-0.030166622
-1.0800371	finit du	-0.030166622
-2.0027301	avec du	-0.030166622
-1.4373446	équipes du	-0.030166622
-1.1432976	joueur du	-0.030166622
-1.5424699	ligue du	-0.030166622
-1.2421575	penalty du	-0.030166622
-0.79344237	geste du	-0.030166622
-1.3535608	défaite du	-0.030166622
-0.9910097	victoire du	-0.030166622
-1.3535608	part du	-0.030166622
-0.79344237	diffusion du	-0.030166622
-1.4373446	meilleur du	-0.030166622
-0.8176056	fan du	-0.030166622
-0.79344237	éjectent du	-0.030166622
-1.3535608	attaque du	-0.030166622
-1.2491417	ceux du	-0.030166622
-0.79344237	tenant du	-0.030166622
-1.2421575	Fin du	-0.030166622
-0.79344237	phénomènes du	-0.030166622
-0.79344237	trisomie du	-0.030166622
-1.0800371	photo du	-0.030166622
-0.79344237	couverture du	-0.030166622
-1.5037847	maillot du	-0.030166622
-0.79344237	supporteur du	-0.030166622
-1.2421575	défenseur du	-0.030166622
-0.79344237	annim du	-0.030166622
-1.0800371	gardien du	-0.030166622
-0.79344237	parfaitement du	-0.030166622
-1.0800371	entraîneur du	-0.030166622
-1.0800371	Qui du	-0.030166622
-0.79344237	compo du	-0.030166622
-0.79344237	massue du	-0.030166622
-1.0800371	vue du	-0.030166622
-0.79344237	long du	-0.030166622
-1.0800371	bout du	-0.030166622
-0.79344237	sûr du	-0.030166622
-0.79344237	audio du	-0.030166622
-0.79344237	souvient du	-0.030166622
-0.79344237	reparler du	-0.030166622
-0.79344237	venge du	-0.030166622
-0.79344237	coupe du	-0.030166622
-0.79344237	opinion du	-0.030166622
-0.79344237	XI du	-0.030166622
-2.5795453	du gâteau	-0.030166622
-2.1523411	Juventus pour	-0.030166622
-1.7841735	sa pour	-0.030166622
-0.78325653	gâteau pour	-0.030166622
-2.2358363	__SHARP__ pour	-0.030166622
-1.9084603	est pour	-0.18637685
-1.1857946	joueurs pour	-0.030166622
-1.453868	là pour	-0.030166622
-2.1207075	Real pour	-0.030166622
-1.9122978	Turin pour	-0.030166622
-2.1712756	que pour	-0.030166622
-1.5552542	__MENTION__ pour	-0.064272106
-1.6055036	toujours pour	-0.030166622
-0.78325653	Bienfait pour	-0.030166622
-2.0493882	pas pour	-0.030166622
-1.0605426	péno pour	-0.030166622
-0.78325653	siffler pour	-0.030166622
-1.957386	mais pour	-0.030166622
-1.5198207	espère pour	-0.030166622
-1.6912059	suis pour	-0.030166622
-1.890386	juventus pour	-0.030166622
-1.5512002	moins pour	-0.030166622
-0.78325653	simple pour	-0.030166622
-1.720433	gagne pour	-0.030166622
-1.7979474	nous pour	-0.030166622
-0.4257585	Dommage pour	-0.18637685
-0.7188466	route pour	-0.030166622
-1.6024933	Berlin pour	-0.030166622
-1.453868	mérité pour	-0.030166622
-0.8819623	es pour	-0.030166622
-0.78325653	méritée pour	-0.030166622
-1.8188995	soir pour	-0.030166622
-1.0605426	leçon pour	-0.030166622
-1.0605426	millions pour	-0.030166622
-1.453868	Europe pour	-0.030166622
-1.3176568	fini pour	-0.030166622
-1.3176568	1-0 pour	-0.030166622
-1.576264	Ronaldo pour	-0.030166622
-1.2141211	penalty pour	-0.030166622
-1.2141211	J pour	-0.030166622
-1.3176568	minutes pour	-0.030166622
-1.0605426	parti pour	-0.030166622
-1.3176568	défaite pour	-0.030166622
-0.78325653	seerais pour	-0.030166622
-1.781944	même pour	-0.030166622
-1.0605426	remercier pour	-0.030166622
-0.78325653	prete pour	-0.030166622
-1.0605426	choix pour	-0.030166622
-1.0605426	Müller pour	-0.030166622
-0.78325653	91eme pour	-0.030166622
-0.33817625	qualifiée pour	-0.36389047
-1.6610895	sont pour	-0.030166622
-0.5965252	Corner pour	-0.18637685
-0.78325653	plumes pour	-0.030166622
-0.78325653	Respect pour	-0.030166622
-1.0605426	Chelsea pour	-0.030166622
-0.78325653	parfait pour	-0.030166622
-1.0605426	cours pour	-0.030166622
-0.78325653	Lancé pour	-0.030166622
-1.0605426	moment pour	-0.030166622
-1.5114652	RT pour	-0.030166622
-0.78325653	serez pour	-0.030166622
-0.78325653	Assia pour	-0.030166622
-0.4897706	dur pour	-0.030166622
-0.78325653	Dégoûter pour	-0.030166622
-0.78325653	places pour	-0.030166622
-0.9993294	blanche pour	-0.030166622
-0.78325653	cheh pour	-0.030166622
-0.78325653	optimiste pour	-0.030166622
-0.78325653	italien pour	-0.030166622
-1.0605426	chauffe pour	-0.030166622
-0.78325653	Millions pour	-0.030166622
-0.78325653	détails pour	-0.030166622
-0.78325653	Qualifiée pour	-0.030166622
-1.2141211	qualifie pour	-0.030166622
-0.78325653	Suivez-moi pour	-0.030166622
-0.78325653	jette pour	-0.030166622
-0.78325653	taxi pour	-0.030166622
-0.78325653	Alexis pour	-0.030166622
-0.78325653	absents pour	-0.030166622
-0.78325653	mot pour	-0.030166622
-0.78325653	Hummels pour	-0.030166622
-0.78325653	fondamentaux pour	-0.030166622
-0.78325653	voulu pour	-0.030166622
-0.78325653	imposent pour	-0.030166622
-1.0605426	marque pour	-0.030166622
-1.0605426	idées pour	-0.030166622
-1.0605426	Alonso pour	-0.030166622
-0.78325653	voter pour	-0.030166622
-1.0605426	casse pour	-0.030166622
-0.78325653	excuses pour	-0.030166622
-0.78325653	retenus pour	-0.030166622
-0.78325653	débat pour	-0.030166622
-0.78325653	avions pour	-0.030166622
-0.78325653	plaidoirie pour	-0.030166622
-0.78325653	Qualifié pour	-0.030166622
-2.0216916	Juventus le	-0.030166622
-0.84388876	pour le	-0.086099796
-2.1959786	__EMOTICON__ le	-0.030166622
-1.3906846	, le	-0.12402589
-1.9026952	je le	-0.030166622
-1.0428233	sens le	-0.030166622
-1.286136	mettre le	-0.030166622
-1.9840021	__SHARP__ le	-0.030166622
-1.422184	est le	-0.030166622
-1.7745905	a le	-0.030166622
-1.6285679	Mais le	-0.030166622
-0.5887754	contre le	-0.23423408
-1.826251	: le	-0.030166622
-1.6227118	après le	-0.030166622
-0.70910865	rejoint le	-0.18637685
-0.7324587	que le	-0.14082259
-1.8965764	__MENTION__ le	-0.030166622
-1.5016841	retour le	-0.030166622
-1.5026942	plus le	-0.030166622
-1.6244528	dire le	-0.030166622
-1.429974	sur le	-0.030166622
-1.1356468	si le	-0.030166622
-1.5684468	peut le	-0.030166622
-1.8182034	vous le	-0.030166622
-1.1071539	était le	-0.030166622
-1.1261317	pas le	-0.030166622
-1.3612049	) le	-0.030166622
-1.6586648	Bon le	-0.030166622
-1.286136	bah le	-0.030166622
-0.57157844	dans le	-0.064272106
-1.6459832	ai le	-0.030166622
-1.6099547	et le	-0.12783933
-0.79892033	sortir le	-0.030166622
-1.8284256	match le	-0.030166622
-1.5878078	sera le	-0.030166622
-1.7124115	nous le	-0.030166622
-1.4171646	avec le	-0.030166622
-1.2358258	faut le	-0.030166622
-1.0428233	vers le	-0.030166622
-1.5530112	Berlin le	-0.030166622
-1.4235713	es le	-0.030166622
-1.363547	fait le	-0.030166622
-0.336089	élimine le	-0.1012859
-1.5206776	avant le	-0.030166622
-1.6618629	trop le	-0.030166622
-1.5462983	1-1 le	-0.030166622
-0.77380896	bye le	-0.030166622
-1.4664744	merde le	-0.030166622
-1.4548444	grave le	-0.030166622
-0.77380896	swr le	-0.030166622
-1.7123884	faire le	-0.030166622
-0.77380896	respecté le	-0.030166622
-1.4664744	voir le	-0.030166622
-0.859056	jouer le	-0.030166622
-0.77380896	Bernabéu le	-0.030166622
-1.4112886	éliminé le	-0.030166622
-1.267895	par le	-0.030166622
-1.4784244	On le	-0.030166622
-1.2038676	Salut le	-0.030166622
-1.0428233	choisi le	-0.030166622
-1.5684468	lui le	-0.030166622
-0.77380896	Va-t-elle le	-0.030166622
-1.5684468	été le	-0.030166622
-1.5563291	Je le	-0.030166622
-0.77380896	maintient le	-0.030166622
-0.77380896	quitte le	-0.030166622
-1.0428233	supporte le	-0.030166622
-0.47739315	entre le	-0.17662556
-1.286136	devrait le	-0.030166622
-1.0428233	regarder le	-0.030166622
-0.77380896	chiudete le	-0.030166622
-0.77380896	affronte le	-0.030166622
-1.286136	derrière le	-0.030166622
-1.0428233	Cest le	-0.030166622
-1.3121941	comme le	-0.030166622
-1.0428233	Comment le	-0.030166622
-1.4906409	déjà le	-0.030166622
-1.2999719	prend le	-0.030166622
-1.5966711	Il le	-0.030166622
-1.5206776	Demain le	-0.030166622
-1.0428233	finir le	-0.030166622
-0.77380896	Devant le	-0.030166622
-1.1890978	Dites le	-0.030166622
-0.77380896	Barcelonais le	-0.030166622
-0.77380896	Fumer le	-0.030166622
-1.0428233	Tt le	-0.030166622
-1.0428233	éliminer le	-0.030166622
-1.4112886	serait le	-0.030166622
