\data\
ngram 1=3178
ngram 2=7742
ngram 3=9374
ngram 4=9254
ngram 5=8897

\1-grams:
-3.926443	<unk>	0
0	<s>	-0.3280736
-2.6531856	</s>	0
-3.6753192	Je	-0.044710413
-3.5453434	sens	-0.044710413
-2.4385192	qu'	-0.30832115
-2.706852	entre	-0.21333574
-3.6753192	ça	-0.044710413
-1.7035788	et	-0.20726608
-2.0880983	les	-0.084463894
-3.8289213	films	-0.044710413
-1.3432919	de	-0.24653724
-3.6753192	médecins	-0.044710413
-3.8289213	scientifiques	-0.044710413
-3.8289213	fous	-0.044710413
-2.109217	que	-0.22602683
-2.802297	nous	-0.059154525
-3.5453434	avons	-0.044710413
-3.3829556	déjà	-0.044710413
-3.6753192	vus	-0.044710413
-1.2844051	,	-0.3265007
-3.8289213	pourrions	-0.044710413
-3.8289213	emprunter	-0.044710413
-2.0880983	un	-0.097526275
-3.8289213	autre	-0.044710413
-3.6753192	chemin	-0.044710413
-2.0950243	pour	-0.15934965
-2.109217	l'	-0.088954434
-3.8289213	origine	-0.044710413
-1.41726	.	-1.882616
-3.8289213	On	-0.044710413
-3.5453434	pourra	-0.044710413
-3.1723895	toujours	-0.044710413
-3.6753192	parler	-0.044710413
-1.7676036	à	-0.23820193
-3.8289213	propos	-0.044710413
-1.8709625	d'	-0.18495151
-3.8289213	Averroès	-0.044710413
-2.2336617	"	-0.15479508
-3.8289213	décentrement	-0.044710413
-1.858636	du	-0.08250775
-3.8289213	Sujet	-0.044710413
-2.706852	«	-0.044710413
-3.5453434	Il	-0.084349774
-2.2845676	a	-0.13716868
-2.7680979	été	-0.044710413
-3.6753192	largement	-0.044710413
-3.8289213	démontré	-0.044710413
-2.067959	la	-0.092014454
-3.8289213	population	-0.044710413
-3.8289213	civile	-0.044710413
-3.265034	territoire	-0.084349774
-3.6753192	non	-0.044710413
-3.6753192	autonome	-0.044710413
-3.5453434	Sahara	-0.22146666
-3.8289213	occidental	-0.044710413
-2.1390743	est	-0.12561817
-3.8289213	objet	-0.044710413
-3.6753192	diverses	-0.044710413
-3.8289213	atteintes	-0.044710413
-2.5833833	aux	-0.044710383
-3.5453434	droits	-0.044710413
-3.8289213	humains	-0.044710413
-2.8394213	comme	-0.059154525
-3.8289213	détention	-0.044710413
-3.8289213	arbitraire	-0.044710413
-3.6753192	coups	-0.044710413
-3.8289213	tortures	-0.044710413
-2.5624044	»	-0.44745192
-3.5453434	écrit	-0.044710413
-3.8289213	ONG	-0.044710413
-3.3829556	internationale	-0.10561429
-3.8289213	implantée	-0.044710413
-2.067959	dans	-0.4453931
-2.0363395	__DIGIT__	-0.27114367
-3.0311882	pays	-0.12415755
-3.8289213	citée	-0.044710413
-2.263484	par	-0.229179
-3.8289213	agence	-0.044710413
-3.8289213	presse	-0.044710413
-3.6753192	sahraouie	-0.044710413
-3.6753192	1er	-0.044710413
-2.4704604	:	-0.14347234
-3.6753192	début	-0.12797387
-3.8289213	présidence	-0.044710413
-3.8289213	lituanienne	-0.044710413
-3.8289213	Organisation	-0.044710413
-3.8289213	Sécurité	-0.044710413
-3.8289213	Coopération	-0.044710413
-1.9583855	en	-0.10367971
-3.5453434	Europe	-0.044710413
-2.0614483	(	-0.116889566
-3.8289213	OSCE	-0.044710413
-2.109217	)	-0.31574565
-3.3829556	jusqu'	-0.10561429
-2.116491	au	-0.062699504
-3.8289213	décembre	-0.044710413
-3.265034	avant	-0.14672917
-3.8289213	Irlande	-0.044710413
-3.8289213	Ukraine	-0.044710413
-3.8289213	Et	-0.044710413
-3.5453434	pourtant	-0.044710413
-3.6753192	lors	-0.044710413
-2.9747474	sa	-0.044710413
-3.3829556	première	-0.044710442
-3.8289213	visite	-0.044710413
-3.6753192	Afrique	-0.044710413
-3.8289213	subsaharienne	-0.044710413
-2.9248052	il	-0.1124497
-3.8289213	montre	-0.044710413
-3.6753192	dents	-0.044710413
-3.5453434	discours	-0.044710413
-3.8289213	humiliant	-0.044710413
-3.8289213	Africains	-0.044710413
-3.8289213	prononcé	-0.044710413
-3.8289213	Université	-0.044710413
-3.8289213	Cheikh	-0.044710413
-3.8289213	Anta	-0.044710413
-3.8289213	Diop	-0.044710413
-3.8289213	Dakar	-0.044710413
-3.5453434	Les	-0.044710442
-3.8289213	spéculations	-0.044710413
-3.5453434	autour	-0.044710413
-3.3829556	match	-0.044710413
-2.5833833	sont	-0.044710413
-2.9747474	leur	-0.044710413
-3.8289213	paroxysme	-0.044710413
-3.8289213	Ils	-0.044710413
-2.523262	ne	-0.06961221
-3.8289213	citent	-0.044710413
-2.295506	pas	-0.112764105
-2.5049388	son	-0.044710413
-3.3829556	nom	-0.044710413
-3.8289213	parce	-0.044710413
-3.0960753	depuis	-0.078460634
-3.8289213	institutions	-0.044710413
-2.706852	on	-0.10061386
-2.408767	n'	-0.29334396
-3.6753192	attaque	-0.044710413
-3.8289213	membre	-0.044710413
-3.5453434	famille	-0.044710442
-3.8289213	royale	-0.044710413
-2.9747474	mais	-0.10491894
-2.9747474	c'	-0.58961844
-2.9747474	lui	-0.1303839
-3.3829556	ils	-0.044710413
-2.6286502	s'	-0.12917721
-3.6753192	prennent	-0.044710413
-2.9248052	y	-0.13847335
-2.3067272	qui	-0.13619457
-3.8289213	croient	-0.044710413
-3.6753192	peuvent	-0.044710413
-3.8289213	jouir	-0.044710413
-3.8289213	vie	-0.044710413
-3.265034	toute	-0.084349774
-3.8289213	tranquillité	-0.044710413
-3.6753192	conscience	-0.044710413
-3.8289213	commettre	-0.044710413
-3.3829556	telle	-0.09273105
-2.6791904	ou	-0.118966684
-3.8289213	indélicatesse	-0.044710413
-3.8289213	grossièreté	-0.044710413
-3.5453434	sécurité	-0.044710413
-3.8289213	coeur	-0.044710413
-3.5453434	serait	-0.044710413
-3.8289213	montres	-0.044710413
-3.8289213	%	-0.044710413
-3.8289213	Waterproof	-0.044710413
-3.8289213	Son	-0.044710442
-3.8289213	inspiré	-0.044710413
-2.354757	une	-0.07073068
-3.8289213	pensée	-0.044710413
-3.8289213	Moyen-âge	-0.044710413
-3.8289213	trouvé	-0.044710413
-3.8289213	preneur	-0.044710413
-3.8289213	Pour	-0.044710413
-2.9248052	je	-0.084349774
-3.8289213	crois	-0.044710413
-3.3829556	vraiment	-0.044710442
-3.8289213	essentiel	-0.044710413
-3.6753192	ailleurs	-0.044710413
-2.802297	cette	-0.06691671
-3.8289213	contribution	-0.044710413
-3.8289213	déstabilisation	-0.044710413
-3.8289213	autorité	-0.044710413
-3.6753192	spirituelle	-0.17647427
-3.8289213	pape	-0.044710413
-2.706852	vous	-0.0693216
-3.8289213	évoquez	-0.044710413
-3.6753192	Est	-0.044710413
-3.6753192	-ce	-0.044710413
-1.9792676	le	-0.10318766
-2.7680979	fait	-0.07612715
-3.5453434	hasard	-0.044710413
-3.8289213	malédiction	-0.044710413
-3.6753192	zone	-0.044710413
-3.8289213	comprise	-0.044710413
-3.8289213	Soudan	-0.044710413
-3.8289213	Mauritanie	-0.044710413
-3.0311882	soit	-0.044710413
-3.8289213	instable	-0.044710413
-2.7363963	?	-0.635158
-3.8289213	Maintenant	-0.044710413
-2.523262	avec	-0.2432426
-3.8289213	peu	-0.044710413
-3.5453434	bonne	-0.044710413
-3.5453434	volonté	-0.044710413
-3.8289213	observerez	-0.044710413
-3.265034	peut	-0.044710413
-3.0311882	être	-0.044710413
-3.8289213	traditionaliste	-0.044710413
-3.8289213	ET	-0.044710413
-3.8289213	intégriste	-0.044710413
-3.8289213	intégristes	-0.044710413
-2.6054273	ont	-0.16049136
-3.8289213	monopole	-0.044710413
-3.8289213	traditionalisme	-0.044710413
-3.8289213	réciproquement	-0.044710413
-3.8289213	Royale	-0.044710413
-3.265034	donc	-0.044710442
-3.8289213	voie	-0.044710413
-3.8289213	communication	-0.044710413
-2.8800182	aussi	-0.044710413
-3.8289213	vouée	-0.044710413
-3.8289213	préservée	-0.044710413
-3.8289213	développée	-0.044710413
-3.8289213	modernisée	-0.044710413
-3.5453434	pouvoir	-0.044710413
-3.8289213	mener	-0.044710413
-2.706852	bien	-0.05470741
-3.265034	politique	-0.044710442
-3.8289213	dictatoriale	-0.044710413
-3.8289213	régime	-0.044710413
-3.3829556	marocain	-0.044710413
-3.5453434	besoin	-0.12797387
-3.8289213	stabilité	-0.044710413
-3.8289213	interne	-0.044710413
-3.8289213	affronter	-0.044710413
-3.8289213	risques	-0.044710413
-3.8289213	externes	-0.044710413
-3.8289213	engendrés	-0.044710413
-3.8289213	conflit	-0.044710413
-3.8289213	Occidental	-0.044710413
-3.8289213	Belle	-0.044710413
-3.3829556	grande	-0.044710413
-3.6753192	claire	-0.044710413
-3.8289213	séduisante	-0.044710413
-3.8289213	souhait	-0.044710413
-3.265034	elle	-0.07409561
-3.6753192	retraite	-0.044710413
-3.0960753	si	-0.044710413
-3.8289213	officiellement	-0.044710413
-3.5453434	Maroc	-0.044710413
-3.3829556	relations	-0.09273105
-3.8289213	diplomatiques	-0.044710413
-3.8289213	ouvertes	-0.044710413
-3.6753192	Israël	-0.044710413
-3.1723895	cela	-0.044710413
-3.3829556	jamais	-0.044710413
-3.8289213	empêché	-0.044710413
-1.9240962	des	-0.07540876
-3.8289213	ministres	-0.044710413
-2.5423923	se	-0.07144673
-3.6753192	rendre	-0.044710413
-3.5453434	royaume	-0.044710413
-3.8289213	chérifien	-0.044710413
-3.8289213	Trois	-0.044710413
-3.5453434	ans	-0.044710413
-2.380923	plus	-0.10537894
-3.8289213	tard	-0.044710413
-3.5453434	tient	-0.044710413
-2.3946218	sur	-0.27549174
-3.8289213	crise	-0.044710413
-3.5453434	suis	-0.044710413
-3.8289213	déchirée	-0.044710413
-3.8289213	Selon	-0.044710413
-3.6753192	période	-0.044710413
-3.1723895	sera	-0.044710413
-3.6753192	mise	-0.044710413
-3.6753192	profit	-0.044710413
-3.8289213	étudier	-0.044710413
-3.8289213	conséquences	-0.044710413
-3.8289213	accord	-0.044710413
-3.8289213	ressources	-0.044710413
-3.8289213	poisson	-0.044710413
-3.0960753	ainsi	-0.12253215
-3.6753192	impact	-0.044710413
-3.8289213	régional	-0.044710413
-3.8289213	fonds	-0.044710413
-3.8289213	versés	-0.044710413
-3.8289213	Union	-0.044710413
-3.8289213	européenne	-0.044710413
-3.6753192	base	-0.044710413
-3.5453434	notamment	-0.044710442
-3.8289213	informations	-0.044710413
-3.8289213	fournies	-0.044710413
-3.8289213	autorités	-0.044710413
-3.8289213	marocaines	-0.044710413
-3.265034	Le	-0.044710413
-3.3829556	juin	-0.1369747
-3.8289213	Secrétaire	-0.044710413
-3.265034	général	-0.078460634
-3.8289213	Elysée	-0.044710413
-3.8289213	Claude	-0.044710413
-3.8289213	Guéant	-0.044710413
-3.8289213	reçu	-0.044710413
-3.8289213	Alger	-0.044710413
-3.5453434	président	-0.10561429
-3.8289213	Bouteflika	-0.044710413
-3.8289213	Premier	-0.044710413
-3.8289213	ministre	-0.044710413
-3.6753192	Ahmed	-0.044710413
-3.8289213	Ouyahia	-0.044710413
-3.8289213	Ce	-0.044710413
-3.8289213	transparaît	-0.044710413
-3.0960753	tous	-0.11200701
-3.0311882	ces	-0.044710413
-3.8289213	textes	-0.044710413
-3.8289213	espoir	-0.044710413
-3.6753192	rêves	-0.044710413
-3.3829556	peuple	-0.044710413
-3.1723895	ses	-0.044710442
-3.5453434	enfants	-0.12797387
-3.6753192	En	-0.044710413
-2.5833833	ce	-0.09039486
-3.8289213	mort	-0.044710413
-3.8289213	Mouammar	-0.044710413
-3.8289213	el-Kadhafi	-0.044710413
-3.8289213	ouvre	-0.044710413
-3.8289213	irakisation	-0.044710413
-3.8289213	somalisation	-0.044710413
-3.8289213	Libye	-0.044710413
-3.8289213	promulgation	-0.044710413
-3.265034	loi	-0.044710442
-3.8289213	anti-hérétiques	-0.044710413
-3.8289213	Ne	-0.044710413
-3.8289213	rester	-0.044710413
-3.5453434	seul	-0.044710413
-3.8289213	couple	-0.044710413
-3.8289213	isolée	-0.044710413
-3.8289213	Autant	-0.044710413
-3.5453434	dire	-0.044710413
-3.8289213	désert	-0.044710413
-3.8289213	médiatique	-0.044710413
-3.8289213	poète	-0.044710413
-3.8289213	lendemains	-0.044710413
-3.8289213	lynchage	-0.044710413
-3.8289213	pleins	-0.044710413
-3.8289213	incertitudes	-0.044710413
-3.8289213	affirment	-0.044710413
-3.1723895	premier	-0.044710442
-3.6753192	mandat	-0.17647427
-3.8289213	Wade	-0.044710413
-3.8289213	rentre	-0.044710413
-3.1723895	sous	-0.084349774
-3.8289213	nouveau	-0.044710413
-3.8289213	texte	-0.044710413
-3.8289213	constitutionnel	-0.044710413
-3.5453434	autant	-0.12797387
-3.8289213	compte	-0.044710413
-3.6753192	application	-0.17647427
-3.5453434	nouvelle	-0.044710413
-3.6753192	N'	-0.044710413
-3.6753192	hésitez	-0.044710413
-3.8289213	-pas	-0.044710413
-3.0960753	faire	-0.044710413
-3.8289213	circuler	-0.044710413
-2.408767	!	-0.85018516
-3.8289213	an	-0.044710413
-3.8289213	naissait	-0.044710413
-3.8289213	Gdem	-0.044710413
-3.8289213	Izik	-0.044710413
-3.8289213	iii	-0.044710413
-3.3829556	La	-0.044710442
-3.8289213	taxe	-0.044710413
-3.8289213	foncière	-0.044710413
-3.5453434	;	-0.2542793
-3.8289213	h	-0.044710413
-3.8289213	algérien	-0.044710413
-3.8289213	Car	-0.044710413
-3.6753192	gouvernement	-0.044710413
-3.8289213	regrette	-0.044710413
-3.0960753	temps	-0.078460634
-3.8289213	béni	-0.044710413
-3.3829556	où	-0.09273105
-3.8289213	manne	-0.044710413
-3.6753192	financière	-0.044710413
-3.8289213	apportée	-0.044710413
-3.8289213	touristes	-0.044710413
-3.8289213	algériens	-0.044710413
-3.8289213	affluaient	-0.044710413
-3.6753192	centaines	-0.17647427
-3.6753192	milliers	-0.044710413
-3.8289213	faisait	-0.044710413
-3.6753192	vivre	-0.044710413
-3.6753192	région	-0.044710413
-3.6753192	au-delà	-0.044710413
-3.8289213	amélioré	-0.044710413
-3.6753192	voulu	-0.044710413
-3.8289213	UE	-0.044710413
-3.8289213	Même	-0.044710413
-3.8289213	DGSE	-0.044710413
-3.8289213	Direction	-0.044710413
-3.8289213	générale	-0.044710413
-3.6753192	extérieure	-0.044710413
-3.8289213	quête	-0.044710413
-3.5453434	bons	-0.044710413
-3.8289213	intermédiaires	-0.044710413
-3.8289213	négocier	-0.044710413
-3.8289213	destin	-0.044710413
-3.265034	-il	-0.044710413
-3.8289213	Poussière	-0.044710413
-3.6753192	C'	-0.17647427
-3.6753192	sourire	-0.044710413
-3.8289213	Dieu	-0.044710413
-3.8289213	Comme	-0.044710413
-3.5453434	toutes	-0.2542793
-3.8289213	campagnes	-0.044710413
-3.8289213	présidentielles	-0.044710413
-3.8289213	celui	-0.044710413
-3.8289213	imprimera	-0.044710413
-3.5453434	marque	-0.044710413
-3.8289213	fixera	-0.044710413
-3.8289213	agenda	-0.044710413
-3.6753192	probable	-0.044710413
-3.8289213	vainqueur	-0.044710413
-3.5453434	mai	-0.044710413
-3.8289213	Combien	-0.044710413
-3.0311882	fois	-0.09273105
-3.8289213	célébrons	-0.044710413
-3.6753192	-nous	-0.044710413
-3.8289213	nous-mêmes	-0.044710413
-3.8289213	prenons	-0.044710413
-2.9248052	même	-0.065882266
-3.6753192	présence	-0.044710413
-3.8289213	Tout	-0.044710413
-3.8289213	présent	-0.044710413
-3.6753192	passion	-0.044710413
-3.6753192	Plus	-0.044710413
-3.8289213	AQMI	-0.044710413
-3.6753192	tente	-0.044710413
-3.8289213	nouer	-0.044710413
-3.8289213	rapports	-0.044710413
-3.8289213	mouvements	-0.044710413
-3.8289213	subversifs	-0.044710413
-3.8289213	delta	-0.044710413
-3.8289213	Nigéria	-0.044710413
-3.8289213	sectes	-0.044710413
-3.6753192	inspiration	-0.044710413
-3.8289213	religieuse	-0.044710413
-3.6753192	nord	-0.044710413
-3.8289213	Au	-0.044710442
-3.8289213	regard	-0.044710413
-3.5453434	droit	-0.09273105
-3.6753192	international	-0.12797387
-3.8289213	question	-0.044710413
-2.5624044	très	-0.0651325
-3.8289213	justice	-0.044710413
-3.6753192	française	-0.044710413
-3.8289213	obéir	-0.044710413
-3.8289213	déjuger	-0.044710413
-3.5453434	effet	-0.044710413
-2.9747474	contre	-0.09273105
-3.8289213	massive	-0.044710413
-3.8289213	touché	-0.044710413
-2.9747474	moins	-0.10399353
-3.6753192	sites	-0.044710413
-3.6753192	appartenant	-0.044710413
-3.8289213	plupart	-0.044710413
-3.6753192	entreprises	-0.044710413
-3.8289213	Personne	-0.044710413
-3.3829556	place	-0.044710413
-3.6753192	aucune	-0.044710413
-3.6753192	forme	-0.044710413
-3.8289213	espérance	-0.044710413
-3.6753192	raison	-0.044710413
-2.7680979	...	-0.1973307
-3.8289213	Mais	-0.044710442
-3.8289213	réalité	-0.044710413
-3.6753192	Algérie	-0.044710413
-3.8289213	Arabie	-0.044710413
-3.8289213	impression	-0.044710413
-3.8289213	fondamentalisme	-0.044710413
-3.265034	là	-0.09273105
-3.8289213	maintient	-0.044710413
-3.6753192	aura	-0.044710413
-3.6753192	aucun	-0.044710413
-3.5453434	mal	-0.12797387
-3.8289213	perdurer	-0.044710413
-3.8289213	Y	-0.044710413
-3.5453434	-t	-0.12797387
-3.6753192	risque	-0.044710413
-3.8289213	voir	-0.044710413
-3.8289213	choses	-0.044710413
-3.8289213	tourner	-0.044710413
-3.8289213	Syrie	-0.044710413
-3.6753192	simple	-0.17647427
-2.7363963	tout	-0.10119269
-3.8289213	Renommée	-0.044710413
-3.8289213	Warner	-0.044710413
-3.265034	France	-0.061257754
-3.6753192	Ligue	-0.12797387
-3.8289213	Justiciers	-0.044710413
-3.8289213	Nouvelle	-0.044710413
-3.8289213	Génération	-0.044710413
-3.8289213	premiers	-0.044710413
-3.8289213	épisodes	-0.044710413
-3.8289213	série	-0.044710413
-3.8289213	animée	-0.044710413
-3.6753192	seront	-0.044710413
-3.8289213	disponibles	-0.044710413
-3.3829556	dès	-0.10561429
-3.8289213	novembre	-0.044710413
-3.8289213	prochain	-0.044710413
-3.8289213	Lors	-0.044710413
-3.3829556	dernier	-0.044710413
-3.5453434	rapport	-0.044710413
-3.8289213	publié	-0.044710413
-3.6753192	ministère	-0.17647427
-3.8289213	écologie	-0.044710413
-3.8289213	avère	-0.044710413
-3.8289213	état	-0.044710413
-3.3829556	nos	-0.044710413
-3.3829556	cours	-0.10561429
-3.6753192	eau	-0.044710413
-3.8289213	brillant	-0.044710413
-3.8289213	Retenu	-0.044710413
-3.6753192	Forum	-0.044710413
-3.8289213	Berlinale	-0.044710413
-3.8289213	Territoire	-0.044710413
-3.6753192	perdu	-0.044710413
-3.8289213	inscrit	-0.044710413
-3.8289213	pleinement	-0.044710413
-3.8289213	esprit	-0.044710413
-3.8289213	section	-0.044710413
-3.8289213	expérimentale	-0.044710413
-3.8289213	avantgardiste	-0.044710413
-3.8289213	politiquement	-0.044710413
-3.8289213	engagée	-0.044710413
-3.8289213	Arrêtez	-0.044710413
-3.8289213	lecture	-0.044710413
-3.8289213	suffit	-0.044710413
-3.1723895	aujourd'hui	-0.1369747
-3.8289213	Elle	-0.044710442
-3.0311882	était	-0.044710413
-3.8289213	petite	-0.044710413
-3.8289213	cour	-0.044710413
-3.8289213	garage	-0.044710413
-3.8289213	capot	-0.044710413
-3.8289213	ouvert	-0.044710413
-3.5453434	jeunes	-0.044710413
-3.5453434	sahraouis	-0.044710413
-3.6753192	participant	-0.044710413
-3.6753192	université	-0.044710413
-3.8289213	lancé	-0.044710413
-3.6753192	appel	-0.17647427
-3.8289213	acteurs	-0.044710413
-3.8289213	politiques	-0.044710413
-3.6753192	scène	-0.044710413
-3.8289213	régionale	-0.044710413
-3.8289213	mobiliser	-0.044710413
-3.8289213	défendre	-0.044710413
-3.8289213	colonisée	-0.044710413
-3.5453434	mettre	-0.12797387
-3.5453434	terme	-0.044710413
-3.8289213	violations	-0.044710413
-3.8289213	exercées	-0.044710413
-3.6753192	autodétermination	-0.044710413
-3.8289213	exhortant	-0.044710413
-3.5453434	Nations	-0.12797387
-3.8289213	unies	-0.044710413
-3.6753192	organiser	-0.044710413
-3.8289213	référendum	-0.044710413
-3.3829556	libre	-0.044710413
-3.8289213	dilapidation	-0.044710413
-3.8289213	richesses	-0.044710413
-3.8289213	naturelles	-0.044710413
-3.5453434	passe	-0.044710413
-3.8289213	commentaires	-0.044710413
-3.8289213	comprends	-0.044710413
-3.265034	votre	-0.044710442
-3.8289213	préoccupation	-0.044710413
-3.265034	ma	-0.044710413
-3.8289213	participation	-0.044710413
-3.6753192	rencontre	-0.044710413
-3.8289213	Assise	-0.044710413
-3.8289213	Dans	-0.044710413
-3.8289213	sixties	-0.044710413
-3.6753192	Sidi	-0.044710413
-3.8289213	M'	-0.044710413
-3.8289213	hamed	-0.044710413
-3.8289213	Deddeche	-0.044710413
-3.8289213	Amgid	-0.044710413
-2.9248052	deux	-0.07073065
-3.8289213	activistes	-0.044710413
-3.8289213	pacifistes	-0.044710413
-3.5453434	territoires	-0.044710413
-3.8289213	occupés	-0.044710413
-3.8289213	Mme	-0.044710413
-3.8289213	Haïder	-0.044710413
-3.0311882	étaient	-0.07073065
-3.6753192	-ils	-0.044710413
-3.8289213	arrêter	-0.044710413
-3.6753192	mercredi	-0.044710413
-3.5453434	entrée	-0.12797387
-3.8289213	Smara	-0.044710413
-3.8289213	capitale	-0.044710413
-3.8289213	séquestrés	-0.044710413
-3.8289213	évadés	-0.044710413
-3.8289213	camps	-0.044710413
-3.8289213	Tindouf	-0.044710413
-3.1723895	sans	-0.044710413
-3.8289213	documents	-0.044710413
-3.8289213	voyage	-0.044710413
-3.6753192	A	-0.044710413
-3.3829556	chaque	-0.10561429
-3.8289213	sent	-0.044710413
-3.8289213	pression	-0.044710413
-3.8289213	Makhzen	-0.044710413
-3.8289213	appelle	-0.044710413
-3.6753192	quelqu'un	-0.17647427
-3.8289213	secours	-0.044710413
-3.6753192	observateurs	-0.044710413
-3.6753192	espagnols	-0.17647427
-3.8289213	Carlos	-0.044710413
-3.8289213	Sanchez	-0.044710413
-3.8289213	Mar	-0.044710413
-3.8289213	Figueras	-0.044710413
-3.8289213	arrêtés	-0.044710413
-3.8289213	Qui	-0.044710413
-3.6753192	donné	-0.044710413
-3.8289213	exemple	-0.044710413
-3.5453434	version	-0.044710413
-3.8289213	intègre	-0.044710413
-3.8289213	case	-0.044710413
-3.8289213	RSA	-0.044710413
-3.5453434	car	-0.044710442
-3.8289213	Revenu	-0.044710413
-3.8289213	solidarité	-0.044710413
-3.8289213	active	-0.044710413
-3.8289213	exonéré	-0.044710413
-3.8289213	impôt	-0.044710413
-3.8289213	revenu	-0.044710413
-3.8289213	montant	-0.044710413
-3.8289213	versé	-0.044710413
-3.3829556	titre	-0.044710413
-3.8289213	complément	-0.044710413
-3.8289213	activité	-0.044710413
-3.8289213	doit	-0.044710413
-3.8289213	déduit	-0.044710413
-3.8289213	prime	-0.044710413
-3.8289213	emploi	-0.044710413
-3.8289213	PPE	-0.044710413
-3.8289213	étant	-0.044710413
-3.8289213	préparés	-0.044710413
-3.8289213	recevoir	-0.044710413
-3.8289213	dix	-0.044710413
-3.8289213	quinze	-0.044710413
-3.8289213	mille	-0.044710413
-3.3829556	personnes	-0.09273105
-3.6753192	font	-0.044710413
-3.8289213	elles	-0.044710413
-3.8289213	nourrir	-0.044710413
-3.8289213	flux	-0.044710413
-3.8289213	ininterrompu	-0.044710413
-3.8289213	craignent	-0.044710413
-3.6753192	situation	-0.044710413
-3.8289213	dégénère	-0.044710413
-3.6753192	aide	-0.044710413
-3.8289213	pointe	-0.044710413
-3.8289213	vite	-0.044710413
-3.6753192	bout	-0.17647427
-3.8289213	nez	-0.044710413
-3.6753192	Ces	-0.044710413
-3.8289213	sympathisants	-0.044710413
-3.6753192	différentes	-0.044710413
-3.8289213	nationalités	-0.044710413
-3.8289213	Italiens	-0.044710413
-3.8289213	Espagnols	-0.044710413
-3.8289213	Britanniques	-0.044710413
-3.8289213	Allemands	-0.044710413
-3.8289213	Argentins	-0.044710413
-3.8289213	Norvégiens	-0.044710413
-3.8289213	Cubains	-0.044710413
-3.8289213	Sud-Africains	-0.044710413
-3.8289213	Vénézuéliens	-0.044710413
-3.8289213	etc	-0.044710413
-3.8289213	Dakhla	-0.044710413
-3.6753192	ceux	-0.17647427
-3.5453434	office	-0.12797387
-3.8289213	colons	-0.044710413
-3.5453434	permis	-0.044710413
-3.8289213	traiter	-0.044710413
-3.5453434	tant	-0.10561429
-3.8289213	indigènes	-0.044710413
-3.8289213	agressant	-0.044710413
-3.8289213	football	-0.044710413
-3.8289213	maroco-sahraoui	-0.044710413
-3.6753192	affrontements	-0.044710413
-3.3829556	eu	-0.044710413
-3.5453434	lieu	-0.12797387
-3.8289213	Ont	-0.044710413
-3.265034	également	-0.09273105
-3.8289213	assisté	-0.044710413
-3.6753192	occasion	-0.044710413
-3.6753192	représentants	-0.044710413
-3.6753192	corps	-0.044710413
-3.8289213	diplomatique	-0.044710413
-3.8289213	accrédité	-0.044710413
-3.8289213	sud	-0.044710413
-3.8289213	Cuba	-0.044710413
-3.8289213	Venezuela	-0.044710413
-3.8289213	Angola	-0.044710413
-3.8289213	Congo	-0.044710413
-3.8289213	Attention	-0.044710413
-3.8289213	conversion	-0.044710413
-3.8289213	changement	-0.044710413
-3.8289213	total	-0.044710413
-3.8289213	encore	-0.044710413
-3.8289213	reniement	-0.044710413
-3.5453434	cet	-0.044710413
-3.265034	homme	-0.044710413
-3.8289213	affaires	-0.044710413
-3.6753192	particulier	-0.044710413
-3.8289213	partout	-0.044710413
-3.5453434	contrôle	-0.09273105
-3.8289213	banque	-0.044710413
-2.9747474	trois	-0.044710413
-3.8289213	opérateurs	-0.044710413
-3.8289213	télécoms	-0.044710413
-3.8289213	actif	-0.044710413
-3.8289213	business	-0.044710413
-3.8289213	sucre	-0.044710413
-3.8289213	énergie	-0.044710413
-3.8289213	centrales	-0.044710413
-3.8289213	laitières	-0.044710413
-3.8289213	associé	-0.044710413
-3.6753192	groupe	-0.044710413
-3.8289213	Danone	-0.044710413
-3.8289213	Vous	-0.044710413
-3.265034	m'	-0.09273105
-3.8289213	accusez	-0.044710413
-3.8289213	subjectivisme	-0.044710413
-3.8289213	De	-0.044710413
-3.6753192	nombreux	-0.044710413
-3.8289213	Marocains	-0.044710413
-3.8289213	pensent	-0.044710413
-3.8289213	hésitant	-0.044710413
-3.8289213	accuser	-0.044710413
-3.8289213	opérateur	-0.044710413
-3.8289213	abandonner	-0.044710413
-3.8289213	pans	-0.044710413
-3.8289213	entiers	-0.044710413
-3.8289213	économie	-0.044710413
-3.8289213	marocaine	-0.044710413
-3.8289213	mains	-0.044710413
-3.8289213	réseaux	-0.044710413
-3.8289213	affairistes	-0.044710413
-3.8289213	milieux	-0.044710413
-3.8289213	corruption	-0.044710413
-3.8289213	grossir	-0.044710413
-3.8289213	rangs	-0.044710413
-3.8289213	mécontents	-0.044710413
-3.6753192	Mgr	-0.044710413
-3.8289213	Velasio	-0.044710413
-3.8289213	Paolis	-0.044710413
-3.8289213	aggraver	-0.044710413
-3.8289213	lourde	-0.044710413
-3.8289213	Dès	-0.044710413
-3.6753192	décide	-0.044710413
-3.8289213	regagner	-0.044710413
-3.6753192	liberté	-0.044710413
-3.6753192	devient	-0.044710413
-3.8289213	instantanément	-0.044710413
-3.8289213	facto	-0.044710413
-3.8289213	Que	-0.044710413
-3.1723895	dit	-0.044710413
-3.6753192	Eglise	-0.044710413
-3.6753192	point	-0.044710413
-3.8289213	délicat	-0.044710413
-3.8289213	guette	-0.044710413
-3.6753192	oui	-0.17647427
-3.8289213	livrant	-0.044710413
-3.8289213	clefs	-0.044710413
-3.5453434	histoire	-0.044710413
-3.6753192	projet	-0.044710413
-3.8289213	industriel	-0.044710413
-3.8289213	invite	-0.044710413
-3.8289213	tirer	-0.044710413
-3.8289213	leçons	-0.044710413
-3.5453434	passé	-0.044710413
-3.3829556	mieux	-0.044710413
-3.8289213	appréhender	-0.044710413
-3.8289213	perspectives	-0.044710413
-3.8289213	énergétiques	-0.044710413
-3.8289213	Maghreb	-0.044710413
-3.8289213	principe	-0.044710413
-3.6753192	articles	-0.044710413
-3.8289213	Code	-0.044710413
-3.8289213	Général	-0.044710413
-3.8289213	Impôts	-0.044710413
-3.0311882	français	-0.07409561
-3.8289213	CGI	-0.044710413
-3.8289213	fixent	-0.044710413
-3.8289213	règles	-0.044710413
-3.8289213	imposition	-0.044710413
-3.1723895	cas	-0.078460634
-3.8289213	transfert	-0.044710413
-3.5453434	domicile	-0.044710413
-3.8289213	étranger	-0.044710413
-3.8289213	Consacrant	-0.044710413
-3.8289213	énérgie	-0.044710413
-3.8289213	exclusivement	-0.044710413
-3.8289213	grands	-0.044710413
-3.8289213	chantiers	-0.044710413
-3.8289213	économiques	-0.044710413
-3.8289213	destinés	-0.044710413
-3.8289213	procurer	-0.044710413
-3.3829556	travail	-0.044710413
-3.6753192	générations	-0.044710413
-3.8289213	Après	-0.044710413
-3.3829556	avoir	-0.044710413
-3.8289213	examiné	-0.044710413
-3.8289213	bilatérales	-0.044710413
-3.8289213	chefs	-0.044710413
-3.8289213	Etat	-0.044710413
-3.8289213	réitéré	-0.044710413
-3.8289213	œuvrer	-0.044710413
-3.8289213	renforcement	-0.044710413
-3.8289213	diversification	-0.044710413
-3.6753192	façon	-0.044710413
-3.6753192	conditions	-0.044710413
-3.8289213	socio-économiques	-0.044710413
-3.8289213	radicalement	-0.044710413
-3.6753192	nouvelles	-0.044710413
-3.8289213	néolibéralisme	-0.044710413
-3.8289213	imposées	-0.044710413
-3.8289213	durant	-0.044710413
-3.3829556	années	-0.044710413
-3.3829556	me	-0.044710413
-3.5453434	demande	-0.044710413
-3.1723895	chez	-0.084349774
-3.8289213	condamner	-0.044710413
-3.6753192	citoyens	-0.044710413
-3.8289213	illégaux	-0.044710413
-3.6753192	estimant	-0.17647427
-3.8289213	protectorat	-0.044710413
-3.6753192	vu	-0.044710413
-3.8289213	aides	-0.044710413
-3.6753192	militaires	-0.044710413
-3.8289213	puissance	-0.044710413
-3.8289213	colonialisme	-0.044710413
-3.8289213	rappelé	-0.044710413
-3.8289213	position	-0.044710413
-3.6753192	Conseil	-0.17647427
-3.8289213	ONU	-0.044710413
-3.8289213	opposant	-0.044710413
-3.8289213	Veto	-0.044710413
-3.8289213	élargissement	-0.044710413
-3.8289213	missions	-0.044710413
-3.6753192	Minurso	-0.044710413
-3.8289213	englober	-0.044710413
-3.8289213	surveillance	-0.044710413
-3.8289213	Faire	-0.044710413
-3.6753192	part	-0.044710413
-3.8289213	éblouissement	-0.044710413
-3.3829556	savoir	-0.044710413
-3.8289213	lâcher	-0.044710413
-3.8289213	admiration	-0.044710413
-3.8289213	soi	-0.044710413
-3.8289213	céder	-0.044710413
-3.8289213	immédiat	-0.044710413
-3.8289213	beau	-0.044710413
-3.8289213	transporte	-0.044710413
-3.8289213	voilà	-0.044710413
-3.8289213	lyrisme	-0.044710413
-3.8289213	c'est-à-dire	-0.044710413
-3.0960753	--	-0.078460634
-3.8289213	poursuit	-0.044710413
-3.8289213	argument	-0.044710413
-3.6753192	pensait	-0.044710413
-3.8289213	indépendantistes	-0.044710413
-3.8289213	militants	-0.044710413
-3.265034	quand	-0.09273105
-3.8289213	unis	-0.044710413
-3.6753192	main	-0.044710413
-3.8289213	revenait	-0.044710413
-3.5453434	maintenant	-0.044710413
-3.8289213	rodé	-0.044710413
-3.8289213	Hassan	-0.044710413
-3.6753192	II	-0.044710413
-3.8289213	arrivée	-0.044710413
-3.8289213	Mohammed	-0.044710413
-3.8289213	VI	-0.044710413
-3.6753192	auraient	-0.044710413
-3.6753192	évolué	-0.044710413
-3.8289213	rappel	-0.044710413
-3.8289213	envahi	-0.044710413
-3.8289213	suite	-0.044710413
-3.8289213	retrait	-0.044710413
-3.6753192	espagnol	-0.044710413
-3.8289213	Toutefois	-0.044710413
-3.8289213	réfugiés	-0.044710413
-3.8289213	cause	-0.044710413
-3.6753192	importe	-0.044710413
-3.8289213	humaine	-0.044710413
-3.8289213	Haye	-0.044710413
-3.8289213	Égypte	-0.044710413
-3.8289213	Hosni	-0.044710413
-3.8289213	Moubarak	-0.044710413
-3.8289213	éprouve	-0.044710413
-3.3829556	selon	-0.044710413
-3.8289213	diplomate	-0.044710413
-3.8289213	basé	-0.044710413
-3.8289213	Caire	-0.044710413
-3.8289213	haine	-0.044710413
-3.8289213	viscérale	-0.044710413
-3.8289213	République	-0.044710413
-3.8289213	islamique	-0.044710413
-3.5453434	L'	-0.044710413
-3.6753192	acteur	-0.044710413
-3.8289213	Alex	-0.044710413
-3.8289213	Angulo	-0.044710413
-3.8289213	attribué	-0.044710413
-3.8289213	Camella	-0.044710413
-3.8289213	blanca	-0.044710413
-3.8289213	réalisateurs	-0.044710413
-3.6753192	film	-0.044710413
-3.8289213	souligné	-0.044710413
-3.8289213	observer	-0.044710413
-3.8289213	courageux	-0.044710413
-3.8289213	pacifique	-0.044710413
-3.8289213	combatif	-0.044710413
-3.8289213	sahraoui	-0.044710413
-3.8289213	Tenue	-0.044710413
-3.8289213	mois	-0.044710413
-3.0960753	après	-0.12253215
-3.8289213	précédente	-0.044710413
-3.5453434	réunion	-0.12797387
-3.8289213	informelle	-0.044710413
-3.8289213	Valette	-0.044710413
-3.8289213	Malte	-0.044710413
-3.8289213	déroule	-0.044710413
-3.8289213	auspices	-0.044710413
-3.8289213	envoyé	-0.044710413
-3.6753192	personnel	-0.044710413
-3.6753192	secrétaire	-0.044710413
-3.265034	M.	-0.044710413
-3.8289213	Christopher	-0.044710413
-3.6753192	Ross	-0.044710413
-3.8289213	délégations	-0.044710413
-3.8289213	parties	-0.044710413
-3.8289213	ras-le-bol	-0.044710413
-3.0960753	fut	-0.044710413
-3.8289213	mobilisation	-0.044710413
-3.8289213	inédite	-0.044710413
-3.5453434	moment	-0.12797387
-3.6753192	jour	-0.044710413
-3.8289213	nuit	-0.044710413
-3.3829556	faut	-0.09273105
-3.6753192	outre	-0.044710413
-3.8289213	exprimé	-0.044710413
-3.8289213	renforcer	-0.044710413
-3.8289213	consolider	-0.044710413
-3.8289213	avenir	-0.044710413
-3.8289213	Opep	-0.044710413
-3.6753192	gaz	-0.044710413
-3.8289213	exportateurs	-0.044710413
-3.8289213	FPEG	-0.044710413
-3.5453434	né	-0.10561429
-3.8289213	Oran	-0.044710413
-3.8289213	avril	-0.044710413
-3.8289213	envoyer	-0.044710413
-3.8289213	actualités	-0.044710413
-3.8289213	libres	-0.044710413
-3.8289213	tribunes	-0.044710413
-3.6753192	adresse	-0.044710413
-3.8289213	suivante	-0.044710413
-3.8289213	criticusleblog@gmail.com	-0.044710413
-3.8289213	Jusqu'	-0.044710413
-3.8289213	officielle	-0.044710413
-3.8289213	maintiendra	-0.044710413
-3.6753192	-elle	-0.044710413
-3.8289213	préférence	-0.044710413
-3.8289213	protection	-0.044710413
-3.8289213	agresseurs	-0.044710413
-3.8289213	réussira	-0.044710413
-3.8289213	valoir	-0.044710413
-3.8289213	négociations	-0.044710413
-3.8289213	Rabat	-0.044710413
-3.8289213	bénéficiant	-0.044710413
-3.5453434	soutien	-0.044710413
-3.1723895	autres	-0.044710442
-3.8289213	permanent	-0.044710413
-3.8289213	occurrence	-0.044710413
-3.6753192	Quand	-0.044710413
-3.8289213	avez	-0.044710413
-3.8289213	opportunité	-0.044710413
-3.8289213	camper	-0.044710413
-3.8289213	personnage	-0.044710413
-3.265034	plusieurs	-0.044710442
-3.8289213	développez	-0.044710413
-3.8289213	relation	-0.044710413
-3.8289213	profonde	-0.044710413
-3.8289213	préfecture	-0.044710413
-3.8289213	Police	-0.044710413
-3.6753192	Paris	-0.044710413
-3.8289213	déconseille	-0.044710413
-3.8289213	automobilistes	-0.044710413
-3.8289213	déplacer	-0.044710413
-3.6753192	résultat	-0.044710413
-3.8289213	provient	-0.044710413
-3.6753192	hauteur	-0.12797387
-3.8289213	ME	-0.044710413
-3.8289213	progression	-0.044710413
-3.8289213	rentabilité	-0.044710413
-3.8289213	habitat	-0.044710413
-3.8289213	loisirs	-0.044710413
-3.8289213	dégage	-0.044710413
-3.6753192	marge	-0.044710413
-3.8289213	opérationnelle	-0.044710413
-3.5453434	année	-0.044710413
-3.8289213	passée	-0.044710413
-3.8289213	Moi	-0.044710413
-3.8289213	vois	-0.044710413
-3.8289213	vidéos	-0.044710413
-3.6753192	jeu	-0.044710413
-3.8289213	dis	-0.044710413
-3.8289213	Battlefield	-0.044710413
-3.8289213	THE	-0.044710413
-3.8289213	GAME	-0.044710413
-3.8289213	vrais	-0.044710413
-3.8289213	soldats	-0.044710413
-3.8289213	slip	-0.044710413
-3.6753192	gestion	-0.044710413
-3.6753192	exploitation	-0.044710413
-3.6753192	salle	-0.044710413
-3.8289213	concert	-0.044710413
-3.8289213	Wagram	-0.044710413
-3.8289213	récemment	-0.044710413
-3.8289213	rénovée	-0.044710413
-3.8289213	assurée	-0.044710413
-3.8289213	Eurosites	-0.044710413
-3.6753192	leader	-0.044710413
-3.8289213	location	-0.044710413
-3.8289213	salles	-0.044710413
-3.8289213	supporters	-0.044710413
-3.5453434	veulent	-0.044710413
-3.5453434	aider	-0.044710413
-3.6753192	club	-0.044710413
-3.8289213	travers	-0.044710413
-3.8289213	souscription	-0.044710413
-3.8289213	revenir	-0.044710413
-3.8289213	Djibril	-0.044710413
-3.8289213	AJA	-0.044710413
-3.8289213	fassent	-0.044710413
-3.8289213	remarie	-0.044710413
-3.6753192	fils	-0.044710413
-3.1723895	va	-0.044710413
-3.8289213	naître	-0.044710413
-3.8289213	Serge	-0.044710413
-3.8289213	Outre	-0.044710413
-3.8289213	aspects	-0.044710413
-3.8289213	fantasy	-0.044710413
-3.8289213	environnement	-0.044710413
-3.8289213	moderne	-0.044710413
-3.6753192	actuel	-0.17647427
-3.8289213	personnages	-0.044710413
-3.8289213	intrigue	-0.044710413
-3.8289213	représentés	-0.044710413
-3.8289213	kemonomimi	-0.044710413
-3.8289213	oreilles	-0.044710413
-3.8289213	queues	-0.044710413
-3.8289213	chat	-0.044710413
-3.8289213	attributs	-0.044710413
-3.8289213	physiques	-0.044710413
-3.8289213	marquent	-0.044710413
-3.6753192	jeune	-0.044710413
-3.6753192	âge	-0.044710413
-3.8289213	innocence	-0.044710413
-3.8289213	virginité	-0.044710413
-3.8289213	À	-0.044710413
-3.3829556	leurs	-0.044710413
-3.8289213	résultats	-0.044710413
-3.8289213	viennent	-0.044710413
-3.8289213	conclusion	-0.044710413
-3.8289213	États	-0.044710413
-3.5453434	avaient	-0.044710413
-3.8289213	limite	-0.044710413
-3.8289213	mg/100	-0.044710413
-3.8289213	ml	-0.044710413
-3.8289213	janvier	-0.044710413
-3.8289213	adopté	-0.044710413
-3.8289213	vies	-0.044710413
-3.8289213	sauvées	-0.044710413
-3.8289213	Créé	-0.044710413
-3.8289213	show	-0.044710413
-3.8289213	Mamma	-0.044710413
-3.8289213	Mia	-0.044710413
-3.8289213	Du	-0.044710413
-3.8289213	Vatican	-0.044710413
-3.6753192	dont	-0.044710442
-3.8289213	voile	-0.044710413
-3.8289213	posé	-0.044710413
-3.8289213	privée	-0.044710413
-3.8289213	Cavaliere	-0.044710413
-3.8289213	message	-0.044710413
-3.8289213	feutré	-0.044710413
-3.8289213	clair	-0.044710413
-3.8289213	accueilli	-0.044710413
-3.8289213	longtemps	-0.044710413
-3.8289213	bienfaits	-0.044710413
-3.8289213	Après-midi	-0.044710413
-3.8289213	détente	-0.044710413
-3.8289213	piscine	-0.044710413
-3.8289213	Des	-0.044710413
-3.8289213	visites	-0.044710413
-3.8289213	commentées	-0.044710413
-3.8289213	permettront	-0.044710413
-3.5453434	public	-0.044710413
-3.8289213	découvrir	-0.044710413
-3.8289213	collections	-0.044710413
-3.8289213	animations	-0.044710413
-3.8289213	approche	-0.044710413
-3.8289213	Eclipse	-0.044710413
-3.5453434	créé	-0.044710413
-3.8289213	lutter	-0.044710413
-3.8289213	gangs	-0.044710413
-3.5453434	rue	-0.044710413
-3.8289213	inutile	-0.044710413
-3.8289213	bougeront	-0.044710413
-3.6753192	revendications	-0.044710413
-3.8289213	auront	-0.044710413
-3.8289213	acceptées	-0.044710413
-3.6753192	assuré	-0.044710413
-3.6753192	eux	-0.044710413
-3.8289213	Karoubi	-0.044710413
-3.8289213	bloqué	-0.044710413
-3.6753192	jeudi	-0.044710413
-3.8289213	police	-0.044710413
-3.8289213	Moussavi	-0.044710413
-3.3829556	lundi	-0.044710413
-3.6753192	matin	-0.044710413
-3.8289213	encerclé	-0.044710413
-3.8289213	téléphones	-0.044710413
-3.8289213	coupés	-0.044710413
-3.5453434	site	-0.044710413
-3.6753192	internet	-0.044710413
-3.8289213	Un	-0.044710413
-3.8289213	timbre	-0.044710413
-3.6753192	émis	-0.044710413
-3.8289213	marquer	-0.044710413
-3.8289213	150e	-0.044710413
-3.8289213	anniversaire	-0.044710413
-3.8289213	naissance	-0.044710413
-3.8289213	Théodore	-0.044710413
-3.8289213	Herzl	-0.044710413
-3.8289213	journaliste	-0.044710413
-3.8289213	écrivain	-0.044710413
-3.8289213	fondateur	-0.044710413
-3.5453434	mouvement	-0.044710442
-3.8289213	sioniste	-0.044710413
-3.8289213	Budapest	-0.044710413
-3.8289213	sein	-0.044710413
-3.5453434	équipe	-0.044710442
-3.5453434	professionnelle	-0.044710413
-3.8289213	chacun	-0.044710413
-3.8289213	important	-0.044710413
-3.8289213	rôle	-0.044710413
-3.8289213	jouer	-0.044710413
-3.8289213	contribuer	-0.044710413
-3.8289213	rayonnement	-0.044710413
-3.6753192	ville	-0.17647427
-3.8289213	Bayonne	-0.044710413
-3.8289213	culture	-0.044710413
-3.8289213	basque	-0.044710413
-3.8289213	Inter	-0.044710413
-3.8289213	champion	-0.044710413
-3.8289213	logiquement	-0.044710413
-3.8289213	favori	-0.044710413
-3.8289213	Schalke	-0.044710413
-3.8289213	effectif	-0.044710413
-3.8289213	limité	-0.044710413
-3.6753192	aller	-0.044710413
-3.6753192	quarts	-0.044710413
-3.5453434	finale	-0.044710413
-3.8289213	champions	-0.044710413
-3.8289213	déplore	-0.044710413
-3.265034	quelques	-0.044710442
-3.8289213	blessures	-0.044710413
-3.8289213	âme	-0.044710413
-3.8289213	Quatre	-0.044710413
-3.5453434	jours	-0.12797387
-3.8289213	ceux-ci	-0.044710413
-3.8289213	pourront	-0.044710413
-3.8289213	retrouver	-0.044710413
-3.8289213	200m	-0.044710413
-3.6753192	août	-0.044710413
-3.8289213	Chaque	-0.044710413
-3.6753192	entreprise	-0.044710413
-3.6753192	possède	-0.044710413
-3.6753192	centre	-0.044710413
-3.8289213	téléphonistes	-0.044710413
-3.8289213	équivaut	-0.044710413
-3.3829556	Québec	-0.044710413
-3.6753192	centres	-0.044710413
-3.8289213	appels	-0.044710413
-3.8289213	Prenant	-0.044710413
-3.8289213	parole	-0.044710413
-3.6753192	Charles	-0.044710413
-3.8289213	Mwando	-0.044710413
-3.8289213	Nsimba	-0.044710413
-3.8289213	sollicité	-0.044710413
-3.8289213	délai	-0.044710413
-3.8289213	supplémentaire	-0.044710413
-3.8289213	répondre	-0.044710413
-3.8289213	préoccupations	-0.044710413
-3.8289213	soulevées	-0.044710413
-3.8289213	éléments	-0.044710413
-3.6753192	nouveaux	-0.044710413
-3.8289213	introduits	-0.044710413
-3.6753192	soir	-0.044710413
-3.6753192	installé	-0.044710413
-3.8289213	logement	-0.044710413
-3.6753192	situé	-0.044710413
-3.8289213	TriBeCa	-0.044710413
-3.8289213	quartier	-0.044710413
-3.8289213	sud-ouest	-0.044710413
-3.8289213	Manhattan	-0.044710413
-3.8289213	Depuis	-0.044710413
-3.8289213	affaire	-0.044710413
-3.8289213	candidate	-0.044710413
-3.6753192	primaire	-0.044710413
-3.8289213	PS	-0.044710413
-3.8289213	congé	-0.044710413
-3.8289213	fonctions	-0.044710413
-3.6753192	parti	-0.044710413
-3.8289213	louvoie	-0.044710413
-3.8289213	prise	-0.044710413
-3.8289213	distance	-0.044710413
-3.8289213	lire	-0.044710413
-3.8289213	synthèse	-0.044710413
-3.6753192	sujet	-0.044710413
-3.8289213	Affaire	-0.044710413
-3.8289213	DSK	-0.044710413
-3.8289213	comment	-0.044710413
-3.8289213	Aubry	-0.044710413
-3.8289213	Cette	-0.044710413
-3.3829556	élection	-0.10561429
-3.6753192	seulement	-0.044710413
-3.8289213	disputée	-0.044710413
-3.8289213	indépendance	-0.044710413
-3.8289213	stimulante	-0.044710413
-3.3829556	+	-0.044710413
-3.8289213	Facebookant	-0.044710413
-3.8289213	Tweetant	-0.044710413
-3.5453434	nombre	-0.044710413
-3.8289213	record	-0.044710413
-3.8289213	meetings	-0.044710413
-3.8289213	traditionnels	-0.044710413
-3.5453434	samedi	-0.044710413
-3.8289213	Straits	-0.044710413
-3.8289213	Times	-0.044710413
-3.8289213	principal	-0.044710413
-3.8289213	quotidien	-0.044710413
-3.8289213	considéré	-0.044710413
-3.8289213	favorable	-0.044710413
-3.8289213	PAP	-0.044710413
-3.8289213	Odeurs	-0.044710413
-3.8289213	saveurs	-0.044710413
-3.8289213	couleurs	-0.044710413
-3.8289213	mélange	-0.044710413
-3.5453434	grand	-0.09273105
-3.8289213	plaisir	-0.044710413
-3.8289213	gourmands	-0.044710413
-3.8289213	amateurs	-0.044710413
-3.5453434	produits	-0.10561429
-3.5453434	qualité	-0.044710442
-3.8289213	appareils	-0.044710413
-3.8289213	dernière	-0.044710413
-3.8289213	génération	-0.044710413
-3.8289213	exposent	-0.044710413
-3.8289213	couche	-0.044710413
-3.8289213	supérieure	-0.044710413
-3.8289213	°	-0.044710413
-3.8289213	C	-0.044710413
-3.8289213	couches	-0.044710413
-3.8289213	profondes	-0.044710413
-3.8289213	atteindront	-0.044710413
-3.8289213	température	-0.044710413
-3.8289213	normal	-0.044710413
-3.8289213	ressentir	-0.044710413
-3.8289213	douleur	-0.044710413
-3.8289213	Sean	-0.044710413
-3.8289213	David	-0.044710413
-3.8289213	Morton	-0.044710413
-3.6753192	appeler	-0.044710413
-3.8289213	prophète	-0.044710413
-3.6753192	Amérique	-0.044710413
-3.8289213	levé	-0.044710413
-3.8289213	six	-0.044710413
-3.6753192	millions	-0.044710413
-3.8289213	dollars	-0.044710413
-3.8289213	faisant	-0.044710413
-3.8289213	croire	-0.044710413
-3.6753192	investisseurs	-0.044710413
-3.8289213	pouvait	-0.044710413
-3.8289213	prédire	-0.044710413
-3.8289213	évolution	-0.044710413
-3.8289213	Bourse	-0.044710413
-3.6753192	quoi	-0.044710413
-3.8289213	inciter	-0.044710413
-3.8289213	certaine	-0.044710413
-3.8289213	prudence	-0.044710413
-3.8289213	excédent	-0.044710413
-3.8289213	brut	-0.044710413
-3.8289213	atteint	-0.044710413
-3.6753192	euros	-0.044710413
-3.8289213	rebond	-0.044710413
-3.8289213	opérationnel	-0.044710413
-3.8289213	courant	-0.044710413
-3.6753192	affiche	-0.044710413
-3.8289213	hausse	-0.044710413
-3.8289213	avions	-0.044710413
-3.8289213	tranché	-0.044710413
-3.8289213	Sa	-0.044710413
-3.6753192	moyenne	-0.044710413
-3.5453434	but	-0.044710413
-3.6753192	meilleure	-0.044710413
-3.6753192	parmi	-0.17647427
-3.8289213	joueurs	-0.044710413
-3.5453434	ayant	-0.044710413
-3.8289213	disputé	-0.044710413
-3.8289213	matches	-0.044710413
-3.6753192	saison	-0.044710413
-3.6753192	indiqué	-0.044710413
-3.8289213	MLS	-0.044710413
-3.8289213	attaquant	-0.044710413
-3.8289213	Bayern	-0.044710413
-3.8289213	Munich	-0.044710413
-3.3829556	surtout	-0.084349774
-3.8289213	livre	-0.044710413
-3.8289213	retiré	-0.044710413
-3.6753192	vente	-0.044710413
-3.8289213	Troisième	-0.044710413
-3.8289213	Andrea	-0.044710413
-3.8289213	Dovizioso	-0.044710413
-3.8289213	Honda	-0.044710413
-3.8289213	approché	-0.044710413
-3.8289213	2:00.531	-0.044710413
-3.6753192	Ben	-0.044710413
-3.8289213	Spies	-0.044710413
-3.8289213	Jorge	-0.044710413
-3.8289213	Lorenzo	-0.044710413
-3.8289213	Yamaha	-0.044710413
-3.8289213	M1	-0.044710413
-3.8289213	distancés	-0.044710413
-3.8289213	8/10e	-0.044710413
-3.8289213	seconde	-0.044710413
-3.8289213	réorientation	-0.044710413
-3.8289213	géant	-0.044710413
-3.8289213	IP	-0.044710413
-3.8289213	constitue	-0.044710413
-3.8289213	adeptes	-0.044710413
-3.8289213	Wimax	-0.044710413
-3.8289213	perdent	-0.044710413
-3.8289213	pied	-0.044710413
-3.5453434	face	-0.044710413
-3.8289213	LTE	-0.044710413
-3.8289213	absent	-0.044710413
-3.5453434	long	-0.044710413
-3.8289213	roman	-0.044710413
-3.8289213	Retrouver	-0.044710413
-3.6753192	notre	-0.044710413
-3.8289213	Si	-0.044710413
-3.8289213	Moody	-0.044710413
-3.8289213	's	-0.044710413
-3.6753192	estime	-0.044710413
-3.8289213	note	-0.044710413
-3.8289213	devrait	-0.044710413
-3.8289213	baisser	-0.044710413
-3.8289213	cran	-0.044710413
-3.8289213	Société	-0.044710413
-3.8289213	Générale	-0.044710413
-3.8289213	dégradation	-0.044710413
-3.8289213	pourrait	-0.044710413
-3.8289213	atteindre	-0.044710413
-3.8289213	crans	-0.044710413
-3.8289213	Nombre	-0.044710413
-3.8289213	auparavant	-0.044710413
-3.8289213	voyaient	-0.044710413
-3.8289213	mauvais	-0.044710413
-3.8289213	œil	-0.044710413
-3.8289213	accumulation	-0.044710413
-3.8289213	liquidités	-0.044710413
-3.8289213	reconnaissent	-0.044710413
-3.8289213	avantages	-0.044710413
-3.8289213	constitution	-0.044710413
-3.8289213	réserves	-0.044710413
-3.8289213	importantes	-0.044710413
-3.8289213	Ca	-0.044710413
-3.8289213	énerve	-0.044710413
-3.0960753	beaucoup	-0.16322519
-3.8289213	utilisateur	-0.044710413
-3.8289213	final	-0.044710413
-3.8289213	rassurant	-0.044710413
-3.8289213	caillou	-0.044710413
-3.6753192	blanc	-0.044710413
-3.8289213	Ainsi	-0.044710413
-3.8289213	cadres	-0.044710413
-3.8289213	clarté	-0.044710413
-3.8289213	crédibilité	-0.044710413
-3.8289213	accru	-0.044710413
-3.8289213	portée	-0.044710413
-3.5453434	actions	-0.044710413
-3.6753192	Banque	-0.044710413
-3.8289213	agit	-0.044710413
-3.8289213	importateurs	-0.044710413
-3.6753192	utilisés	-0.044710413
-3.8289213	Comité	-0.044710413
-3.8289213	Fal	-0.044710413
-3.8289213	établir	-0.044710413
-3.8289213	baromètre	-0.044710413
-3.8289213	passage	-0.044710413
-3.8289213	port	-0.044710413
-3.8289213	éclatera	-0.044710413
-3.8289213	expliqué	-0.044710413
-3.8289213	Véronique	-0.044710413
-3.8289213	toutefois	-0.044710413
-3.8289213	noter	-0.044710413
-3.5453434	alors	-0.044710413
-3.3829556	bon	-0.044710413
-3.6753192	ton	-0.044710413
-3.8289213	jouissant	-0.044710413
-3.8289213	aisance	-0.044710413
-3.8289213	posséder	-0.044710413
-3.8289213	maîtresses	-0.044710413
-3.8289213	Qu'	-0.044710413
-3.6753192	emplois	-0.044710413
-3.8289213	détruit	-0.044710413
-3.8289213	tourisme	-0.044710413
-3.8289213	appliqué	-0.044710413
-3.8289213	concept	-0.044710413
-3.8289213	constaté	-0.044710413
-3.8289213	caractère	-0.044710413
-3.8289213	désastreux	-0.044710413
-3.6753192	système	-0.044710413
-3.8289213	éclairage	-0.044710413
-3.8289213	kérosène	-0.044710413
-3.6753192	dimanche	-0.044710413
-3.8289213	Pleumeur-Bodou	-0.044710413
-3.8289213	Cosmopolis	-0.044710413
-3.8289213	Là	-0.044710413
-3.8289213	saura	-0.044710413
-3.8289213	coupable	-0.044710413
-3.6753192	victime	-0.044710413
-3.8289213	prévenu	-0.044710413
-3.6753192	patron	-0.044710413
-3.8289213	FAF	-0.044710413
-3.8289213	Comment	-0.044710413
-3.8289213	repoussez	-0.044710413
-3.8289213	bateaux	-0.044710413
-3.8289213	immigrés	-0.044710413
-3.8289213	eaux	-0.044710413
-3.8289213	internationales	-0.044710413
-3.8289213	Football	-0.044710413
-3.8289213	Atlantique	-0.044710413
-3.8289213	Rochelais	-0.044710413
-3.8289213	FAR	-0.044710413
-3.6753192	organise	-0.044710413
-3.8289213	tournoi	-0.044710413
-3.8289213	réunissant	-0.044710413
-3.8289213	formation	-0.044710413
-3.8289213	ultime	-0.044710413
-3.6753192	étape	-0.044710413
-3.6753192	coupe	-0.044710413
-3.8289213	catégories	-0.044710413
-3.8289213	espoirs	-0.044710413
-3.8289213	revanche	-0.044710413
-3.6753192	championnats	-0.044710413
-3.8289213	vétérans	-0.044710413
-3.8289213	motivés	-0.044710413
-3.8289213	compétition	-0.044710413
-3.6753192	incontournable	-0.044710413
-3.8289213	épreuve	-0.044710413
-3.8289213	déroulera	-0.044710413
-3.8289213	open	-0.044710413
-3.8289213	Lourdement	-0.044710413
-3.8289213	endetté	-0.044710413
-3.8289213	milliards	-0.044710413
-3.8289213	fin	-0.044710413
-3.8289213	Portugal	-0.044710413
-3.8289213	fini	-0.044710413
-3.8289213	récession	-0.044710413
-3.8289213	déficit	-0.044710413
-3.8289213	PIB	-0.044710413
-3.8289213	chômage	-0.044710413
-3.8289213	Certes	-0.044710413
-3.8289213	consoler	-0.044710413
-3.8289213	piètres	-0.044710413
-3.6753192	performances	-0.044710413
-3.8289213	voisin	-0.044710413
-3.8289213	italien	-0.044710413
-3.8289213	lanternes	-0.044710413
-3.8289213	noires	-0.044710413
-3.8289213	classement	-0.044710413
-3.8289213	Wef	-0.044710413
-3.8289213	74e	-0.044710413
-3.8289213	Nouvelle-Zélande	-0.044710413
-3.5453434	remporté	-0.044710413
-3.8289213	deuxième	-0.044710413
-3.8289213	Coupe	-0.044710413
-3.8289213	Monde	-0.044710413
-3.8289213	rugby	-0.044710413
-3.8289213	sacre	-0.044710413
-3.8289213	battant	-0.044710413
-3.8289213	XV	-0.044710413
-3.8289213	mi-temps	-0.044710413
-3.8289213	5-0	-0.044710413
-3.8289213	Eden	-0.044710413
-3.6753192	Park	-0.044710413
-3.8289213	Auckland	-0.044710413
-3.8289213	affirmé	-0.044710413
-3.8289213	obligation	-0.044710413
-3.8289213	parfait	-0.044710413
-3.8289213	qualifier	-0.044710413
-3.5453434	côté	-0.044710413
-3.8289213	sûreté	-0.044710413
-3.8289213	nucléaire	-0.044710413
-3.8289213	japonaise	-0.044710413
-3.8289213	relevé	-0.044710413
-3.8289213	accident	-0.044710413
-3.6753192	centrale	-0.044710413
-3.8289213	Fukushima	-0.044710413
-3.6753192	niveau	-0.044710413
-3.8289213	18h40	-0.044710413
-3.8289213	tranche	-0.044710413
-3.8289213	malmène	-0.044710413
-3.8289213	détourne	-0.044710413
-3.8289213	actualité	-0.044710413
-3.8289213	Côté	-0.044710413
-3.6753192	organisation	-0.044710413
-3.8289213	municipalité	-0.044710413
-3.6753192	apporter	-0.044710413
-3.8289213	logistique	-0.044710413
-3.8289213	Boule	-0.044710413
-3.8289213	Canéjanaise	-0.044710413
-3.8289213	Richard	-0.044710413
-3.8289213	Juzanx	-0.044710413
-3.6753192	tandis	-0.044710413
-3.8289213	bénévoles	-0.044710413
-3.8289213	canéjanais	-0.044710413
-3.8289213	plein	-0.044710413
-3.8289213	préparatifs	-0.044710413
-3.8289213	apprêtent	-0.044710413
-3.8289213	exceptionnel	-0.044710413
-3.8289213	fond	-0.044710413
-3.6753192	enfer	-0.044710413
-3.8289213	Dany	-0.044710413
-3.8289213	Laferrière	-0.044710413
-3.6753192	reste	-0.044710413
-3.8289213	réaliste	-0.044710413
-3.8289213	heureux	-0.044710413
-3.8289213	Faut	-0.044710413
-3.6753192	éviter	-0.17647427
-3.8289213	sous-continent	-0.044710413
-3.8289213	indien	-0.044710413
-3.8289213	Celle-ci	-0.044710413
-3.6753192	terrain	-0.044710413
-3.5453434	euro	-0.044710413
-3.8289213	EUR	-0.044710413
-3.1723895	/	-0.044710413
-3.8289213	GBP	-0.044710413
-3.8289213	prenant	-0.044710413
-3.8289213	hisser	-0.044710413
-3.6753192	J'	-0.10561429
-3.5453434	ai	-0.044710413
-3.8289213	senti	-0.044710413
-3.265034	mon	-0.078460634
-3.6753192	déplacement	-0.044710413
-3.8289213	Prague	-0.044710413
-3.8289213	Tchèques	-0.044710413
-3.8289213	probablement	-0.044710413
-3.8289213	ouverts	-0.044710413
-3.8289213	Fini	-0.044710413
-3.6753192	vacances	-0.044710413
-3.8289213	Pascal	-0.044710413
-3.8289213	Haupais	-0.044710413
-3.8289213	rentrée	-0.044710413
-3.6753192	classe	-0.044710413
-3.8289213	CM1	-0.044710413
-3.8289213	blessées	-0.044710413
-3.8289213	grièvement	-0.044710413
-3.8289213	survenus	-0.044710413
-3.8289213	villages	-0.044710413
-3.8289213	chiites	-0.044710413
-3.5453434	environs	-0.044710413
-3.8289213	Manama	-0.044710413
-3.8289213	témoins	-0.044710413
-3.8289213	Puis	-0.044710413
-3.6753192	école	-0.044710413
-3.8289213	délégués	-0.044710413
-3.8289213	intervenus	-0.044710413
-3.8289213	élèves	-0.044710413
-3.6753192	parents	-0.044710413
-3.8289213	Sur	-0.044710413
-3.8289213	livres	-0.044710413
-3.8289213	consacrés	-0.044710413
-3.6753192	Jean	-0.044710413
-3.8289213	Ferrat	-0.044710413
-3.8289213	près	-0.044710413
-3.8289213	centaine	-0.044710413
-3.8289213	conteneurs	-0.044710413
-3.8289213	créer	-0.044710413
-3.8289213	logements	-0.044710413
-3.6753192	étudiants	-0.17647427
-3.6753192	hier	-0.044710413
-3.8289213	Michel	-0.044710413
-3.8289213	Aoun	-0.044710413
-3.8289213	conférence	-0.044710413
-3.6753192	hebdomadaire	-0.044710413
-3.8289213	bloc	-0.044710413
-3.6753192	parlementaire	-0.044710413
-3.8289213	Changement	-0.044710413
-3.8289213	Réforme	-0.044710413
-3.5453434	lorsqu'	-0.12797387
-3.8289213	nul	-0.044710413
-3.8289213	parlé	-0.044710413
-3.8289213	démission	-0.044710413
-3.3829556	trouver	-0.044710413
-3.8289213	nouveauté	-0.044710413
-3.8289213	Salon	-0.044710413
-3.8289213	bois	-0.044710413
-3.8289213	bord	-0.044710413
-3.8289213	frères	-0.044710413
-3.8289213	demeurant	-0.044710413
-3.8289213	Bourg-Argental	-0.044710413
-3.8289213	Loire	-0.044710413
-3.8289213	Ça	-0.044710413
-3.8289213	forcément	-0.044710413
-3.8289213	rappeler	-0.044710413
-3.8289213	souvenirs	-0.044710413
-3.8289213	Grâce	-0.044710413
-3.8289213	plate-forme	-0.044710413
-3.8289213	logicielle	-0.044710413
-3.8289213	intégrée	-0.044710413
-3.8289213	capacités	-0.044710413
-3.8289213	reconnues	-0.044710413
-3.8289213	emails	-0.044710413
-3.8289213	fusion	-0.044710413
-3.8289213	entrant	-0.044710413
-3.8289213	sortant	-0.044710413
-3.8289213	équipes	-0.044710413
-3.8289213	marketing	-0.044710413
-3.8289213	accroissent	-0.044710413
-3.6753192	rapidement	-0.044710413
-3.8289213	efficacité	-0.044710413
-3.8289213	chiffre	-0.044710413
-3.6753192	propose	-0.044710413
-3.8289213	coupons	-0.044710413
-3.6753192	réductions	-0.044710413
-3.8289213	allant	-0.044710413
-3.8289213	sortes	-0.044710413
-3.8289213	Di	-0.044710413
-3.8289213	Rupo	-0.044710413
-3.5453434	avait	-0.044710413
-3.5453434	élections	-0.044710413
-3.8289213	Wallonie	-0.044710413
-3.6753192	francophone	-0.044710413
-3.8289213	finira	-0.044710413
-3.8289213	emporter	-0.044710413
-3.8289213	problèmes	-0.044710413
-3.8289213	Etats	-0.044710413
-3.8289213	endettés	-0.044710413
-3.8289213	réels	-0.044710413
-3.8289213	limitent	-0.044710413
-3.8289213	frontières	-0.044710413
-3.8289213	concernent	-0.044710413
-3.6753192	monde	-0.17647427
-3.8289213	panique	-0.044710413
-3.8289213	totale	-0.044710413
-3.6753192	marché	-0.044710413
-3.8289213	chute	-0.044710413
-3.8289213	suit	-0.044710413
-3.8289213	souverain	-0.044710413
-3.5453434	explique	-0.044710413
-3.8289213	Nuria	-0.044710413
-3.8289213	Alvarez	-0.044710413
-3.8289213	analyste	-0.044710413
-3.8289213	Renta	-0.044710413
-3.8289213	Quel	-0.044710413
-3.5453434	coût	-0.044710413
-3.8289213	tel	-0.044710413
-3.8289213	établissement	-0.044710413
-3.8289213	unités	-0.044710413
-3.8289213	production	-0.044710413
-3.8289213	agrandissement	-0.044710413
-3.8289213	existants	-0.044710413
-3.8289213	tomber	-0.044710413
-3.8289213	seuil	-0.044710413
-3.8289213	UA	-0.044710413
-3.6753192	souligner	-0.044710413
-3.6753192	Théâtre	-0.044710413
-3.8289213	Trillium	-0.044710413
-3.8289213	directrice	-0.044710413
-3.8289213	artistique	-0.044710413
-3.8289213	Anne-Marie	-0.044710413
-3.8289213	White	-0.044710413
-3.6753192	décidé	-0.17647427
-3.8289213	éclater	-0.044710413
-3.8289213	quatrième	-0.044710413
-3.6753192	mur	-0.044710413
-3.8289213	artistes	-0.044710413
-3.8289213	Mardi	-0.044710413
-3.6753192	midi	-0.044710413
-3.8289213	automobiliste	-0.044710413
-3.8289213	garde	-0.044710413
-3.6753192	vue	-0.044710413
-3.8289213	mots	-0.044710413
-3.8289213	pandémie	-0.044710413
-3.8289213	mortelle	-0.044710413
-3.8289213	pires	-0.044710413
-3.8289213	saisons	-0.044710413
-3.8289213	grippales	-0.044710413
-3.8289213	Cependant	-0.044710413
-3.8289213	êtes	-0.044710413
-3.8289213	invités	-0.044710413
-3.8289213	respecter	-0.044710413
-3.8289213	certain	-0.044710413
-3.6753192	critères	-0.044710413
-3.8289213	People	-0.044710413
-3.6753192	femme	-0.044710413
-3.8289213	engagé	-0.044710413
-3.8289213	avocat	-0.044710413
-3.8289213	Las	-0.044710413
-3.8289213	Vegas	-0.044710413
-3.8289213	assurer	-0.044710413
-3.8289213	défense	-0.044710413
-3.6753192	changements	-0.044710413
-3.8289213	horaire	-0.044710413
-3.8289213	plutôt	-0.044710413
-3.5453434	chose	-0.044710413
-3.8289213	moi	-0.044710413
-3.6753192	gagne	-0.044710413
-3.5453434	minutes	-0.044710413
-3.8289213	attente	-0.044710413
-3.8289213	sourit	-0.044710413
-3.8289213	Annoncé	-0.044710413
-3.8289213	colonnes	-0.044710413
-3.8289213	Indépendant	-0.044710413
-3.8289213	postulant	-0.044710413
-3.6753192	sérieux	-0.044710413
-3.8289213	succession	-0.044710413
-3.8289213	Franck	-0.044710413
-3.8289213	Azéma	-0.044710413
-3.8289213	apprête	-0.044710413
-3.8289213	rejoindre	-0.044710413
-3.8289213	Clermont	-0.044710413
-3.8289213	exercice	-0.044710413
-3.8289213	souligne	-0.044710413
-3.8289213	fumée	-0.044710413
-3.6753192	feu	-0.17647427
-3.8289213	Envoyez	-0.044710413
-3.8289213	mot	-0.044710413
-3.8289213	DARGAUD	-0.044710413
-3.8289213	suivi	-0.044710413
-3.6753192	vos	-0.044710413
-3.8289213	coordonnées	-0.044710413
-3.8289213	6	-0.044710413
-3.8289213	20	-0.044710413
-3.8289213	30	-0.044710413
-3.8289213	cts	-0.044710413
-3.8289213	SMS	-0.044710413
-3.8289213	répondez	-0.044710413
-3.8289213	quiz	-0.044710413
-3.8289213	Barack	-0.044710413
-3.8289213	Obama	-0.044710413
-3.8289213	baigné	-0.044710413
-3.6753192	station	-0.044710413
-3.8289213	balnéaire	-0.044710413
-3.8289213	Floride	-0.044710413
-3.8289213	affirmant	-0.044710413
-3.8289213	plages	-0.044710413
-3.8289213	golfe	-0.044710413
-3.8289213	Mexique	-0.044710413
-3.8289213	praticables	-0.044710413
-3.8289213	essayant	-0.044710413
-3.6753192	montrer	-0.044710413
-3.8289213	marée	-0.044710413
-3.8289213	noire	-0.044710413
-3.8289213	provoquée	-0.044710413
-3.8289213	BP	-0.044710413
-3.8289213	Peut-être	-0.044710413
-3.8289213	libérateur	-0.044710413
-3.8289213	crier	-0.044710413
-3.8289213	fort	-0.044710413
-3.8289213	OUACHE	-0.044710413
-3.8289213	Une	-0.044710413
-3.8289213	nette	-0.044710413
-3.8289213	intérêts	-0.044710413
-3.8289213	solide	-0.044710413
-3.8289213	coûts	-0.044710413
-3.6753192	malgré	-0.12797387
-3.8289213	croître	-0.044710413
-3.8289213	bénéfice	-0.044710413
-3.8289213	net	-0.044710413
-3.8289213	provisions	-0.044710413
-3.8289213	créances	-0.044710413
-3.8289213	douteuses	-0.044710413
-3.8289213	vols	-0.044710413
-3.8289213	annulés	-0.044710413
-3.8289213	déclaration	-0.044710413
-3.8289213	porte-parole	-0.044710413
-3.8289213	compagnie	-0.044710413
-3.8289213	gréve	-0.044710413
-3.6753192	problème	-0.17647427
-3.5453434	banlieue	-0.044710413
-3.8289213	sais	-0.044710413
-3.8289213	cessé	-0.044710413
-3.8289213	répéter	-0.044710413
-3.8289213	animateur	-0.044710413
-3.8289213	Radio	-0.044710413
-3.8289213	Nova	-0.044710413
-3.8289213	Chicago	-0.044710413
-3.8289213	41-41	-0.044710413
-3.8289213	coiffe	-0.044710413
-3.8289213	poteau	-0.044710413
-3.8289213	Toronto	-0.044710413
-3.8289213	40-42	-0.044710413
-3.8289213	victoire	-0.044710413
-3.6753192	New	-0.17647427
-3.8289213	York	-0.044710413
-3.8289213	131-113	-0.044710413
-3.6753192	servi	-0.044710413
-3.5453434	rien	-0.044710413
-3.8289213	coloration	-0.044710413
-3.8289213	Miss	-0.044710413
-3.6753192	coup	-0.044710413
-3.8289213	essai	-0.044710413
-3.8289213	Hormis	-0.044710413
-3.8289213	professeur	-0.044710413
-3.5453434	anglais	-0.12797387
-3.6753192	lycée	-0.044710413
-3.8289213	voyait	-0.044710413
-3.8289213	moquait	-0.044710413
-3.8289213	Pendant	-0.044710413
-3.8289213	Chef	-0.044710413
-3.8289213	Major	-0.044710413
-3.8289213	Soumaila	-0.044710413
-3.8289213	Bagayoko	-0.044710413
-3.8289213	fustigeait	-0.044710413
-3.8289213	comportement	-0.044710413
-3.8289213	incontrôlés	-0.044710413
-3.8289213	Frci	-0.044710413
-3.8289213	camp	-0.044710413
-3.8289213	Garde	-0.044710413
-3.8289213	Républicaine	-0.044710413
-3.8289213	Treichville	-0.044710413
-3.8289213	Huit	-0.044710413
-3.8289213	armés	-0.044710413
-3.8289213	attaquaient	-0.044710413
-3.8289213	bureau	-0.044710413
-3.6753192	change	-0.044710413
-3.8289213	compatriote	-0.044710413
-3.8289213	Sacko	-0.044710413
-3.8289213	Souleymane	-0.044710413
-3.5453434	mètres	-0.044710413
-3.8289213	Oui	-0.044710413
-3.8289213	sait	-0.044710413
-3.8289213	dirai	-0.044710413
-3.8289213	18e	-0.044710413
-3.8289213	édition	-0.044710413
-3.8289213	Victoires	-0.044710413
-3.6753192	musique	-0.044710413
-3.6753192	classique	-0.044710413
-3.8289213	Nantes	-0.044710413
-3.3829556	-	-0.044710413
-3.8289213	saupoudré	-0.044710413
-3.8289213	gustatif	-0.044710413
-3.8289213	moyen	-0.044710413
-3.8289213	gros	-0.044710413
-3.8289213	saurai	-0.044710413
-3.6753192	déconseiller	-0.044710413
-3.8289213	pieds	-0.044710413
-3.8289213	métro	-0.044710413
-3.8289213	Accueil	-0.044710413
-3.8289213	amical	-0.044710413
-3.8289213	Benoit	-0.044710413
-3.8289213	bonnes	-0.044710413
-3.8289213	tapas	-0.044710413
-3.5453434	plats	-0.044710413
-3.6753192	tendance	-0.044710413
-3.8289213	hispanique	-0.044710413
-3.8289213	accompagnés	-0.044710413
-3.6753192	vins	-0.044710413
-3.8289213	chichis	-0.044710413
-3.3829556	prix	-0.044710413
-3.8289213	doux	-0.044710413
-3.8289213	Allez-y	-0.044710413
-3.8289213	Alors	-0.044710413
-3.8289213	retournes	-0.044710413
-3.5453434	souvent	-0.044710413
-3.8289213	Campuchea	-0.044710413
-3.8289213	hote	-0.044710413
-3.8289213	bonheur	-0.044710413
-3.6753192	cuisine	-0.044710413
-3.6753192	excellente	-0.044710413
-3.6753192	passez	-0.044710413
-3.8289213	essayez	-0.044710413
-3.8289213	retournerez	-0.044710413
-3.8289213	Anjou	-0.044710413
-3.8289213	Sol'Art	-0.044710413
-3.8289213	compétences	-0.044710413
-3.8289213	matière	-0.044710413
-3.6753192	solaire	-0.044710413
-3.8289213	photovoltaïque	-0.044710413
-3.6753192	prouver	-0.044710413
-3.6753192	séances	-0.044710413
-3.8289213	massage	-0.044710413
-3.8289213	relaxé	-0.044710413
-3.8289213	poignet	-0.044710413
-3.8289213	anciennement	-0.044710413
-3.8289213	foulé	-0.044710413
-3.8289213	menu	-0.044710413
-3.8289213	salade	-0.044710413
-3.8289213	giclée	-0.044710413
-3.8289213	vinaigre	-0.044710413
-3.8289213	balsamique	-0.044710413
-3.6753192	sortir	-0.044710413
-3.8289213	séance	-0.044710413
-3.8289213	cinéma	-0.044710413
-3.8289213	découvert	-0.044710413
-3.8289213	vivant	-0.044710413
-3.8289213	retenir	-0.044710413
-3.8289213	Aussitôt	-0.044710413
-3.6753192	dessert	-0.044710413
-3.8289213	serpillère	-0.044710413
-3.8289213	jambes	-0.044710413
-3.8289213	comprendre	-0.044710413
-3.8289213	quitter	-0.044710413
-3.6753192	endroit	-0.044710413
-3.8289213	Avec	-0.044710413
-3.8289213	références	-0.044710413
-3.8289213	livraison	-0.044710413
-3.6753192	rapide	-0.044710413
-3.8289213	Bon	-0.044710413
-3.8289213	allez	-0.044710413
-3.8289213	connue	-0.044710413
-3.8289213	pinailleuse	-0.044710413
-3.8289213	difficile	-0.044710413
-3.8289213	Bonjour	-0.044710413
-3.6753192	Nous	-0.17647427
-3.8289213	acquisition	-0.044710413
-3.8289213	O'Hara	-0.044710413
-3.8289213	modèle	-0.044710413
-3.8289213	Boutique	-0.044710413
-3.8289213	bobo	-0.044710413
-3.8289213	chic	-0.044710413
-3.6753192	manque	-0.044710413
-3.8289213	professionnalisme	-0.044710413
-3.8289213	Bref	-0.044710413
-3.8289213	maréchaux	-0.044710413
-3.8289213	nancy	-0.044710413
-3.8289213	permettra	-0.044710413
-3.8289213	doute	-0.044710413
-3.8289213	Bémol	-0.044710413
-3.8289213	refus	-0.044710413
-3.8289213	cartes	-0.044710413
-3.8289213	paiement	-0.044710413
-3.6753192	hôtel	-0.044710413
-3.8289213	Faches	-0.044710413
-3.8289213	Thumesnil	-0.044710413
-3.8289213	tellement	-0.044710413
-3.8289213	rare	-0.044710413
-3.8289213	dîner	-0.044710413
-3.5453434	coin	-0.12797387
-3.8289213	permet	-0.044710413
-3.8289213	sentir	-0.044710413
-3.8289213	respirait	-0.044710413
-3.8289213	sainteté	-0.044710413
-3.8289213	Cà	-0.044710413
-3.8289213	futuriste	-0.044710413
-3.8289213	romantique	-0.044710413
-3.8289213	diner	-0.044710413
-3.6753192	moitié	-0.044710413
-3.8289213	aisément	-0.044710413
-3.8289213	préservatifs	-0.044710413
-3.8289213	usagés	-0.044710413
-3.8289213	matelas	-0.044710413
-3.8289213	Cela	-0.044710413
-3.8289213	fais	-0.044710413
-3.5453434	professionnel	-0.044710413
-3.8289213	1ère	-0.044710413
-3.8289213	tombe	-0.044710413
-3.8289213	pourri	-0.044710413
-3.8289213	sérieuse	-0.044710413
-3.8289213	Elles	-0.044710413
-3.8289213	donnent	-0.044710413
-3.8289213	toucher	-0.044710413
-3.8289213	fabriquer	-0.044710413
-3.8289213	débattre	-0.044710413
-3.8289213	inventer	-0.044710413
-3.8289213	grâce	-0.044710413
-3.6753192	matériel	-0.044710413
-3.8289213	pédagogique	-0.044710413
-3.8289213	spécifique	-0.044710413
-3.8289213	Emplacement	-0.044710413
-3.8289213	génial	-0.044710413
-3.8289213	veut	-0.044710413
-3.8289213	chercher	-0.044710413
-3.8289213	Gare	-0.044710413
-3.8289213	maillot	-0.044710413
-3.8289213	aisselles	-0.044710413
-3.6753192	différence	-0.044710413
-3.8289213	espérant	-0.044710413
-3.8289213	genre	-0.044710413
-3.8289213	salon	-0.044710413
-3.8289213	pro	-0.044710413
-3.8289213	survivra	-0.044710413
-3.8289213	fleurissent	-0.044710413
-3.8289213	gentil	-0.044710413
-3.8289213	écoute	-0.044710413
-3.8289213	voit	-0.044710413
-3.8289213	aime	-0.044710413
-3.8289213	animaux	-0.044710413
-3.8289213	Enfin	-0.044710413
-3.8289213	arrive	-0.044710413
-3.8289213	douloureuse	-0.044710413
-3.6753192	parfaitement	-0.044710413
-3.8289213	justifiée	-0.044710413
-3.8289213	prestations	-0.044710413
-3.8289213	servies	-0.044710413
-3.8289213	bar	-0.044710413
-3.8289213	mezcal	-0.044710413
-3.8289213	bières	-0.044710413
-3.8289213	mexicaines	-0.044710413
-3.6753192	hors	-0.044710413
-3.5453434	service	-0.044710413
-3.6753192	trés	-0.12797387
-3.8289213	jacuzzi	-0.044710413
-3.8289213	minuscule	-0.044710413
-3.8289213	décevants	-0.044710413
-3.8289213	Génial	-0.044710413
-3.8289213	Ici	-0.044710413
-3.8289213	formés	-0.044710413
-3.8289213	arnaquer	-0.044710413
-3.6753192	vaut	-0.044710413
-3.8289213	réserver	-0.044710413
-3.6753192	petit	-0.044710413
-3.8289213	Naples	-0.044710413
-3.6753192	connu	-0.044710413
-3.8289213	café	-0.044710413
-3.8289213	pingouins	-0.044710413
-3.8289213	enregistrent	-0.044710413
-3.6753192	annulation	-0.044710413
-3.8289213	communiquent	-0.044710413
-3.8289213	fournisseur	-0.044710413
-3.6753192	tu	-0.044710413
-3.8289213	tournes	-0.044710413
-3.8289213	volant	-0.044710413
-3.8289213	maximum	-0.044710413
-3.6753192	Par	-0.17647427
-3.6753192	excellent	-0.044710413
-3.6753192	'	-0.044710413
-3.8289213	bullshitter	-0.044710413
-3.8289213	réalisé	-0.044710413
-3.8289213	Cherbourg	-0.044710413
-3.5453434	vais	-0.044710413
-3.8289213	adore	-0.044710413
-3.8289213	bouffe	-0.044710413
-3.8289213	style	-0.044710413
-3.8289213	choisi	-0.044710413
-3.8289213	balayage	-0.044710413
-3.8289213	chaudière	-0.044710413
-3.8289213	condensation	-0.044710413
-3.6753192	maison	-0.044710413
-3.8289213	initialement	-0.044710413
-3.8289213	chauffée	-0.044710413
-3.8289213	radiateurs	-0.044710413
-3.8289213	électriques	-0.044710413
-3.8289213	rencontré	-0.044710413
-3.8289213	Lionel	-0.044710413
-3.8289213	cherchant	-0.044710413
-3.8289213	Google	-0.044710413
-3.8289213	coiffeur	-0.044710413
-3.8289213	allé	-0.044710413
-3.8289213	semaine	-0.044710413
-3.8289213	intervalle	-0.044710413
-3.6753192	déçu	-0.044710413
-3.6753192	recommande	-0.17647427
-3.8289213	vivement	-0.044710413
-3.6753192	magasin	-0.044710413
-3.8289213	réelles	-0.044710413
-3.6753192	économies	-0.044710413
-3.8289213	élève	-0.044710413
-3.8289213	Sreemati	-0.044710413
-3.8289213	ouvrir	-0.044710413
-3.8289213	consacré	-0.044710413
-3.8289213	Yoga	-0.044710413
-3.8289213	authentique	-0.044710413
-3.8289213	techniques	-0.044710413
-3.8289213	corporelles	-0.044710413
-3.8289213	ayurvéda	-0.044710413
-3.8289213	rdanse	-0.044710413
-3.8289213	indienne	-0.044710413
-3.8289213	kalaripayat	-0.044710413
-3.3829556	j'	-0.1369747
-3.8289213	veux	-0.044710413
-3.8289213	chambre	-0.044710413
-3.6753192	économique	-0.044710413
-3.8289213	nuitée	-0.044710413
-3.8289213	pense	-0.044710413
-3.6753192	doivent	-0.044710413
-3.8289213	faites	-0.044710413
-3.8289213	hygiène	-0.044710413
-3.8289213	aspirateur	-0.044710413
-3.8289213	derrière	-0.044710413
-3.8289213	porte	-0.044710413
-3.6753192	carte	-0.044710413
-3.8289213	regorge	-0.044710413
-3.8289213	trésors	-0.044710413
-3.8289213	crêpes	-0.044710413
-3.8289213	galettes	-0.044710413
-3.6753192	grandes	-0.044710413
-3.6753192	petites	-0.044710413
-3.8289213	2cm	-0.044710413
-3.8289213	diamètre	-0.044710413
-3.6753192	€	-0.044710413
-3.3829556	cher	-0.044710413
-3.8289213	paroisse	-0.044710413
-3.8289213	Marie-Reine-des-Coeurs	-0.044710413
-3.8289213	située	-0.044710413
-3.8289213	Turenne	-0.044710413
-3.8289213	Montréal	-0.044710413
-3.8289213	H1M	-0.044710413
-3.8289213	1N4	-0.044710413
-3.6753192	cadre	-0.044710413
-3.8289213	joli	-0.044710413
-3.8289213	ambiance	-0.044710413
-3.6753192	celle	-0.044710413
-3.8289213	Pub	-0.044710413
-3.8289213	adaptée	-0.044710413
-3.8289213	semble	-0.044710413
-3.8289213	cœur	-0.044710413
-3.8289213	négliger	-0.044710413
-3.8289213	signe	-0.044710413
-3.8289213	trompe	-0.044710413
-3.6753192	clients	-0.044710413
-3.8289213	table	-0.044710413
-3.8289213	habitués	-0.044710413
-3.8289213	pleine	-0.044710413
-3.8289213	patientes	-0.044710413
-3.8289213	habituées	-0.044710413
-3.8289213	savent	-0.044710413
-3.6753192	retard	-0.044710413
-3.8289213	precautions	-0.044710413
-3.8289213	abordables	-0.044710413
-3.8289213	élevés	-0.044710413
-3.8289213	boutiques	-0.044710413
-3.6753192	seule	-0.044710413
-3.8289213	ouverte	-0.044710413
-3.8289213	terrains	-0.044710413
-3.8289213	tennis	-0.044710413
-3.8289213	ferment	-0.044710413
-3.8289213	18h	-0.044710413
-3.8289213	Leur	-0.044710413
-3.8289213	chocolat	-0.044710413
-3.8289213	chaud	-0.044710413
-3.8289213	divin	-0.044710413
-3.8289213	Madame	-0.044710413
-3.8289213	Tellier	-0.044710413
-3.8289213	comptable	-0.044710413
-3.8289213	Magasin	-0.044710413
-3.8289213	chaussures	-0.044710413
-3.8289213	adolescents	-0.044710413
-3.8289213	convivial	-0.044710413
-3.8289213	prend	-0.044710413
-3.8289213	conversations	-0.044710413
-3.8289213	Merci	-0.044710413
-3.8289213	Nos	-0.044710413
-3.8289213	globalement	-0.044710413
-3.8289213	saumon	-0.044710413
-3.8289213	vapeur	-0.044710413
-3.8289213	tagliatelles	-0.044710413
-3.8289213	filet	-0.044710413
-3.8289213	rouget	-0.044710413
-3.8289213	restaient	-0.044710413
-3.8289213	simples	-0.044710413
-3.8289213	présentation	-0.044710413
-3.8289213	raffinement	-0.044710413
-3.8289213	Notre	-0.044710413
-3.6753192	expérience	-0.044710413
-3.8289213	domaine	-0.044710413
-3.8289213	destockage	-0.044710413
-3.8289213	assure	-0.044710413
-3.8289213	réalisation	-0.044710413
-3.8289213	invendus	-0.044710413
-3.8289213	meilleures	-0.044710413
-3.8289213	financières	-0.044710413
-3.8289213	préservant	-0.044710413
-3.8289213	image	-0.044710413
-3.8289213	réseau	-0.044710413
-3.6753192	distribution	-0.044710413
-3.8289213	dépensé	-0.044710413
-3.8289213	plat	-0.044710413
-3.8289213	alcool	-0.044710413
-3.8289213	pris	-0.044710413
-3.8289213	possesion	-0.044710413
-3.6753192	chambres	-0.044710413
-3.8289213	cabines	-0.044710413
-3.8289213	toilettes	-0.044710413
-3.3829556	commun	-0.044710413
-3.8289213	poussière	-0.044710413
-3.8289213	saleté	-0.044710413
-3.8289213	rendez-vous	-0.044710413
-3.8289213	retourne	-0.044710413
-3.8289213	relativement	-0.044710413
-3.8289213	étroit	-0.044710413
-3.6753192	accueil	-0.044710413
-3.8289213	impeccable	-0.044710413
-3.8289213	chaleureux	-0.044710413
-3.8289213	propreté	-0.044710413
-3.8289213	parfaite	-0.044710413
-3.8289213	jardin	-0.044710413
-3.8289213	reposant	-0.044710413
-3.8289213	Petits	-0.044710413
-3.6753192	vin	-0.044710413
-3.8289213	boire	-0.044710413
-3.6753192	verre	-0.17647427
-3.8289213	2-4	-0.044710413
-3.8289213	bière	-0.044710413
-3.8289213	Montblanc	-0.044710413
-3.8289213	accompagne	-0.044710413
-3.8289213	repas	-0.044710413
-3.8289213	succulent	-0.044710413
-3.8289213	déguste	-0.044710413
-3.8289213	couronner	-0.044710413
-3.8289213	réception	-0.044710413
-3.8289213	aimable	-0.044710413
-3.6753192	ni	-0.044710413
-3.8289213	compétent	-0.044710413
-3.8289213	dirais	-0.044710413
-3.8289213	totalement	-0.044710413
-3.8289213	antipathiques	-0.044710413
-3.8289213	avais	-0.044710413
-3.8289213	paire	-0.044710413
-3.8289213	lunette	-0.044710413
-3.8289213	ami	-0.044710413
-3.8289213	ravi	-0.044710413
-3.8289213	boutique	-0.044710413
-3.8289213	montures	-0.044710413
-3.8289213	petits	-0.044710413
-3.8289213	créateurs	-0.044710413
-3.8289213	fashion	-0.044710413
-3.8289213	quelque	-0.044710413
-3.8289213	terminer	-0.044710413
-3.8289213	disent	-0.044710413
-3.8289213	gratuit	-0.044710413
-3.8289213	marche	-0.044710413
-3.8289213	pratiquement	-0.044710413
-3.8289213	Produits	-0.044710413
-3.8289213	super	-0.044710413
-3.6753192	sympa	-0.044710413
-3.8289213	rendent	-0.044710413
-3.8289213	Ps	-0.044710413
-3.8289213	prochaine	-0.044710413
-3.8289213	dise	-0.044710413
-3.8289213	rechercher	-0.044710413
-3.8289213	paisiblement	-0.044710413
-3.8289213	séjourné	-0.044710413
-3.8289213	confortable	-0.044710413
-3.8289213	décorée	-0.044710413
-3.8289213	société	-0.044710413
-3.8289213	Bureau	-0.044710413
-3.6753192	Vallée	-0.044710413
-3.8289213	Toulouse	-0.044710413
-3.8289213	Montaudran	-0.044710413
-3.8289213	malheur	-0.044710413
-3.8289213	déjeuner	-0.044710413
-3.6753192	lorsque	-0.044710413
-3.8289213	patrons	-0.044710413
-3.8289213	absents	-0.044710413
-3.8289213	aurez	-0.044710413
-3.6753192	pire	-0.044710413
-3.8289213	souhaitez	-0.044710413
-3.8289213	régaler	-0.044710413
-3.8289213	papilles	-0.044710413
-3.8289213	dirigeant	-0.044710413
-3.8289213	disponible	-0.044710413
-3.8289213	Temps	-0.044710413
-3.8289213	peut-être	-0.044710413
-3.6753192	travaux	-0.044710413
-3.8289213	arranger	-0.044710413
-3.8289213	Trop	-0.044710413
-3.8289213	pizzeria	-0.044710413
-3.8289213	;)	-0.044710413
-3.8289213	propre	-0.044710413
-3.8289213	entretenu	-0.044710413
-3.8289213	cocktail	-0.044710413
-3.8289213	idéal	-0.044710413
-3.8289213	Voila	-0.044710413
-3.8289213	espère	-0.044710413
-3.8289213	commentaire	-0.044710413
-3.8289213	Mendes	-0.044710413
-3.8289213	travaille	-0.044710413
-3.8289213	apprend	-0.044710413
-3.6753192	découvre	-0.044710413
-3.8289213	repartirez	-0.044710413
-3.8289213	appelé	-0.044710413
-3.8289213	croyant	-0.044710413
-3.8289213	naîveté	-0.044710413
-3.8289213	proposé	-0.044710413
-3.8289213	rénover	-0.044710413
-3.8289213	mes	-0.044710413
-3.8289213	serrures	-0.044710413
-3.8289213	professionel	-0.044710413
-3.8289213	Actif	-0.044710413
-3.8289213	Dépannage	-0.044710413
-3.8289213	oublier	-0.044710413
-3.8289213	soirée	-0.044710413
-3.8289213	MH	-0.044710413
-3.8289213	menus	-0.044710413
-3.8289213	kirs	-0.044710413
-3.8289213	bouteille	-0.044710413
-3.8289213	normes	-0.044710413
-3.8289213	installation	-0.044710413
-3.8289213	électrique	-0.044710413
-3.8289213	appart	-0.044710413
-3.8289213	avis	-0.044710413
-3.8289213	semblaient	-0.044710413
-3.8289213	agréables	-0.044710413
-3.8289213	spacieuses	-0.044710413
-3.8289213	donne	-0.044710413
-3.8289213	goût	-0.044710413
-3.8289213	bedaine	-0.044710413
-3.8289213	..	-0.044710413
-3.8289213	gagné	-0.044710413
-3.8289213	Tour	-0.044710413
-3.8289213	Italie	-0.044710413
-3.8289213	Espagne	-0.044710413
-3.8289213	terminé	-0.044710413
-3.8289213	troisième	-0.044710413
-3.8289213	Gand-Wevelgem	-0.044710413
-3.8289213	principaux	-0.044710413
-3.8289213	Guido	-0.044710413
-3.8289213	Gozzano	-0.044710413
-3.8289213	Aldo	-0.044710413
-3.8289213	Palazzeschi	-0.044710413
-3.8289213	Bud	-0.044710413
-3.8289213	Collyer	-0.044710413
-3.8289213	américain	-0.044710413
-3.5453434	États-Unis	-0.044710413
-3.8289213	décédé	-0.044710413
-3.8289213	septembre	-0.044710413
-3.8289213	Greenwich	-0.044710413
-3.8289213	Connecticut	-0.044710413
-3.8289213	colonisation	-0.044710413
-3.8289213	immense	-0.044710413
-3.8289213	partir	-0.044710413
-3.8289213	côtes	-0.044710413
-3.8289213	structure	-0.044710413
-3.8289213	sûr	-0.044710413
-3.8289213	Brésil	-0.044710413
-3.8289213	Australie	-0.044710413
-3.8289213	RADSL	-0.044710413
-3.8289213	signifie	-0.044710413
-3.8289213	Rate	-0.044710413
-3.8289213	Adaptive	-0.044710413
-3.8289213	Digital	-0.044710413
-3.8289213	Subscriber	-0.044710413
-3.8289213	Line	-0.044710413
-3.6753192	ligne	-0.044710413
-3.8289213	abonné	-0.044710413
-3.6753192	numérique	-0.044710413
-3.8289213	débit	-0.044710413
-3.8289213	adaptable	-0.044710413
-3.8289213	perspective	-0.044710413
-3.8289213	accélérer	-0.044710413
-3.6753192	diffusion	-0.17647427
-3.8289213	connaissances	-0.044710413
-3.8289213	pouvoirs	-0.044710413
-3.8289213	publics	-0.044710413
-3.8289213	ivoiriens	-0.044710413
-3.8289213	introduit	-0.044710413
-3.8289213	télévision	-0.044710413
-3.8289213	éducative	-0.044710413
-3.6753192	enseignement	-0.044710413
-3.8289213	échangés	-0.044710413
-3.6753192	essentiellement	-0.044710413
-3.8289213	sel	-0.044710413
-3.8289213	ambre	-0.044710413
-3.8289213	huile	-0.044710413
-3.8289213	céréales	-0.044710413
-3.8289213	viande	-0.044710413
-3.8289213	salée	-0.044710413
-3.8289213	Cet	-0.044710413
-3.8289213	article	-0.044710413
-3.8289213	décrit	-0.044710413
-3.8289213	administratifs	-0.044710413
-3.8289213	otite	-0.044710413
-3.8289213	consécutive	-0.044710413
-3.8289213	barotraumatisme	-0.044710413
-3.8289213	reconnue	-0.044710413
-3.8289213	maladie	-0.044710413
-3.6753192	nécessaire	-0.044710413
-3.8289213	Open	-0.044710413
-3.8289213	Firmware	-0.044710413
-3.6753192	met	-0.044710413
-3.8289213	carrière	-0.044710413
-3.8289213	sportive	-0.044710413
-3.8289213	Aller	-0.044710413
-3.8289213	restaurant	-0.044710413
-3.6753192	simplement	-0.044710413
-3.8289213	Chen	-0.044710413
-3.8289213	Xitong	-0.044710413
-3.8289213	disctict	-0.044710413
-3.8289213	Anyue	-0.044710413
-3.8289213	Sichuan	-0.044710413
-3.8289213	populaire	-0.044710413
-3.8289213	Chine	-0.044710413
-3.8289213	hauts	-0.044710413
-3.6753192	dirigeants	-0.044710413
-3.8289213	Parti	-0.044710413
-3.8289213	communiste	-0.044710413
-3.8289213	chinois	-0.044710413
-3.8289213	connaître	-0.044710413
-3.8289213	disgrâce	-0.044710413
-3.6753192	maire	-0.17647427
-3.8289213	Pékin	-0.044710413
-3.8289213	Vedel	-0.044710413
-3.8289213	consulté	-0.044710413
-3.6753192	nombreuses	-0.044710413
-3.8289213	reprises	-0.044710413
-3.5453434	gouvernements	-0.044710413
-3.8289213	IV	-0.044710413
-3.8289213	V	-0.044710413
-3.8289213	obédience	-0.044710413
-3.8289213	étrangers	-0.044710413
-3.5453434	taux	-0.12797387
-3.8289213	zéro	-0.044710413
-3.8289213	exclut	-0.044710413
-3.8289213	importants	-0.044710413
-3.8289213	âges	-0.044710413
-3.8289213	natalité	-0.044710413
-3.8289213	immigration	-0.044710413
-3.8289213	mortalité	-0.044710413
-3.8289213	étoiles	-0.044710413
-3.6753192	fixes	-0.044710413
-3.8289213	reposaient	-0.044710413
-3.6753192	sphère	-0.044710413
-3.8289213	dite	-0.044710413
-3.8289213	matériaux	-0.044710413
-3.8289213	coûteux	-0.044710413
-3.8289213	magnésium	-0.044710413
-3.8289213	devenu	-0.044710413
-3.8289213	introuvable	-0.044710413
-3.8289213	lancée	-0.044710413
-3.8289213	canal	-0.044710413
-3.8289213	déplacée	-0.044710413
-3.6753192	afin	-0.044710413
-3.8289213	agrandir	-0.044710413
-3.8289213	impliquée	-0.044710413
-3.8289213	accidents	-0.044710413
-3.8289213	aériens	-0.044710413
-3.8289213	thyréophore	-0.044710413
-3.8289213	basal	-0.044710413
-3.8289213	proche	-0.044710413
-3.8289213	ancêtre	-0.044710413
-3.8289213	stégosauriens	-0.044710413
-3.8289213	ankylosauriens	-0.044710413
-3.8289213	Wallace	-0.044710413
-3.8289213	îles	-0.044710413
-3.8289213	Bornéo	-0.044710413
-3.8289213	Sulawesi	-0.044710413
-3.6753192	celles	-0.17647427
-3.8289213	Bali	-0.044710413
-3.8289213	Lombok	-0.044710413
-3.8289213	sépare	-0.044710413
-3.8289213	écozones	-0.044710413
-3.6753192	téléphone	-0.044710413
-3.8289213	fil	-0.044710413
-3.8289213	entré	-0.044710413
-3.8289213	demandé	-0.044710413
-3.8289213	as	-0.044710413
-3.6753192	Saint	-0.044710413
-3.8289213	Denis	-0.044710413
-3.8289213	XIIIe	-0.044710413
-3.8289213	XIVe	-0.044710413
-3.8289213	XVIe	-0.044710413
-3.8289213	XVIIIe	-0.044710413
-3.8289213	siècles	-0.044710413
-3.8289213	Latour	-0.044710413
-3.8289213	tourne	-0.044710413
-3.8289213	ensuite	-0.044710413
-3.3829556	vers	-0.10561429
-3.8289213	théoriques	-0.044710413
-3.8289213	programmatiques	-0.044710413
-3.8289213	Tam	-0.044710413
-3.8289213	joue	-0.044710413
-3.8289213	2007-2008	-0.044710413
-3.8289213	Remparts	-0.044710413
-3.8289213	hockey	-0.044710413
-3.8289213	junior	-0.044710413
-3.8289213	majeur	-0.044710413
-3.6753192	association	-0.044710413
-3.8289213	producteurs	-0.044710413
-3.8289213	fruits	-0.044710413
-3.8289213	Saverne	-0.044710413
-3.8289213	taille	-0.044710413
-3.8289213	arbres	-0.044710413
-3.8289213	fruitiers	-0.044710413
-3.8289213	ornement	-0.044710413
-3.8289213	Lebrun	-0.044710413
-3.8289213	insiste	-0.044710413
-3.8289213	piliers	-0.044710413
-3.8289213	prière	-0.044710413
-3.8289213	Parole	-0.044710413
-3.8289213	charité	-0.044710413
-3.8289213	arriver	-0.044710413
-3.8289213	Verrès	-0.044710413
-3.8289213	route	-0.044710413
-3.8289213	nationale	-0.044710413
-3.8289213	Aoste	-0.044710413
-3.8289213	col	-0.044710413
-3.8289213	Petit-Saint-Bernard	-0.044710413
-3.8289213	grec	-0.044710413
-3.8289213	décision	-0.044710413
-3.8289213	compatriotes	-0.044710413
-3.8289213	rejettent	-0.044710413
-3.8289213	plan	-0.044710413
-3.8289213	sauvetage	-0.044710413
-3.8289213	financier	-0.044710413
-3.8289213	européen	-0.044710413
-3.8289213	sortie	-0.044710413
-3.8289213	Euro	-0.044710413
-3.8289213	inéluctable	-0.044710413
-3.8289213	induit	-0.044710413
-3.8289213	éclatement	-0.044710413
-3.8289213	celle-ci	-0.044710413
-3.6753192	conseil	-0.044710413
-3.8289213	Haut-Rhin	-0.044710413
-3.8289213	confié	-0.044710413
-3.8289213	signalisation	-0.044710413
-3.8289213	Simon	-0.044710413
-3.8289213	Kessler	-0.044710413
-3.8289213	mars	-0.044710413
-3.8289213	Johannesburg	-0.044710413
-3.6753192	coureur	-0.044710413
-3.8289213	cycliste	-0.044710413
-3.8289213	sud-africain	-0.044710413
-3.8289213	St.	-0.044710413
-3.8289213	Anger	-0.044710413
-3.8289213	single	-0.044710413
-3.8289213	8ème	-0.044710413
-3.8289213	album	-0.044710413
-3.8289213	studio	-0.044710413
-3.8289213	Metallica	-0.044710413
-3.8289213	Idem	-0.044710413
-3.8289213	achèvement	-0.044710413
-3.8289213	autoroute	-0.044710413
-3.8289213	Ouest	-0.044710413
-3.8289213	relie	-0.044710413
-3.8289213	frontière	-0.044710413
-3.8289213	Tunisie	-0.044710413
-3.6753192	milieu	-0.044710413
-3.8289213	VIIIe	-0.044710413
-3.8289213	siècle	-0.044710413
-3.8289213	prédicateur	-0.044710413
-3.8289213	Bassora	-0.044710413
-3.8289213	Abdullah	-0.044710413
-3.8289213	bin	-0.044710413
-3.8289213	Yahya	-0.044710413
-3.8289213	parvient	-0.044710413
-3.8289213	Hadramaout	-0.044710413
-3.6753192	établit	-0.044710413
-3.8289213	rite	-0.044710413
-3.8289213	Ibadhi	-0.044710413
-3.8289213	Pokémon	-0.044710413
-3.8289213	exactement	-0.044710413
-3.8289213	investissements	-0.044710413
-3.8289213	chiffré	-0.044710413
-3.8289213	Blanc	-0.044710413
-3.8289213	Retrouvez	-0.044710413
-3.8289213	sondages	-0.044710413
-3.8289213	photos	-0.044710413
-3.8289213	people	-0.044710413
-3.8289213	préférés	-0.044710413
-3.8289213	pratique	-0.044710413
-3.8289213	combinée	-0.044710413
-3.8289213	points	-0.044710413
-3.8289213	diminuer	-0.044710413
-3.8289213	emprise	-0.044710413
-3.8289213	cinq	-0.044710413
-3.8289213	kleśa	-0.044710413
-3.8289213	afflictions	-0.044710413
-3.8289213	pièce	-0.044710413
-3.8289213	retirée	-0.044710413
-3.8289213	représentations	-0.044710413
-3.8289213	demi-finale	-0.044710413
-3.8289213	Japonais	-0.044710413
-3.8289213	Hidetoshi	-0.044710413
-3.8289213	Nakata	-0.044710413
-3.8289213	franc	-0.044710413
-3.8289213	tiré	-0.044710413
-3.8289213	raz	-0.044710413
-3.8289213	terre	-0.044710413
-3.8289213	libéraux	-0.044710413
-3.8289213	faveur	-0.044710413
-3.8289213	Lafayette	-0.044710413
-3.8289213	Revue	-0.044710413
-3.8289213	américaine	-0.044710413
-3.8289213	1826-1827	-0.044710413
-3.8289213	encyclopédique	-0.044710413
-3.8289213	février	-0.044710413
-3.8289213	armes	-0.044710413
-3.8289213	Grenoble	-0.044710413
-3.8289213	or	-0.044710413
-3.8289213	roses	-0.044710413
-3.8289213	gueules	-0.044710413
-3.8289213	pierres	-0.044710413
-3.8289213	calcaire	-0.044710413
-3.6753192	Champagne	-0.044710413
-3.8289213	mancelle	-0.044710413
-3.8289213	roches	-0.044710413
-3.8289213	granitiques	-0.044710413
-3.8289213	dures	-0.044710413
-3.8289213	rougeâtres	-0.044710413
-3.8289213	grès	-0.044710413
-3.8289213	roussard	-0.044710413
-3.8289213	fournissent	-0.044710413
-3.8289213	matériau	-0.044710413
-3.8289213	construction	-0.044710413
-3.8289213	donnant	-0.044710413
-3.8289213	teinte	-0.044710413
-3.8289213	sombre	-0.044710413
-3.8289213	ajoute	-0.044710413
-3.8289213	austérité	-0.044710413
-3.8289213	destroyer	-0.044710413
-3.8289213	US	-0.044710413
-3.8289213	Navy	-0.044710413
-3.8289213	USS	-0.044710413
-3.8289213	O'Hare	-0.044710413
-3.8289213	DD-889	-0.044710413
-3.8289213	baptisé	-0.044710413
-3.8289213	honneur	-0.044710413
-3.8289213	joueur	-0.044710413
-3.8289213	automne	-0.044710413
-3.8289213	Agile	-0.044710413
-3.8289213	Rebais	-0.044710413
-3.8289213	saint	-0.044710413
-3.8289213	Aile	-0.044710413
-3.8289213	abbé	-0.044710413
-3.8289213	diocèse	-0.044710413
-3.8289213	Meaux	-0.044710413
-3.8289213	Marché	-0.044710413
-3.8289213	Golfe	-0.044710413
-3.8289213	devant	-0.044710413
-3.8289213	déboucher	-0.044710413
-3.8289213	monnaie	-0.044710413
-3.6753192	commune	-0.044710413
-3.8289213	connaît	-0.044710413
-3.8289213	retards	-0.044710413
-3.8289213	divergences	-0.044710413
-3.8289213	nées	-0.044710413
-3.8289213	Ryadh	-0.044710413
-3.8289213	Abou	-0.044710413
-3.8289213	Dhabi	-0.044710413
-3.8289213	principalement	-0.044710413
-3.6753192	siège	-0.044710413
-3.8289213	future	-0.044710413
-3.6753192	TiVo	-0.044710413
-3.8289213	réponde	-0.044710413
-3.8289213	clauses	-0.044710413
-3.8289213	GPL	-0.044710413
-3.8289213	redistribuant	-0.044710413
-3.6753192	code	-0.17647427
-3.8289213	source	-0.044710413
-3.8289213	modifié	-0.044710413
-3.8289213	modification	-0.044710413
-3.8289213	fonctionner	-0.044710413
-3.8289213	distribué	-0.044710413
-3.8289213	anobli	-0.044710413
-3.8289213	appela	-0.044710413
-3.8289213	désormais	-0.044710413
-3.8289213	von	-0.044710413
-3.8289213	Auenbrugg	-0.044710413
-3.8289213	Philippe	-0.044710413
-3.8289213	Morillon	-0.044710413
-3.8289213	commandait	-0.044710413
-3.8289213	forces	-0.044710413
-3.8289213	accuse	-0.044710413
-3.8289213	village	-0.044710413
-3.8289213	Saint-Léonard	-0.044710413
-3.8289213	desservie	-0.044710413
-3.8289213	voies	-0.044710413
-3.8289213	communales	-0.044710413
-3.8289213	Avilly	-0.044710413
-3.8289213	Courteuil	-0.044710413
-3.8289213	RD	-0.044710413
-3.8289213	Saint-Nicolas-d'Acy	-0.044710413
-3.8289213	Tiếng	-0.044710413
-3.8289213	địch	-0.044710413
-3.8289213	sông	-0.044710413
-3.6753192	Ô	-0.044710413
-3.8289213	flute	-0.044710413
-3.8289213	Rivière	-0.044710413
-3.8289213	tragédie	-0.044710413
-3.6753192	jouée	-0.044710413
-3.6753192	soirées	-0.044710413
-3.8289213	municipal	-0.044710413
-3.8289213	Hà	-0.044710413
-3.8289213	Nội	-0.044710413
-3.8289213	provincial	-0.044710413
-3.8289213	Tĩnh	-0.044710413
-3.8289213	Crown	-0.044710413
-3.8289213	fabriquée	-0.044710413
-3.8289213	Taito	-0.044710413
-3.8289213	apparue	-0.044710413
-3.8289213	Japon	-0.044710413
-3.8289213	fortement	-0.044710413
-3.8289213	bridé	-0.044710413
-3.8289213	routière	-0.044710413
-3.8289213	afficher	-0.044710413
-3.8289213	flatteuses	-0.044710413
-3.8289213	M3	-0.044710413
-3.8289213	CSL	-0.044710413
-3.8289213	arnaques	-0.044710413
-3.8289213	payer	-0.044710413
-3.8289213	addition	-0.044710413
-3.8289213	souvenir	-0.044710413
-3.8289213	mélodie	-0.044710413
-3.8289213	envoutante	-0.044710413
-3.8289213	Conséquence	-0.044710413
-3.8289213	obtenu	-0.044710413
-3.8289213	prêt	-0.044710413
-3.6753192	dû	-0.044710413
-3.8289213	garantie	-0.044710413
-3.8289213	portés	-0.044710413
-3.8289213	garants	-0.044710413
-3.8289213	populisme	-0.044710413
-3.8289213	contient	-0.044710413
-3.8289213	définition	-0.044710413
-3.8289213	prête	-0.044710413
-3.8289213	préjugés	-0.044710413
-3.8289213	mépris	-0.044710413
-3.8289213	composé	-0.044710413
-3.8289213	Phil	-0.044710413
-3.8289213	Hartley	-0.044710413
-3.8289213	chant	-0.044710413
-3.8289213	Mike	-0.044710413
-3.8289213	Bryson	-0.044710413
-3.8289213	basse	-0.044710413
-3.8289213	Mark	-0.044710413
-3.8289213	McQuaid	-0.044710413
-3.8289213	guitare	-0.044710413
-3.8289213	Tristan	-0.044710413
-3.8289213	King	-0.044710413
-3.8289213	batterie	-0.044710413
-3.8289213	défaut	-0.044710413
-3.8289213	fabrication	-0.044710413
-3.8289213	changé	-0.044710413
-3.8289213	retourné	-0.044710413
-3.6753192	stage	-0.044710413
-3.8289213	vendredi	-0.044710413
-3.6753192	juillet	-0.17647427
-3.8289213	Abraham	-0.044710413
-3.8289213	Dantzig	-0.044710413
-3.8289213	Allemagne	-0.044710413
-3.8289213	Gdańsk	-0.044710413
-3.8289213	Pologne	-0.044710413
-3.8289213	marchands	-0.044710413
-3.8289213	juifs	-0.044710413
-3.8289213	empêcher	-0.044710413
-3.8289213	chasseurs	-0.044710413
-3.8289213	trésor	-0.044710413
-3.8289213	aventurer	-0.044710413
-3.8289213	interdits	-0.044710413
-3.8289213	Prédisant	-0.044710413
-3.8289213	duo	-0.044710413
-3.8289213	chanteur	-0.044710413
-3.8289213	attendait	-0.044710413
-3.8289213	bouillonnant	-0.044710413
-3.6753192	finalement	-0.044710413
-3.8289213	morceau	-0.044710413
-3.8289213	usuel	-0.044710413
-3.8289213	chansons	-0.044710413
-3.8289213	autobiographique	-0.044710413
-3.8289213	Madonna	-0.044710413
-3.8289213	adultes	-0.044710413
-3.8289213	Unies	-0.044710413
-3.8289213	mènent	-0.044710413
-3.8289213	campagne	-0.044710413
-3.8289213	mondiale	-0.044710413
-3.8289213	Scellons	-0.044710413
-3.8289213	attestations	-0.044710413
-3.8289213	anciennes	-0.044710413
-3.6753192	formes	-0.044710413
-3.8289213	pot	-0.044710413
-3.8289213	contenant	-0.044710413
-3.6753192	crème	-0.044710413
-3.8289213	Kirsch	-0.044710413
-3.8289213	biscuit	-0.044710413
-3.8289213	rose	-0.044710413
-3.8289213	Reims	-0.044710413
-3.8289213	mouillé	-0.044710413
-3.8289213	surmonté	-0.044710413
-3.8289213	gariguettes	-0.044710413
-3.8289213	chantilly	-0.044710413
-3.8289213	chef	-0.044710413
-3.8289213	ramené	-0.044710413
-3.8289213	extrêmement	-0.044710413
-3.8289213	audacieuse	-0.044710413
-3.8289213	respectant	-0.044710413
-3.8289213	esbroufe	-0.044710413
-3.8289213	artifices	-0.044710413
-3.8289213	activités	-0.044710413
-3.8289213	protestation	-0.044710413
-3.8289213	conduites	-0.044710413
-3.8289213	Association	-0.044710413
-3.8289213	nucléaires	-0.044710413
-3.8289213	Youngkwang	-0.044710413
-3.8289213	dessous	-0.044710413
-3.8289213	ailes	-0.044710413
-3.8289213	varie	-0.044710413
-3.8289213	gris	-0.044710413
-3.8289213	sous-espèces	-0.044710413
-3.8289213	découverte	-0.044710413
-3.8289213	m	-0.044710413
-3.8289213	altitude	-0.044710413
-3.8289213	monts	-0.044710413
-3.8289213	Cardamomes	-0.044710413
-3.8289213	BBox	-0.044710413
-3.8289213	Bouygues	-0.044710413
-3.8289213	Telecom	-0.044710413
-3.6753192	Damien	-0.044710413
-3.8289213	Gaudin	-0.044710413
-3.8289213	titres	-0.044710413
-3.8289213	associations	-0.044710413
-3.8289213	Homme	-0.044710413
-3.8289213	Amnesty	-0.044710413
-3.8289213	demandent	-0.044710413
-3.8289213	extension	-0.044710413
-3.8289213	Mission	-0.044710413
-3.8289213	spéciale	-0.044710413
-3.8289213	utilisé	-0.044710413
-3.8289213	travailleurs	-0.044710413
-3.8289213	utilisent	-0.044710413
-3.8289213	langues	-0.044710413
-3.8289213	officielles	-0.044710413
-3.8289213	Académie	-0.044710413
-3.8289213	Équestre	-0.044710413
-3.8289213	sélection	-0.044710413
-3.8289213	Championnats	-0.044710413
-3.8289213	Voltige	-0.044710413
-3.8289213	Candidat	-0.044710413
-3.8289213	malheureux	-0.044710413
-3.8289213	présidentielle	-0.044710413
-3.8289213	Marcus	-0.044710413
-3.8289213	Stephen	-0.044710413
-3.6753192	remporte	-0.044710413
-3.8289213	néanmoins	-0.044710413
-3.8289213	prédécesseur	-0.044710413
-3.8289213	Ludwig	-0.044710413
-3.8289213	Scotty	-0.044710413
-3.8289213	écarté	-0.044710413
-3.8289213	fonction	-0.044710413
-3.8289213	motion	-0.044710413
-3.8289213	censure	-0.044710413
-3.8289213	casquettes	-0.044710413
-3.8289213	cheveux	-0.044710413
-3.8289213	blonds	-0.044710413
-3.8289213	brillaient	-0.044710413
-3.8289213	soleil	-0.044710413
-3.8289213	Freddy	-0.044710413
-3.8289213	pédophile	-0.044710413
-3.8289213	opposition	-0.044710413
-3.8289213	traditionnel	-0.044710413
-3.8289213	tueur	-0.044710413
-3.8289213	Lorsqu'	-0.044710413
-3.8289213	réfléchit	-0.044710413
-3.8289213	Paul	-0.044710413
-3.8289213	abordé	-0.044710413
-3.8289213	front	-0.044710413
-3.8289213	cabinet	-0.044710413
-3.8289213	ostéopathie	-0.044710413
-3.6753192	organisée	-0.044710413
-3.8289213	Poesia	-0.044710413
-3.8289213	Ottobre	-0.044710413
-3.8289213	lucratif	-0.044710413
-3.8289213	œuvre	-0.044710413
-3.8289213	poésie	-0.044710413
-3.8289213	conçue	-0.044710413
-3.8289213	vecteur	-0.044710413
-3.8289213	privilégié	-0.044710413
-3.8289213	dialogue	-0.044710413
-3.8289213	interculturel	-0.044710413
-3.8289213	valeurs	-0.044710413
-3.8289213	humanistes	-0.044710413
-3.8289213	douée	-0.044710413
-3.8289213	émotions	-0.044710413
-3.8289213	ressent	-0.044710413
-3.8289213	désires	-0.044710413
-3.8289213	aimerait	-0.044710413
-3.8289213	frère	-0.044710413
-3.8289213	Justin	-0.044710413
-3.8289213	Leland	-0.044710413
-3.6753192	Stanford	-0.044710413
-3.8289213	posa	-0.044710413
-3.8289213	clou	-0.044710413
-3.8289213	Golden	-0.044710413
-3.8289213	Spike	-0.044710413
-3.8289213	symbolise	-0.044710413
-3.8289213	transcontinental	-0.044710413
-3.8289213	conservé	-0.044710413
-3.8289213	musée	-0.044710413
-3.8289213	Californie	-0.044710413
-3.8289213	elle-même	-0.044710413
-3.8289213	vend	-0.044710413
-3.8289213	fraise	-0.044710413
-3.8289213	Cachoubie	-0.044710413
-3.8289213	réputée	-0.044710413
-3.8289213	savoureuse	-0.044710413
-3.8289213	sucrée	-0.044710413
-3.8289213	fraises	-0.044710413
-3.8289213	facultés	-0.044710413
-3.8289213	pharmacie	-0.044710413
-3.8289213	assistants	-0.044710413
-3.8289213	fonctionnaires	-0.044710413
-3.8289213	soumis	-0.044710413
-3.8289213	Han	-0.044710413
-3.8289213	engage	-0.044710413
-3.8289213	bataille	-0.044710413
-3.8289213	couvre	-0.044710413
-3.8289213	Luke	-0.044710413
-3.8289213	Vador	-0.044710413
-3.8289213	course	-0.044710413
-3.8289213	Quelques	-0.044710413
-3.8289213	préconise	-0.044710413
-3.8289213	auteur	-0.044710413
-3.8289213	ballet	-0.044710413
-3.8289213	choréauteur	-0.044710413
-3.8289213	termes	-0.044710413
-3.8289213	chorégraphie	-0.044710413
-3.8289213	chorégraphe	-0.044710413
-3.8289213	ambiguïté	-0.044710413
-3.8289213	Intérieur	-0.044710413
-3.8289213	affirme	-0.044710413
-3.8289213	mesures	-0.044710413
-3.8289213	décisives	-0.044710413
-3.8289213	prises	-0.044710413
-3.8289213	telles	-0.044710413
-3.8289213	conformité	-0.044710413
-3.8289213	indique	-0.044710413
-3.8289213	communiqué	-0.044710413
-3.8289213	récit	-0.044710413
-3.8289213	lequel	-0.044710413
-3.6753192	John	-0.044710413
-3.8289213	certaines	-0.044710413
-3.8289213	transformations	-0.044710413
-3.8289213	subit	-0.044710413
-3.8289213	Jésus	-0.044710413
-3.8289213	référence	-0.044710413
-3.8289213	Antéchrist	-0.044710413
-3.8289213	Nietzsche	-0.044710413
-3.8289213	philosophe	-0.044710413
-3.8289213	soutient	-0.044710413
-3.8289213	thèse	-0.044710413
-3.8289213	christianisme	-0.044710413
-3.8289213	similaire	-0.044710413
-3.8289213	bouddhisme	-0.044710413
-3.8289213	christ	-0.044710413
-3.8289213	enseignait	-0.044710413
-3.8289213	parlait	-0.044710413
-3.8289213	réalisable	-0.044710413
-3.8289213	théorie	-0.044710413
-3.8289213	néoclassique	-0.044710413
-3.8289213	agent	-0.044710413
-3.8289213	cherche	-0.044710413
-3.8289213	maximiser	-0.044710413
-3.8289213	utilité	-0.044710413
-3.8289213	amené	-0.044710413
-3.8289213	arbitrage	-0.044710413
-3.8289213	consommation	-0.044710413
-3.6753192	épargne	-0.17647427
-3.8289213	considérer	-0.044710413
-3.8289213	rapportera	-0.044710413
-3.8289213	autrement	-0.044710413
-3.8289213	intérêt	-0.044710413
-3.8289213	fonctionnement	-0.044710413
-3.8289213	immigrée	-0.044710413
-3.8289213	existantes	-0.044710413
-3.8289213	porteurs	-0.044710413
-3.8289213	mémoire	-0.044710413
-3.8289213	descendants	-0.044710413
-3.8289213	héritiers	-0.044710413
-3.8289213	créent	-0.044710413
-3.8289213	transferts	-0.044710413
-3.8289213	mémoriels	-0.044710413
-3.8289213	originales	-0.044710413
-3.8289213	ancien	-0.044710413
-3.8289213	directeur	-0.044710413
-3.8289213	Journal	-0.044710413
-3.8289213	Hebdomadaire	-0.044710413
-3.8289213	confrère	-0.044710413
-3.8289213	arabophone	-0.044710413
-3.8289213	Assahifa	-0.044710413
-3.8289213	Al	-0.044710413
-3.8289213	Ousbouiya	-0.044710413
-3.8289213	éliminés	-0.044710413
-3.8289213	congolais	-0.044710413
-3.8289213	Elecsport	-0.044710413
-3.8289213	Bouansa	-0.044710413
-3.8289213	tour	-0.044710413
-3.8289213	0-2	-0.044710413
-3.8289213	1-0	-0.044710413
-3.8289213	Dame	-0.044710413
-3.8289213	Blanche	-0.044710413
-3.6753192	Nord	-0.044710413
-3.8289213	cité	-0.044710413
-3.6753192	peintres	-0.044710413
-3.8289213	surnom	-0.044710413
-3.8289213	rues	-0.044710413
-3.8289213	noms	-0.044710413
-3.8289213	célébres	-0.044710413
-3.8289213	Garges-lès-Gonesse	-0.044710413
-3.8289213	parisienne	-0.044710413
-3.6753192	espèces	-0.044710413
-3.8289213	devenues	-0.044710413
-3.8289213	rares	-0.044710413
-3.8289213	menacées	-0.044710413
-3.8289213	survivent	-0.044710413
-3.8289213	boréale	-0.044710413
-3.8289213	nunavik	-0.044710413
-3.8289213	Alaska	-0.044710413
-3.8289213	arrivez	-0.044710413
-3.8289213	Monginot	-0.044710413
-3.8289213	1825-1900	-0.044710413
-3.8289213	peintre	-0.044710413
-3.8289213	Licencié	-0.044710413
-3.8289213	géographie	-0.044710413
-3.8289213	enseigna	-0.044710413
-3.8289213	Yale	-0.044710413
-3.8289213	issue	-0.044710413
-3.8289213	municipales	-0.044710413
-3.8289213	Gheorghe	-0.044710413
-3.8289213	Tirifon	-0.044710413
-3.8289213	PNL	-0.044710413
-3.8289213	élu	-0.044710413
-3.8289213	propriétaire	-0.044710413
-3.8289213	bâtiment	-0.044710413
-3.8289213	ancienne	-0.044710413
-3.8289213	gare	-0.044710413
-3.8289213	Signy-le-Petit	-0.044710413
-3.8289213	conclu	-0.044710413
-3.8289213	bail	-0.044710413
-3.8289213	commercial	-0.044710413
-3.8289213	génère	-0.044710413
-3.8289213	court	-0.044710413
-3.6753192	papillons	-0.17647427
-3.8289213	visibles	-0.044710413
-3.8289213	zones	-0.044710413
-3.8289213	faibles	-0.044710413
-3.8289213	altitudes	-0.044710413
-3.8289213	dessus	-0.044710413
-3.8289213	1	-0.044710413
-3.8289213	000	-0.044710413
-3.8289213	pré	-0.044710413
-3.8289213	salé	-0.044710413
-3.8289213	méandre	-0.044710413
-3.8289213	océan	-0.044710413
-3.8289213	inventaire	-0.044710413
-3.8289213	ZNIEFF	-0.044710413
-3.8289213	type	-0.044710413
-3.8289213	transactions	-0.044710413
-3.8289213	Equipe	-0.044710413
-3.8289213	professionnels	-0.044710413
-3.8289213	chartistes	-0.044710413
-3.8289213	Robert	-0.044710413
-3.8289213	Royer	-0.044710413
-3.8289213	foyers	-0.044710413
-3.8289213	bronze	-0.044710413
-3.8289213	quotidienne	-0.044710413
-3.8289213	Gaulois	-0.044710413
-3.8289213	attestant	-0.044710413
-3.8289213	existence	-0.044710413
-3.8289213	ferme	-0.044710413
-3.8289213	infondées	-0.044710413
-3.8289213	rejetées	-0.044710413
-3.8289213	Cour	-0.044710413
-3.8289213	Internationale	-0.044710413
-3.8289213	Justice	-0.044710413
-3.8289213	Bien	-0.044710413
-3.6753192	ait	-0.044710413
-3.8289213	Satan	-0.044710413
-3.8289213	homosexuel	-0.044710413
-3.8289213	Saddam	-0.044710413
-3.8289213	Hussein	-0.044710413
-3.8289213	South	-0.044710413
-3.8289213	coupé	-0.044710413
-3.8289213	story	-0.044710413
-3.8289213	arc	-0.044710413
-3.8289213	handicapés	-0.044710413
-3.8289213	vont	-0.044710413
-3.8289213	Probablement	-0.044710413
-3.8289213	étudie	-0.044710413
-3.8289213	direction	-0.044710413
-3.8289213	photographes	-0.044710413
-3.8289213	reconnus	-0.044710413
-3.8289213	publie	-0.044710413
-3.8289213	collaboration	-0.044710413
-3.8289213	traité	-0.044710413
-3.8289213	intitulé	-0.044710413
-3.8289213	Iconographie	-0.044710413
-3.8289213	photographique	-0.044710413
-3.8289213	appliquée	-0.044710413
-3.8289213	ophtalmologie	-0.044710413
-3.8289213	Concert	-0.044710413
-3.8289213	Astrée	-0.044710413
-3.8289213	ensemble	-0.044710413
-3.8289213	musical	-0.044710413
-3.8289213	baroque	-0.044710413
-3.8289213	local	-0.044710413
-3.8289213	Arsenal	-0.044710413
-3.8289213	trophée	-0.044710413
-3.8289213	CRES	-0.044710413
-3.8289213	fédèrent	-0.044710413
-3.8289213	manière	-0.044710413
-3.8289213	directe	-0.044710413
-3.6753192	structures	-0.044710413
-3.8289213	celles-ci	-0.044710413
-3.8289213	membres	-0.044710413
-3.8289213	biais	-0.044710413
