\data\
ngram 1=1634
ngram 2=4866
ngram 3=6810
ngram 4=7748
ngram 5=8186

\1-grams:
-3.7210853	<unk>	0
0	<s>	-0.62635916
-1.7826712	</s>	0
-3.1739113	Cette	-0.15524517
-2.3805256	vague	-0.90587324
-1.5220456	de	-0.28551224
-2.8262162	chaleur	-0.13241193
-1.8725228	en	-0.27662304
-2.5646179	Inde	-0.19775663
-3.3330014	m'	-0.07686862
-3.6145384	attriste	-0.07686859
-3.4068773	beaucoup	-0.07686859
-2.2062986	__EMOTICON__	-0.25105247
-2.5036085	La	-0.2959917
-3.6145384	copine	-0.07686859
-3.1739113	mon	-0.07686859
-3.6145384	frère	-0.07686859
-2.676011	va	-0.1324294
-3.6145384	souffrir	-0.07686859
-2.720546	je	-0.14270219
-3.4068773	pense	-0.07686859
-1.5893586	...	-0.6842192
-3.4068773	Chaleur	-0.25095096
-3.3330014	extrême	-0.10997032
-1.751361	:	-0.28576425
-2.0219634	__DIGIT__	-0.26473016
-3.0577295	morts	-0.13769494
-2.0932183	une	-0.26267752
-3.3330014	semaine	-0.11429121
-1.7463553	__URL__	-0.6990898
-3.6145384	planète	-0.07686859
-2.235995	est	-0.10866318
-3.6145384	dérèglée	-0.07686859
-1.751361	.	-0.36497164
-1.840462	le	-0.28976694
-2.9661596	bilan	-0.10997032
-3.4068773	approche	-0.25095096
-2.0510824	les	-0.16228597
-2.476043	plus	-0.4182251
-3.1739113	moins	-0.119910605
-2.0822947	d'	-0.28483078
-1.9859468	__SHARP__	-0.29182106
-3.6145384	Chgmts	-0.07686859
-3.6145384	Terrestres	-0.07686859
-3.4068773	canicule	-0.13839741
-2.3596022	fait	-0.23428948
-2.4025085	qui	-0.15488417
-2.8905754	frappe	-0.29449394
-2.3022754	l'	-0.15836981
-3.0577295	depuis	-0.11429121
-3.6145384	tr	-0.07686859
-3.4068773	Comme	-0.07686859
-2.676011	si	-0.1037611
-3.6145384	premier	-0.07686859
-2.0314543	tremblement	-1.4146745
-2.9661596	terre	-0.08933927
-2.770175	n'	-0.117195114
-3.3330014	avait	-0.07686862
-2.267872	pas	-0.14217895
-3.6145384	suffit	-0.07686859
-3.6145384	Comment	-0.07686859
-2.8905754	tu	-0.10997032
-3.6145384	fais	-0.07686859
-2.1785035	pour	-0.18585925
-3.4068773	mourir	-0.07686859
-1.6947939	,	-0.24454322
-3.6145384	outre	-0.07686859
-2.9661596	être	-0.07686862
-3.6145384	inconscient	-0.07686859
-3.3330014	genre	-0.07686862
-3.6145384	coma	-0.07686859
-3.6145384	profonds	-0.07686859
-2.0510824	et	-0.1646931
-3.6145384	cuire	-0.07686859
-1.9293183	au	-0.3611441
-3.6145384	soleil	-0.07686859
-3.6145384	7-8	-0.07686859
-3.6145384	heures	-0.07686859
-2.1785035	?	-0.20691362
-3.6145384	Consultez	-0.07686859
-3.1739113	notre	-0.15524517
-3.6145384	gallerie	-0.07686859
-3.3330014	photo	-0.07686859
-2.3396406	sur	-0.19445974
-2.0314543	la	-0.18701394
-3.6145384	meutrière	-0.07686859
-3.4068773	Continuez	-0.07686859
-2.476043	s'	-0.15879342
-2.5986702	il	-0.23913676
-2.8905754	vous	-0.07686859
-3.6145384	plaît	-0.07686859
-1.810606	à	-0.25666067
-3.6145384	partager	-0.07686859
-3.6145384	levée	-0.07686859
-3.6145384	fonds	-0.07686859
-3.6145384	urgence	-0.07686859
-3.6145384	afin	-0.07686859
-3.1739113	aider	-0.18571393
-3.6145384	familles	-0.07686859
-3.6145384	touchées	-0.07686859
-2.3805256	par	-0.32782024
-2.5036085	séisme	-0.18539931
-3.4068773	Cristiano	-0.25095096
-3.4068773	Ronaldo	-0.18486397
-2.0716395	a	-0.24484316
-3.4068773	don	-0.15524517
-3.6145384	millions	-0.07686859
-3.1739113	€	-0.22138877
-2.8262162	aux	-0.11429121
-2.8262162	victimes	-0.20199826
-1.9071406	du	-0.2815043
-3.6145384	survenu	-0.07686859
-3.3330014	Nepal	-0.1037611
-2.0314543	!	-0.36752027
-3.6145384	7M	-0.07686859
-3.4068773	soutenir	-0.07686859
-2.0126753	un	-0.33951932
-3.6145384	7,128M	-0.07686859
-2.5036085	Népal	-0.21931235
-3.4068773	suit	-0.07686859
-3.4068773	avril	-0.07686859
-3.0577295	aurait	-0.24083425
-3.6145384	CUBA	-0.07686859
-2.2847333	des	-0.117070526
-3.6145384	médecins	-0.07686859
-3.6145384	cubains	-0.07686859
-3.4068773	NÉPAL	-0.07686862
-3.6145384	secourir	-0.07686859
-3.6145384	Demandez	-0.07686859
-3.1739113	dire	-0.07686859
-3.4068773	nos	-0.13839741
-3.3330014	amis	-0.07686859
-2.720546	on	-0.1037611
-3.4068773	affecté	-0.25095096
-3.0577295	non	-0.07686859
-3.4068773	signaler	-0.07686859
-3.3330014	Des	-0.07686859
-3.1739113	habitants	-0.07686859
-3.4068773	évacués	-0.07686859
-2.6356213	après	-0.3810658
-2.9661596	Les	-0.07686862
-3.6145384	secousses	-0.07686859
-2.720546	ont	-0.12773064
-2.8262162	été	-0.13839741
-3.6145384	ressenties	-0.07686859
-3.4068773	Tibet	-0.07686859
-3.6145384	jusqu	-0.07686859
-2.9661596	'	-0.12751804
-3.6145384	DES	-0.07686859
-3.6145384	MEDECINS	-0.07686859
-3.6145384	CUBAINS	-0.07686859
-3.6145384	PARTENT	-0.07686859
-3.3330014	AU	-0.18486397
-3.4068773	POUR	-0.07686859
-3.6145384	SECOURIR	-0.07686859
-3.4068773	LES	-0.07686859
-3.6145384	VICTIMES	-0.07686859
-3.6145384	DU	-0.07686859
-3.3330014	TREMBLEMENT	-0.22903799
-3.0577295	DE	-0.07686859
-3.4068773	TERRE	-0.07686859
-3.6145384	mères	-0.07686859
-3.6145384	survivantes	-0.07686859
-3.6145384	déçues	-0.07686859
-3.6145384	manque	-0.07686859
-3.6145384	soutien	-0.07686859
-3.6145384	gouvernement	-0.07686859
-3.3330014	Deux	-0.22903799
-3.0577295	semaines	-0.29598477
-3.3330014	dévasté	-0.07686862
-2.5036085	nouveau	-0.2880861
-2.8262162	magnitude	-0.19126225
-3.1739113	frappé	-0.16165298
-3.4068773	deuxieme	-0.25095096
-3.6145384	Nepal.on	-0.07686859
-3.6145384	prieon	-0.07686859
-3.6145384	obtenir	-0.07686859
-3.6145384	misericorde	-0.07686859
-3.6145384	Ciel	-0.07686859
-3.6145384	Matthew	-0.07686859
-3.6145384	Deuxième	-0.07686859
-2.4025085	ce	-0.2826297
-3.4068773	matin	-0.07686856
-3.4068773	échelle	-0.18486397
-2.8262162	>	-0.3085151
-3.6145384	Diaporama	-0.07686859
-2.8905754	touché	-0.24483861
-3.6145384	Continue	-0.07686859
-3.6145384	reading	-0.07686859
-3.6145384	here..	-0.07686859
-3.4068773	DIRECT	-0.25095096
-2.9661596	Nouveau	-0.307781
-3.6145384	bâtiments	-0.07686859
-3.1739113	Katmandou	-0.119910605
-2.5646179	Le	-0.18392755
-3.6145384	Donc	-0.07686859
-2.450123	c'	-0.7414366
-3.3330014	était	-0.07686862
-3.3330014	lui	-0.07686862
-2.220893	✪	-0.25643715
-2.8262162	y	-0.17158055
-2.5646179	encore	-0.14736639
-3.6145384	Douche	-0.07686859
-3.6145384	chaude	-0.07686859
-3.0577295	+	-0.16165298
-3.3330014	t	-0.07686862
-3.0577295	°	-0.13839741
-3.6145384	élevé	-0.07686859
-3.6145384	sèche-cheveux	-0.07686859
-3.4068773	=	-0.07686859
-3.6145384	EXTREME	-0.07686859
-3.6145384	Du	-0.07686859
-3.6145384	Jamais	-0.07686859
-3.6145384	vu	-0.07686859
-3.3330014	tué	-0.18486397
-2.720546	près	-0.75191677
-3.3330014	personnes	-0.07686859
-3.6145384	Dur	-0.07686859
-2.8905754	|	-0.07686859
-2.5646179	Tremblement	-0.89804476
-2.9661596	]	-0.15524521
-3.6145384	Découvrez	-0.07686859
-3.6145384	mécénat	-0.07686859
-3.6145384	humanitaire	-0.07686859
-3.6145384	dirigeant	-0.07686859
-3.6145384	Setam	-0.07686859
-3.6145384	faveur	-0.07686859
-3.4068773	conséquences	-0.07686859
-3.3330014	Déjà	-0.07686862
-2.476043	qu'	-0.3114394
-2.4025085	(	-0.13656431
-3.6145384	Nepalais	-0.07686859
-2.4025085	)	-0.192868
-3.0577295	tue	-0.11429121
-3.6145384	Déplacement	-0.07686859
-3.6145384	tectonique	-0.07686859
-2.8262162	suite	-0.4169255
-3.6145384	m	-0.07686862
-3.6145384	horizontal	-0.07686859
-3.6145384	N-S	-0.07686859
-3.6145384	altitude	-0.07686859
-2.8905754	via	-0.5970148
-2.235995	__MENTION__	-0.15769203
-3.6145384	Eboulis	-0.07686859
-2.235995	dans	-0.32684678
-3.4068773	nord	-0.07686859
-3.6145384	Edifiant	-0.07686859
-3.1739113	moment	-0.15524517
-2.720546	/	-0.101455346
-3.4068773	majeur	-0.07686859
-3.6145384	eh	-0.07686859
-3.4068773	année	-0.07686862
-3.3330014	prochaine	-0.07686862
-3.6145384	L.A	-0.07686859
-3.6145384	jveux	-0.07686859
-3.6145384	Terre	-0.07686862
-3.6145384	mdrrr	-0.07686859
-3.3330014	mort	-0.13839741
-3.4068773	elle	-0.07686859
-3.3330014	dit	-0.07686862
-3.1739113	y'	-0.15524517
-2.8262162	eu	-0.40956387
-3.3330014	typhon	-0.07686862
-2.9661596	où	-0.12751804
-3.6145384	ptn	-0.07686859
-3.3330014	cas	-0.07686862
-3.6145384	peton	-0.07686859
-3.6145384	abriter	-0.07686859
-3.3330014	sous	-0.07686862
-3.6145384	table	-0.07686859
-3.6145384	verre	-0.07686859
-2.8905754	ou	-0.07686859
-3.6145384	est-ce	-0.07686859
-2.3596022	que	-0.19863297
-3.6145384	idée	-0.07686859
-3.6145384	merde	-0.07686859
-3.6145384	EN	-0.07686859
-2.5646179	Un	-0.2796511
-3.6145384	magn	-0.07686859
-2.6356213	En	-0.35658202
-3.4068773	direct	-0.07686862
-3.3330014	secoué	-0.13839741
-2.8262162	ils	-0.12751804
-3.6145384	arrêterons	-0.07686859
-3.6145384	trafic	-0.07686859
-3.4068773	enfants	-0.07686859
-2.8262162	avec	-0.121916
-3.6145384	apartheid	-0.07686859
-3.1739113	faut	-0.07686859
-3.6145384	remercier	-0.07686859
-3.6145384	notifs	-0.07686859
-3.6145384	elles	-0.07686859
-2.8905754	nous	-0.119910605
-3.6145384	disent	-0.07686859
-3.6145384	enlever	-0.07686859
-3.6145384	IMAGES	-0.07686859
-2.0612392	-	-0.28581008
-3.6145384	plongé	-0.07686859
-3.6145384	panique	-0.07686859
-3.4068773	images	-0.07686859
-3.1739113	Au	-0.18486397
-3.6145384	schtroumpfé	-0.07686859
-3.3330014	populations	-0.07686859
-3.6145384	déshéritées	-0.07686859
-2.770175	sont	-0.12751804
-3.4068773	premières	-0.18486397
-3.4068773	vagues	-0.25095096
-3.6145384	tuent	-0.07686859
-2.770175	Une	-0.26524875
-3.6145384	inde	-0.07686859
-3.3330014	tuées	-0.18486397
-3.6145384	record	-0.07686862
-3.6145384	fondre	-0.07686859
-3.6145384	routes	-0.07686859
-3.3330014	intense	-0.07686862
-3.6145384	rues	-0.07686859
-3.6145384	fondent	-0.07686859
-3.4068773	températures	-0.07686859
-3.6145384	avoisinants	-0.07686859
-3.6145384	schtroumpfs	-0.07686859
-3.3330014	trois	-0.18486397
-3.3330014	deux	-0.07686862
-2.9661596	pays	-0.11590208
-3.4068773	►	-0.25095096
-3.4068773	exceptionnelle	-0.07686859
-3.4068773	alors	-0.07686859
-3.6145384	mousson	-0.07686859
-2.476043	se	-0.16344449
-3.6145384	attendre	-0.07686859
-3.6145384	Encor	-0.07686859
-3.6145384	plein	-0.07686859
-3.6145384	notes	-0.07686859
-3.6145384	compo	-0.07686859
-3.3330014	Encore	-0.16165298
-3.3330014	autre	-0.13569416
-3.1739113	terrible	-0.15524517
-3.4068773	pensée	-0.15524517
-2.720546	tout	-0.14986958
-2.9661596	ses	-0.07686862
-3.6145384	o	-0.07686859
-2.8262162	ça	-0.07686859
-3.4068773	part	-0.25095096
-3.6145384	couille	-0.07686859
-3.4068773	nepal	-0.07686859
-3.6145384	devidemment	-0.07686859
-3.4068773	chance	-0.07686859
-3.4068773	chaud	-0.07686859
-3.4068773	eux	-0.07686859
-3.6145384	Courage	-0.07686859
-3.4068773	Népalais	-0.07686862
-3.6145384	Que	-0.07686859
-3.6145384	Seigneur	-0.07686859
-3.3330014	aide	-0.07686862
-3.4068773	Bangladesh	-0.07686859
-3.4068773	nouvelle	-0.15524517
-3.1739113	fois	-0.119910605
-3.3330014	secousse	-0.07686859
-3.6145384	aujourd	-0.07686859
-3.3330014	hui	-0.07686859
-3.6145384	moments	-0.07686859
-3.6145384	affreux	-0.07686859
-3.6145384	Enorme	-0.07686859
-2.8262162	déjà	-0.099513836
-3.4068773	Facebook	-0.07686859
-3.6145384	apprend	-0.07686859
-3.6145384	potes	-0.07686859
-3.4068773	étaient	-0.07686859
-2.720546	pendant	-0.35865685
-3.3330014	sécurité	-0.07686859
-3.4068773	mdr	-0.07686859
-3.6145384	sera	-0.07686859
-3.3330014	quoi	-0.07686862
-3.6145384	permet	-0.07686859
-3.6145384	informer	-0.07686859
-3.4068773	es	-0.07686862
-3.4068773	durant	-0.07686859
-3.3330014	catastrophe	-0.07686862
-3.4068773	naturelle	-0.07686859
-3.1739113	ici	-0.07686859
-3.1739113	népalais	-0.07686859
-3.6145384	Cool	-0.07686859
-3.6145384	Faillite	-0.07686859
-3.4068773	Grèce	-0.25095096
-3.3330014	Hollande	-0.07686862
-3.0577295	France	-0.07686859
-3.4068773	sort	-0.07686859
-3.6145384	acharne	-0.07686859
-3.6145384	Finance	-0.07686859
-3.4068773	Sud	-0.07686859
-2.9661596	Plus	-0.3618052
-3.6145384	trouvé	-0.07686859
-3.6145384	la..	-0.07686859
-3.6145384	Flash	-0.07686859
-3.3330014	Séisme	-0.18486397
-3.6145384	produit	-0.07686862
-2.9661596	mardi	-0.106544256
-3.0577295	dernier	-0.13839741
-3.4068773	mai	-0.119910605
-3.6145384	Avril	-0.07686859
-3.6145384	Actu	-0.07686859
-2.9661596	cette	-0.15524517
-3.1739113	Japon	-0.10997032
-3.1739113	ressenti	-0.117195114
-3.6145384	aujo	-0.07686859
-3.6145384	FLASH	-0.07686859
-3.6145384	Terre/Népal	-0.07686859
-3.6145384	Flash-Météo	-0.07686859
-3.6145384	peu	-0.07686859
-3.1739113	avant	-0.16165298
-3.6145384	cassure	-0.07686859
-3.6145384	Mercredi	-0.07686859
-3.6145384	17:29	-0.07686859
-3.6145384	ch	-0.07686859
-3.4068773	orages	-0.07686859
-3.3330014	forte	-0.07686859
-3.4068773	pluie	-0.07686859
-3.3330014	jeudi	-0.07686862
-3.6145384	Mardi	-0.07686859
-3.6145384	17:01	-0.07686859
-3.6145384	p	-0.07686859
-3.6145384	FRANCE	-0.07686859
-3.6145384	meurent	-0.07686859
-3.6145384	France/Monde	-0.07686859
-3.6145384	French	-0.07686859
-3.3330014	News	-0.07686859
-3.4068773	Avec	-0.07686859
-3.6145384	tem	-0.07686859
-3.6145384	That'	-0.07686859
-3.4068773	s	-0.07686859
-3.6145384	all	-0.07686859
-3.6145384	devrai	-0.07686859
-3.6145384	Google	-0.07686859
-3.6145384	FR	-0.07686859
-3.6145384	quarantaine	-0.07686859
-3.4068773	Info	-0.18486397
-3.4068773	I	-0.25095096
-3.6145384	Guyancourt	-0.07686859
-3.6145384	faites	-0.07686859
-3.4068773	sinistrés	-0.25095096
-3.4068773	Alors	-0.07686859
-3.4068773	f	-0.25095096
-3.6145384	Haïti	-0.07686859
-3.6145384	passé	-0.07686859
-3.6145384	argent	-0.07686859
-3.6145384	donateurs	-0.07686859
-3.4068773	Ou	-0.07686859
-3.6145384	voyous	-0.07686859
-3.4068773	doit	-0.07686859
-3.6145384	connaître	-0.07686859
-3.6145384	réponse	-0.07686859
-3.4068773	hein	-0.07686859
-2.8905754	son	-0.07686859
-3.6145384	arrivée	-0.07686859
-3.6145384	foudre	-0.07686859
-3.6145384	bol	-0.07686859
-3.4068773	PR	-0.07686859
-3.6145384	Hi	-0.07686859
-3.6145384	there	-0.07686859
-3.6145384	Merci	-0.07686859
-3.6145384	occupé	-0.07686859
-3.6145384	Hier	-0.07686859
-3.3330014	soir	-0.07686862
-3.4068773	Bonjour	-0.07686862
-3.4068773	@	-0.07686859
-3.3330014	Il	-0.13839741
-3.4068773	C	-0.0964254
-3.6145384	Paris	-0.07686859
-3.6145384	frappait	-0.07686859
-3.6145384	Aujourd'	-0.07686859
-3.6145384	min	-0.07686859
-3.6145384	avons	-0.07686859
-3.3330014	Delhi	-0.15524517
-3.4068773	apparemment	-0.07686859
-3.3330014	hier	-0.07686862
-3.6145384	nord-est	-0.07686859
-3.4068773	pauvres	-0.15524517
-3.0577295	comme	-0.07686859
-3.6145384	avaient	-0.07686859
-3.6145384	perdu	-0.07686859
-3.6145384	première	-0.07686859
-3.6145384	Impressionnant	-0.07686859
-3.3330014	RT	-0.18486397
-3.6145384	alourdit	-0.07686859
-2.9661596	ne	-0.119910605
-3.6145384	chutent	-0.07686859
-3.6145384	Télégramme	-0.07686859
-3.6145384	Ouest-France	-0.07686859
-3.4068773	thermomètre	-0.07686859
-3.3330014	frôle	-0.22903799
-3.6145384	États	-0.07686859
-3.6145384	aggravation	-0.07686859
-3.6145384	nombre	-0.07686859
-3.6145384	cause	-0.07686859
-3.4068773	tués	-0.07686859
-3.6145384	atteignent	-0.07686859
-3.3330014	jusqu'	-0.18571393
-3.6145384	Face	-0.07686859
-3.6145384	hôpitaux	-0.07686859
-3.4068773	submergés	-0.07686859
-3.3330014	sévit	-0.2101052
-3.4068773	toujours	-0.07686859
-2.8262162	plusieurs	-0.10997032
-2.9661596	jours	-0.10997032
-3.6145384	poursuit	-0.07686862
-3.6145384	su	-0.07686859
-3.6145384	appels	-0.07686859
-3.6145384	prudence	-0.07686859
-3.3330014	sud	-0.12789023
-3.6145384	Appels	-0.07686859
-3.4068773	vidéo	-0.07686859
-3.6145384	réagir	-0.07686859
-3.6145384	RTL.fr	-0.07686859
-3.6145384	Dans	-0.07686859
-3.6145384	seule	-0.07686859
-3.4068773	journée	-0.07686859
-3.4068773	dimanche	-0.25095096
-3.4068773	Etats	-0.07686859
-3.6145384	Pakistan	-0.07686859
-3.6145384	extrème	-0.07686862
-3.4068773	Andhra	-0.25095096
-3.4068773	Pradesh	-0.18486397
-3.6145384	agents	-0.07686859
-3.6145384	circulation	-0.07686859
-3.6145384	arrêtent	-0.07686859
-3.3330014	leur	-0.07686862
-3.6145384	service	-0.07686859
-3.3330014	entre	-0.07686862
-3.4068773	h	-0.07686859
-3.6145384	raison	-0.07686859
-3.6145384	Times	-0.07686859
-3.3330014	of	-0.07686862
-3.6145384	India	-0.07686859
-3.3330014	・	-0.119910605
-3.4068773	Indes	-0.07686859
-3.6145384	femme	-0.07686859
-2.9661596	vient	-0.14632243
-3.6145384	perdre	-0.07686859
-3.6145384	mari	-0.07686859
-2.9661596	lors	-0.20638958
-3.6145384	inconsolable	-0.07686859
-3.6145384	accablante	-0.07686859
-3.6145384	Indien	-0.07686859
-3.6145384	centaines	-0.07686859
-3.4068773	meurtrière	-0.15524517
-3.3330014	Intense	-0.22903799
-3.1739113	J'	-0.13839741
-3.3330014	ai	-0.07686856
-3.4068773	mal	-0.07686859
-3.6145384	tête	-0.07686859
-3.6145384	dirait	-0.07686859
-3.4068773	passe	-0.07686859
-3.1739113	ma	-0.07686862
-3.6145384	aime	-0.07686859
-3.3330014	réplique	-0.07686862
-3.6145384	sismique	-0.07686859
-3.6145384	trembler	-0.07686859
-3.6145384	Puissant	-0.07686859
-3.3330014	large	-0.13839741
-3.6145384	côtes	-0.07686859
-3.6145384	nipponnes	-0.07686859
-3.6145384	20minutes	-0.07686859
-3.1739113	Monde	-0.12751804
-3.0577295	Je	-0.17415954
-3.6145384	cherche	-0.07686859
-3.6145384	pertinence	-0.07686859
-3.4068773	mes	-0.07686859
-3.4068773	fb	-0.07686859
-3.6145384	Chose	-0.07686859
-3.0577295	t'	-0.07686859
-3.4068773	étais	-0.07686859
-3.6145384	école	-0.07686859
-3.6145384	aujd	-0.07686859
-3.6145384	lis	-0.07686859
-3.6145384	INDE	-0.07686859
-3.3330014	me	-0.07686859
-3.6145384	co	-0.07686859
-3.6145384	Twitter	-0.07686859
-3.6145384	vois	-0.07686859
-2.8262162	C'	-0.48674393
-3.6145384	cool	-0.07686859
-3.4068773	rappelle	-0.07686859
-2.8262162	quand	-0.1458047
-2.770175	j'	-0.2290508
-3.6145384	appris	-0.07686859
-3.6145384	H.24	-0.07686859
-3.6145384	compte	-0.07686859
-3.6145384	soeur	-0.07686859
-3.6145384	surveillé	-0.07686859
-3.6145384	capable	-0.07686859
-3.6145384	concentrer	-0.07686859
-3.6145384	reçois	-0.07686859
-3.6145384	messages	-0.07686859
-2.5646179	«	-0.12564261
-3.6145384	sûreté	-0.07686859
-2.4256637	»	-0.13471386
-3.6145384	récent	-0.07686859
-3.6145384	savais	-0.07686859
-3.6145384	suis	-0.07686862
-3.6145384	présentement	-0.07686859
-3.6145384	MTL	-0.07686859
-3.6145384	ptit	-0.07686859
-3.6145384	studio	-0.07686859
-3.6145384	aurais	-0.07686859
-3.6145384	moitié	-0.07686859
-3.6145384	accord	-0.07686859
-3.3330014	Mais	-0.07686859
-3.6145384	Jeudi	-0.07686859
-3.6145384	commémoration	-0.07686859
-3.6145384	171ème	-0.07686859
-3.6145384	anniversaire	-0.07686859
-3.6145384	marche	-0.07686859
-3.6145384	Jme	-0.07686859
-3.6145384	disais	-0.07686859
-3.1739113	bien	-0.07686859
-3.6145384	faisait	-0.07686859
-3.6145384	Jusqu'	-0.07686859
-3.6145384	S-E	-0.07686859
-3.3330014	ds	-0.07686862
-3.6145384	sud-est	-0.07686859
-3.6145384	jrs	-0.07686859
-3.6145384	meurt	-0.07686859
-3.6145384	L	-0.07686859
-3.6145384	prépare	-0.07686859
-3.4068773	simulation	-0.07686859
-3.4068773	gestion	-0.25095096
-3.4068773	important	-0.07686859
-2.8262162	L'	-0.11199833
-3.6145384	Algérie	-0.07686859
-3.4068773	grand	-0.18486397
-3.6145384	séis	-0.07686859
-3.6145384	association	-0.07686859
-3.6145384	lance	-0.07686859
-3.6145384	appel	-0.07686859
-3.4068773	dons	-0.07686859
-3.1739113	A	-0.07686859
-3.3330014	violent	-0.07686862
-3.4068773	aéroport	-0.25095096
-3.3330014	fermé	-0.07686859
-3.4068773	effet	-0.07686862
-3.6145384	impressionnant	-0.07686859
-3.4068773	piscine	-0.12751804
-3.6145384	enfer	-0.07686859
-3.6145384	HOMME	-0.07686859
-3.6145384	CHASSÉ	-0.07686859
-3.4068773	LA	-0.07686859
-3.6145384	SA	-0.07686859
-3.6145384	PLACE	-0.07686859
-3.6145384	CENTRALE	-0.07686859
-3.6145384	DANS	-0.07686859
-3.6145384	UNIVERS	-0.07686859
-3.6145384	ELLE	-0.07686859
-3.6145384	PROTESTE	-0.07686859
-3.6145384	EST	-0.07686859
-3.6145384	horreur	-0.07686859
-3.4068773	secoue	-0.25095096
-3.1739113	info	-0.07686859
-3.1739113	épicentre	-0.18486397
-3.6145384	kilomètres	-0.07686859
-3.6145384	Quai	-0.07686859
-3.6145384	Orsay	-0.07686859
-3.6145384	situé	-0.07686859
-3.6145384	Namche	-0.07686859
-3.6145384	Bazar	-0.07686859
-3.6145384	Everest	-0.07686859
-3.6145384	pu	-0.07686859
-3.6145384	créer	-0.07686859
-3.6145384	autres	-0.07686859
-3.6145384	avalanches	-0.07686859
-3.6145384	indien	-0.07686859
-3.6145384	cauchemar	-0.07686859
-3.6145384	absolu	-0.07686859
-3.6145384	Botola	-0.07686859
-3.6145384	est-elle	-0.07686859
-3.4068773	responsable	-0.07686859
-3.6145384	Modération	-0.07686859
-3.6145384	Hmou	-0.07686859
-3.6145384	Mouhal	-0.07686859
-3.4068773	fa	-0.25095096
-3.6145384	Hôpitaux	-0.07686859
-3.4068773	pris	-0.07686859
-3.6145384	assaut	-0.07686859
-3.6145384	soigner	-0.07686859
-3.6145384	État	-0.07686859
-3.6145384	chronique	-0.07686859
-2.9661596	d	-0.3618052
-3.6145384	correspondant	-0.07686859
-3.4068773	Compagnie	-0.07686859
-3.6145384	Electricité	-0.07686859
-3.6145384	attendue	-0.07686859
-3.4068773	nature	-0.07686859
-3.6145384	selon	-0.07686862
-3.4068773	médias	-0.25095096
-3.6145384	Indiens	-0.07686859
-3.6145384	plupart	-0.07686859
-3.6145384	ouvriers	-0.07686859
-3.6145384	travaillant	-0.07686859
-3.6145384	bâtiment	-0.07686859
-3.6145384	âgées	-0.07686859
-3.6145384	ainsi	-0.07686859
-3.6145384	sans-abri	-0.07686859
-3.6145384	réaction	-0.07686859
-3.6145384	vrille	-0.07686859
-3.6145384	volcan	-0.07686859
-3.6145384	éruption	-0.07686859
-3.6145384	baleines	-0.07686859
-3.6145384	échouées	-0.07686859
-3.6145384	tremble	-0.07686859
-3.6145384	situe	-0.07686859
-3.6145384	frontière	-0.07686859
-3.6145384	Chine	-0.07686859
-3.6145384	lieu	-0.07686859
-3.6145384	montre	-0.07686859
-3.4068773	aucun	-0.07686859
-3.6145384	fléchissement	-0.07686859
-3.6145384	chale	-0.07686859
-3.6145384	bac	-0.07686859
-2.8905754	faire	-0.119910605
-3.6145384	répit	-0.07686859
-3.6145384	indiqué	-0.07686859
-3.4068773	mercredi	-0.07686859
-3.3330014	l	-0.18486397
-3.6145384	rép	-0.07686859
-3.6145384	version	-0.07686859
-3.6145384	disponible	-0.07686859
-3.3330014	Ya	-0.2101052
-3.4068773	petit	-0.18486397
-3.6145384	jvou	-0.07686859
-3.6145384	cache	-0.07686859
-3.6145384	flipper	-0.07686859
-3.4068773	touchée	-0.25095096
-3.6145384	Conseil	-0.07686859
-3.6145384	Municipal	-0.07686859
-3.6145384	vote	-0.07686859
-3.6145384	subvention	-0.07686859
-3.6145384	000euros	-0.07686859
-3.6145384	avril.#Rennes	-0.07686859
-3.6145384	Département	-0.07686859
-3.6145384	mobilise	-0.07686859
-3.6145384	attribuant	-0.07686859
-3.6145384	mercure	-0.07686859
-3.6145384	grimpe	-0.07686859
-3.4068773	provoqué	-0.07686859
-3.6145384	nombreux	-0.07686859
-3.4068773	décès	-0.07686859
-3.6145384	maudits	-0.07686859
-3.6145384	gars	-0.07686859
-3.6145384	revoir	-0.07686859
-3.6145384	demander	-0.07686859
-3.6145384	pardon	-0.07686859
-3.6145384	Dieu	-0.07686859
-3.6145384	précipite	-0.07686859
-3.6145384	places	-0.07686859
-3.6145384	publiques	-0.07686859
-3.4068773	fin	-0.07686862
-3.6145384	ayant	-0.07686859
-3.6145384	amorçait	-0.07686859
-3.6145384	développement	-0.07686859
-3.6145384	Aidez	-0.07686859
-3.4068773	faisant	-0.07686859
-3.4068773	fort	-0.25095096
-3.4068773	SEISME	-0.07686859
-3.6145384	victime	-0.07686859
-3.1739113	Vague	-0.28262398
-3.6145384	gay	-0.07686859
-3.6145384	suède	-0.07686859
-3.4068773	[	-0.12751804
-3.4068773	désormais	-0.07686859
-3.6145384	évaluée	-0.07686859
-3.6145384	faibit	-0.07686859
-3.6145384	Exercice	-0.07686859
-3.6145384	national	-0.07686859
-3.6145384	Boughezoul	-0.07686859
-3.6145384	annoncée	-0.07686859
-3.6145384	prochains	-0.07686859
-3.6145384	pourrait	-0.07686859
-3.6145384	affecter	-0.07686859
-3.6145384	cultures	-0.07686859
-3.6145384	climatique	-0.07686859
-3.6145384	Cest	-0.07686859
-3.1739113	aujourd'	-0.18571393
-3.6145384	basque	-0.07686859
-3.6145384	satisfait	-0.07686859
-3.6145384	PIB	-0.07686859
-3.6145384	autant	-0.07686859
-3.6145384	RTL	-0.07686859
-3.6145384	partie	-0.07686859
-3.4068773	Réaction	-0.25095096
-3.6145384	Saaale	-0.07686859
-3.6145384	re	-0.07686859
-3.6145384	Santé	-0.07686859
-3.4068773	Canada	-0.07686862
-3.6145384	prendre	-0.07686859
-3.6145384	précautions	-0.07686859
-3.6145384	protéger	-0.07686859
-3.3330014	votre	-0.07686862
-3.4068773	santé	-0.07686859
-3.4068773	celle	-0.07686859
-3.6145384	Second	-0.07686859
-3.6145384	Maintenant	-0.07686859
-3.6145384	fixés	-0.07686859
-3.6145384	poisse	-0.07686859
-3.3330014	Pas	-0.07686862
-3.4068773	peine	-0.07686859
-3.6145384	jouer	-0.07686859
-3.6145384	Loto	-0.07686859
-3.6145384	Selaon	-0.07686859
-3.6145384	presse	-0.07686859
-3.4068773	second	-0.07686859
-3.6145384	D'	-0.07686859
-3.6145384	environ	-0.07686859
-3.6145384	presque	-0.07686859
-3.1739113	Selon	-0.07686859
-3.6145384	employés	-0.07686859
-3.6145384	Croix-Rouge	-0.07686859
-3.6145384	Norvège	-0.07686859
-3.4068773	blessés	-0.07686862
-3.6145384	blessées	-0.07686859
-3.6145384	SHIBA	-0.07686859
-3.6145384	INU	-0.07686859
-3.3330014	ET	-0.07686862
-3.6145384	CHIENS	-0.07686859
-3.6145384	JAPONAIS	-0.07686859
-3.6145384	Lapinkoïra	-0.07686859
-3.6145384	héros	-0.07686859
-3.6145384	averti	-0.07686859
-3.6145384	maîtres	-0.07686859
-3.6145384	Shigeru	-0.07686859
-3.6145384	Ban	-0.07686859
-3.6145384	lauréat	-0.07686859
-3.6145384	prix	-0.07686859
-3.6145384	Pritzker	-0.07686859
-3.6145384	recousse	-0.07686859
-3.6145384	Si	-0.07686859
-3.6145384	normal	-0.07686859
-3.4068773	sois	-0.07686859
-3.6145384	safe	-0.07686859
-3.6145384	tsé	-0.07686859
-3.6145384	besoin	-0.07686859
-3.6145384	enlève	-0.07686859
-3.6145384	veste	-0.07686859
-3.6145384	noire	-0.07686859
-3.3330014	sa	-0.18486397
-3.4068773	météo	-0.07686859
-3.6145384	toucher	-0.07686859
-3.6145384	Situation	-0.07686859
-3.6145384	Publié	-0.07686859
-3.6145384	12/05/2015	-0.07686859
-3.4068773	Moins	-0.25095096
-3.6145384	Soutien	-0.07686859
-3.6145384	apres	-0.07686859
-3.4068773	deuxième	-0.25095096
-3.6145384	Suite	-0.07686859
-3.6145384	totalité	-0.07686859
-3.6145384	bénéfice	-0.07686859
-3.6145384	Alain	-0.07686859
-3.6145384	Nitchaeff	-0.07686859
-3.6145384	Sur	-0.07686859
-3.6145384	NoKenny	-0.07686859
-3.6145384	Séance	-0.07686859
-3.4068773	technique	-0.25095096
-3.4068773	demain	-0.07686859
-3.6145384	HE	-0.07686859
-3.6145384	information	-0.07686859
-3.6145384	ha	-0.07686859
-3.6145384	Ouest	-0.07686859
-3.1739113	très	-0.07686859
-3.6145384	grande	-0.07686859
-3.6145384	Né	-0.07686859
-3.6145384	Parlement	-0.07686859
-3.6145384	violente	-0.07686859
-3.6145384	meurtri	-0.07686859
-3.6145384	vidéos	-0.07686859
-3.6145384	découvrir	-0.07686859
-3.6145384	TEMOIGNAGE	-0.07686859
-3.6145384	jurassien	-0.07686859
-3.4068773	raconte	-0.07686859
-3.6145384	midi	-0.07686859
-3.4068773	Terrible	-0.18486397
-3.6145384	Liberté	-0.07686859
-3.6145384	territoires	-0.07686859
-3.6145384	durables	-0.07686859
-3.6145384	Ton	-0.07686859
-3.6145384	téléphone	-0.07686859
-3.6145384	vibre	-0.07686859
-3.4068773	chez	-0.25095096
-3.6145384	toi	-0.07686859
-3.6145384	entends	-0.07686859
-3.6145384	cours	-0.07686859
-3.6145384	endirait	-0.07686859
-3.4068773	Toujours	-0.07686859
-3.6145384	Pokhara	-0.07686859
-3.4068773	dommage	-0.07686859
-3.4068773	Toutes	-0.25095096
-3.6145384	pensées	-0.07686859
-3.6145384	vont	-0.07686859
-3.6145384	TRACE-TM	-0.07686859
-3.6145384	tu&#xe9	-0.07686859
-3.1739113	;	-0.07686859
-3.6145384	pr&#xe8	-0.07686859
-3.6145384	staff	-0.07686859
-3.6145384	Médecins	-0.07686859
-3.6145384	Monde-France	-0.07686859
-3.6145384	Solidarités	-0.07686859
-3.6145384	International	-0.07686859
-3.6145384	ok	-0.07686859
-3.6145384	orphelinat	-0.07686859
-3.6145384	Kathmandu	-0.07686859
-3.6145384	"	-0.07686859
-3.6145384	Nous	-0.07686859
-3.4068773	sommes	-0.07686862
-3.6145384	émus	-0.07686859
-3.6145384	MAE	-0.07686859
-3.6145384	ignore	-0.07686859
-3.6145384	Israéliens	-0.07686859
-3.4068773	touchés	-0.07686859
-3.6145384	trekkeurs	-0.07686859
-3.6145384	déclarés	-0.07686859
-3.6145384	état	-0.07686859
-3.4068773	équipe	-0.07686859
-3.6145384	secouriste	-0.07686859
-3.6145384	épopée	-0.07686859
-3.6145384	metronews	-0.07686859
-3.6145384	notif	-0.07686859
-3.6145384	nuit	-0.07686859
-3.6145384	Vénetie	-0.07686859
-3.6145384	dormais	-0.07686859
-3.6145384	loire	-0.07686859
-3.3330014	rien	-0.07686862
-3.6145384	sentie	-0.07686859
-3.6145384	Obs	-0.07686859
-3.6145384	proximité	-0.07686859
-3.6145384	Figaro	-0.07686859
-3.6145384	Richter	-0.07686859
-3.3330014	c	-0.13839741
-3.6145384	Via	-0.07686859
-3.4068773	tsunami	-0.07686859
-3.6145384	liberté	-0.07686859
-3.6145384	expression	-0.07686859
-3.4068773	également	-0.07686859
-3.6145384	avalé	-0.07686859
-3.6145384	jusque	-0.07686859
-3.6145384	Chennai	-0.07686859
-3.3330014	On	-0.07686862
-3.6145384	Surnomme	-0.07686859
-3.6145384	Toit	-0.07686859
-3.3330014	Ça	-0.07686862
-3.4068773	peur	-0.07686862
-3.4068773	Grande	-0.07686859
-3.6145384	Tragédie	-0.07686859
-3.6145384	senti	-0.07686859
-3.6145384	ttps://youtu.be/95GxAwggxhA	-0.07686859
-3.6145384	CERN	-0.07686859
-3.6145384	réactiver	-0.07686859
-3.6145384	certainement	-0.07686859
-3.1739113	gros	-0.35397673
-3.4068773	Ns	-0.07686859
-3.6145384	verrons	-0.07686859
-3.6145384	Témoignage	-0.07686859
-3.6145384	Michael	-0.07686859
-3.6145384	Booth	-0.07686859
-3.4068773	membre	-0.07686859
-3.6145384	intervention	-0.07686859
-3.6145384	2e	-0.07686859
-3.6145384	2nd	-0.07686859
-3.6145384	meurtrier	-0.07686862
-3.4068773	Pour	-0.07686859
-3.6145384	chinoise	-0.07686859
-3.6145384	Heureusement	-0.07686859
-3.6145384	monde	-0.07686862
-3.6145384	sain	-0.07686859
-3.6145384	sauf	-0.07686859
-3.6145384	CHenga	-0.07686859
-3.6145384	Ngajo	-0.07686859
-3.6145384	Buthi	-0.07686859
-3.4068773	derniers	-0.07686859
-3.6145384	bilans	-0.07686859
-3.6145384	Quelle	-0.07686859
-3.6145384	tragédie	-0.07686859
-3.6145384	collège	-0.07686859
-3.6145384	REP	-0.07686859
-3.6145384	acharnement	-0.07686859
-3.6145384	New	-0.07686859
-3.6145384	Tout	-0.07686859
-3.4068773	toute	-0.07686859
-3.6145384	jeune	-0.07686859
-3.6145384	panda	-0.07686859
-3.6145384	traumatisé	-0.07686859
-3.6145384	veut	-0.07686859
-3.6145384	resté	-0.07686859
-3.6145384	auprès	-0.07686859
-3.6145384	gardien	-0.07686859
-3.3330014	puissant	-0.18486397
-3.6145384	actualisation	-0.07686859
-3.6145384	infos	-0.07686859
-3.4068773	lire	-0.07686859
-3.6145384	site	-0.07686859
-3.3330014	centre	-0.18486397
-3.6145384	crise	-0.07686862
-3.6145384	ouvert	-0.07686859
-3.6145384	cellule	-0.07686859
-3.6145384	Ric	-0.07686859
-3.6145384	INFOGRAPHIE	-0.07686859
-3.4068773	Trois	-0.25095096
-3.6145384	mo	-0.07686859
-3.6145384	frapper	-0.07686859
-3.6145384	NEPAL	-0.07686859
-3.6145384	dieu	-0.07686859
-3.6145384	arrêté	-0.07686859
-3.6145384	acharner	-0.07686859
-3.4068773	ces	-0.07686859
-3.4068773	gens	-0.07686862
-3.4068773	Népal..	-0.07686859
-3.6145384	putain	-0.07686859
-3.4068773	Et	-0.07686862
-3.6145384	plaindre	-0.07686859
-3.4068773	Ce	-0.07686859
-3.4068773	risque	-0.07686859
-3.6145384	disparaître	-0.07686859
-3.3330014	force	-0.07686862
-3.6145384	UN	-0.07686859
-3.6145384	NOUVEAU	-0.07686859
-3.6145384	MARDI	-0.07686859
-3.6145384	MAGNITUDE	-0.07686859
-3.6145384	SUR	-0.07686859
-3.6145384	ÉCHELLE	-0.07686859
-3.6145384	RICHTER	-0.07686859
-3.6145384	REUTERS	-0.07686859
-3.6145384	touche	-0.07686859
-3.6145384	6h15	-0.07686859
-3.6145384	pic	-0.07686859
-3.4068773	provoque	-0.07686859
-3.6145384	zone	-0.07686859
-3.6145384	rurale	-0.07686859
-3.6145384	Vén	-0.07686859
-3.6145384	Roger	-0.07686859
-3.6145384	Kunsang	-0.07686859
-3.4068773	écrit	-0.07686859
-3.6145384	Nouvelle	-0.07686859
-3.6145384	Zélande	-0.07686859
-3.4068773	Magnitude	-0.07686859
-3.4068773	vécu	-0.07686859
-3.1739113	mais	-0.07686859
-3.6145384	ose	-0.07686859
-3.6145384	imaginé	-0.07686859
-3.6145384	ressentent	-0.07686859
-3.6145384	USGS	-0.07686859
-3.6145384	2015à	-0.07686859
-3.6145384	9:05	-0.07686859
-3.3330014	heure	-0.07686862
-3.6145384	Paris..	-0.07686859
-3.6145384	espérant	-0.07686859
-3.6145384	ait	-0.07686859
-3.6145384	alerte	-0.07686859
-3.6145384	dévaste	-0.07686859
-3.6145384	nouvelles	-0.07686859
-3.6145384	subi	-0.07686859
-3.6145384	cinquantaine	-0.07686859
-3.6145384	hausse	-0.07686859
-3.3330014	température	-0.15524517
-3.6145384	causée	-0.07686859
-3.6145384	RTS.ch	-0.07686859
-3.4068773	nation	-0.07686859
-3.6145384	élèvera	-0.07686859
-3.3330014	contre	-0.07686862
-3.6145384	royaume	-0.07686859
-3.4068773	aura	-0.18486397
-3.6145384	divers	-0.07686859
-3.6145384	lieux	-0.07686859
-3.6145384	famine	-0.07686859
-3.6145384	vide	-0.07686859
-3.6145384	tuÃ	-0.07686859
-3.6145384	Ã	-0.07686859
-3.4068773	&	-0.07686859
-3.6145384	tats	-0.07686859
-3.6145384	oÃ	-0.07686859
-3.6145384	tempÃ	-0.07686859
-3.6145384	rature	-0.07686859
-3.6145384	degrés	-0.07686859
-3.4068773	climat	-0.07686859
-3.6145384	change	-0.07686859
-3.6145384	sénégalais	-0.07686859
-3.6145384	maliens	-0.07686859
-3.6145384	donner	-0.07686859
-3.1739113	quelques	-0.07686859
-3.6145384	conseils	-0.07686859
-3.6145384	pratiques	-0.07686859
-3.6145384	traverse	-0.07686859
-3.6145384	atteignant	-0.07686859
-3.6145384	certains	-0.07686859
-3.6145384	villages	-0.07686859
-3.6145384	frôlé	-0.07686859
-3.6145384	50º	-0.07686859
-3.4068773	Urgent	-0.07686859
-3.4068773	USA	-0.07686859
-3.6145384	lien	-0.07686859
-3.6145384	exploitation	-0.07686859
-3.6145384	gaz	-0.07686859
-3.6145384	schiste	-0.07686859
-3.6145384	démontré	-0.07686859
-3.6145384	Va	-0.07686859
-3.6145384	renvoyer	-0.07686859
-3.6145384	attends	-0.07686859
-3.6145384	ca	-0.07686859
-3.4068773	tour	-0.07686859
-3.6145384	coup	-0.07686859
-3.6145384	chaine	-0.07686859
-3.6145384	télévision	-0.07686859
-3.6145384	indienne	-0.07686859
-3.6145384	NDTV	-0.07686859
-3.6145384	fortes	-0.07686859
-3.4068773	chaleurs	-0.07686859
-3.6145384	invite	-0.07686859
-3.1739113	tous	-0.07686859
-3.3330014	venir	-0.15524517
-3.6145384	apéritif	-0.07686859
-3.6145384	avoisinent	-0.07686859
-3.6145384	48º	-0.07686859
-3.6145384	C.	-0.07686859
-3.6145384	/BBC	-0.07686859
-3.6145384	atteint	-0.07686859
-3.6145384	abattue	-0.07686859
-3.6145384	certaines	-0.07686859
-3.6145384	zones	-0.07686859
-3.6145384	twenssafm	-0.07686859
-3.6145384	actuellement	-0.07686859
-3.6145384	Très	-0.07686859
-3.6145384	belle	-0.07686859
-3.6145384	série	-0.07686859
-3.6145384	photos	-0.07686859
-3.6145384	pointes	-0.07686859
-3.6145384	Celsius	-0.07686859
-3.6145384	extreme	-0.07686859
-3.6145384	tornades	-0.07686859
-3.6145384	mexique	-0.07686859
-3.6145384	innondation	-0.07686859
-3.6145384	NON	-0.07686859
-3.6145384	réchauffment	-0.07686859
-3.6145384	planete	-0.07686859
-3.6145384	relevés	-0.07686859
-3.6145384	Uttar	-0.07686859
-3.6145384	souvent	-0.07686859
-3.6145384	dépassées	-0.07686859
-3.6145384	cap	-0.07686859
-3.6145384	Yahoo	-0.07686859
-3.6145384	Actualités	-0.07686859
-3.6145384	travers	-0.07686859
-3.6145384	approchait	-0.07686859
-3.6145384	14h	-0.07686859
-3.6145384	local	-0.07686859
-3.6145384	mortelle	-0.07686859
-3.6145384	Bluewin	-0.07686859
-3.6145384	BluewinVague	-0.07686859
-3.6145384	IndeBluewinLa	-0.07686859
-3.6145384	notable	-0.07686859
-3.6145384	Caire	-0.07686859
-3.6145384	Tel	-0.07686859
-3.6145384	Aviv	-0.07686859
-3.6145384	précoce	-0.07686859
-3.6145384	Corée	-0.07686859
-3.6145384	Yukon	-0.07686859
-3.6145384	dépassant	-0.07686859
-3.6145384	+25	-0.07686859
-3.6145384	Espagne	-0.07686859
-3.4068773	Près	-0.25095096
-3.6145384	sans	-0.07686859
-3.4068773	précédent	-0.07686859
-3.6145384	dix-mille	-0.07686859
-3.6145384	pleure	-0.07686859
-3.6145384	feces	-0.07686859
-3.6145384	1/2	-0.07686859
-3.6145384	culture	-0.07686859
-3.6145384	fusillade	-0.07686859
-3.6145384	O.Cannes	-0.07686859
-3.6145384	Corral	-0.07686859
-3.6145384	Tabasco	-0.07686859
-3.6145384	sécheresse	-0.07686859
-3.6145384	incendies	-0.07686859
-3.6145384	Températures	-0.07686859
-3.6145384	proches	-0.07686859
-3.6145384	le1er	-0.07686859
-3.6145384	37morts-1000blessés	-0.07686859
-3.3330014	VIDEO	-0.18571393
-3.6145384	continue	-0.07686859
-3.6145384	tuer	-0.07686859
-3.6145384	Video	-0.07686859
-3.6145384	Ouch	-0.07686859
-3.6145384	VIDÉO	-0.07686859
-3.6145384	INTERNATIONAL	-0.07686859
-3.6145384	Vidéo	-0.07686859
-3.4068773	jour	-0.07686859
-3.6145384	intensifie	-0.07686859
-3.6145384	SimoneCath	-0.07686859
-3.6145384	Vivre	-0.07686859
-3.6145384	effroyable	-0.07686859
-3.6145384	sentir	-0.07686859
-3.6145384	sol	-0.07686859
-3.6145384	bouger	-0.07686859
-3.6145384	fendre	-0.07686859
-3.6145384	Soubhannallah	-0.07686859
-3.6145384	yalla	-0.07686859
-3.6145384	nagnou	-0.07686859
-3.6145384	degg	-0.07686859
-3.6145384	doy	-0.07686859
-3.6145384	Voici	-0.07686859
-3.6145384	dernière	-0.07686859
-3.4068773	Voilà	-0.07686862
-3.1739113	avoir	-0.07686859
-3.6145384	voilà	-0.07686859
-3.6145384	fallait	-0.07686859
-3.6145384	aille	-0.07686859
-3.6145384	Vols	-0.07686859
-3.6145384	attente	-0.07686859
-3.6145384	ghtradar24	-0.07686859
-3.4068773	Vous	-0.07686859
-3.6145384	croirez	-0.07686859
-3.4068773	vos	-0.07686859
-3.6145384	yeux	-0.07686859
-3.6145384	verrez	-0.07686859
-3.6145384	rue	-0.07686859
-3.6145384	fondu	-0.07686859
-3.6145384	INCROYABLE	-0.07686859
-3.6145384	Vulnérables	-0.07686859
-3.6145384	smog	-0.07686859
-3.6145384	Inscrivez-vou	-0.07686859
-3.6145384	Téléphone	-0.07686859
-3.6145384	Wesh	-0.07686859
-3.6145384	ya	-0.07686859
-3.6145384	Y	-0.07686859
-3.6145384	omgg	-0.07686859
-3.6145384	omg	-0.07686859
-3.6145384	meuf	-0.07686859
-3.6145384	classe	-0.07686859
-3.4068773	Wiggle	-0.07686859
-3.6145384	truc	-0.07686859
-3.6145384	aurai	-0.07686859
-3.4068773	limite	-0.07686859
-3.4068773	ouragan	-0.07686859
-3.6145384	prof	-0.07686859
-3.6145384	dira	-0.07686859
-3.6145384	bon	-0.07686859
-3.6145384	métro	-0.07686859
-3.6145384	bonne	-0.07686859
-3.6145384	Y'	-0.07686859
-3.6145384	Fb	-0.07686859
-3.6145384	demande	-0.07686859
-3.6145384	hui..	-0.07686859
-3.6145384	avez	-0.07686859
-3.4068773	foutre	-0.07686859
-3.1739113	trop	-0.07686859
-3.6145384	sérieusement	-0.07686859
-3.6145384	dorment	-0.07686859
-3.6145384	entendent	-0.07686859
-3.6145384	avalanche	-0.07686859
-3.6145384	kamehameha	-0.07686859
-3.6145384	foutent	-0.07686859
-3.6145384	Min	-0.07686859
-3.6145384	CH	-0.07686859
-3.6145384	France24	-0.07686859
-3.6145384	cha	-0.07686859
-3.6145384	FRC	-0.07686859
-3.6145384	vía	-0.07686859
-3.6145384	J.A.M.V	-0.07686859
-3.6145384	températ	-0.07686859
-3.4068773	devrait	-0.07686859
-3.6145384	portfolio	-0.07686859
-3.4068773	*	-0.07686859
-3.6145384	envahi	-0.07686859
-3.6145384	sèche	-0.07686859
-3.6145384	victim	-0.07686859
-3.6145384	-il	-0.07686859
-3.6145384	main	-0.07686859
-3.6145384	commença	-0.07686859
-3.6145384	vite	-0.07686859
-3.6145384	vas	-0.07686859
-3.6145384	sentent	-0.07686859
-3.6145384	commencer	-0.07686859
-3.6145384	venir.-	-0.07686859
-3.6145384	//	-0.07686859
-3.6145384	conseille	-0.07686859
-3.6145384	Allez	-0.07686859
-3.6145384	grandiose	-0.07686859
-3.6145384	Gde	-0.07686859
-3.6145384	/prix	-0.07686859
-3.6145384	loin	-0.07686859
-3.6145384	20minutes.fr	-0.07686859
-3.6145384	mortes	-0.07686859
-3.6145384	Canicule	-0.07686859
-3.6145384	Réponse	-0.07686859
-3.6145384	ici.oak.ctx.lyEn	-0.07686859
-3.6145384	existe	-0.07686859
-3.6145384	différence	-0.07686859
-3.6145384	précise	-0.07686859
-3.6145384	éco	-0.07686859
-3.6145384	pol	-0.07686859
-3.6145384	Mise	-0.07686859
-3.4068773	chaleu	-0.25095096
-3.6145384	quatre	-0.07686859
-3.6145384	nouveaux	-0.07686859
-3.6145384	séismes	-0.07686859
-3.6145384	minutes	-0.07686859
-3.6145384	impressionant	-0.07686859
-3.6145384	terminée	-0.07686859
-3.6145384	toii	-0.07686859
-3.6145384	ouest	-0.07686859
-3.6145384	Ahahaha	-0.07686859
-3.6145384	Maybe	-0.07686859
-3.6145384	période	-0.07686859
-3.1739113	là	-0.07686859
-3.6145384	molah	-0.07686859
-3.6145384	vieux	-0.07686859
-3.6145384	deshydratés	-0.07686859
-3.6145384	savent	-0.07686859
-3.6145384	Sinon	-0.07686859
-3.6145384	world	-0.07686859
-3.6145384	stars	-0.07686859
-3.6145384	zombies	-0.07686859
-3.6145384	apparaîteront	-0.07686859
-3.6145384	Persona	-0.07686859
-3.6145384	D	-0.07686859
-3.6145384	est-il	-0.07686859
-3.3330014	même	-0.07686862
-3.6145384	dégâts	-0.07686859
-3.6145384	Toi	-0.07686859
-3.6145384	Pissaro	-0.07686859
-3.6145384	Bisous	-0.07686859
-3.6145384	horrible	-0.07686859
-3.6145384	cœur	-0.07686859
-3.6145384	famille	-0.07686859
-3.6145384	indiens	-0.07686859
-3.6145384	reposent	-0.07686859
-3.6145384	pont	-0.07686859
-3.6145384	sec	-0.07686859
-3.6145384	migrants	-0.07686859
-3.6145384	jetés	-0.07686859
-3.6145384	barrières	-0.07686859
-3.6145384	Depuis	-0.07686859
-3.6145384	connaît	-0.07686859
-3.6145384	bientôt	-0.07686859
-3.6145384	diront	-0.07686859
-3.6145384	hôpital	-0.07686859
-3.6145384	partis	-0.07686859
-3.6145384	déclenché	-0.07686859
-3.6145384	4ème	-0.07686859
-3.6145384	habitude	-0.07686859
-3.6145384	juste	-0.07686859
-3.6145384	chiant	-0.07686859
-3.6145384	6h	-0.07686859
-3.6145384	mat	-0.07686859
-3.6145384	SI	-0.07686859
-3.6145384	ON	-0.07686859
-3.6145384	ALLEZ	-0.07686859
-3.6145384	FAIRE	-0.07686859
-3.6145384	LIGHTER	-0.07686859
-3.6145384	OF	-0.07686859
-3.6145384	LIGHT	-0.07686859
-3.6145384	AIDER	-0.07686859
-3.4068773	À	-0.07686862
-3.6145384	REAVOIR	-0.07686859
-3.6145384	LUMIÈRE	-0.07686859
-3.6145384	APRES	-0.07686859
-3.6145384	LE	-0.07686859
-3.6145384	dure	-0.07686859
-3.6145384	combien	-0.07686859
-3.4068773	peut	-0.07686862
-3.6145384	moyens	-0.07686859
-3.6145384	faisons	-0.07686859
-3.6145384	parallèle	-0.07686859
-3.6145384	comparons	-0.07686859
-3.6145384	temps	-0.07686859
-3.6145384	parole	-0.07686859
-3.6145384	Faites	-0.07686859
-3.6145384	attention	-0.07686859
-3.6145384	Francetv	-0.07686859
-3.6145384	parlait	-0.07686859
-3.6145384	Malheureusement	-0.07686859
-3.6145384	aucune	-0.07686859
-3.6145384	bêtise	-0.07686859
-3.6145384	propos	-0.07686859
-3.3330014	2ème	-0.18486397
-3.6145384	homme	-0.07686859
-3.6145384	visage	-0.07686859
-3.6145384	couvert	-0.07686859
-3.3330014	aussi	-0.07686862
-3.4068773	taire	-0.07686859
-3.6145384	Intervention	-0.07686859
-3.6145384	Valls	-0.07686859
-3.6145384	AN	-0.07686859
-3.6145384	critiques	-0.07686859
-3.6145384	visite	-0.07686859
-3.6145384	dois	-0.07686859
-3.6145384	Blizzard	-0.07686859
-3.6145384	écouté	-0.07686859
-3.4068773	qd	-0.07686859
-3.6145384	avais	-0.07686859
-3.6145384	tte	-0.07686859
-3.6145384	pdt	-0.07686859
-3.6145384	vie	-0.07686859
-3.6145384	viens	-0.07686859
-3.6145384	/actualites/crises-humanitaires/tremblement-terre-au	-0.07686859
-3.6145384	Tribune	-0.07686859
-3.6145384	MondeLa	-0.07686859
-3.6145384	faute	-0.07686859
-3.6145384	minute	-0.07686859
-3.6145384	Calcutta	-0.07686859
-3.6145384	LeMonde.fr	-0.07686859
-3.6145384	lâcher	-0.07686859
-3.6145384	murmure	-0.07686859
-3.6145384	Elle	-0.07686859
-3.6145384	passa	-0.07686859
-3.6145384	ensuite	-0.07686859
-3.6145384	tes	-0.07686859
-3.6145384	cheveux	-0.07686859
-3.6145384	envahissant	-0.07686859
-3.6145384	bas	-0.07686859
-3.6145384	ventre.-	-0.07686859
-3.6145384	regardais	-0.07686859
-3.6145384	fifty	-0.07686859
-3.6145384	shades	-0.07686859
-3.6145384	grey	-0.07686859
-3.6145384	jsens	-0.07686859
-3.6145384	mini	-0.07686859
-3.6145384	maison	-0.07686859
-3.4068773	nan	-0.07686859
-3.6145384	réveiller	-0.07686859
-3.6145384	rythme	-0.07686859
-3.6145384	faudra	-0.07686859
-3.6145384	prévoir	-0.07686859
-3.6145384	relief	-0.07686859
-3.6145384	exode	-0.07686859
-3.6145384	massif	-0.07686859
-3.6145384	klk	-0.07686859
-3.6145384	mois	-0.07686859
-3.6145384	qu	-0.07686859
-3.6145384	how	-0.07686859
-3.6145384	Bad	-0.07686859
-3.6145384	ouais	-0.07686859
-3.6145384	Peut	-0.07686859
-3.6145384	coïncidence	-0.07686859
-3.6145384	observée	-0.07686859
-3.6145384	tableau	-0.07686859
-3.6145384	vraie	-0.07686859
-3.6145384	défendue	-0.07686859
-3.6145384	instant	-0.07686859
-3.6145384	Pourquoi	-0.07686859
-3.6145384	chaque	-0.07686859
-3.6145384	répliques	-0.07686859
-3.6145384	pourquoi	-0.07686859
-3.6145384	titres	-0.07686859
-3.4068773	journal	-0.07686859
-3.6145384	7h	-0.07686859
-3.6145384	évoqué	-0.07686859
-3.6145384	situation	-0.07686859
-3.4068773	Première	-0.25095096
-3.6145384	+2	-0.07686859
-3.6145384	siècle	-0.07686859
-3.6145384	projections	-0.07686859
-3.6145384	informatiques	-0.07686859
-3.6145384	donnent	-0.07686859
-3.6145384	+20	-0.07686859
-3.6145384	nombreuses	-0.07686859
-3.3330014	Reuters	-0.07686862
-3.6145384	sources	-0.07686859
-3.6145384	dont	-0.07686859
-3.6145384	AFP	-0.07686859
-3.6145384	regarde	-0.07686859
-3.6145384	surtout	-0.07686859
-3.6145384	so	-0.07686859
-3.6145384	kess	-0.07686859
-3.6145384	vx	-0.07686859
-3.6145384	Surtout	-0.07686859
-3.6145384	parte	-0.07686859
-3.6145384	poussière	-0.07686859
-3.6145384	prochain	-0.07686859
-3.6145384	ta	-0.07686859
-3.6145384	vue	-0.07686859
-3.6145384	prédit	-0.07686859
-3.6145384	izi	-0.07686859
-3.4068773	Honshu	-0.07686859
-3.6145384	espere	-0.07686859
-3.6145384	enfant	-0.07686859
-3.6145384	rafraîchit	-0.07686859
-3.6145384	nv	-0.07686859
-3.6145384	pensons	-0.07686859
-3.6145384	collègues	-0.07686859
-3.6145384	place	-0.07686859
-3.6145384	heurté	-0.07686859
-3.6145384	île	-0.07686859
-3.6145384	UNICEF	-0.07686859
-3.6145384	terribl	-0.07686859
-3.6145384	arrivés	-0.07686859
-3.6145384	déclaré	-0.07686859
-3.6145384	responsables	-0.07686859
-3.6145384	Onu	-0.07686859
-3.6145384	préféré	-0.07686859
-3.6145384	parler	-0.07686859
-3.6145384	François	-0.07686859
-3.6145384	êtes	-0.07686859
-3.6145384	vraiment	-0.07686859
-3.4068773	pire	-0.07686862
-3.6145384	chaîne	-0.07686859
-3.6145384	sem	-0.07686859
-3.6145384	attribuez	-0.07686859
-3.6145384	milliards	-0.07686859
-3.6145384	hab	-0.07686859
-3.6145384	stats	-0.07686859
-3.6145384	tiennent	-0.07686859
-3.6145384	Challenges.fr	-0.07686859
-3.4068773	ambassade	-0.07686859
-3.6145384	gère	-0.07686859
-3.6145384	ressortissants	-0.07686859
-3.6145384	assures	-0.07686859
-3.6145384	donc	-0.07686859
-3.6145384	sympa	-0.07686859
-3.6145384	Libération	-0.07686859
-3.6145384	article	-0.07686859
-3.4068773	parle	-0.07686859
-3.6145384	lignes	-0.07686859
-3.6145384	Ils	-0.07686859
-3.6145384	menacés	-0.07686859
-3.6145384	incroyable	-0.07686859
-3.6145384	festival	-0.07686859
-3.6145384	médiatisé	-0.07686859
-3.6145384	rapport	-0.07686859
-3.6145384	actualités	-0.07686859
-3.6145384	agit	-0.07686859
-3.6145384	cela	-0.07686859
-3.6145384	prévisible	-0.07686859
-3.6145384	Nan	-0.07686859
-3.6145384	film	-0.07686859
-3.6145384	doivent	-0.07686859
-3.6145384	survivre	-0.07686859
-3.4068773	oh	-0.07686859
-3.6145384	longue	-0.07686859
-3.6145384	Cuba	-0.07686859
-3.6145384	Ben	-0.07686859
-3.6145384	renseignez-vous	-0.07686859
-3.6145384	activé	-0.07686859
-3.6145384	solidaire	-0.07686859
-3.6145384	frappées	-0.07686859
-3.6145384	région	-0.07686859
-3.6145384	mélangé	-0.07686859
-3.6145384	miracle	-0.07686859
-3.6145384	Miracle	-0.07686859
-3.6145384	bébé	-0.07686859
-3.6145384	sauvé	-0.07686859
-3.6145384	22h	-0.07686859
-3.6145384	Nos	-0.07686859
-3.6145384	pompiers	-0.07686859
-3.6145384	secours	-0.07686859
-3.6145384	meilleur	-0.07686859
-3.6145384	travaillé	-0.07686859
-3.6145384	Pentecôte	-0.07686859
-3.6145384	compatriotes	-0.07686859
-3.6145384	localisés	-0.07686859
-3.6145384	grâce	-0.07686859
-3.6145384	travail	-0.07686859
-3.6145384	homosexualité	-0.07686859
-3.6145384	tremblements	-0.07686859
-3.6145384	provoqués	-0.07686859
-3.6145384	différentes	-0.07686859
-3.6145384	causes	-0.07686859
-3.6145384	No28	-0.07686859
-3.6145384	De	-0.07686859
-3.6145384	retour	-0.07686859
-3.6145384	Centro	-0.07686859
-3.6145384	Historico	-0.07686859
-3.6145384	L.A.	-0.07686859
-3.6145384	antennes	-0.07686859
-3.6145384	relais	-0.07686859
-3.6145384	téléphonie	-0.07686859
-3.6145384	devront	-0.07686859
-3.6145384	résister	-0.07686859
-3.6145384	droite	-0.07686859
-3.6145384	bossé	-0.07686859
-3.6145384	ans	-0.07686859
-3.6145384	Mars	-0.07686859
-3.6145384	e	-0.07686859
-3.6145384	Point	-0.07686859
-3.6145384	DERNIERE	-0.07686859
-3.6145384	MINUTE	-0.07686859
-3.6145384	Gros	-0.07686859
-3.6145384	Press	-0.07686859
-3.6145384	ton	-0.07686859
-3.6145384	tweet	-0.07686859
-3.6145384	répondre	-0.07686859
-3.6145384	Fin	-0.07686859
-3.6145384	déchaîne	-0.07686859
-3.6145384	enfers	-0.07686859
-3.6145384	là-bas	-0.07686859
-3.6145384	NEW	-0.07686859
-3.6145384	DELHI	-0.07686859
-3.6145384	pers	-0.07686859
-3.6145384	SANTE	-0.07686859
-3.6145384	ALERTE	-0.07686859
-3.6145384	what	-0.07686859
-3.6145384	Météo	-0.07686859
-3.6145384	Forte	-0.07686859
-3.6145384	Egypte	-0.07686859
-3.6145384	partir	-0.07686859
-3.6145384	montée	-0.07686859
-3.6145384	Malédiction	-0.07686859
-3.6145384	énorme	-0.07686859
-3.6145384	dehors	-0.07686859
-3.6145384	habitant	-0.07686859
-3.6145384	Gorkha	-0.07686859
-3.6145384	proche	-0.07686859
-3.6145384	ceux	-0.07686859
-3.6145384	signalent	-0.07686859
-3.6145384	Why	-0.07686859
-3.6145384	garder	-0.07686859
-3.6145384	pète	-0.07686859
-3.6145384	câble	-0.07686859
-3.6145384	Intéressant	-0.07686859
-3.6145384	Rich	-0.07686859
-3.6145384	indigne	-0.07686859
-3.6145384	silence	-0.07686859
-3.6145384	massacre	-0.07686859
-3.6145384	animaux	-0.07686859
-3.6145384	nom	-0.07686859
-3.6145384	déesse	-0.07686859
-3.6145384	Égypte	-0.07686859
-3.6145384	grosse	-0.07686859
-3.3330014	‼	-0.22903799
-3.6145384	MONDE	-0.07686859
-3.6145384	tremblemen	-0.07686859
-3.6145384	Francois	-0.07686859
-3.6145384	Bayle	-0.07686859
-3.6145384	tres	-0.07686859
-3.6145384	doux	-0.07686859
-3.6145384	Part	-0.07686859
-3.6145384	Nord	-0.07686859
-3.6145384	/N	-0.07686859
-3.6145384	épal	-0.07686859
-3.6145384	Météocity	-0.07686859

\2-grams:
-1.8383174	chaleur </s>	0
-1.8759234	Inde </s>	0
-0.6260289	__EMOTICON__ </s>	0
-1.0922772	... </s>	0
-1.7492948	__DIGIT__ </s>	0
-1.7442317	morts </s>	0
-1.6417568	semaine </s>	0
-0.36788785	__URL__ </s>	0
-0.6588223	. </s>	0
-1.0201771	__SHARP__ </s>	0
-1.8028651	terre </s>	0
-1.8284307	, </s>	0
-0.6382836	? </s>	0
-1.8004589	séisme </s>	0
-1.4804235	€ </s>	0
-1.5569595	Nepal </s>	0
-0.8205789	! </s>	0
-1.654709	Népal </s>	0
-1.3347763	non </s>	0
-1.2646184	habitants </s>	0
-1.6410538	> </s>	0
-1.5620855	touché </s>	0
-1.6804483	personnes </s>	0
-1.6011081	] </s>	0
-1.3940572	( </s>	0
-0.7613156	) </s>	0
-1.1171165	__MENTION__ </s>	0
-1.2832367	moment </s>	0
-1.3522596	mort </s>	0
-0.7543992	ptn </s>	0
-0.7543992	merde </s>	0
-1.6646876	pays </s>	0
-1.0226097	chance </s>	0
-0.7543992	Avril </s>	0
-1.5110474	Japon </s>	0
-1.5403836	ressenti </s>	0
-1.0226097	@ </s>	0
-0.9162863	Delhi </s>	0
-1.0226097	RTL.fr </s>	0
-1.405237	Monde </s>	0
-1.298782	» </s>	0
-0.7543992	Mouhal </s>	0
-1.0226097	Indiens </s>	0
-0.7543992	flipper </s>	0
-0.7543992	avril.#Rennes </s>	0
-1.0226097	dommage </s>	0
-1.0226097	tsunami </s>	0
-1.1681885	force </s>	0
-1.1681885	heure </s>	0
-1.0226097	RTS.ch </s>	0
-0.7543992	pratiques </s>	0
-0.7543992	coup </s>	0
-0.7543992	/BBC </s>	0
-0.7543992	planete </s>	0
-0.7543992	37morts-1000blessés </s>	0
-0.7543992	omgg </s>	0
-0.7543992	truc </s>	0
-0.7543992	bonne </s>	0
-0.7543992	J.A.M.V </s>	0
-1.0226097	* </s>	0
-0.7543992	venir.- </s>	0
-0.7543992	impressionant </s>	0
-0.7543992	stars </s>	0
-0.7543992	D </s>	0
-0.7543992	mat </s>	0
-1.1681885	aussi </s>	0
-0.7543992	visite </s>	0
-0.7543992	/actualites/crises-humanitaires/tremblement-terre-au </s>	0
-0.7543992	ventre.- </s>	0
-0.7543992	maison </s>	0
-0.7543992	réveiller </s>	0
-0.7543992	izi </s>	0
-1.0226097	place </s>	0
-0.7543992	chaîne </s>	0
-1.0226097	Challenges.fr </s>	0
-0.7543992	sympa </s>	0
-0.7543992	miracle </s>	0
-0.7543992	Pentecôte </s>	0
-0.7543992	causes </s>	0
-0.7543992	Point </s>	0
-0.7543992	là-bas </s>	0
-3.377589	<s> Cette	-0.056445215
-2.3687193	? Cette	-0.056445215
-2.5896945	! Cette	-0.056445215
-1.6255769	・ Cette	-0.056445215
-2.9048057	<s> vague	-0.056445215
-0.65295	Cette vague	-0.16019131
-0.47803265	La vague	-0.93390584
-2.5124676	: vague	-0.056445215
-0.63757455	une vague	-0.96386904
-2.2190468	est vague	-0.056445215
-2.4957113	__SHARP__ vague	-0.056445215
-1.0070081	la vague	-0.7877778
-1.624055	ou vague	-0.056445215
-0.56366134	Une vague	-0.6908678
-1.2398742	intense vague	-0.056445215
-0.65295	terrible vague	-0.16019131
-0.78066313	Enorme vague	-0.056445215
-1.5741051	forte vague	-0.056445215
-0.3847785	Intense vague	-0.26489908
-1.2457076	Terrible vague	-0.056445215
-0.78066313	dernière vague	-0.056445215
-0.78066313	MondeLa vague	-0.056445215
-0.35533994	Première vague	-0.16019131
-0.78066313	Forte vague	-0.056445215
-0.78066313	grosse vague	-0.056445215
-0.0595796	vague de	-0.5374135
-1.4574232	chaleur de	-0.10522769
-0.72723275	copine de	-0.056445215
-1.782965	: de	-0.056445215
-1.7568135	__DIGIT__ de	-0.056445215
-1.4141091	est de	-0.056445215
-1.3834419	bilan de	-0.056445215
-0.24188183	plus de	-0.5462236
-1.6751882	__SHARP__ de	-0.056445215
-1.3705432	fait de	-0.056445215
-0.016523061	tremblement de	-1.2022158
-1.5720868	terre de	-0.056445215
-0.7667967	pas de	-0.08364673
-1.6464995	, de	-0.12278719
-1.6362766	et de	-0.056445215
-1.1821964	photo de	-0.056445215
-0.72723275	levée de	-0.056445215
-1.1821964	urgence de	-0.056445215
-1.2362951	séisme de	-0.12278719
-1.57605	a de	-0.16019131
-0.6189426	don de	-0.095022984
-0.9963322	victimes de	-0.12278719
-1.5181054	Népal de	-0.056445215
-1.1821964	habitants de	-0.056445215
-0.72723275	mères de	-0.056445215
-0.72723275	manque de	-0.056445215
-1.0037141	magnitude de	-0.16019131
-0.5055252	échelle de	-0.10522769
-0.5740973	+ de	-0.26489908
-0.081824556	près de	-0.37013236
-0.05683182	Tremblement de	-0.6463564
-0.72723275	dirigeant de	-0.056445215
-1.5657414	( de	-0.056445215
-1.6459808	__MENTION__ de	-0.056445215
-0.9735061	nord de	-0.056445215
-1.1821964	majeur de	-0.056445215
-1.1009779	cas de	-0.056445215
-0.72723275	idée de	-0.056445215
-0.72723275	enlever de	-0.056445215
-0.3412692	vagues de	-0.16019131
-1.1821964	exceptionnelle de	-0.056445215
-0.72723275	plein de	-0.056445215
-0.72723275	notes de	-0.056445215
-1.342381	ça de	-0.056445215
-1.3374346	fois de	-0.056445215
-1.2393876	secousse de	-0.056445215
-0.72723275	Faillite de	-0.056445215
-0.2585925	Plus de	-0.4867478
-1.132473	Séisme de	-0.056445215
-0.72723275	peu de	-0.056445215
-1.2744212	avant de	-0.056445215
-0.9735061	Avec de	-0.056445215
-0.9735061	s de	-0.056445215
-0.72723275	quarantaine de	-0.056445215
-0.9735061	cause de	-0.056445215
-1.3834419	jours de	-0.056445215
-0.75427896	sud de	-0.26489908
-0.9735061	journée de	-0.056445215
-0.72723275	agents de	-0.056445215
-0.72723275	raison de	-0.056445215
-0.6451516	vient de	-0.20268889
-0.78255737	lors de	-0.16019131
-0.72723275	Indien de	-0.056445215
-0.9735061	centaines de	-0.056445215
-0.9735061	dirait de	-0.056445215
-0.72723275	sismique de	-0.056445215
-0.72723275	pertinence de	-0.056445215
-0.9735061	fb de	-0.056445215
-0.72723275	compte de	-0.056445215
-0.72723275	capable de	-0.056445215
-0.72723275	messages de	-0.056445215
-1.1009779	suis de	-0.056445215
-0.72723275	S-E de	-0.056445215
-0.9735061	simulation de	-0.056445215
-0.9735061	important de	-0.056445215
-0.3412692	aéroport de	-0.16019131
-0.7800649	épicentre de	-0.16019131
-1.3374346	faire de	-0.056445215
-1.2926655	Ya de	-0.056445215
-0.9735061	provoqué de	-0.056445215
-0.33574378	Vague de	-0.16663192
-0.72723275	national de	-0.056445215
-0.72723275	satisfait de	-0.056445215
-0.72723275	partie de	-0.056445215
-0.9735061	celle de	-0.056445215
-1.1009779	Pas de	-0.056445215
-0.9735061	peine de	-0.056445215
-1.1821964	second de	-0.056445215
-0.72723275	employés de	-0.056445215
-0.72723275	Croix-Rouge de	-0.056445215
-0.72723275	besoin de	-0.056445215
-0.3412692	Moins de	-0.056445215
-0.72723275	bénéfice de	-0.056445215
-0.72723275	orphelinat de	-0.056445215
-0.72723275	état de	-0.056445215
-0.9735061	équipe de	-0.056445215
-0.72723275	proximité de	-0.056445215
-1.1009779	peur de	-0.056445215
-0.72723275	Témoignage de	-0.056445215
-0.9735061	membre de	-0.056445215
-1.1009779	meurtrier de	-0.056445215
-0.72723275	auprès de	-0.056445215
-0.72723275	site de	-0.056445215
-0.5055252	centre de	-0.16019131
-0.72723275	cellule de	-0.056445215
-0.72723275	arrêté de	-0.056445215
-0.72723275	plaindre de	-0.056445215
-0.9735061	risque de	-0.056445215
-1.1009779	force de	-0.056445215
-0.72723275	pic de	-0.056445215
-0.9735061	Magnitude de	-0.056445215
-1.1009779	heure de	-0.056445215
-0.72723275	cinquantaine de	-0.056445215
-0.72723275	hausse de	-0.056445215
-0.9735061	& de	-0.056445215
-0.72723275	exploitation de	-0.056445215
-0.72723275	gaz de	-0.056445215
-0.9735061	tour de	-0.056445215
-0.72723275	chaine de	-0.056445215
-0.72723275	série de	-0.056445215
-0.72723275	réchauffment de	-0.056445215
-0.72723275	BluewinVague de	-0.056445215
-0.72723275	notable de	-0.056445215
-0.3412692	Près de	-0.16019131
-0.72723275	feces de	-0.056445215
-0.72723275	proches de	-0.056445215
-0.72723275	continue de	-0.056445215
-1.1821964	trop de	-0.056445215
-0.72723275	période de	-0.056445215
-0.72723275	est-il de	-0.056445215
-0.72723275	temps de	-0.056445215
-0.72723275	parlait de	-0.056445215
-0.72723275	Intervention de	-0.056445215
-0.72723275	viens de	-0.056445215
-0.9735061	journal de	-0.056445215
-0.72723275	île de	-0.056445215
-0.72723275	responsables de	-0.056445215
-0.72723275	parler de	-0.056445215
-0.9735061	parle de	-0.056445215
-0.72723275	agit de	-0.056445215
-0.72723275	région de	-0.056445215
-0.72723275	tremblements de	-0.056445215
-0.72723275	partir de	-0.056445215
-0.72723275	habitant de	-0.056445215
-0.72723275	proche de	-0.056445215
-0.72723275	massacre de	-0.056445215
-0.72723275	Nord de	-0.056445215
-1.4895186	de chaleur	-0.08629735
-2.5761452	en chaleur	-0.056445215
-1.4687017	La chaleur	-0.056445215
-1.2997218	la chaleur	-0.08364673
-1.0842909	= chaleur	-0.056445215
-1.6711972	cette chaleur	-0.056445215
-1.6121848	forte chaleur	-0.056445215
-0.7865692	IndeBluewinLa chaleur	-0.056445215
-2.3389785	<s> en	-0.056445215
-1.9122899	chaleur en	-0.056445215
-2.4096367	... en	-0.056445215
-1.5461394	extrême en	-0.056445215
-1.8020163	morts en	-0.056445215
-1.6893735	semaine en	-0.056445215
-1.8781259	est en	-0.056445215
-1.8256898	__SHARP__ en	-0.056445215
-1.5967371	si en	-0.056445215
-1.8782675	terre en	-0.056445215
-1.5773888	n' en	-0.056445215
-1.6678576	, en	-0.10522769
-1.4171174	être en	-0.056445215
-0.76081777	meutrière en	-0.056445215
-1.2360504	s' en	-0.056445215
-1.4633176	vous en	-0.056445215
-1.174303	victimes en	-0.056445215
-1.9851836	Népal en	-0.056445215
-1.0345888	suit en	-0.056445215
-1.1850314	était en	-0.056445215
-1.6673073	y en	-0.056445215
-0.76081777	vu en	-0.056445215
-1.7378138	personnes en	-0.056445215
-0.76081777	Setam en	-0.056445215
-1.5144854	tue en	-0.056445215
-1.7334993	__MENTION__ en	-0.16019131
-1.1850314	année en	-0.056445215
-0.76081777	table en	-0.056445215
-1.0801525	sont en	-0.16019131
-1.1850314	intense en	-0.056445215
-1.0345888	rues en	-0.056445215
-0.35026217	part en	-0.056445215
-1.1850314	es en	-0.056445215
-1.1850314	Hollande en	-0.056445215
-1.5461394	Japon en	-0.056445215
-1.5773888	ressenti en	-0.056445215
-1.3747376	Il en	-0.056445215
-1.6664387	C en	-0.056445215
-1.5278612	Delhi en	-0.056445215
-0.73560035	sévit en	-0.16019131
-0.9668089	jours en	-0.16019131
-1.4171174	poursuit en	-0.056445215
-1.2857522	h en	-0.056445215
-1.4363818	vient en	-0.056445215
-0.6404966	meurtrière en	-0.16019131
-1.3710738	« en	-0.056445215
-1.3597236	Mais en	-0.056445215
-0.76081777	jrs en	-0.056445215
-0.76081777	volcan en	-0.056445215
-0.76081777	gay en	-0.056445215
-1.0345888	vibre en	-0.056445215
-1.0345888	nuit en	-0.056445215
-1.3747376	c en	-0.056445215
-1.1850314	monde en	-0.056445215
-1.0345888	tour en	-0.056445215
-0.6404966	venir en	-0.16019131
-0.76081777	extreme en	-0.056445215
-0.76081777	mortelle en	-0.056445215
-1.0345888	précédent en	-0.056445215
-0.76081777	intensifie en	-0.056445215
-0.76081777	Vols en	-0.056445215
-0.76081777	Allez en	-0.056445215
-0.76081777	mortes en	-0.056445215
-0.76081777	séismes en	-0.056445215
-0.76081777	combien en	-0.056445215
-0.76081777	parte en	-0.056445215
-1.4391011	<s> Inde	-0.5107571
-0.6308493	en Inde	-0.2561449
-1.706475	: Inde	-0.4867478
-2.109253	. Inde	-0.16019131
-1.7942585	__SHARP__ Inde	-0.3898378
-0.9181278	l' Inde	-0.085811414
-2.5918667	, Inde	-0.056445215
-1.8117983	] Inde	-0.056445215
-2.1413033	( Inde	-0.056445215
-0.33875895	En Inde	-0.46766192
-1.7701879	- Inde	-0.26489908
-1.5978845	・ Inde	-0.056445215
-1.4615421	« Inde	-0.16019131
-1.0788773	Figaro Inde	-0.056445215
-2.502998	Inde m'	-0.056445215
-2.3045225	qui m'	-0.056445215
-1.0888542	elle m'	-0.056445215
-1.2653927	m' attriste	-0.056445215
-0.78902495	attriste beaucoup	-0.056445215
-2.0829964	plus beaucoup	-0.056445215
-1.8829556	<s> __EMOTICON__	-0.11546511
-2.1589253	chaleur __EMOTICON__	-0.056445215
-2.1681309	Inde __EMOTICON__	-0.056445215
-1.0638957	beaucoup __EMOTICON__	-0.056445215
-1.2754441	__EMOTICON__ __EMOTICON__	-0.20268889
-2.134283	... __EMOTICON__	-0.16019131
-1.9772793	morts __EMOTICON__	-0.056445215
-1.7111424	. __EMOTICON__	-0.10522769
-2.0481358	__SHARP__ __EMOTICON__	-0.056445215
-1.7544345	terre __EMOTICON__	-0.12278719
-1.6062275	? __EMOTICON__	-0.16019131
-1.706767	Nepal __EMOTICON__	-0.056445215
-1.7973907	Népal __EMOTICON__	-0.056445215
-1.3394736	amis __EMOTICON__	-0.056445215
-1.8220513	après __EMOTICON__	-0.056445215
-1.6999055	matin __EMOTICON__	-0.056445215
-2.2046454	✪ __EMOTICON__	-0.056445215
-1.9902159	) __EMOTICON__	-0.056445215
-1.8609343	pays __EMOTICON__	-0.056445215
-1.5571464	autre __EMOTICON__	-0.056445215
-1.3394736	nepal __EMOTICON__	-0.056445215
-1.0638957	eux __EMOTICON__	-0.056445215
-0.776174	affreux __EMOTICON__	-0.056445215
-1.4241959	népalais __EMOTICON__	-0.056445215
-0.776174	surveillé __EMOTICON__	-0.056445215
-0.776174	sentie __EMOTICON__	-0.056445215
-0.776174	tuÃ __EMOTICON__	-0.056445215
-0.776174	tempÃ __EMOTICON__	-0.056445215
-0.776174	foutent __EMOTICON__	-0.056445215
-0.776174	Bisous __EMOTICON__	-0.056445215
-0.3835029	‼ __EMOTICON__	-0.056445215
-1.3840148	<s> La	-0.2955442
-2.2705011	__EMOTICON__ La	-0.056445215
-1.3719271	: La	-0.3983118
-2.1911044	__URL__ La	-0.056445215
-2.0994575	. La	-0.16019131
-2.132149	__SHARP__ La	-0.16019131
-1.8630093	! La	-0.056445215
-2.3434737	✪ La	-0.056445215
-1.1229649	] La	-0.16019131
-2.4121785	__MENTION__ La	-0.056445215
-1.0308764	- La	-0.47026515
-1.3647003	News La	-0.056445215
-0.8935499	・ La	-0.056445215
-1.4576907	« La	-0.056445215
-1.0770878	fléchissement La	-0.056445215
-1.0770878	TRACE-TM La	-0.056445215
-2.3461	La copine	-0.056445215
-2.9315784	de mon	-0.056445215
-2.2921052	qui mon	-0.056445215
-2.3167987	dans mon	-0.056445215
-1.560103	où mon	-0.056445215
-1.389789	mon frère	-0.056445215
-2.4083316	chaleur va	-0.056445215
-0.78519905	frère va	-0.056445215
-2.213899	qui va	-0.056445215
-2.3942735	terre va	-0.056445215
-1.7063938	tu va	-0.056445215
-2.0486429	il va	-0.056445215
-1.6060084	ne va	-0.056445215
-1.0815756	journée va	-0.056445215
-1.0815756	nature va	-0.056445215
-1.2530627	On va	-0.056445215
-1.2530627	Ça va	-0.056445215
-1.8260537	va souffrir	-0.056445215
-3.1483274	<s> je	-0.056445215
-0.7856553	souffrir je	-0.056445215
-2.1847055	, je	-0.056445215
-2.4159975	et je	-0.056445215
-2.5209463	__MENTION__ je	-0.056445215
-1.0824788	alors je	-0.056445215
-0.7856553	Twitter je	-0.056445215
-1.0824788	météo je	-0.056445215
-1.3752161	mais je	-0.056445215
-0.7856553	// je	-0.056445215
-0.9505512	je pense	-0.056445215
-1.822302	on pense	-0.056445215
-1.961705	vague ...	-0.056445215
-1.608065	de ...	-0.3898378
-1.6710486	chaleur ...	-0.056445215
-1.4985876	Inde ...	-0.056445215
-1.2067652	pense ...	-0.056445215
-1.8462484	: ...	-0.056445215
-1.4291396	__DIGIT__ ...	-0.37878013
-1.7732415	une ...	-0.056445215
-1.5239772	semaine ...	-0.056445215
-2.206122	__URL__ ...	-0.056445215
-1.8315176	le ...	-0.056445215
-1.7462318	plus ...	-0.056445215
-1.3695195	moins ...	-0.056445215
-1.672928	__SHARP__ ...	-0.056445215
-1.6448382	qui ...	-0.056445215
-0.7356937	tr ...	-0.056445215
-1.633146	terre ...	-0.056445215
-1.6347022	pas ...	-0.056445215
-0.7356937	suffit ...	-0.056445215
-1.6517777	, ...	-0.26489908
-1.503999	et ...	-0.16019131
-1.8806903	au ...	-0.056445215
-1.5695738	la ...	-0.056445215
-1.6176567	à ...	-0.056445215
-1.3064926	a ...	-0.2995989
-1.568926	victimes ...	-0.056445215
-1.8018863	du ...	-0.056445215
-1.4557054	Nepal ...	-0.056445215
-1.6376508	un ...	-0.16019131
-1.5570973	Népal ...	-0.056445215
-1.6144973	des ...	-0.056445215
-1.2675289	non ...	-0.056445215
-0.9885362	signaler ...	-0.056445215
-1.3133426	Les ...	-0.056445215
-1.5118768	ont ...	-0.056445215
-1.3350916	' ...	-0.056445215
-0.7356937	gouvernement ...	-0.056445215
-1.7439692	nouveau ...	-0.056445215
-1.7250285	ce ...	-0.056445215
-1.4399357	matin ...	-0.056445215
-1.5069851	Katmandou ...	-0.056445215
-1.7680304	✪ ...	-0.056445215
-1.1212566	t ...	-0.056445215
-1.4566889	° ...	-0.056445215
-1.3579875	tué ...	-0.056445215
-0.7356937	Dur ...	-0.056445215
-1.3972588	tue ...	-0.056445215
-1.1212566	m ...	-0.056445215
-1.7789985	dans ...	-0.056445215
-0.7356937	magn ...	-0.056445215
-1.8129472	- ...	-0.056445215
-1.541748	pays ...	-0.056445215
-1.1947222	se ...	-0.16019131
-0.7356937	compo ...	-0.056445215
-1.2067652	nepal ...	-0.056445215
-0.9885362	chaud ...	-0.056445215
-1.1212566	Népalais ...	-0.056445215
-0.8388476	fois ...	-0.056445215
-1.2675289	secousse ...	-0.056445215
-1.4393346	mardi ...	-0.056445215
-1.4170022	cette ...	-0.056445215
-0.7356937	aujo ...	-0.056445215
-0.7356937	ch ...	-0.056445215
-1.3493035	forte ...	-0.056445215
-0.7356937	p ...	-0.056445215
-0.7356937	tem ...	-0.056445215
-0.7356937	devrai ...	-0.056445215
-0.34358287	I ...	-0.16019131
-0.34358287	f ...	-0.16019131
-1.1212566	soir ...	-0.056445215
-0.7356937	Paris ...	-0.056445215
-1.232403	pauvres ...	-0.056445215
-0.9885362	tués ...	-0.056445215
-1.4201293	plusieurs ...	-0.056445215
-1.3133426	poursuit ...	-0.056445215
-0.7356937	su ...	-0.056445215
-0.9885362	prudence ...	-0.056445215
-1.4039215	sud ...	-0.056445215
-1.2067652	Etats ...	-0.056445215
-1.3133426	ma ...	-0.056445215
-1.2910628	large ...	-0.056445215
-1.5862026	» ...	-0.056445215
-0.7356937	meurt ...	-0.056445215
-0.7356937	séis ...	-0.056445215
-0.9885362	dons ...	-0.056445215
-0.7356937	EST ...	-0.056445215
-0.7356937	Orsay ...	-0.056445215
-0.34358287	fa ...	-0.16019131
-0.7356937	État ...	-0.056445215
-0.2600728	d ...	-0.4867478
-0.7356937	chale ...	-0.056445215
-0.50946486	l ...	-0.16019131
-0.7356937	rép ...	-0.056445215
-0.9885362	décès ...	-0.056445215
-0.7356937	PIB ...	-0.056445215
-1.1212566	votre ...	-0.056445215
-0.7356937	environ ...	-0.056445215
-0.7356937	ha ...	-0.056445215
-0.9885362	Ouest ...	-0.056445215
-0.7356937	Né ...	-0.056445215
-0.9885362	pensées ...	-0.056445215
-1.1212566	rien ...	-0.056445215
-0.711588	c ...	-0.16019131
-0.7356937	Buthi ...	-0.056445215
-0.7356937	acharnement ...	-0.056445215
-0.7356937	Ric ...	-0.056445215
-0.7356937	mo ...	-0.056445215
-1.1212566	gens ...	-0.056445215
-1.2067652	degrés ...	-0.056445215
-0.7356937	photos ...	-0.056445215
-0.7356937	cap ...	-0.056445215
-0.7356937	cha ...	-0.056445215
-0.7356937	températ ...	-0.056445215
-0.7356937	victim ...	-0.056445215
-0.7356937	précise ...	-0.056445215
-0.34358287	chaleu ...	-0.16019131
-0.7356937	Sinon ...	-0.056445215
-0.7356937	sec ...	-0.056445215
-0.7356937	connaît ...	-0.056445215
-0.7356937	terribl ...	-0.056445215
-0.7356937	longue ...	-0.056445215
-0.7356937	Historico ...	-0.056445215
-0.7356937	pers ...	-0.056445215
-0.7356937	montée ...	-0.056445215
-0.7356937	Rich ...	-0.056445215
-0.7356937	tremblemen ...	-0.056445215
-2.6841547	<s> Chaleur	-0.26489908
-2.6103265	! Chaleur	-0.056445215
-1.4860532	chaleur extrême	-0.056445215
-0.35738778	Chaleur extrême	-0.056445215
-2.3969283	l' extrême	-0.056445215
-1.8119293	chaleur :	-0.056445215
-0.8598779	Inde :	-0.31035173
-2.3199675	... :	-0.056445215
-1.4977678	extrême :	-0.056445215
-1.7332519	__DIGIT__ :	-0.056445215
-1.7231116	morts :	-0.056445215
-1.6240817	semaine :	-0.056445215
-1.3007051	__SHARP__ :	-0.11561187
-0.75185806	Terrestres :	-0.056445215
-1.7760241	terre :	-0.056445215
-1.4089571	séisme :	-0.056445215
-1.1727827	! :	-0.08835062
-0.95425063	Népal :	-0.15662877
-0.75185806	CUBA :	-0.056445215
-1.856897	nouveau :	-0.056445215
-1.5287299	matin :	-0.056445215
-0.75185806	Diaporama :	-0.056445215
-1.6014154	Katmandou :	-0.056445215
-1.6542659	encore :	-0.056445215
-1.5359371	° :	-0.056445215
-1.6594682	personnes :	-0.056445215
-1.7404778	( :	-0.056445215
-1.7542554	) :	-0.056445215
-1.3375188	__MENTION__ :	-0.08177928
-0.75185806	Edifiant :	-0.056445215
-1.16163	cas :	-0.056445215
-1.16163	direct :	-0.056445215
-1.0179092	images :	-0.056445215
-1.2564447	populations :	-0.056445215
-1.7778641	Une :	-0.056445215
-0.75185806	schtroumpfs :	-0.056445215
-1.0868045	pays :	-0.056445215
-1.4199263	France :	-0.056445215
-0.75185806	Finance :	-0.056445215
-0.9535345	Japon :	-0.056445215
-0.75185806	Terre/Népal :	-0.056445215
-0.75185806	Flash-Météo :	-0.056445215
-0.75185806	cassure :	-0.056445215
-1.16163	jeudi :	-0.056445215
-1.2564447	News :	-0.056445215
-0.75185806	FR :	-0.056445215
-0.5168776	Info :	-0.056445215
-0.75185806	Guyancourt :	-0.056445215
-1.0179092	hein :	-0.056445215
-1.16163	Bonjour :	-0.056445215
-1.1383698	C :	-0.056445215
-1.3779134	poursuit :	-0.056445215
-1.4751825	sud :	-0.056445215
-0.75185806	Pakistan :	-0.056445215
-1.0179092	mal :	-0.056445215
-0.75185806	nipponnes :	-0.056445215
-1.3952034	Monde :	-0.056445215
-0.75185806	INDE :	-0.056445215
-0.75185806	cool :	-0.056445215
-1.6978341	» :	-0.056445215
-1.2564447	fermé :	-0.056445215
-1.2564447	info :	-0.056445215
-0.75185806	Modération :	-0.056445215
-1.0179092	fléchissement :	-0.056445215
-0.75185806	NoKenny :	-0.056445215
-0.75185806	meurtri :	-0.056445215
-1.3435844	c :	-0.056445215
-1.16163	crise :	-0.056445215
-0.75185806	Zélande :	-0.056445215
-1.0179092	Urgent :	-0.056445215
-1.0179092	USA :	-0.056445215
-0.75185806	Celsius :	-0.056445215
-0.75185806	Bluewin :	-0.056445215
-0.75185806	Espagne :	-0.056445215
-0.75185806	culture :	-0.056445215
-1.2830502	VIDEO :	-0.056445215
-1.0179092	tuer :	-0.056445215
-1.0179092	Vidéo :	-0.056445215
-0.75185806	20minutes.fr :	-0.056445215
-0.75185806	Persona :	-0.056445215
-0.75185806	Toi :	-0.056445215
-1.0179092	taire :	-0.056445215
-0.75185806	Tribune :	-0.056445215
-0.75185806	LeMonde.fr :	-0.056445215
-0.75185806	défendue :	-0.056445215
-0.75185806	donnent :	-0.056445215
-1.16163	Reuters :	-0.056445215
-0.75185806	UNICEF :	-0.056445215
-1.16163	pire :	-0.056445215
-0.75185806	hab :	-0.056445215
-0.75185806	No28 :	-0.056445215
-0.75185806	Égypte :	-0.056445215
-1.0111641	de __DIGIT__	-0.22365198
-1.5134952	en __DIGIT__	-0.056445215
-2.0487607	__EMOTICON__ __DIGIT__	-0.056445215
-2.095788	... __DIGIT__	-0.056445215
-1.5403173	: __DIGIT__	-0.13391384
-1.5466511	__DIGIT__ __DIGIT__	-0.07530586
-1.5865021	le __DIGIT__	-0.12278719
-1.1569527	les __DIGIT__	-0.3129948
-0.877424	moins __DIGIT__	-0.08835062
-1.9734608	__SHARP__ __DIGIT__	-0.056445215
-1.0095904	fait __DIGIT__	-0.19190578
-1.5939195	, __DIGIT__	-0.056445215
-1.2443676	et __DIGIT__	-0.056445215
-2.0102835	? __DIGIT__	-0.056445215
-1.1936591	à __DIGIT__	-0.13391384
-1.9479684	séisme __DIGIT__	-0.056445215
-1.8283198	a __DIGIT__	-0.056445215
-1.4338838	du __DIGIT__	-0.08835062
-2.1917899	un __DIGIT__	-0.056445215
-1.0502524	Tibet __DIGIT__	-0.056445215
-0.68025523	magnitude __DIGIT__	-0.085052535
-0.7690866	Matthew __DIGIT__	-0.056445215
-1.6903373	✪ __DIGIT__	-0.056445215
-1.0502524	= __DIGIT__	-0.056445215
-0.81670916	tué __DIGIT__	-0.12278719
-1.2073486	Déjà __DIGIT__	-0.056445215
-1.3315697	( __DIGIT__	-0.12278719
-0.9317055	tue __DIGIT__	-0.16019131
-2.0808203	__MENTION__ __DIGIT__	-0.056445215
-2.156372	- __DIGIT__	-0.056445215
-0.7690866	inde __DIGIT__	-0.056445215
-1.3140882	hui __DIGIT__	-0.056445215
-1.6981398	déjà __DIGIT__	-0.056445215
-1.625979	mardi __DIGIT__	-0.056445215
-0.877424	mai __DIGIT__	-0.12278719
-0.7690866	FRANCE __DIGIT__	-0.056445215
-1.2073486	entre __DIGIT__	-0.056445215
-1.3140882	h __DIGIT__	-0.056445215
-1.0502524	mercredi __DIGIT__	-0.056445215
-0.7690866	version __DIGIT__	-0.056445215
-1.4669385	[ __DIGIT__	-0.056445215
-1.2073486	force __DIGIT__	-0.056445215
-0.7690866	MAGNITUDE __DIGIT__	-0.056445215
-1.0502524	Magnitude __DIGIT__	-0.056445215
-0.7690866	oÃ __DIGIT__	-0.056445215
-0.7690866	atteint __DIGIT__	-0.056445215
-0.7690866	Part __DIGIT__	-0.056445215
-2.174245	de morts	-0.10522769
-1.0532613	__DIGIT__ morts	-0.17818272
-1.7280698	plusieurs morts	-0.056445215
-0.7879436	déclarés morts	-0.056445215
-0.7879436	dix-mille morts	-0.056445215
-2.4790537	<s> une	-0.056445215
-2.3006537	de une	-0.056445215
-1.8429439	en une	-0.16019131
-1.6878922	Inde une	-0.16019131
-2.5546842	... une	-0.056445215
-1.3465618	: une	-0.16923515
-0.69868964	d' une	-0.14328636
-1.5771055	depuis une	-0.056445215
-1.5105336	, une	-0.08364673
-2.093851	et une	-0.056445215
-1.4376441	sur une	-0.16019131
-1.9647409	par une	-0.056445215
-2.1982121	a une	-0.056445215
-1.1494976	après une	-0.16019131
-1.420169	frappé une	-0.056445215
-1.7468251	y une	-0.056445215
-1.8156252	encore une	-0.056445215
-1.8702844	qu' une	-0.056445215
-1.549997	dans une	-0.16019131
-1.2158686	sous une	-0.056445215
-1.6176655	avec une	-0.056445215
-2.2054133	- une	-0.056445215
-1.420169	Encore une	-0.056445215
-1.7043324	pendant une	-0.056445215
-1.0561687	durant une	-0.056445215
-0.77217305	perdu une	-0.056445215
-0.77217305	aime une	-0.056445215
-1.0561687	reçois une	-0.056445215
-1.0561687	tremble une	-0.056445215
-0.77217305	vote une	-0.056445215
-0.77217305	attribuant une	-0.056445215
-0.77217305	D' une	-0.056445215
-0.77217305	ouvert une	-0.056445215
-1.2158686	contre une	-0.056445215
-0.77217305	Voici une	-0.056445215
-1.2158686	Voilà une	-0.056445215
-0.77217305	aurai une	-0.056445215
-1.0561687	* une	-0.056445215
-0.77217305	sentent une	-0.056445215
-0.77217305	existe une	-0.056445215
-2.847854	__DIGIT__ semaine	-0.056445215
-1.6685147	une semaine	-0.09088663
-0.9584215	cette semaine	-0.056445215
-1.5417547	<s> __URL__	-0.16344182
-1.5860057	chaleur __URL__	-0.16019131
-1.5723039	Inde __URL__	-0.095022984
-1.4273231	__EMOTICON__ __URL__	-0.12278719
-0.19397183	... __URL__	-0.90133595
-1.4108036	: __URL__	-0.25500283
-1.7306348	__DIGIT__ __URL__	-0.26489908
-1.3413165	morts __URL__	-0.12278719
-1.1633949	semaine __URL__	-0.095022984
-0.8615202	__URL__ __URL__	-0.8669591
-1.1127546	. __URL__	-0.6420216
-1.1165762	__SHARP__ __URL__	-0.5842085
-1.7717077	terre __URL__	-0.056445215
-1.755455	pas __URL__	-0.056445215
-1.8239561	? __URL__	-0.056445215
-1.7631233	sur __URL__	-0.056445215
-1.0171306	fonds __URL__	-0.056445215
-1.7754438	séisme __URL__	-0.056445215
-1.156261	victimes __URL__	-0.16019131
-0.78026825	! __URL__	-0.58599615
-1.5544001	Népal __URL__	-0.11567799
-1.2550972	TERRE __URL__	-0.056445215
-1.526211	matin __URL__	-0.056445215
-1.052512	> __URL__	-0.10522769
-0.75143594	here.. __URL__	-0.056445215
-1.598719	Katmandou __URL__	-0.056445215
-0.62336534	✪ __URL__	-0.66192305
-1.6560678	personnes __URL__	-0.056445215
-1.4179643	| __URL__	-0.056445215
-1.2777183	( __URL__	-0.12278719
-1.344259	) __URL__	-0.12278719
-0.75143594	altitude __URL__	-0.056445215
-1.3361706	__MENTION__ __URL__	-0.2995989
-0.75143594	apartheid __URL__	-0.056445215
-1.1221509	- __URL__	-0.2538414
-0.75143594	panique __URL__	-0.056445215
-0.75143594	routes __URL__	-0.056445215
-1.6431265	pays __URL__	-0.056445215
-0.34780118	► __URL__	-0.16019131
-1.4179643	France __URL__	-0.056445215
-0.75143594	la.. __URL__	-0.056445215
-1.51923	mardi __URL__	-0.056445215
-1.4955935	Japon __URL__	-0.056445215
-1.0171306	PR __URL__	-0.056445215
-1.5990024	C __URL__	-0.056445215
-1.1605465	hier __URL__	-0.056445215
-1.1818503	RT __URL__	-0.056445215
-0.75143594	Télégramme __URL__	-0.056445215
-0.75143594	Ouest-France __URL__	-0.056445215
-1.4955935	jours __URL__	-0.056445215
-1.3761319	poursuit __URL__	-0.056445215
-1.4732014	sud __URL__	-0.056445215
-1.0171306	RTL.fr __URL__	-0.056445215
-1.1818503	Pradesh __URL__	-0.056445215
-0.75143594	accablante __URL__	-0.056445215
-1.0171306	centaines __URL__	-0.056445215
-1.1764677	» __URL__	-0.13736458
-1.0171306	important __URL__	-0.056445215
-1.3935535	piscine __URL__	-0.056445215
-0.75143594	publiques __URL__	-0.056445215
-1.0171306	SEISME __URL__	-0.056445215
-0.75143594	Boughezoul __URL__	-0.056445215
-0.75143594	cultures __URL__	-0.056445215
-0.75143594	climatique __URL__	-0.056445215
-0.75143594	blessées __URL__	-0.056445215
-0.75143594	HE __URL__	-0.056445215
-0.75143594	Liberté __URL__	-0.056445215
-1.0171306	touchés __URL__	-0.056445215
-0.75143594	metronews __URL__	-0.056445215
-0.75143594	Obs __URL__	-0.056445215
-1.0171306	Figaro __URL__	-0.056445215
-0.75143594	chinoise __URL__	-0.056445215
-1.0171306	frapper __URL__	-0.056445215
-0.75143594	Paris.. __URL__	-0.056445215
-1.0171306	RTS.ch __URL__	-0.056445215
-0.75143594	démontré __URL__	-0.056445215
-0.75143594	twenssafm __URL__	-0.056445215
-0.75143594	Corée __URL__	-0.056445215
-0.75143594	Corral __URL__	-0.056445215
-0.75143594	sécheresse __URL__	-0.056445215
-1.0171306	tuer __URL__	-0.056445215
-0.75143594	SimoneCath __URL__	-0.056445215
-0.75143594	ghtradar24 __URL__	-0.056445215
-1.0171306	Challenges.fr __URL__	-0.056445215
-1.0171306	ambassade __URL__	-0.056445215
-0.75143594	Libération __URL__	-0.056445215
-0.75143594	Fin __URL__	-0.056445215
-0.75143594	Météocity __URL__	-0.056445215
-2.3461	La planète	-0.056445215
-2.1783261	chaleur est	-0.056445215
-2.3065994	en est	-0.056445215
-2.1851325	Inde est	-0.056445215
-0.77706814	planète est	-0.056445215
-2.3943388	__SHARP__ est	-0.056445215
-2.1123927	l' est	-0.056445215
-2.152103	terre est	-0.056445215
-0.894867	n' est	-0.10522769
-1.1406362	s' est	-0.20268889
-1.3453658	il est	-0.056445215
-2.2397242	Népal est	-0.056445215
-1.7139822	on est	-0.056445215
-0.095496155	c' est	-0.10412037
-1.7854083	y est	-0.056445215
-1.907375	qu' est	-0.056445215
-2.2419116	__MENTION__ est	-0.056445215
-1.5995871	ou est	-0.056445215
-1.6917664	tout est	-0.056445215
-1.6471875	Japon est	-0.056445215
-0.18336938	C' est	-0.056445215
-1.6541247	quand est	-0.056445215
-1.9464697	» est	-0.056445215
-0.77706814	Parlement est	-0.056445215
-0.77706814	International est	-0.056445215
-1.0656317	CERN est	-0.056445215
-1.2296045	monde est	-0.056445215
-0.77706814	métro est	-0.056445215
-0.77706814	festival est	-0.056445215
-0.77706814	homosexualité est	-0.056445215
-2.524911	est dérèglée	-0.056445215
-1.8119293	chaleur .	-0.056445215
-1.5744233	Inde .	-0.08835062
-1.4977678	extrême .	-0.056445215
-1.9664437	__DIGIT__ .	-0.056445215
-1.6240817	semaine .	-0.056445215
-0.75185806	dérèglée .	-0.056445215
-1.4957678	. .	-0.056445215
-1.7659212	__SHARP__ .	-0.056445215
-1.7760241	terre .	-0.05644525
-1.759134	pas .	-0.056445215
-1.556335	Népal .	-0.056445185
-1.2564447	avril .	-0.056445215
-1.2564447	dire .	-0.056445215
-0.75185806	Ciel .	-0.056445215
-1.5287299	matin .	-0.056445215
-0.34791273	DIRECT .	-0.056445215
-1.6014154	Katmandou .	-0.056445215
-1.16163	lui .	-0.056445215
-1.6542659	encore .	-0.056445215
-1.6594682	personnes .	-0.056445215
-1.7542554	) .	-0.056445215
-1.8532735	__MENTION__ .	-0.056445215
-1.16163	typhon .	-0.056445215
-1.2052311	pays .	-0.056445215
-0.75185806	attendre .	-0.056445215
-1.2761052	terrible .	-0.056445215
-0.9985633	tout .	-0.056445215
-1.0179092	eux .	-0.056445215
-0.75185806	Cool .	-0.056445215
-1.0179092	sort .	-0.056445215
-1.5215445	mardi .	-0.056445215
-1.3435844	dernier .	-0.056445215
-1.0179092	réponse .	-0.056445215
-0.75185806	there .	-0.056445215
-1.16163	hier .	-0.056445215
-1.2761052	pauvres .	-0.056445215
-1.4977678	jours .	-0.056445215
-1.3952034	Monde .	-0.056445215
-0.75185806	aujd .	-0.056445215
-1.2910382	» .	-0.056445215
-1.0179092	accord .	-0.056445215
-1.3251852	Mais .	-0.056445215
-1.3251852	bien .	-0.056445215
-0.75185806	enfer .	-0.056445215
-0.75185806	Everest .	-0.056445215
-0.75185806	avalanches .	-0.056445215
-1.0179092	poisse .	-0.056445215
-1.0179092	peine .	-0.056445215
-0.75185806	Loto .	-0.056445215
-0.75185806	presque .	-0.056445215
-1.16163	blessés .	-0.056445215
-0.75185806	Pokhara .	-0.056445215
-0.75185806	ok .	-0.056445215
-0.75185806	Kathmandu .	-0.056445215
-0.75185806	notif .	-0.056445215
-0.75185806	avalé .	-0.056445215
-0.75185806	sauf .	-0.056445215
-0.75185806	gardien .	-0.056445215
-1.0179092	lire .	-0.056445215
-0.75185806	rurale .	-0.056445215
-0.75185806	Vén .	-0.056445215
-1.0179092	climat .	-0.056445215
-0.75185806	actuellement .	-0.056445215
-0.49628142	VIDEO .	-0.21994461
-1.0179092	VIDÉO .	-0.056445215
-0.75185806	fendre .	-0.056445215
-0.75185806	doy .	-0.056445215
-0.75185806	conseille .	-0.056445215
-0.75185806	grandiose .	-0.056445215
-0.75185806	éco .	-0.056445215
-0.75185806	pol .	-0.056445215
-0.75185806	Ahahaha .	-0.056445215
-0.75185806	molah .	-0.056445215
-0.75185806	famille .	-0.056445215
-0.75185806	barrières .	-0.056445215
-0.75185806	habitude .	-0.056445215
-1.0179092	écouté .	-0.056445215
-0.75185806	murmure .	-0.056445215
-1.0179092	Honshu .	-0.056445215
-0.75185806	lignes .	-0.056445215
-0.75185806	menacés .	-0.056445215
-0.75185806	incroyable .	-0.056445215
-0.75185806	prévisible .	-0.056445215
-0.75185806	tweet .	-0.056445215
-0.75185806	répondre .	-0.056445215
-0.75185806	Malédiction .	-0.056445215
-0.75185806	Intéressant .	-0.056445215
-2.022211	en le	-0.056445215
-1.431525	: le	-0.13391384
-1.8526434	est le	-0.056445215
-1.4668729	moins le	-0.056445215
-1.8811045	__SHARP__ le	-0.056445215
-0.43631953	frappe le	-0.28625947
-0.9178604	depuis le	-0.056445215
-1.030559	Comme le	-0.056445215
-1.5830691	si le	-0.056445215
-1.851652	terre le	-0.056445215
-1.8226776	pas le	-0.056445215
-0.7610824	pour le	-0.37335512
-1.6271381	et le	-0.056445215
-1.8918124	? le	-0.056445215
-0.90459174	sur le	-0.056445215
-1.4525864	vous le	-0.056445215
-1.3012959	aider le	-0.056445215
-0.984118	par le	-0.16019131
-1.030559	survenu le	-0.056445215
-1.3512477	non le	-0.056445215
-0.31407857	après le	-0.2109499
-1.913319	nouveau le	-0.056445215
-1.3726866	frappé le	-0.056445215
-1.5810217	touché le	-0.056445215
-1.030559	Donc le	-0.056445215
-1.2081817	encore le	-0.056445215
-0.75866765	Découvrez le	-0.056445215
-1.9306146	__MENTION__ le	-0.056445215
-0.57974833	dans le	-0.17193852
-1.6029457	/ le	-0.056445215
-1.4224926	où le	-0.056445215
-1.1793442	direct le	-0.056445215
-0.7303603	secoué le	-0.16019131
-0.75866765	arrêterons le	-0.056445215
-1.5386659	avec le	-0.056445215
-0.75866765	plongé le	-0.056445215
-1.6974735	pays le	-0.056445215
-0.87556005	tout le	-0.20268889
-0.75866765	Que le	-0.056445215
-1.2785927	hui le	-0.056445215
-0.3672618	pendant le	-0.56592906
-1.030559	durant le	-0.056445215
-1.2785927	ici le	-0.056445215
-1.0040336	mardi le	-0.16019131
-0.59199464	avant le	-0.12278719
-0.75866765	bol le	-0.056445215
-1.650167	C le	-0.056445215
-0.75866765	frappait le	-0.056445215
-0.75866765	trembler le	-0.056445215
-1.3512477	me le	-0.056445215
-1.1793442	ds le	-0.056445215
-0.34970164	secoue le	-0.16019131
-1.3512477	Selon le	-0.056445215
-0.75866765	Norvège le	-0.056445215
-0.75866765	Publié le	-0.056445215
-1.030559	raconte le	-0.056445215
-1.1793442	On le	-0.056445215
-0.75866765	Surnomme le	-0.056445215
-0.75866765	ttps://youtu.be/95GxAwggxhA le	-0.056445215
-1.1793442	meurtrier le	-0.056445215
-1.030559	Tout le	-0.056445215
-1.030559	frapper le	-0.056445215
-0.75866765	touche le	-0.056445215
-1.030559	vécu le	-0.056445215
-0.75866765	dépassées le	-0.056445215
-0.75866765	pleure le	-0.056445215
-0.75866765	sentir le	-0.056445215
-1.030559	ouragan le	-0.056445215
-0.75866765	homme le	-0.056445215
-0.75866765	pdt le	-0.056445215
-0.75866765	prédit le	-0.056445215
-2.680879	le bilan	-0.056445215
-2.2734385	nouveau bilan	-0.056445215
-1.6251403	Nouveau bilan	-0.056445215
-1.6232915	Le bilan	-0.056445215
-2.3711467	Un bilan	-0.056445215
-0.7536455	dernier bilan	-0.056445215
-1.736877	bilan approche	-0.056445215
-1.0891787	thermomètre approche	-0.056445215
-2.2580078	: les	-0.056445215
-0.35273722	approche les	-0.16019131
-1.1906593	pour les	-0.056445215
-1.250435	, les	-0.07355704
-1.596944	et les	-0.056445215
-1.9402509	sur les	-0.056445215
-1.5139656	vous les	-0.056445215
-0.50419915	aider les	-0.12278719
-1.9495366	par les	-0.056445215
-1.0527781	soutenir les	-0.056445215
-0.77040666	secourir les	-0.056445215
-1.6625813	on les	-0.056445215
-2.1122313	✪ les	-0.056445215
-1.0273418	dans les	-0.095022984
-1.9070635	que les	-0.056445215
-1.6066275	avec les	-0.056445215
-0.77040666	remercier les	-0.056445215
-1.0981257	sont les	-0.056445215
-0.77040666	fondre les	-0.056445215
-0.77040666	avoisinants les	-0.056445215
-0.77040666	Seigneur les	-0.056445215
-0.3818502	frôle les	-0.26489908
-1.2109796	entre les	-0.056445215
-1.3991184	Mais les	-0.056445215
-1.2109796	selon les	-0.056445215
-0.77040666	précipite les	-0.056445215
-0.77040666	Aidez les	-0.056445215
-0.77040666	affecter les	-0.056445215
-0.77040666	Maintenant les	-0.056445215
-0.77040666	putain les	-0.056445215
-1.3187363	mais les	-0.056445215
-0.77040666	ressentent les	-0.056445215
-1.2109796	contre les	-0.056445215
-0.77040666	atteignant les	-0.056445215
-0.77040666	frôlé les	-0.056445215
-1.3187363	tous les	-0.056445215
-0.77040666	avoisinent les	-0.056445215
-0.77040666	local les	-0.056445215
-0.77040666	dépassant les	-0.056445215
-0.77040666	omg les	-0.056445215
-0.77040666	comparons les	-0.056445215
-1.0527781	taire les	-0.056445215
-0.77040666	L.A. les	-0.056445215
-0.77040666	déchaîne les	-0.056445215
-2.09838	de plus	-0.056445215
-2.4398587	en plus	-0.056445215
-2.2612662	__EMOTICON__ plus	-0.056445215
-2.7422848	... plus	-0.056445215
-1.843847	: plus	-0.3898378
-2.4887774	le plus	-0.056445215
-2.5569193	__SHARP__ plus	-0.056445215
-0.91082746	fait plus	-0.44572693
-2.133422	, plus	-0.16019131
-1.7958187	et plus	-0.16019131
-2.4382014	a plus	-0.056445215
-0.82833374	tué plus	-0.16019131
-1.6411979	tue plus	-0.056445215
-0.7824718	tuent plus	-0.056445215
-1.0761957	faisant plus	-0.056445215
-1.4529271	; plus	-0.056445215
-0.7824718	causée plus	-0.056445215
-2.653854	en moins	-0.056445215
-1.4066921	au moins	-0.21523038
-1.6811337	ou moins	-0.056445215
-1.5610788	Au moins	-0.056445215
-1.5308925	moins d'	-0.056445215
-2.0432158	terre d'	-0.056445215
-1.9747506	pas d'	-0.056445215
-1.0553186	mourir d'	-0.056445215
-0.7717308	outre d'	-0.056445215
-2.193511	à d'	-0.056445215
-1.0553186	fonds d'	-0.056445215
-0.7717308	afin d'	-0.056445215
-0.7717308	millions d'	-0.056445215
-1.673826	suite d'	-0.056445215
-1.2146412	m d'	-0.056445215
-1.2146412	cas d'	-0.056445215
-0.7717308	trafic d'	-0.056445215
-1.2146412	aide d'	-0.056445215
-1.4047782	secousse d'	-0.056445215
-0.7717308	permet d'	-0.056445215
-1.0553186	pluie d'	-0.056445215
-1.0553186	cause d'	-0.056445215
-1.3234347	Etats d'	-0.056445215
-1.4924088	lors d'	-0.056445215
-1.2146412	réplique d'	-0.056445215
-0.7717308	moitié d'	-0.056445215
-1.0553186	simulation d'	-0.056445215
-0.35307583	gestion d'	-0.16019131
-1.2146412	effet d'	-0.056445215
-0.7717308	Quai d'	-0.056445215
-0.7717308	créer d'	-0.056445215
-1.0553186	pris d'	-0.056445215
-1.0553186	Compagnie d'	-0.056445215
-0.7717308	réaction d'	-0.056445215
-0.7717308	victime d'	-0.056445215
-0.35307583	Réaction d'	-0.16019131
-1.0553186	celle d'	-0.056445215
-0.7717308	Séance d'	-0.056445215
-1.0553186	équipe d'	-0.056445215
-0.7717308	liberté d'	-0.056445215
-0.7717308	intervention d'	-0.056445215
-1.3234347	tous d'	-0.056445215
-0.7717308	milliards d'	-0.056445215
-0.7717308	indigne d'	-0.056445215
-0.7717308	nom d'	-0.056445215
-0.8081471	<s> __SHARP__	-0.33182183
-1.7780689	de __SHARP__	-0.056445215
-1.2669752	en __SHARP__	-0.11266643
-1.4799403	__EMOTICON__ __SHARP__	-0.056445215
-1.9740059	... __SHARP__	-0.12278719
-1.9868089	: __SHARP__	-0.08364673
-2.1686623	__DIGIT__ __SHARP__	-0.056445215
-1.8686868	morts __SHARP__	-0.056445215
-1.1167185	__URL__ __SHARP__	-0.39968407
-1.3587506	. __SHARP__	-0.3660726
-1.1933489	le __SHARP__	-0.09952881
-1.22609	__SHARP__ __SHARP__	-0.19742085
-1.9695703	terre __SHARP__	-0.056445215
-1.0993506	au __SHARP__	-0.06892751
-1.988156	? __SHARP__	-0.056445215
-1.4207889	sur __SHARP__	-0.056445215
-1.7715583	la __SHARP__	-0.056445215
-1.8073595	à __SHARP__	-0.056445215
-1.3079672	urgence __SHARP__	-0.056445215
-1.9277797	séisme __SHARP__	-0.056445215
-2.1179307	a __SHARP__	-0.056445215
-1.7461387	du __SHARP__	-0.056445215
-1.4457114	! __SHARP__	-0.10522769
-2.071264	Népal __SHARP__	-0.056445215
-1.3079672	habitants __SHARP__	-0.056445215
-0.8124877	' __SHARP__	-0.056445215
-1.506714	nouveau __SHARP__	-0.16019131
-1.9573591	Le __SHARP__	-0.056445215
-1.5698916	✪ __SHARP__	-0.12278719
-1.8906201	) __SHARP__	-0.056445215
-1.6991494	__MENTION__ __SHARP__	-0.056445215
-1.6636368	/ __SHARP__	-0.056445215
-1.202554	Terre __SHARP__	-0.056445215
-1.8678552	En __SHARP__	-0.056445215
-0.81518245	Au __SHARP__	-0.16019131
-0.7673326	FLASH __SHARP__	-0.056445215
-1.202554	Bonjour __SHARP__	-0.056445215
-1.5843182	jours __SHARP__	-0.056445215
-1.8619449	« __SHARP__	-0.056445215
-1.3079672	info __SHARP__	-0.056445215
-1.4221467	Vague __SHARP__	-0.056445215
-0.7673326	suède __SHARP__	-0.056445215
-0.8124877	[ __SHARP__	-0.16019131
-1.3079672	Richter __SHARP__	-0.056445215
-0.7673326	bilans __SHARP__	-0.056445215
-1.0469075	& __SHARP__	-0.056445215
-0.7673326	renvoyer __SHARP__	-0.056445215
-0.7673326	Calcutta __SHARP__	-0.056445215
-0.7673326	téléphonie __SHARP__	-0.056445215
-0.7673326	e __SHARP__	-0.056445215
-0.7673326	Press __SHARP__	-0.056445215
-3.4972663	<s> Chgmts	-0.056445215
-0.7893584	Chgmts Terrestres	-0.056445215
-1.218558	La canicule	-0.16923515
-1.9804077	la canicule	-0.056445215
-2.2539937	chaleur fait	-0.056445215
-1.7406299	Inde fait	-0.056445215
-1.6692634	extrême fait	-0.056445215
-2.450745	__DIGIT__ fait	-0.056445215
-0.9960116	bilan fait	-0.16019131
-2.4816685	__SHARP__ fait	-0.056445215
-1.448302	canicule fait	-0.056445215
-2.1138866	qui fait	-0.056445215
-2.2310526	terre fait	-0.056445215
-2.4137938	au fait	-0.056445215
-1.989538	il fait	-0.056445215
-1.4293091	a fait	-0.15123008
-0.42701077	aurait fait	-0.10522769
-1.4424464	non fait	-0.056445215
-1.2385771	lui fait	-0.056445215
-1.9612072	En fait	-0.056445215
-1.2385771	record fait	-0.056445215
-1.9379225	se fait	-0.056445215
-1.4424464	secousse fait	-0.056445215
-1.7971662	déjà fait	-0.056445215
-1.7350068	ai fait	-0.056445215
-1.2385771	Ça fait	-0.056445215
-1.8057806	chaleur qui	-0.07355704
-1.4519612	canicule qui	-0.056445215
-2.2565227	terre qui	-0.056445215
-2.4865785	, qui	-0.056445215
-1.5226855	séisme qui	-0.12278719
-0.7811146	disent qui	-0.056445215
-1.4466084	températures qui	-0.056445215
-1.9192619	pays qui	-0.056445215
-1.3632832	nouvelle qui	-0.056445215
-1.0735304	Facebook qui	-0.056445215
-0.7811146	potes qui	-0.056445215
-0.7811146	femme qui	-0.056445215
-1.2411753	réplique qui	-0.056445215
-0.7811146	prochains qui	-0.056445215
-1.0735304	tsunami qui	-0.056445215
-0.7811146	rue qui	-0.056445215
-0.7811146	Fb qui	-0.056445215
-0.7811146	deshydratés qui	-0.056445215
-0.7811146	surtout qui	-0.056445215
-0.7811146	ceux qui	-0.056445215
-2.020222	__DIGIT__ frappe	-0.20268889
-2.2568512	qui frappe	-0.056445215
-2.4730506	terre frappe	-0.056445215
-2.2285008	séisme frappe	-0.056445215
-1.8075643	magnitude frappe	-0.056445215
-1.380571	majeur frappe	-0.056445215
-1.4746792	secousse frappe	-0.056445215
-1.3059739	de l'	-0.17667104
-2.1225586	: l'	-0.12278719
-2.090182	qui l'	-0.056445215
-1.6870872	frappe l'	-0.056445215
-1.6596645	tu l'	-0.056445215
-2.1238549	pour l'	-0.056445215
-1.9798015	, l'	-0.056445215
-1.7663074	et l'	-0.056445215
-1.3269911	sur l'	-0.056445215
-1.2109838	à l'	-0.13391384
-1.9109569	a l'	-0.056445215
-2.2549834	✪ l'	-0.056445215
-2.28757	__MENTION__ l'	-0.056445215
-0.7788619	eh l'	-0.056445215
-1.6617523	avec l'	-0.056445215
-0.7788619	passé l'	-0.056445215
-1.7229884	ai l'	-0.056445215
-1.234709	ds l'	-0.056445215
-1.3493891	fermé l'	-0.056445215
-1.4362773	Selon l'	-0.056445215
-0.7788619	traverse l'	-0.056445215
-0.7788619	travers l'	-0.056445215
-1.3493891	avoir l'	-0.056445215
-0.7788619	dont l'	-0.056445215
-0.7788619	heurté l'	-0.056445215
-2.4683678	Inde depuis	-0.056445215
-2.638516	__MENTION__ depuis	-0.056445215
-1.087023	PR depuis	-0.056445215
-0.75425255	sévit depuis	-0.12278719
-1.087023	écrit depuis	-0.056445215
-1.6890123	depuis tr	-0.056445215
-3.4516943	<s> Comme	-0.056445215
-2.6103265	! Comme	-0.056445215
-2.4083316	chaleur si	-0.056445215
-1.0815756	Comme si	-0.056445215
-2.6559436	, si	-0.056445215
-2.4003632	et si	-0.056445215
-1.3734456	amis si	-0.056445215
-2.50082	__MENTION__ si	-0.056445215
-1.4658471	comme si	-0.056445215
-0.78519905	nagnou si	-0.056445215
-0.78519905	classe si	-0.056445215
-0.78519905	demande si	-0.056445215
-0.78519905	Surtout si	-0.056445215
-2.7812014	le premier	-0.056445215
-2.6091352	<s> tremblement	-0.056445215
-1.5802151	de tremblement	-0.56592906
-2.2415776	: tremblement	-0.056445215
-1.9982989	est tremblement	-0.056445215
-0.7300583	le tremblement	-1.1099972
-0.7695261	premier tremblement	-0.056445215
-2.2003684	, tremblement	-0.056445215
-2.0505886	et tremblement	-0.056445215
-1.3669381	au tremblement	-0.4867478
-0.68163645	du tremblement	-0.9918978
-0.5584149	un tremblement	-1.1495056
-1.4923749	des tremblement	-0.16019131
-0.5586996	nouveau tremblement	-0.8291705
-0.35251164	deuxieme tremblement	-0.16019131
-0.7695261	Deuxième tremblement	-0.056445215
-1.9888871	ce tremblement	-0.056445215
-1.6470551	matin tremblement	-0.056445215
-0.33166677	Nouveau tremblement	-0.4867478
-1.4151417	Le tremblement	-0.26489908
-0.99562913	Un tremblement	-0.56592906
-2.1630478	- tremblement	-0.056445215
-1.4580625	deux tremblement	-0.056445215
-0.73884284	autre tremblement	-0.26489908
-1.4066409	dernier tremblement	-0.056445215
-1.8869678	« tremblement	-0.056445215
-0.7695261	récent tremblement	-0.056445215
-0.52480936	grand tremblement	-0.16019131
-1.2085555	violent tremblement	-0.056445215
-0.7695261	éruption tremblement	-0.056445215
-1.3156321	aucun tremblement	-0.056445215
-0.52480936	petit tremblement	-0.16019131
-0.64846766	fort tremblement	-0.16019131
-0.7695261	Second tremblement	-0.056445215
-1.3156321	second tremblement	-0.056445215
-0.35251164	deuxième tremblement	-0.16019131
-0.2506465	gros tremblement	-0.3898378
-0.7695261	2nd tremblement	-0.056445215
-0.52480936	puissant tremblement	-0.16019131
-0.7695261	4ème tremblement	-0.056445215
-0.52480936	2ème tremblement	-0.16019131
-0.7695261	mini tremblement	-0.056445215
-0.7695261	chaque tremblement	-0.056445215
-0.7695261	prochain tremblement	-0.056445215
-0.7695261	nv tremblement	-0.056445215
-0.7695261	Gros tremblement	-0.056445215
-0.7695261	énorme tremblement	-0.056445215
-2.1673915	de terre	-0.082131945
-2.3070583	La terre	-0.056445215
-2.5868614	la terre	-0.056445215
-2.1214147	par terre	-0.056445215
-1.5537443	ma terre	-0.056445215
-1.2598103	aussi terre	-0.056445215
-2.4064314	Inde n'	-0.056445215
-1.7967176	je n'	-0.056445215
-2.4318783	terre n'	-0.056445215
-2.0603101	il n'	-0.056445215
-1.8302158	ils n'	-0.056445215
-1.2557492	catastrophe n'	-0.056445215
-1.0918653	Je n'	-0.16019131
-1.0833838	Vous n'	-0.056445215
-0.786112	7h n'	-0.056445215
-1.7805103	n' avait	-0.056445215
-1.168551	y avait	-0.16019131
-1.3884975	y' avait	-0.056445215
-1.076879	va pas	-0.056445215
-1.370156	est pas	-0.08015185
-2.1089447	fait pas	-0.056445215
-1.2321492	avait pas	-0.056445215
-2.3892634	, pas	-0.056445215
-2.1418464	? pas	-0.056445215
-2.3173761	a pas	-0.056445215
-1.1757442	ont pas	-0.16019131
-1.2321492	était pas	-0.056445215
-1.111144	/ pas	-0.056445215
-0.77796406	jveux pas	-0.056445215
-1.2321492	es pas	-0.056445215
-0.77796406	avaient pas	-0.056445215
-1.564338	ne pas	-0.056445215
-0.77796406	chutent pas	-0.056445215
-1.0673746	toujours pas	-0.056445215
-1.715157	ai pas	-0.056445215
-0.77796406	savais pas	-0.056445215
-1.4322127	Mais pas	-0.056445215
-0.77796406	cache pas	-0.056445215
-0.77796406	faibit pas	-0.056445215
-0.77796406	ose pas	-0.056445215
-0.77796406	ait pas	-0.056445215
-1.3460587	avoir pas	-0.056445215
-0.77796406	croirez pas	-0.056445215
-0.77796406	savent pas	-0.056445215
-0.77796406	tiennent pas	-0.056445215
-2.317866	pas suffit	-0.056445215
-3.4972663	<s> Comment	-0.056445215
-1.8024397	si tu	-0.056445215
-0.7870268	Comment tu	-0.056445215
-2.4665904	et tu	-0.056445215
-1.2836157	que tu	-0.056445215
-1.7225333	quand tu	-0.056445215
-1.0851996	toi tu	-0.056445215
-0.7870268	kess tu	-0.056445215
-1.7396252	tu fais	-0.056445215
-2.1403544	chaleur pour	-0.056445215
-1.9651138	morts pour	-0.056445215
-2.0991397	est pour	-0.056445215
-2.112695	terre pour	-0.056445215
-2.0262458	pas pour	-0.056445215
-0.77528167	fais pour	-0.056445215
-1.3449435	don pour	-0.056445215
-0.8881368	€ pour	-0.056445215
-2.203831	Népal pour	-0.056445215
-1.2245592	NÉPAL pour	-0.056445215
-0.77528167	prieon pour	-0.056445215
-1.8615516	__MENTION__ pour	-0.056445215
-1.3449435	terrible pour	-0.056445215
-0.649594	pensée pour	-0.056445215
-1.0621667	chaud pour	-0.056445215
-1.6350589	Japon pour	-0.056445215
-1.0621667	Ou pour	-0.056445215
-0.77528167	Merci pour	-0.056445215
-0.77528167	appris pour	-0.056445215
-0.77528167	soeur pour	-0.056445215
-1.0621667	accord pour	-0.056445215
-1.0621667	prépare pour	-0.056445215
-0.77528167	assaut pour	-0.056445215
-0.77528167	000euros pour	-0.056445215
-0.77528167	mobilise pour	-0.056445215
-0.77528167	précautions pour	-0.056445215
-0.77528167	safe pour	-0.056445215
-0.77528167	noire pour	-0.056445215
-1.2245592	peur pour	-0.056445215
-1.2245592	même pour	-0.056445215
-1.2245592	peut pour	-0.056445215
-0.77528167	AN pour	-0.056445215
-0.77528167	garder pour	-0.056445215
-2.9886448	de mourir	-0.056445215
-2.3444486	pour mourir	-0.056445215
-1.5589656	chaleur ,	-0.056445215
-1.4637176	Inde ,	-0.056445215
-1.4658344	__DIGIT__ ,	-0.056445215
-1.3259032	morts ,	-0.056445215
-1.472368	bilan ,	-0.056445215
-1.4145936	moins ,	-0.056445215
-1.4186307	__SHARP__ ,	-0.056445215
-1.3267372	canicule ,	-0.056445215
-1.784929	fait ,	-0.056445215
-1.7268583	terre ,	-0.056445215
-1.0086579	familles ,	-0.056445215
-1.3913965	séisme ,	-0.056445215
-1.0190895	Nepal ,	-0.056445215
-1.2438067	Népal ,	-0.05644525
-1.2405447	dire ,	-0.056445215
-1.2405447	amis ,	-0.056445215
-0.74682	survivantes ,	-0.056445215
-0.7308028	semaines ,	-0.056445215
-1.148803	dévasté ,	-0.056445215
-1.4994264	matin ,	-0.056445215
-1.1077958	Katmandou ,	-0.056445215
-1.6203233	personnes ,	-0.056445215
-1.8031467	__MENTION__ ,	-0.056445215
-0.7207021	mort ,	-0.056445215
-1.148803	typhon ,	-0.056445215
-1.2405447	populations ,	-0.056445215
-1.2405447	exceptionnelle ,	-0.056445215
-1.4295188	ça ,	-0.056445215
-1.2405447	nepal ,	-0.056445215
-1.148803	Népalais ,	-0.056445215
-1.2405447	hui ,	-0.056445215
-1.5446026	déjà ,	-0.056445215
-1.148803	catastrophe ,	-0.056445215
-1.3066161	népalais ,	-0.056445215
-0.34657586	Grèce ,	-0.056445215
-1.3969482	France ,	-0.056445215
-1.3267372	dernier ,	-0.056445215
-1.4145936	mai ,	-0.056445215
-1.472368	Japon ,	-0.056445215
-0.74682	Mercredi ,	-0.056445215
-1.0086579	orages ,	-0.056445215
-1.0086579	pluie ,	-0.056445215
-0.74682	Mardi ,	-0.056445215
-1.5688436	C ,	-0.056445215
-0.90711707	Delhi ,	-0.056445215
-0.74682	alourdit ,	-0.056445215
-0.34657586	dimanche ,	-0.056445215
-1.6603343	» ,	-0.056445215
-0.74682	UNIVERS ,	-0.056445215
-0.74682	indien ,	-0.056445215
-0.74682	bâtiment ,	-0.056445215
-0.74682	Chine ,	-0.056445215
-0.74682	fixés ,	-0.056445215
-0.74682	presse ,	-0.056445215
-1.148803	blessés ,	-0.056445215
-0.74682	Ban ,	-0.056445215
-0.74682	Pritzker ,	-0.056445215
-0.74682	tsé ,	-0.056445215
-1.0086579	météo ,	-0.056445215
-0.74682	Nitchaeff ,	-0.056445215
-1.0086579	toi ,	-0.056445215
-0.74682	émus ,	-0.056445215
-0.74682	Vénetie ,	-0.056445215
-0.74682	loire ,	-0.056445215
-1.2405447	Richter ,	-0.056445215
-0.74682	Chennai ,	-0.056445215
-0.74682	réactiver ,	-0.056445215
-0.74682	Booth ,	-0.056445215
-0.74682	NEPAL ,	-0.056445215
-0.74682	USGS ,	-0.056445215
-1.0086579	royaume ,	-0.056445215
-1.1722084	aura ,	-0.056445215
-0.74682	villages ,	-0.056445215
-0.74682	ca ,	-0.056445215
-0.74682	NDTV ,	-0.056445215
-0.74682	mexique ,	-0.056445215
-0.74682	NON ,	-0.056445215
