\data\
ngram 1=818
ngram 2=1828
ngram 3=2154
ngram 4=2165
ngram 5=2116

\1-grams:
-3.316164	<unk>	0
0	<s>	-0.35400748
-2.711044	</s>	0
-3.2072773	Paternité	-0.060663328
-2.6034157	-	-0.060663328
-3.2072773	Partage	-0.060663328
-1.8062825	des	-0.08648392
-2.711044	conditions	-0.10690952
-3.2072773	initiales	-0.060663328
-1.5757354	à	-0.35757288
-2.1298523	l'	-0.10524012
-3.2072773	identique	-0.060663328
-2.0989413	__DIGIT__	-0.21678834
-1.4134437	.	-1.2529496
-3.0514157	Toute	-0.060663328
-3.2072773	utilisation	-0.060663328
-1.334833	de	-0.26927415
-3.2072773	Oeuvre	-0.060663328
-3.2072773	autrement	-0.060663328
-2.3297176	qu'	-0.15867364
-3.2072773	explicitement	-0.060663328
-3.2072773	autorisée	-0.060663328
-3.2072773	selon	-0.060663328
-2.1991777	ce	-0.14870021
-3.0514157	contrat	-0.1407246
-2.2384868	ou	-0.07933787
-1.8718228	le	-0.13031502
-3.0514157	droit	-0.060663328
-2.8544567	applicable	-0.060663328
-1.8718228	est	-0.06829357
-3.2072773	interdite	-0.060663328
-3.0514157	À	-0.060663328
-3.2072773	exception	-0.060663328
-3.2072773	situations	-0.060663328
-3.2072773	expressément	-0.060663328
-3.2072773	mentionnées	-0.060663328
-1.8898791	dans	-0.34587106
-2.711044	présent	-0.27410814
-2.517233	un	-0.060663328
-3.0514157	autre	-0.060663328
-2.8544567	accord	-0.060663328
-3.2072773	écrit	-0.060663328
-1.4259323	,	-0.14462763
-3.2072773	exigées	-0.060663328
-2.1631334	par	-0.16440962
-2.0175567	la	-0.1555473
-3.0514157	loi	-0.060663328
-3.0514157	oeuvre	-0.060663328
-2.8544567	mise	-0.1407246
-3.2072773	disposition	-0.060663328
-1.9284129	en	-0.12129117
-2.6034157	état	-0.10690952
-3.0514157	sans	-0.060663328
-2.8544567	garantie	-0.060663328
-1.9934975	d'	-0.08438872
-2.8544567	aucune	-0.060663328
-3.2072773	sorte	-0.060663328
-2.711044	elle	-0.060663328
-3.0514157	soit	-0.060663328
-3.2072773	expresse	-0.060663328
-3.2072773	tacite	-0.060663328
-2.8544567	y	-0.1407246
-3.2072773	compris	-0.060663328
-3.2072773	égard	-0.060663328
-1.9707016	du	-0.11267521
-3.2072773	contenu	-0.060663328
-3.2072773	exactitude	-0.060663328
-3.2072773	Creative	-0.060663328
-3.2072773	Commons	-0.060663328
-2.2384868	n'	-0.25038844
-2.3836982	pas	-0.060663328
-3.0514157	partie	-0.060663328
-1.7493484	et	-0.17068614
-3.2072773	offre	-0.060663328
-3.2072773	forme	-0.060663328
-3.2072773	relative	-0.060663328
-3.2072773	Oui	-0.060663328
-3.2072773	monsieur	-0.060663328
-3.2072773	Evans	-0.060663328
-2.8544567	je	-0.093186274
-3.0514157	pense	-0.060663328
-1.9934975	une	-0.08317114
-3.2072773	initiative	-0.060663328
-3.2072773	sens	-0.060663328
-1.9284129	que	-0.11376967
-2.711044	vous	-0.10690952
-3.2072773	venez	-0.060663328
-3.2072773	suggérer	-0.060663328
-3.2072773	serait	-0.060663328
-2.711044	tout	-0.060663328
-2.711044	fait	-0.22295561
-3.2072773	appropriée	-0.060663328
-3.2072773	Je	-0.060663328
-3.2072773	demande	-0.060663328
-2.6034157	cette	-0.10690952
-3.0514157	décision	-0.060663328
-3.2072773	reconsidérée	-0.060663328
-3.2072773	car	-0.060663328
-2.8544567	cas	-0.060663328
-3.2072773	La	-0.060663328
-3.0514157	sécurité	-0.060663328
-3.2072773	transports	-0.060663328
-2.281711	a	-0.09885168
-3.2072773	malheureusement	-0.060663328
-3.2072773	actualité	-0.060663328
-2.3836982	ces	-0.07933787
-3.2072773	derniers	-0.060663328
-3.0514157	temps	-0.060663328
-3.2072773	:	-0.060663328
-3.2072773	L'	-0.060663328
-3.2072773	importance	-0.060663328
-2.6034157	sur	-0.24805805
-3.2072773	route	-0.060663328
-1.8062825	les	-0.1145744
-3.2072773	rails	-0.060663328
-3.2072773	voies	-0.060663328
-3.2072773	navigables	-0.060663328
-3.2072773	naturellement	-0.060663328
-3.2072773	primordiale	-0.060663328
-3.2072773	raison	-0.060663328
-3.2072773	caractère	-0.060663328
-3.2072773	international	-0.060663328
-3.2072773	modes	-0.060663328
-3.0514157	transport	-0.060663328
-2.8544567	nous	-0.10690952
-3.2072773	devons	-0.060663328
-3.0514157	également	-0.060663328
-3.2072773	harmoniser	-0.060663328
-3.2072773	formations	-0.060663328
-3.2072773	conseillers	-0.060663328
-2.517233	ainsi	-0.060663328
-3.2072773	notamment	-0.060663328
-3.2072773	exigences	-0.060663328
-2.8544567	nouvel	-0.1407246
-3.2072773	Adr	-0.060663328
-2.1298523	qui	-0.12671335
-3.2072773	devrait	-0.060663328
-3.2072773	bientôt	-0.060663328
-3.2072773	entrer	-0.060663328
-3.2072773	vigueur	-0.060663328
-3.2072773	faute	-0.060663328
-3.2072773	revient	-0.060663328
-3.2072773	certes	-0.060663328
-3.2072773	seule	-0.060663328
-2.711044	commission	-0.060663294
-2.8544567	mais	-0.1407246
-3.2072773	réagir	-0.060663328
-3.0514157	plus	-0.060663328
-3.2072773	vite	-0.060663328
-1.9934975	pour	-0.11267521
-3.2072773	parvenir	-0.060663328
-3.0514157	harmonisation	-0.060663328
-3.2072773	domaine	-0.060663328
-3.0514157	aussi	-0.060663328
-3.2072773	peux	-0.060663328
-3.2072773	m'	-0.060663328
-3.2072773	accommoder	-0.060663328
-3.2072773	normes	-0.060663328
-3.2072773	minimales	-0.060663328
-3.2072773	prie	-0.060663328
-3.2072773	suivre	-0.060663328
-3.2072773	dossier	-0.060663328
-2.8544567	avec	-0.060663328
-3.2072773	réelle	-0.060663328
-3.0514157	attention	-0.060663328
-3.2072773	toutefois	-0.060663328
-3.2072773	devrions	-0.060663328
-3.2072773	faire	-0.060663328
-3.2072773	limiter	-0.060663328
-3.0514157	autant	-0.060663328
-3.2072773	possible	-0.060663328
-3.2072773	marchandises	-0.060663328
-3.2072773	dangereuses	-0.060663328
-3.2072773	ensemble	-0.060663328
-2.8544567	pays	-0.1407246
-3.2072773	ils	-0.060663328
-3.2072773	soient	-0.060663328
-3.2072773	régions	-0.060663328
-3.2072773	transit	-0.060663328
-3.2072773	non	-0.060663328
-3.2072773	J'	-0.060663328
-3.2072773	espère	-0.060663328
-3.0514157	ma	-0.060663328
-3.2072773	proposition	-0.060663328
-2.8544567	sera	-0.1407246
-3.0514157	prise	-0.060663328
-3.2072773	considération	-0.060663328
-2.8544567	lors	-0.1407246
-3.0514157	vote	-0.060663328
-3.2072773	demain	-0.060663328
-3.0514157	voudrais	-0.060663328
-3.2072773	demander	-0.060663328
-3.2072773	vice	-0.060663328
-3.2072773	présidente	-0.060663328
-3.0514157	si	-0.060663328
-2.711044	peut	-0.060663328
-3.2072773	dire	-0.060663328
-2.8544567	où	-0.060663328
-2.070085	sont	-0.072364025
-3.0514157	efforts	-0.060663328
-3.2072773	déployés	-0.060663328
-2.711044	deux	-0.060663328
-3.2072773	organisations	-0.060663328
-3.2072773	Ue	-0.060663328
-3.2072773	possibilité	-0.060663328
-3.2072773	accélérer	-0.060663328
-3.2072773	appliquant	-0.060663328
-3.2072773	principes	-0.060663328
-3.2072773	simples	-0.060663328
-3.2072773	possibles	-0.060663328
-3.0514157	Monsieur	-0.18706979
-3.2072773	président	-0.060663328
-3.2072773	souhaite	-0.060663328
-3.2072773	vivement	-0.060663328
-3.0514157	remercier	-0.18706979
-3.0514157	mme	-0.060663328
-3.2072773	Schroedter	-0.060663328
-3.0514157	travail	-0.060663328
-3.2072773	accompli	-0.060663328
-3.2072773	expliquer	-0.060663328
-2.3836982	aux	-0.060663328
-3.2072773	députés	-0.060663328
-3.0514157	j'	-0.060663328
-3.2072773	interviens	-0.060663328
-1.9490428	au	-0.125027
-3.2072773	nom	-0.060663328
-3.2072773	collègue	-0.060663328
-3.2072773	Flautre	-0.060663328
-3.2072773	suivi	-0.060663328
-3.2072773	sujet	-0.060663328
-3.2072773	emploi	-0.060663328
-3.2072773	affaires	-0.060663328
-3.2072773	sociales	-0.060663328
-3.2072773	hélas	-0.060663328
-3.2072773	malade	-0.060663328
-3.2072773	Mais	-0.060663328
-3.2072773	manque	-0.060663328
-3.0514157	lignes	-0.18706979
-3.2072773	directrices	-0.060663328
-3.2072773	ici	-0.060663328
-3.2072773	particulièrement	-0.060663328
-3.2072773	regrettable	-0.060663328
-3.2072773	alors	-0.060663328
-3.2072773	idée	-0.060663328
-3.2072773	lier	-0.060663328
-3.2072773	interventions	-0.060663328
-3.0514157	fond	-0.060663328
-3.2072773	social	-0.060663328
-3.2072773	stratégie	-0.060663328
-3.2072773	appliquée	-0.060663328
-3.2072773	première	-0.060663328
-3.0514157	fois	-0.060663328
-2.6034157	période	-0.09885168
-3.0514157	programme	-0.060663328
-3.2072773	vérité	-0.060663328
-3.2072773	estimons	-0.060663328
-3.2072773	cela	-0.060663328
-3.0514157	se	-0.060663328
-3.2072773	reflète	-0.060663328
-3.2072773	formulation	-0.060663328
-3.2072773	conclusions	-0.060663328
-2.6034157	doit	-0.10690952
-3.2072773	tenir	-0.060663328
-2.8544567	compte	-0.1407246
-3.2072773	approuvé	-0.060663328
-2.8544567	parlement	-0.1407246
-3.2072773	essentiellement	-0.060663328
-3.2072773	concerne	-0.060663328
-3.2072773	révision	-0.060663328
-3.2072773	orientations	-0.060663328
-3.2072773	milieu	-0.060663328
-3.2072773	commissaire	-0.060663328
-3.2072773	chers	-0.060663328
-3.2072773	collègues	-0.060663328
-3.2072773	tiens	-0.060663328
-2.6034157	son	-0.15867364
-3.2072773	excellent	-0.060663328
-3.2072773	rapport	-0.060663328
-3.0514157	;	-0.18706979
-2.711044	s'	-0.060663328
-3.2072773	consacrée	-0.060663328
-2.8544567	sa	-0.060663328
-3.2072773	tâche	-0.060663328
-3.2072773	examen	-0.060663328
-3.2072773	tenu	-0.060663328
-3.2072773	nombreux	-0.060663328
-3.2072773	amendements	-0.060663328
-2.711044	ont	-0.060663328
-2.711044	été	-0.060663328
-3.2072773	apportés	-0.060663328
-3.2072773	On	-0.060663328
-3.2072773	intégré	-0.060663328
-3.2072773	questions	-0.060663328
-3.2072773	détail	-0.060663328
-3.2072773	déjà	-0.060663328
-3.2072773	abordées	-0.060663328
-3.2072773	rapports	-0.060663328
-3.2072773	antérieurs	-0.060663328
-3.2072773	C'	-0.060663328
-3.2072773	histoire	-0.060663328
-3.2072773	dure	-0.060663328
-3.2072773	depuis	-0.060663328
-3.0514157	cinq	-0.18706979
-2.711044	ans	-0.060663328
-3.2072773	suis	-0.060663328
-3.2072773	député	-0.060663328
-3.2072773	ai	-0.060663328
-3.2072773	abordé	-0.060663328
-3.2072773	maintes	-0.060663328
-3.2072773	reprises	-0.060663328
-3.2072773	question	-0.060663328
-3.0514157	En	-0.060663328
-3.2072773	conséquence	-0.060663328
-2.711044	il	-0.060663328
-3.2072773	me	-0.060663328
-3.2072773	semble	-0.060663328
-3.2072773	anticiper	-0.060663328
-3.2072773	établir	-0.060663328
-3.2072773	mi	-0.060663328
-3.2072773	parcours	-0.060663328
-3.2072773	voire	-0.060663328
-3.2072773	influencer	-0.060663328
-3.2072773	seconde	-0.060663328
-3.2072773	phase	-0.060663328
-3.2072773	programmation	-0.060663328
-3.2072773	suivra	-0.060663328
-3.2072773	impliquerait	-0.060663328
-3.2072773	certainement	-0.060663328
-3.2072773	extension	-0.060663328
-2.8544567	instruments	-0.22295561
-3.2072773	redistribution	-0.060663328
-2.8544567	comme	-0.060663328
-3.2072773	fonds	-0.060663328
-3.2072773	structurels	-0.060663328
-3.2072773	féliciter	-0.060663328
-3.2072773	rapporteur	-0.060663328
-3.0514157	conclus	-0.060663328
-3.2072773	Président	-0.060663328
-3.2072773	affirmant	-0.060663328
-3.2072773	assez	-0.060663328
-3.2072773	grave	-0.060663328
-3.2072773	Commission	-0.060663328
-3.2072773	communication	-0.060663328
-3.2072773	ait	-0.060663328
-3.2072773	porté	-0.060663328
-3.2072773	peu	-0.060663328
-3.2072773	pactes	-0.060663328
-3.2072773	territoriaux	-0.060663328
-3.2072773	surtout	-0.060663328
-2.8544567	modalités	-0.22295561
-3.2072773	lutte	-0.060663328
-3.2072773	contre	-0.060663328
-3.2072773	chômage	-0.060663328
-3.2072773	chez	-0.060663328
-3.2072773	femmes	-0.060663328
-3.2072773	jeunes	-0.060663328
-3.2072773	ANA	-0.060663328
-3.2072773	utilisé	-0.060663328
-3.2072773	série	-0.060663328
-3.2072773	mots	-0.060663328
-3.2072773	clés	-0.060663328
-3.2072773	cibler	-0.060663328
-3.2072773	utilisateurs	-0.060663328
-3.2072773	spécialement	-0.060663328
-3.2072773	intéressés	-0.060663328
-3.2072773	voyage	-0.060663328
-3.2072773	culture	-0.060663328
-3.2072773	japonaise	-0.060663328
-3.2072773	Vous	-0.060663328
-3.0514157	pouvez	-0.060663328
-3.2072773	désormais	-0.060663328
-3.2072773	voir	-0.060663328
-3.2072773	mises	-0.060663328
-3.0514157	jour	-0.060663328
-3.0514157	publiques	-0.060663328
-3.2072773	personnes	-0.060663328
-3.2072773	intéressent	-0.060663328
-3.2072773	ajouter	-0.060663328
-3.2072773	votre	-0.060663328
-3.2072773	liste	-0.060663328
-3.2072773	amis	-0.060663328
-3.2072773	Si	-0.060663328
-2.6034157	ne	-0.09885168
-3.2072773	voyez	-0.060663328
-3.2072773	bouton	-0.060663328
-3.2072773	c'	-0.060663328
-3.2072773	abonner	-0.060663328
-3.2072773	avez	-0.060663328
-3.2072773	page	-0.060663328
-3.2072773	Facebook	-0.060663328
-3.2072773	?	-0.060663328
-3.0514157	(	-0.18706979
-3.0514157	)	-0.060663328
-3.2072773	règle	-0.060663328
-3.2072773	générale	-0.060663328
-3.2072773	consommation	-0.060663328
-3.2072773	énergie	-0.060663328
-3.2072773	produits	-0.060663328
-3.2072773	consommateurs	-0.060663328
-3.2072773	mode	-0.060663328
-3.2072773	veille	-0.060663328
-3.2072773	arrêt	-0.060663328
-2.517233	être	-0.08898519
-3.2072773	réduite	-0.060663328
-3.2072773	minimum	-0.060663328
-3.0514157	nécessaire	-0.060663328
-3.2072773	leur	-0.060663328
-3.2072773	bon	-0.060663328
-3.0514157	fonctionnement	-0.060663328
-3.2072773	reconduit	-0.060663328
-3.0514157	nouvelle	-0.060663328
-3.0514157	moins	-0.060663328
-3.0514157	quatre	-0.060663328
-3.2072773	assortie	-0.060663328
-3.0514157	budget	-0.060663328
-3.2072773	équivalent	-0.060663328
-3.2072773	million	-0.060663328
-3.2072773	euros	-0.060663328
-3.2072773	an	-0.060663328
-3.2072773	porter	-0.060663328
-3.2072773	mêmes	-0.060663328
-2.6034157	mesures	-0.08107608
-3.2072773	destinataires	-0.060663328
-3.0514157	personne	-0.060663328
-3.2072773	quitter	-0.060663328
-3.2072773	sien	-0.060663328
-3.2072773	revenir	-0.060663328
-3.2072773	partir	-0.060663328
-3.2072773	âge	-0.060663328
-3.2072773	nubile	-0.060663328
-3.2072773	homme	-0.060663328
-3.2072773	femme	-0.060663328
-3.0514157	restriction	-0.060663328
-3.2072773	quant	-0.060663328
-3.2072773	race	-0.060663328
-3.2072773	nationalité	-0.060663328
-3.2072773	religion	-0.060663328
-3.2072773	marier	-0.060663328
-3.2072773	fonder	-0.060663328
-3.0514157	famille	-0.060663328
-3.2072773	accéder	-0.060663328
-3.2072773	égalité	-0.060663328
-3.2072773	fonctions	-0.060663328
-3.2072773	Quiconque	-0.060663328
-3.2072773	travaille	-0.060663328
-3.2072773	rémunération	-0.060663328
-3.2072773	équitable	-0.060663328
-3.2072773	satisfaisante	-0.060663328
-3.2072773	lui	-0.060663328
-3.2072773	assurant	-0.060663328
-3.2072773	existence	-0.060663328
-3.2072773	conforme	-0.060663328
-3.2072773	dignité	-0.060663328
-3.2072773	humaine	-0.060663328
-3.2072773	complétée	-0.060663328
-3.0514157	lieu	-0.060663328
-3.0514157	tous	-0.060663328
-3.2072773	autres	-0.060663328
-3.2072773	moyens	-0.060663328
-3.2072773	protection	-0.060663328
-3.2072773	sociale	-0.060663328
-3.2072773	maman	-0.060663328
-3.2072773	contente	-0.060663328
-3.2072773	content	-0.060663328
-3.0514157	République	-0.1407246
-2.8544567	Bulgarie	-0.2940631
-3.2072773	Roumanie	-0.060663328
-3.2072773	deviennent	-0.060663328
-2.6034157	membres	-0.060663328
-3.2072773	Union	-0.060663328
-3.2072773	Européenne	-0.060663328
-3.2072773	Les	-0.060663328
-3.0514157	admission	-0.060663328
-3.0514157	figurent	-0.060663328
-2.8544567	protocole	-0.060663328
-3.0514157	annexé	-0.18706979
-2.8544567	traité	-0.060663328
-2.8544567	dispositions	-0.060663328
-2.711044	font	-0.22295561
-3.2072773	intégrante	-0.060663328
-2.8544567	cet	-0.060663328
-3.0514157	acte	-0.060663328
-3.2072773	Le	-0.060663328
-3.2072773	ratifié	-0.060663328
-3.2072773	Hautes	-0.060663328
-3.2072773	Parties	-0.060663328
-3.2072773	Contractantes	-0.060663328
-2.8544567	conformément	-0.060663328
-3.2072773	leurs	-0.060663328
-3.0514157	règles	-0.060663328
-3.2072773	constitutionnelles	-0.060663328
-3.2072773	respectives	-0.060663328
-3.2072773	ratification	-0.060663328
-3.0514157	déposés	-0.060663328
-3.2072773	auprès	-0.060663328
-3.2072773	gouvernement	-0.060663328
-3.2072773	italienne	-0.060663328
-3.2072773	tard	-0.060663328
-3.2072773	décembre	-0.060663328
-3.0514157	entre	-0.060663328
-3.2072773	er	-0.060663328
-3.0514157	janvier	-0.18706979
-3.2072773	condition	-0.060663328
-3.2072773	aient	-0.060663328
-3.0514157	avant	-0.060663328
-3.0514157	date	-0.060663328
-3.2072773	telle	-0.060663328
-3.2072773	seul	-0.060663328
-3.2072773	états	-0.060663328
-3.2072773	adhérents	-0.060663328
-3.2072773	ledit	-0.060663328
-3.2072773	Ces	-0.060663328
-3.2072773	entrent	-0.060663328
-3.2072773	sous	-0.060663328
-3.2072773	réserve	-0.060663328
-3.2072773	entrée	-0.060663328
-3.2072773	texte	-0.060663328
-3.2072773	établissant	-0.060663328
-3.0514157	constitution	-0.060663328
-3.2072773	Europe	-0.060663328
-3.2072773	rédigé	-0.060663328
-3.0514157	langues	-0.060663328
-3.2072773	bulgare	-0.060663328
-3.2072773	roumaine	-0.060663328
-3.2072773	Protocole	-0.060663328
-3.2072773	relatif	-0.060663328
-3.2072773	adhèrent	-0.060663328
-3.2072773	décisions	-0.060663328
-3.2072773	accords	-0.060663328
-3.0514157	adoptés	-0.18706979
-3.2072773	représentants	-0.060663328
-3.2072773	gouvernements	-0.060663328
-3.2072773	réunis	-0.060663328
-3.2072773	sein	-0.060663328
-2.8544567	conseil	-0.060663328
-3.2072773	Parmi	-0.060663328
-3.2072773	particuliers	-0.060663328
-3.2072773	mentionnés	-0.060663328
-3.0514157	article	-0.060663328
-3.2072773	ceux	-0.060663328
-3.0514157	visés	-0.060663328
-3.2072773	IV-438	-0.060663328
-3.2072773	soumet	-0.060663328
-3.0514157	projets	-0.18706979
-3.2072773	protocoles	-0.060663328
-3.2072773	statue	-0.060663328
-3.2072773	unanimité	-0.060663328
-2.6034157	après	-0.3198656
-3.2072773	consultation	-0.060663328
-3.2072773	européen	-0.060663328
-3.2072773	application	-0.060663328
-3.2072773	actes	-0.060663328
-3.0514157	institutions	-0.060663328
-3.2072773	objet	-0.060663328
-3.0514157	titre	-0.060663328
-3.2072773	transitoire	-0.060663328
-3.2072773	dérogatoires	-0.060663328
-3.0514157	prévues	-0.060663328
-3.2072773	Par	-0.060663328
-3.0514157	dérogation	-0.060663328
-3.2072773	précède	-0.060663328
-3.2072773	procédures	-0.060663328
-3.2072773	marchés	-0.060663328
-3.2072773	publics	-0.060663328
-3.2072773	engagées	-0.060663328
-3.0514157	adhésion	-0.119283706
-3.2072773	respectent	-0.060663328
-3.2072773	pertinentes	-0.060663328
-3.2072773	union	-0.060663328
-3.2072773	dernier	-0.060663328
-3.2072773	exercice	-0.060663328
-2.6034157	aide	-0.060663328
-3.2072773	préadhésion	-0.060663328
-2.8544567	visée	-0.2940631
-3.2072773	paragraphe	-0.060663328
-3.0514157	pendant	-0.18706979
-3.2072773	dernière	-0.060663328
-3.0514157	année	-0.060663328
-3.2072773	précédant	-0.060663328
-3.0514157	adjudication	-0.060663328
-3.2072773	prises	-0.060663328
-3.2072773	cadre	-0.060663328
-3.2072773	programmes	-0.060663328
-3.2072773	devra	-0.060663328
-3.2072773	avoir	-0.060663328
-3.2072773	années	-0.060663328
-3.2072773	suivront	-0.060663328
-3.2072773	Aucune	-0.060663328
-3.0514157	prolongation	-0.060663328
-2.711044	délai	-0.060663328
-3.0514157	accordée	-0.060663328
-3.2072773	exceptionnel	-0.060663328
-3.2072773	dûment	-0.060663328
-3.2072773	justifiés	-0.060663328
-3.2072773	limitée	-0.060663328
-3.2072773	durée	-0.060663328
-3.2072773	exécution	-0.060663328
-3.2072773	contrats	-0.060663328
-3.2072773	Pour	-0.060663328
-3.2072773	frais	-0.060663328
-3.2072773	audit	-0.060663328
-3.2072773	évaluation	-0.060663328
-3.2072773	prévus	-0.060663328
-2.711044	peuvent	-0.119283706
-3.2072773	engagés	-0.060663328
-3.2072773	jusqu'	-0.060663328
-3.2072773	Cependant	-0.060663328
-3.0514157	règlement	-0.060663328
-3.2072773	financier	-0.060663328
-3.2072773	général	-0.060663328
-3.2072773	communautés	-0.060663328
-3.2072773	européennes	-0.060663328
-3.2072773	appliquent	-0.060663328
-3.2072773	arrêter	-0.060663328
-3.2072773	œuvre	-0.060663328
-3.2072773	assistance	-0.060663328
-3.2072773	effet	-0.060663328
-3.2072773	assistée	-0.060663328
-3.0514157	comité	-0.060663328
-3.2072773	adopte	-0.060663328
-3.0514157	intérieur	-0.060663328
-3.2072773	Cette	-0.060663328
-3.2072773	finance	-0.060663328
-3.2072773	renforcement	-0.060663328
-3.2072773	petits	-0.060663328
-3.2072773	investissements	-0.060663328
-3.2072773	limités	-0.060663328
-3.2072773	accessoires	-0.060663328
-3.2072773	ceux-ci	-0.060663328
-3.2072773	crédits	-0.060663328
-3.2072773	autorisés	-0.060663328
-3.2072773	autorité	-0.060663328
-3.2072773	budgétaire	-0.060663328
-3.2072773	limite	-0.060663328
-3.2072773	perspectives	-0.060663328
-3.2072773	financières	-0.060663328
-3.2072773	douzième	-0.060663328
-3.0514157	chaque	-0.060663328
-3.2072773	montant	-0.060663328
-3.2072773	annuel	-0.060663328
-3.2072773	versé	-0.060663328
-2.8544567	premier	-0.060663328
-3.2072773	ouvrable	-0.060663328
-3.0514157	mois	-0.060663328
-3.2072773	correspondante	-0.060663328
-3.2072773	paiements	-0.060663328
-3.2072773	forfaitaires	-0.060663328
-3.2072773	utilisés	-0.060663328
-3.0514157	trois	-0.18706979
-3.2072773	compter	-0.060663328
-3.2072773	décaissement	-0.060663328
-3.2072773	somme	-0.060663328
-3.2072773	inutilisée	-0.060663328
-3.2072773	dépensée	-0.060663328
-3.2072773	manière	-0.060663328
-3.2072773	injustifiable	-0.060663328
-3.2072773	recouvrée	-0.060663328
-3.2072773	adopter	-0.060663328
-3.2072773	techniques	-0.060663328
-3.0514157	nécessaires	-0.060663328
-3.2072773	facilité	-0.060663328
-3.2072773	trésorerie	-0.060663328
-3.2072773	Schengen	-0.060663328
-3.2072773	temporaires	-0.060663328
-3.2072773	décidées	-0.060663328
-3.2072773	immédiatement	-0.060663328
-3.0514157	applicables	-0.060663328
-3.2072773	tiennent	-0.060663328
-3.2072773	intérêts	-0.060663328
-3.2072773	toutes	-0.060663328
-3.2072773	parties	-0.060663328
-3.2072773	concernées	-0.060663328
-3.2072773	entraînent	-0.060663328
-3.2072773	contrôles	-0.060663328
-3.2072773	frontières	-0.060663328
-3.2072773	causent	-0.060663328
-3.2072773	perturbation	-0.060663328
-3.2072773	marché	-0.060663328
-3.2072773	devront	-0.060663328
-3.2072773	choisies	-0.060663328
-3.2072773	priorité	-0.060663328
-3.2072773	sauvegarde	-0.060663328
-3.2072773	utilisées	-0.060663328
-3.2072773	moyen	-0.060663328
-3.2072773	discrimination	-0.060663328
-3.2072773	arbitraire	-0.060663328
-3.2072773	déguisée	-0.060663328
-3.2072773	échanges	-0.060663328
-3.2072773	commerciaux	-0.060663328
-3.2072773	États	-0.060663328
-3.2072773	maintenues	-0.060663328
-3.2072773	strictement	-0.060663328
-3.2072773	cause	-0.060663328
-3.2072773	levées	-0.060663328
-3.2072773	lorsque	-0.060663328
-3.2072773	engagement	-0.060663328
-3.2072773	correspondant	-0.060663328
-3.2072773	rempli	-0.060663328
-3.2072773	Elles	-0.060663328
-3.2072773	cependant	-0.060663328
-3.2072773	appliquées	-0.060663328
-3.0514157	au-delà	-0.18706979
-3.2072773	alinéa	-0.060663328
-3.2072773	tant	-0.060663328
-3.0514157	engagements	-0.060663328
-3.2072773	correspondants	-0.060663328
-3.2072773	remplis	-0.060663328
-3.2072773	adapter	-0.060663328
-3.0514157	arrêtées	-0.060663328
-3.2072773	fonction	-0.060663328
-3.0514157	mesure	-0.060663328
-3.2072773	laquelle	-0.060663328
-3.2072773	membre	-0.060663328
-3.2072773	concerné	-0.060663328
-3.2072773	remplit	-0.060663328
-3.2072773	ses	-0.060663328
-3.2072773	dès	-0.060663328
-3.2072773	manquement	-0.060663328
-3.2072773	constaté	-0.060663328
-3.2072773	corrigé	-0.060663328
-3.2072773	manquements	-0.060663328
-3.2072773	persistent	-0.060663328
-3.2072773	Une	-0.060663328
-3.2072773	européenne	-0.060663328
-3.2072773	prolonger	-0.060663328
-3.2072773	adoptées	-0.060663328
-3.2072773	durant	-0.060663328
-2.711044	apporte	-0.41900185
-3.0514157	adaptations	-0.060663328
-3.2072773	rendues	-0.060663328
-3.2072773	Un	-0.060663328
-3.2072773	ressortissant	-0.060663328
-3.2072773	nommé	-0.060663328
-3.0514157	mandat	-0.1407246
-2.6034157	nommés	-0.1407246
-2.8544567	expire	-0.1407246
-3.2072773	même	-0.060663328
-3.2072773	celui	-0.060663328
-3.2072773	moment	-0.060663328
-3.2072773	Deux	-0.060663328
-2.8544567	juges	-0.119283706
-3.0514157	Cour	-0.1407246
-3.2072773	justice	-0.060663328
-2.8544567	tribunal	-0.060663328
-3.2072773	octobre	-0.060663328
-3.2072773	Ce	-0.060663328
-3.0514157	juge	-0.060663328
-3.2072773	désigné	-0.060663328
-3.2072773	sort	-0.060663328
-3.2072773	août	-0.060663328
-3.2072773	procédure	-0.060663328
-3.2072773	règlements	-0.060663328
-3.2072773	adaptés	-0.060663328
-3.2072773	soumis	-0.060663328
-3.2072773	approbation	-0.060663328
-3.2072773	comptes	-0.060663328
-3.2072773	six	-0.060663328
-3.2072773	nouveaux	-0.060663328
-3.2072773	Ils	-0.060663328
-3.2072773	communiquent	-0.060663328
-3.2072773	ultérieurement	-0.060663328
-3.2072773	prévu	-0.060663328
-3.2072773	adoption	-0.060663328
-3.2072773	lequel	-0.060663328
-3.2072773	temporaire	-0.060663328
-3.2072773	demandée	-0.060663328
-3.2072773	Lorsque	-0.060663328
-3.2072773	dérogations	-0.060663328
-3.2072773	elles	-0.060663328
-3.2072773	publiés	-0.060663328
-3.2072773	journal	-0.060663328
-3.2072773	officiel	-0.060663328
-3.0514157	textes	-0.060663328
-3.2072773	actuelles	-0.060663328
-3.2072773	publication	-0.060663328
-3.2072773	annexes	-0.060663328
-3.2072773	I	-0.060663328
-3.2072773	IX	-0.060663328
-3.2072773	appendices	-0.060663328
-3.2072773	établi	-0.060663328
-3.2072773	joint	-0.060663328
-3.2072773	foi	-0.060663328
-3.2072773	visé	-0.060663328
-3.2072773	établis	-0.060663328
-3.2072773	Tant	-0.060663328
-3.2072773	conclu	-0.060663328
-3.2072773	applique	-0.060663328
-3.2072773	provisoirement	-0.060663328
-3.2072773	Il	-0.060663328
-3.2072773	institué	-0.060663328
-3.2072773	superficie	-0.060663328
-3.0514157	base	-0.060663328
-3.2072773	nationale	-0.060663328
-3.2072773	producteur	-0.060663328
-3.2072773	Toutefois	-0.060663328
-3.2072773	France	-0.060663328
-3.2072773	superficies	-0.060663328
-3.2072773	établies	-0.060663328
-3.2072773	maximale	-0.060663328
-3.2072773	ha	-0.060663328
-3.2072773	établie	-0.060663328
-3.2072773	notifiées	-0.060663328
-3.2072773	notification	-0.060663328
-3.2072773	comporte	-0.060663328
-3.2072773	informations	-0.060663328
-3.2072773	juridique	-0.060663328
-3.2072773	écoulé	-0.060663328
-3.2072773	toute	-0.060663328
-3.2072773	jugée	-0.060663328
-3.2072773	incompatible	-0.060663328
-3.2072773	considérée	-0.060663328
-3.0514157	stocks	-0.060663328
-3.2072773	point	-0.060663328
-3.2072773	déduits	-0.060663328
-3.2072773	quantité	-0.060663328
-3.2072773	excédant	-0.060663328
-3.2072773	report	-0.060663328
-3.2072773	normal	-0.060663328

\2-grams:
-0.02734824	. </s>	0
-0.8792378	: </s>	0
-0.45439708	; </s>	0
-0.8792378	? </s>	0
-2.835721	<s> Paternité	-0.30103
-2.6405163	<s> -	-0.30103
-0.877676	Paternité -	-0.30103
-2.158343	__DIGIT__ -	-0.30103
-0.877676	vice -	-0.30103
-0.877676	mi -	-0.30103
-1.5749108	- Partage	-0.30103
-0.84178686	Partage des	-0.30103
-0.84178686	exception des	-0.30103
-1.2097037	dans des	-0.30103
-1.5246116	un des	-0.30103
-1.8874488	, des	-0.30103
-1.306449	et des	-0.30103
-1.2438201	sécurité des	-0.30103
-0.84178686	formations des	-0.30103
-0.84178686	ensemble des	-0.30103
-1.103652	soient des	-0.30103
-0.84178686	appliquant des	-0.30103
-0.84178686	formulation des	-0.30103
-0.6115182	compte des	-0.30103
-0.84178686	intégré des	-0.30103
-1.103652	publiques des	-0.30103
-1.103652	énergie des	-0.30103
-0.84178686	seul des	-0.30103
-0.84178686	représentants des	-0.30103
-0.84178686	gouvernements des	-0.30103
-0.84178686	exécution des	-0.30103
-0.84178686	général des	-0.30103
-0.84178686	finance des	-0.30103
-0.84178686	renforcement des	-0.30103
-0.84178686	limite des	-0.30103
-0.84178686	déguisée des	-0.30103
-1.2615921	mandat des	-0.30103
-0.84178686	celui des	-0.30103
-1.2615921	Cour des	-0.30103
-0.84178686	comporte des	-0.30103
-1.6656971	des conditions	-0.30103
-1.7450343	aux conditions	-0.30103
-1.345373	mêmes conditions	-0.30103
-1.7911114	Les conditions	-0.30103
-1.5758011	conditions initiales	-0.30103
-0.8139904	initiales à	-0.30103
-1.6664312	__DIGIT__ à	-0.30103
-1.0534115	qu' à	-0.30103
-1.1768216	droit à	-0.30103
-1.6819286	, à	-0.30103
-1.2029696	mise à	-0.30103
-1.0541266	compris à	-0.30103
-1.468991	pas à	-0.30103
-1.0541266	partie à	-0.30103
-1.4394999	et à	-0.30103
-0.8139904	relative à	-0.30103
-1.2542162	tout à	-0.30103
-0.8139904	conseillers à	-0.30103
-1.4565423	commission à	-0.30103
-0.8139904	parvenir à	-0.30103
-1.1768216	prise à	-0.30103
-0.8139904	demander à	-0.30103
-1.0541266	fond à	-0.30103
-0.8139904	social à	-0.30103
-1.0541266	révision à	-0.30103
-0.8139904	tiens à	-0.30103
-0.8139904	consacrée à	-0.30103
-1.3082772	ans à	-0.30103
-0.8139904	abordé à	-0.30103
-0.8139904	mises à	-0.30103
-0.8139904	ajouter à	-0.30103
-1.4699253	mesures à	-0.30103
-0.8139904	quant à	-0.30103
-0.8139904	conforme à	-0.30103
-1.2542162	Roumanie à	-0.30103
-1.1768216	conformément à	-0.30103
-1.0541266	tard à	-0.30103
-1.0541266	visés à	-0.30103
-0.8139904	statue à	-0.30103
-1.0541266	prévues à	-0.30103
-1.0541266	dérogation à	-0.30103
-0.8139904	jusqu' à	-0.30103
-0.8139904	accessoires à	-0.30103
-0.8139904	versé à	-0.30103
-1.0541266	mois à	-0.30103
-1.0541266	applicables à	-0.30103
-1.0541266	appliquées à	-0.30103
-0.20130947	apporte à	-0.42596874
-0.8139904	nommé à	-0.30103
-1.3878716	nommés à	-0.30103
-0.8139904	soumis à	-0.30103
-0.8139904	comptes à	-0.30103
-0.8139904	I à	-0.30103
-0.8139904	notifiées à	-0.30103
-0.77096814	à l'	-0.30103
-0.76850307	de l'	-0.30103
-1.4084868	À l'	-0.30103
-2.0876484	dans l'	-0.30103
-1.8305024	, l'	-0.30103
-1.2297314	par l'	-0.30103
-1.9656422	en l'	-0.30103
-1.9531729	que l'	-0.30103
-0.42785615	fait l'	-0.30103
-1.3902085	pour l'	-0.30103
-1.1448946	si l'	-0.30103
-0.30216143	après l'	-0.42596874
-0.86386776	précédant l'	-0.30103
-0.86386776	lorsque l'	-0.30103
-2.4357367	l' identique	-0.30103
-1.5845112	<s> __DIGIT__	-0.42596874
-1.4815158	- __DIGIT__	-0.30103
-0.86236024	identique __DIGIT__	-0.30103
-1.9448681	de __DIGIT__	-0.30103
-1.0795349	le __DIGIT__	-0.30103
-1.1420199	programme __DIGIT__	-0.30103
-0.86236024	suivra __DIGIT__	-0.30103
-0.44958735	( __DIGIT__	-0.30103
-0.86236024	décembre __DIGIT__	-0.30103
-0.44958735	janvier __DIGIT__	-0.30103
-1.2977433	article __DIGIT__	-0.30103
-0.86236024	paragraphe __DIGIT__	-0.30103
-0.86236024	octobre __DIGIT__	-0.30103
-0.86236024	août __DIGIT__	-0.30103
-0.86236024	point __DIGIT__	-0.30103
-0.47506014	__DIGIT__ .	-0.56427145
-0.7853385	interdite .	-0.30103
-1.1133925	oeuvre .	-0.30103
-1.3523306	pas .	-0.30103
-0.7853385	appropriée .	-0.30103
-1.1133925	cas .	-0.30103
-1.2244724	vigueur .	-0.30103
-1.3427824	commission .	-0.30103
-1.0054703	aussi .	-0.30103
-1.0054703	attention .	-0.30103
-1.1464853	pays .	-0.30103
-0.7853385	non .	-0.30103
-0.7853385	demain .	-0.30103
-0.7853385	possibles .	-0.30103
-1.0054703	travail .	-0.30103
-0.7853385	malade .	-0.30103
-0.83150756	période .	-0.30103
-0.7853385	apportés .	-0.30103
-0.7853385	antérieurs .	-0.30103
-1.2244724	ans .	-0.30103
-0.7853385	question .	-0.30103
-0.7853385	structurels .	-0.30103
-1.0054703	conclus .	-0.30103
-0.7853385	jeunes .	-0.30103
-0.7853385	japonaise .	-0.30103
-0.7853385	amis .	-0.30103
-0.7853385	abonner .	-0.30103
-1.1133925	fonctionnement .	-0.30103
-1.0054703	nouvelle .	-0.30103
-1.0054703	famille .	-0.30103
-0.7853385	sociale .	-0.30103
-0.7853385	content .	-0.30103
-1.2573291	membres .	-0.30103
-1.0054703	Européenne .	-0.30103
-1.1133925	protocole .	-0.30103
-1.2573291	traité .	-0.30103
-0.7853385	respectives .	-0.30103
-1.1794248	date .	-0.30103
-1.1133925	constitution .	-0.30103
-1.2244724	conseil .	-0.30103
-1.0054703	européen .	-0.30103
-0.932479	adhésion .	-0.30103
-0.7853385	union .	-0.30103
-0.7853385	suivront .	-0.30103
-1.0054703	accordée .	-0.30103
-0.7853385	contrats .	-0.30103
-1.0054703	comité .	-0.30103
-1.1133925	intérieur .	-0.30103
-0.7853385	ceux-ci .	-0.30103
-0.7853385	financières .	-0.30103
-0.7853385	correspondante .	-0.30103
-0.7853385	décaissement .	-0.30103
-0.7853385	temporaires .	-0.30103
-0.7853385	frontières .	-0.30103
-0.7853385	priorité .	-0.30103
-0.7853385	rempli .	-0.30103
-1.0054703	engagements .	-0.30103
-0.7853385	remplis .	-0.30103
-1.1133925	mesure .	-0.30103
-0.7853385	corrigé .	-0.30103
-0.7853385	persistent .	-0.30103
-1.1133925	tribunal .	-0.30103
-0.7853385	sort .	-0.30103
-0.7853385	demandée .	-0.30103
-1.0054703	actuelles .	-0.30103
-0.7853385	publication .	-0.30103
-0.7853385	provisoirement .	-0.30103
-0.7853385	producteur .	-0.30103
-0.7853385	établies .	-0.30103
-0.7853385	établie .	-0.30103
-1.0054703	stocks .	-0.30103
-2.1702883	<s> Toute	-0.30103
-2.7420058	. Toute	-0.30103
-1.3565986	Toute utilisation	-0.30103
-0.7680429	utilisation de	-0.30103
-1.0138475	ou de	-0.30103
-1.0773735	droit de	-0.30103
-1.2059615	état de	-0.30103
-1.0773735	garantie de	-0.30103
-0.7680429	exactitude de	-0.30103
-1.2916683	pas de	-0.30103
-0.9111895	et de	-0.30103
-0.7680429	forme de	-0.30103
-0.7680429	venez de	-0.30103
-0.7680429	importance de	-0.30103
-0.7680429	international de	-0.30103
-0.7680429	modes de	-0.30103
-0.9771242	transport de	-0.30103
-1.283353	commission de	-0.30103
-0.7680429	accommoder de	-0.30103
-0.7680429	régions de	-0.30103
-0.5738629	lors de	-0.30103
-0.9771242	vote de	-0.30103
-0.7680429	nom de	-0.30103
-0.7680429	manque de	-0.30103
-0.9771242	directrices de	-0.30103
-0.7680429	idée de	-0.30103
-0.7680429	stratégie de	-0.30103
-1.2323452	période de	-0.30103
-1.114024	compte de	-0.30103
-0.9771242	révision de	-0.30103
-0.7680429	milieu de	-0.30103
-0.9771242	questions de	-0.30103
-0.7680429	parcours de	-0.30103
-0.7680429	phase de	-0.30103
-0.9771242	programmation de	-0.30103
-0.40162683	instruments de	-0.30103
-0.9771242	fonds de	-0.30103
-0.40162683	modalités de	-0.30103
-0.7680429	série de	-0.30103
-0.9771242	publiques de	-0.30103
-1.0773735	fonctionnement de	-0.30103
-0.9771242	moins de	-0.30103
-1.2990352	mesures de	-0.30103
-0.7680429	partir de	-0.30103
-0.7680429	moyens de	-0.30103
-0.5738629	République de	-0.30103
-1.2079355	membres de	-0.30103
-0.9771242	admission de	-0.30103
-1.1784941	dispositions de	-0.30103
-0.9771242	règles de	-0.30103
-0.7680429	gouvernement de	-0.30103
-1.1377666	date de	-0.30103
-0.9771242	texte de	-0.30103
-0.7680429	IV-438 de	-0.30103
-0.42016813	projets de	-0.30103
-0.7680429	application de	-0.30103
-0.7680429	procédures de	-0.30103
-0.7680429	pertinentes de	-0.30103
-0.7680429	exercice de	-0.30103
-1.1784941	aide de	-0.30103
-0.7680429	cadre de	-0.30103
-1.1377666	délai de	-0.30103
-0.7680429	limitée de	-0.30103
-1.0773735	règlement de	-0.30103
-0.7680429	œuvre de	-0.30103
-0.7680429	douzième de	-0.30103
-0.7680429	ouvrable de	-0.30103
-0.9771242	mois de	-0.30103
-0.7680429	compter de	-0.30103
-0.7680429	dépensée de	-0.30103
-0.9771242	facilité de	-0.30103
-0.7680429	intérêts de	-0.30103
-0.7680429	moyen de	-0.30103
-0.42016813	au-delà de	-0.30103
-0.9771242	fonction de	-0.30103
-0.7680429	ressortissant de	-0.30103
-0.5738629	mandat de	-0.30103
-0.7680429	moment de	-0.30103
-1.1691675	juges de	-0.30103
-0.5738629	Cour de	-0.30103
-0.7680429	règlements de	-0.30103
-0.7680429	adoption de	-0.30103
-0.7680429	officiel de	-0.30103
-0.9771242	superficie de	-0.30103
-0.7680429	superficies de	-0.30103
-0.7680429	juridique de	-0.30103
-0.7680429	déduits de	-0.30103
-0.7680429	normal de	-0.30103
-2.4357367	l' Oeuvre	-0.30103
-0.88304293	Oeuvre autrement	-0.30103
-0.87148476	autrement qu'	-0.30103
-1.8923328	, qu'	-0.30103
-1.3230737	pense qu'	-0.30103
-1.5884166	ainsi qu'	-0.30103
-1.9944285	pour qu'	-0.30103
-1.159561	travail qu'	-0.30103
-1.159561	appliquée qu'	-0.30103
-0.87148476	semble qu'	-0.30103
-0.87148476	affirmant qu'	-0.30103
-1.8707246	qu' explicitement	-0.30103
-0.88304293	explicitement autorisée	-0.30103
-0.88304293	autorisée selon	-0.30103
-1.7825315	à ce	-0.30103
-1.7373819	de ce	-0.30103
-0.86689854	selon ce	-0.30103
-1.5409884	dans ce	-0.30103
-2.000184	en ce	-0.30103
-1.7861842	pas ce	-0.30103
-2.113633	et ce	-0.30103
-0.86689854	car ce	-0.30103
-0.86689854	suivre ce	-0.30103
-0.86689854	suivi ce	-0.30103
-1.1507019	fois ce	-0.30103
-0.86689854	Pour ce	-0.30103
-1.3251932	ce contrat	-0.30103
-1.8251364	présent contrat	-0.30103
-0.6243496	contrat ou	-0.30103
-2.2291036	, ou	-0.30103
-0.8684219	expresse ou	-0.30103
-0.8684219	contenu ou	-0.30103
-0.8684219	rails ou	-0.30103
-0.8684219	transit ou	-0.30103
-0.8684219	veille ou	-0.30103
-0.8684219	nationalité ou	-0.30103
-1.6843795	adhésion ou	-0.30103
-0.8684219	inutilisée ou	-0.30103
-0.8684219	arbitraire ou	-0.30103
-1.423025	- le	-0.30103
-1.6565118	ou le	-0.30103
-0.6801385	dans le	-0.30103
-1.9434764	, le	-0.30103
-0.91109073	par le	-0.30103
-1.4368154	état le	-0.30103
-1.1142728	compris le	-0.30103
-1.6469359	pas le	-0.30103
-1.1142728	monsieur le	-0.30103
-1.8021901	que le	-0.30103
-1.6663035	a le	-0.30103
-1.423025	vigueur le	-0.30103
-1.7725844	pour le	-0.30103
-0.8475661	possible le	-0.30103
-0.4452606	Monsieur le	-0.30103
-1.1142728	Mais le	-0.30103
-1.423025	ont le	-0.30103
-0.8475661	féliciter le	-0.30103
-0.8475661	contre le	-0.30103
-1.3538579	Roumanie le	-0.30103
-1.1142728	tard le	-0.30103
-0.8475661	causent le	-0.30103
-0.8475661	laquelle le	-0.30103
-0.6143371	expire le	-0.30103
-0.8475661	excédant le	-0.30103
-1.3299859	le droit	-0.30103
-1.2288784	a droit	-0.30103
-1.3499736	droit applicable	-0.30103
-1.1778405	loi applicable	-0.30103
-0.88080513	financier applicable	-0.30103
-1.2585558	applicable est	-0.30103
-1.9434764	, est	-0.30103
-1.2585558	oeuvre est	-0.30103
-0.41961583	n' est	-0.38021123
-1.1142728	décision est	-0.30103
-0.8475661	navigables est	-0.30103
-1.2693743	qui est	-0.30103
-1.6283165	commission est	-0.30103
-1.1142728	directrices est	-0.30103
-0.8475661	vérité est	-0.30103
-1.1142728	orientations est	-0.30103
-1.3538579	s' est	-0.30103
-0.8475661	C' est	-0.30103
-1.423025	il est	-0.30103
-0.8475661	c' est	-0.30103
-1.4761298	traité est	-0.30103
-0.8475661	annuel est	-0.30103
-0.8475661	injustifiable est	-0.30103
-0.8475661	correspondant est	-0.30103
-1.2585558	membre est	-0.30103
-0.8475661	constaté est	-0.30103
-1.1142728	juge est	-0.30103
-0.8475661	temporaire est	-0.30103
-0.8475661	Il est	-0.30103
-0.8475661	ha est	-0.30103
-2.298816	est interdite	-0.30103
-1.8598373	<s> À	-0.30103
-2.7420058	. À	-0.30103
-2.4357367	l' exception	-0.30103
-2.3733342	des situations	-0.30103
-0.88304293	situations expressément	-0.30103
-0.88304293	expressément mentionnées	-0.30103
-1.74858	ce dans	-0.30103
-1.6655797	ou dans	-0.30103
-0.8490231	mentionnées dans	-0.30103
-1.3696516	, dans	-0.30103
-1.9161756	et dans	-0.30103
-0.8490231	initiative dans	-0.30103
-1.6371858	commission dans	-0.30103
-1.1169691	harmonisation dans	-0.30103
-0.8490231	accompli dans	-0.30103
-0.8490231	reflète dans	-0.30103
-0.8490231	abordées dans	-0.30103
-0.8490231	revenir dans	-0.30103
-1.2623192	lieu dans	-0.30103
-1.1169691	Européenne dans	-0.30103
-1.1169691	figurent dans	-0.30103
-0.8490231	mentionnés dans	-0.30103
-0.8490231	prises dans	-0.30103
-0.8490231	budgétaire dans	-0.30103
-0.8490231	utilisés dans	-0.30103
-1.2623192	mesure dans	-0.30103
-0.8490231	prévu dans	-0.30103
-1.2623192	textes dans	-0.30103
-0.8490231	foi dans	-0.30103
-0.8490231	établis dans	-0.30103
-1.3227774	le présent	-0.30103
-1.4377294	du présent	-0.30103
-1.477889	au présent	-0.30103
-1.7450343	Le présent	-0.30103
-2.5968351	<s> un	-0.30103
-2.2545457	l' un	-0.30103
-1.5639231	dans un	-0.30103
-1.9168724	par un	-0.30103
-1.4051439	d' un	-0.30103
-2.052419	pour un	-0.30103
-2.4115233	l' autre	-0.30103
-1.7678111	un autre	-0.30103
-1.1778405	autre accord	-0.30103
-2.20259	en accord	-0.30103
-1.3499736	cet accord	-0.30103
-1.3565986	accord écrit	-0.30103
-1.5497891	__DIGIT__ ,	-0.30103
-1.3756647	ou ,	-0.30103
-1.1187909	applicable ,	-0.30103
-0.78786653	écrit ,	-0.30103
-0.78786653	sorte ,	-0.30103
-0.78786653	tacite ,	-0.30103
-1.3591715	et ,	-0.30103
-0.78786653	Oui ,	-0.30103
-0.78786653	Evans ,	-0.30103
-1.4648069	que ,	-0.30103
-1.1187909	sécurité ,	-0.30103
-0.78786653	route ,	-0.30103
-1.0096751	transport ,	-0.30103
-0.78786653	notamment ,	-0.30103
-1.3519773	commission ,	-0.30103
-0.78786653	dangereuses ,	-0.30103
-0.5842926	pays ,	-0.30103
-0.78786653	président ,	-0.30103
-0.78786653	collègue ,	-0.30103
-0.78786653	Flautre ,	-0.30103
-0.78786653	regrettable ,	-0.30103
-0.78786653	estimons ,	-0.30103
-0.78786653	conclusions ,	-0.30103
-1.1513273	parlement ,	-0.30103
-0.78786653	commissaire ,	-0.30103
-0.78786653	collègues ,	-0.30103
-1.2314569	ans ,	-0.30103
-0.78786653	conséquence ,	-0.30103
-1.0096751	conclus ,	-0.30103
-0.78786653	Président ,	-0.30103
-0.78786653	Commission ,	-0.30103
-0.78786653	communication ,	-0.30103
-0.78786653	intéressent ,	-0.30103
-0.78786653	bouton ,	-0.30103
-0.78786653	générale ,	-0.30103
-0.78786653	sien ,	-0.30103
-0.78786653	nubile ,	-0.30103
-0.78786653	femme ,	-0.30103
-0.78786653	race ,	-0.30103
-0.78786653	religion ,	-0.30103
-0.78786653	accéder ,	-0.30103
-0.78786653	égalité ,	-0.30103
-0.78786653	complétée ,	-0.30103
-1.1187909	lieu ,	-0.30103
-0.78786653	contente ,	-0.30103
-1.2648673	traité ,	-0.30103
-0.78786653	Contractantes ,	-0.30103
-0.78786653	adhérents ,	-0.30103
-0.78786653	Europe ,	-0.30103
-0.78786653	roumaine ,	-0.30103
-0.78786653	unanimité ,	-0.30103
-1.0096751	objet ,	-0.30103
-0.78786653	transitoire ,	-0.30103
-0.78786653	précède ,	-0.30103
-0.93558055	adhésion ,	-0.30103
-0.78786653	justifiés ,	-0.30103
-0.78786653	évaluation ,	-0.30103
-0.78786653	Cependant ,	-0.30103
-0.78786653	effet ,	-0.30103
-1.0096751	applicables ,	-0.30103
-0.78786653	cause ,	-0.30103
-1.0096751	alinéa ,	-0.30103
-1.1857162	justice ,	-0.30103
-1.1187909	tribunal ,	-0.30103
-0.78786653	ultérieurement ,	-0.30103
-0.78786653	conclu ,	-0.30103
-0.78786653	Toutefois ,	-0.30103
-0.78786653	France ,	-0.30103
-0.78786653	écoulé ,	-0.30103
-1.9438318	ou exigées	-0.30103
-2.1749115	, par	-0.30103
-0.86538047	exigées par	-0.30103
-0.86538047	déployés par	-0.30103
-0.86538047	intéressés par	-0.30103
-0.86538047	euros par	-0.30103
-0.86538047	ratifié par	-0.30103
-0.45045787	adoptés par	-0.30103
-1.1477885	prévues par	-0.30103
-0.86538047	assistée par	-0.30103
-0.86538047	autorisés par	-0.30103
-0.86538047	recouvrée par	-0.30103
-1.1477885	nécessaires par	-0.30103
-0.86538047	désigné par	-0.30103
-0.60408306	à la	-0.30103
-0.8499046	de la	-0.30103
-1.7243642	ou la	-0.30103
-1.2292364	dans la	-0.30103
-1.5714428	, la	-0.30103
-1.2188239	par la	-0.30103
-1.3437287	et la	-0.30103
-1.4370525	que la	-0.30103
-1.7325331	a la	-0.30103
-0.8373917	sur la	-0.30103
-1.0904638	pour la	-0.30103
-0.85786885	prie la	-0.30103
-1.2856114	avec la	-0.30103
-1.1335081	Mais la	-0.30103
-1.1335081	concerne la	-0.30103
-0.85786885	influencer la	-0.30103
-1.1335081	avant la	-0.30103
-0.4482848	pendant la	-0.30103
-2.4979675	la loi	-0.30103
-1.1807498	Une loi	-0.30103
-1.4354415	l' oeuvre	-0.30103
-2.230142	en oeuvre	-0.30103
-2.6842575	de mise	-0.30103
-2.2448845	est mise	-0.30103
-1.47099	sa mise	-0.30103
-2.5484354	à disposition	-0.30103
-1.5467662	, en	-0.30103
-0.61646324	mise en	-0.30103
-0.8519517	disposition en	-0.30103
-1.757235	n' en	-0.30103
-1.943459	et en	-0.30103
-0.8519517	entrer en	-0.30103
-1.2699453	prise en	-0.30103
-1.2699453	où en	-0.30103
-1.7735683	sont en	-0.30103
-1.1224124	efforts en	-0.30103
-0.8519517	essentiellement en	-0.30103
-1.1224124	orientations en	-0.30103
-0.8519517	examen en	-0.30103
-1.1224124	énergie en	-0.30103
-1.1224124	entre en	-0.30103
-0.8519517	entrent en	-0.30103
-0.8519517	entrée en	-0.30103
-0.8519517	rédigé en	-0.30103
-0.8519517	choisies en	-0.30103
-1.1224124	arrêtées en	-0.30103
-1.2841343	expire en	-0.30103
-0.8519517	établi en	-0.30103
-2.289414	l' état	-0.30103
-1.4589361	tout état	-0.30103
-0.6287124	nouvel état	-0.30103
-0.877676	ledit état	-0.30103
-1.5491285	chaque état	-0.30103
-1.9958718	, sans	-0.30103
-1.57239	état sans	-0.30103
-2.6842575	de garantie	-0.30103
-1.3499736	sans garantie	-0.30103
-0.88080513	maximale garantie	-0.30103
-1.4684064	conditions d'	-0.30103
-1.2816415	garantie d'	-0.30103
-1.1307075	égard d'	-0.30103
-1.9878945	et d'	-0.30103
-1.1307075	efforts d'	-0.30103
-0.856382	possibilité d'	-0.30103
-1.525608	période d'	-0.30103
-0.856382	extension d'	-0.30103
-1.412666	modalités d'	-0.30103
-0.856382	liste d'	-0.30103
-0.856382	consommation d'	-0.30103
-0.856382	consommateurs d'	-0.30103
-0.856382	assortie d'	-0.30103
-0.856382	million d'	-0.30103
-1.6930683	mesures d'	-0.30103
-1.3828009	date d'	-0.30103
-1.1307075	objet d'	-0.30103
-1.3828009	délai d'	-0.30103
-0.856382	frais d'	-0.30103
-1.3499736	sans aucune	-0.30103
-2.0962286	d' aucune	-0.30103
-0.88080513	offre aucune	-0.30103
-1.3565986	aucune sorte	-0.30103
-2.6890872	<s> elle	-0.30103
-1.1466378	qu' elle	-0.30103
-2.5008755	, elle	-0.30103
-1.1747401	si elle	-0.30103
-1.5711257	elle soit	-0.30103
-1.1807498	décision soit	-0.30103
-1.1822865	soit expresse	-0.30103
-1.9438318	ou tacite	-0.30103
-1.9804314	, y	-0.30103
-0.88080513	On y	-0.30103
-1.5640126	il y	-0.30103
-1.3574963	y compris	-0.30103
-2.4357367	l' égard	-0.30103
-1.92351	__DIGIT__ du	-0.30103
-1.1279248	égard du	-0.30103
-0.85490024	raison du	-0.30103
-0.85490024	exigences du	-0.30103
-1.4512864	vigueur du	-0.30103
-1.2907958	lors du	-0.30103
-0.85490024	interventions du	-0.30103
-1.5193069	période du	-0.30103
-1.2777077	fonctionnement du	-0.30103
-0.85490024	intégrante du	-0.30103
-0.85490024	auprès du	-0.30103
-1.3778412	date du	-0.30103
-1.1279248	texte du	-0.30103
-0.85490024	sein du	-0.30103
-0.85490024	consultation du	-0.30103
-1.1279248	prolongation du	-0.30103
-0.85490024	européenne du	-0.30103
-1.3901923	juges du	-0.30103
-0.85490024	approbation du	-0.30103
-1.2777077	textes du	-0.30103
-2.1550903	du contenu	-0.30103
-2.4357367	l' exactitude	-0.30103
-2.835721	<s> Creative	-0.30103
-0.88304293	Creative Commons	-0.30103
-1.8930846	ce n'	-0.30103
-1.314465	accord n'	-0.30103
-2.2291036	, n'	-0.30103
-0.8684219	Commons n'	-0.30103
-1.6513526	et n'	-0.30103
-0.8684219	faute n'	-0.30103
-1.7787802	mesures n'	-0.30103
-1.1536349	personne n'	-0.30103
-0.8684219	maman n'	-0.30103
-1.1536349	adjudication n'	-0.30103
-0.8684219	correspondants n'	-0.30103
-2.0954323	est pas	-0.30103
-0.8730243	certes pas	-0.30103
-1.5277171	ont pas	-0.30103
-1.1625547	pouvez pas	-0.30103
-0.8730243	voyez pas	-0.30103
-1.446942	peuvent pas	-0.30103
-0.8730243	appliquent pas	-0.30103
-0.8730243	entraînent pas	-0.30103
-1.9341834	pas partie	-0.30103
-0.43242383	font partie	-0.30103
-0.8127241	conditions et	-0.30103
-1.2492174	contrat et	-0.30103
-1.3351599	, et	-0.30103
-0.8360834	primordiale et	-0.30103
-1.0932848	domaine et	-0.30103
-0.8360834	organisations et	-0.30103
-1.0932848	emploi et	-0.30103
-0.8360834	tâche et	-0.30103
-0.8360834	détail et	-0.30103
-0.8360834	anticiper et	-0.30103
-0.8360834	territoriaux et	-0.30103
-0.8360834	femmes et	-0.30103
-0.8360834	voyage et	-0.30103
-1.0932848	) et	-0.30103
-1.0932848	nécessaire et	-0.30103
-1.5746605	mesures et	-0.30103
-0.8360834	homme et	-0.30103
-0.8360834	marier et	-0.30103
-0.8360834	équitable et	-0.30103
-0.8360834	humaine et	-0.30103
-0.30019423	Bulgarie et	-0.30103
-0.8360834	réserve et	-0.30103
-1.229568	constitution et	-0.30103
-0.8360834	bulgare et	-0.30103
-0.8360834	décisions et	-0.30103
-1.0932848	institutions et	-0.30103
-1.5253774	adhésion et	-0.30103
-0.8360834	exceptionnel et	-0.30103
-0.8360834	audit et	-0.30103
-0.8360834	trésorerie et	-0.30103
-0.8360834	concernées et	-0.30103
-1.3180431	justice et	-0.30103
-0.8360834	IX et	-0.30103
-1.9503009	n' offre	-0.30103
-1.3565986	aucune forme	-0.30103
-1.3565986	garantie relative	-0.30103
-2.835721	<s> Oui	-0.30103
-2.004211	, monsieur	-0.30103
-1.1822865	monsieur Evans	-0.30103
-1.6789283	, je	-0.30103
-2.1865654	que je	-0.30103
-0.6301764	mais je	-0.30103
-0.99692917	je pense	-0.30103
-1.5711257	Je pense	-0.30103
-2.2458265	<s> une	-0.30103
-1.7403979	à une	-0.30103
-1.6972207	qu' une	-0.30103
-1.880442	est une	-0.30103
-2.0439565	, une	-0.30103
-1.8175976	d' une	-0.30103
-1.8431643	pour une	-0.30103
-1.2816415	avec une	-0.30103
-0.856382	certainement une	-0.30103
-1.2816415	comme une	-0.30103
-0.856382	utilisé une	-0.30103
-1.2816415	Si une	-0.30103
-0.856382	avez une	-0.30103
-0.856382	fonder une	-0.30103
-1.1307075	famille une	-0.30103
-0.856382	établissant une	-0.30103
-0.856382	durant une	-0.30103
-0.856382	lequel une	-0.30103
-0.856382	institué une	-0.30103
-2.1530066	une initiative	-0.30103
-2.343561	le sens	-0.30103
-1.4523237	conditions que	-0.30103
-1.4658176	est que	-0.30103
-1.9908171	, que	-0.30103
-1.2699453	pense que	-0.30103
-0.8519517	sens que	-0.30103
-0.8519517	demande que	-0.30103
-1.1224124	temps que	-0.30103
-1.4950899	ainsi que	-0.30103
-1.4397602	vigueur que	-0.30103
-0.8519517	toutefois que	-0.30103
-1.1224124	autant que	-0.30103
-0.8519517	espère que	-0.30103
-0.8519517	simples que	-0.30103
-0.8519517	députés que	-0.30103
-0.8519517	alors que	-0.30103
-1.4397602	ans que	-0.30103
-0.8519517	grave que	-0.30103
-0.8519517	porté que	-0.30103
-0.8519517	condition que	-0.30103
-0.8519517	tant que	-0.30103
-0.8519517	dès que	-0.30103
-0.8519517	Tant que	-0.30103
-1.9011699	pas vous	-0.30103
-1.5134075	que vous	-0.30103
-2.0176935	qui vous	-0.30103
-1.345373	Si vous	-0.30103
-1.5758011	vous venez	-0.30103
-2.7823591	de suggérer	-0.30103
-0.88304293	suggérer serait	-0.30103
-2.1748464	en tout	-0.30103
-0.8792378	serait tout	-0.30103
-0.8792378	devrions tout	-0.30103
-0.8792378	quitter tout	-0.30103
-2.46724	à fait	-0.30103
-0.8792378	malheureusement fait	-0.30103
-1.5565068	ont fait	-0.30103
-1.1747401	institutions fait	-0.30103
-1.4819765	fait appropriée	-0.30103
-1.4965869	<s> Je	-0.30103
-1.5749108	Je demande	-0.30103
-2.5755334	de cette	-0.30103
-2.1337273	que cette	-0.30103
-0.877676	reprises cette	-0.30103
-1.1716615	avant cette	-0.30103
-0.877676	prolonger cette	-0.30103
-1.57239	cette décision	-0.30103
-1.1807498	telle décision	-0.30103
-1.1822865	soit reconsidérée	-0.30103
-0.88304293	reconsidérée car	-0.30103
-2.3124352	des cas	-0.30103
-2.291612	le cas	-0.30103
-2.3866158	les cas	-0.30103
-1.165987	<s> La	-0.3521825
-1.8432866	la sécurité	-0.30103
-1.6478145	La sécurité	-0.30103
-2.3733342	des transports	-0.30103
-2.0652428	__DIGIT__ a	-0.30103
-2.2589662	, a	-0.30103
-1.5140077	elle a	-0.30103
-0.62507373	y a	-0.30103
-0.86995065	transports a	-0.30103
-1.9189248	qui a	-0.30103
-0.86995065	Ue a	-0.30103
-0.86995065	ANA a	-0.30103
-1.1565878	personne a	-0.30103
-0.86995065	travaille a	-0.30103
-1.9446993	a malheureusement	-0.30103
-2.4357367	l' actualité	-0.30103
-1.5649371	de ces	-0.30103
-1.8907989	par ces	-0.30103
-2.064862	que ces	-0.30103
-0.8730243	actualité ces	-0.30103
-1.3274429	avec ces	-0.30103
-0.8730243	accélérer ces	-0.30103
-0.8730243	communiquent ces	-0.30103
-0.8730243	Lorsque ces	-0.30103
-1.9438318	ces derniers	-0.30103
-0.88227075	derniers temps	-0.30103
-0.88227075	même temps	-0.30103
-1.1822865	temps :	-0.30103
-1.8635821	<s> L'	-0.30103
-1.3565986	L' importance	-0.30103
-1.8880692	ou sur	-0.30103
-2.4500153	, sur	-0.30103
-1.3408206	sécurité sur	-0.30103
-0.877676	porter sur	-0.30103
-0.877676	informations sur	-0.30103
-2.5243468	la route	-0.30103
-0.76242435	dans les	-0.30103
-1.3501524	, les	-0.30103
-1.1901684	par les	-0.30103
-1.306449	et les	-0.30103
-1.385253	que les	-0.30103
-0.51716566	sur les	-0.30103
-0.84178686	harmoniser les	-0.30103
-1.7311924	pour les	-0.30103
-1.103652	autant les	-0.30103
-1.2438201	où les	-0.30103
-1.6971267	sont les	-0.30103
-0.84178686	lier les	-0.30103
-1.103652	concerne les	-0.30103
-0.84178686	établir les	-0.30103
-1.2438201	comme les	-0.30103
-0.84178686	chez les	-0.30103
-0.84178686	cibler les	-0.30103
-0.84178686	voir les	-0.30103
-1.103652	tous les	-0.30103
-1.103652	entre les	-0.30103
-0.84178686	Parmi les	-0.30103
-0.84178686	soumet les	-0.30103
-0.84178686	respectent les	-0.30103
-0.84178686	arrêter les	-0.30103
-1.2438201	intérieur les	-0.30103
-0.84178686	adopter les	-0.30103
-0.84178686	toutes les	-0.30103
-0.84178686	adapter les	-0.30103
-1.103652	procédure les	-0.30103
-2.4548967	les rails	-0.30103
-2.4548967	les voies	-0.30103
-0.88304293	voies navigables	-0.30103
-2.298816	est naturellement	-0.30103
-0.88304293	naturellement primordiale	-0.30103
-2.245353	en raison	-0.30103
-2.1550903	du caractère	-0.30103
-0.88304293	caractère international	-0.30103
-1.9438318	ces modes	-0.30103
-2.746009	de transport	-0.30103
-2.324956	le transport	-0.30103
-2.558492	, nous	-0.30103
-1.2036672	que nous	-0.30103
-1.639341	peut nous	-0.30103
-0.852401	nous devons	-0.30103
-1.1807498	devons également	-0.30103
-1.1807498	voudrais également	-0.30103
-1.1822865	également harmoniser	-0.30103
-2.4548967	les formations	-0.30103
-2.3733342	des conseillers	-0.30103
-2.149208	est ainsi	-0.30103
-2.404492	, ainsi	-0.30103
-1.8424492	mesures ainsi	-0.30103
-0.87612	assurant ainsi	-0.30103
-1.6131328	membres ainsi	-0.30103
-1.1686046	procédure ainsi	-0.30103
-2.6563106	, notamment	-0.30103
-2.4548967	les exigences	-0.30103
-2.291612	le nouvel	-0.30103
-2.1193635	du nouvel	-0.30103
-1.5640126	chaque nouvel	-0.30103
-1.3574963	nouvel Adr	-0.30103
-0.76874673	ce qui	-0.30103
-2.1501567	, qui	-0.30103
-0.86386776	Adr qui	-0.30103
-1.3114164	mais qui	-0.30103
-0.86386776	amendements qui	-0.30103
-1.1448946	questions qui	-0.30103
-0.86386776	histoire qui	-0.30103
-1.1448946	programmation qui	-0.30103
-0.86386776	personnes qui	-0.30103
-1.744626	mesures qui	-0.30103
-1.5501131	membres qui	-0.30103
-0.86386776	ceux qui	-0.30103
-0.86386776	années qui	-0.30103
-0.86386776	limités qui	-0.30103
-2.0649307	qui devrait	-0.30103
-0.88304293	devrait bientôt	-0.30103
-0.88304293	bientôt entrer	-0.30103
-1.0021812	en vigueur	-0.30103
-1.6523345	La faute	-0.30103
-2.245353	en revient	-0.30103
-0.88304293	revient certes	-0.30103
-2.5243468	la seule	-0.30103
-1.0500284	la commission	-0.30103
-2.1748464	en commission	-0.30103
-1.6304281	La commission	-0.30103
-0.8792378	seule commission	-0.30103
-1.883815	commission mais	-0.30103
-0.88080513	minimales mais	-0.30103
-0.88080513	sociales mais	-0.30103
-1.1822865	devons réagir	-0.30103
-0.88227075	réagir plus	-0.30103
-1.4883571	au plus	-0.30103
-1.1822865	plus vite	-0.30103
-2.0439565	, pour	-0.30103
-1.2816415	sans pour	-0.30103
-1.4571663	vigueur pour	-0.30103
-0.856382	vite pour	-0.30103
-0.856382	faire pour	-0.30103
-0.856382	Schroedter pour	-0.30103
-0.856382	sujet pour	-0.30103
-1.1307075	appliquée pour	-0.30103
-0.856382	rapporteur pour	-0.30103
-0.856382	clés pour	-0.30103
-1.1307075	nécessaire pour	-0.30103
-0.856382	reconduit pour	-0.30103
-1.1307075	acte pour	-0.30103
-1.2816415	constitution pour	-0.30103
-1.4571663	conseil pour	-0.30103
-1.6196326	adhésion pour	-0.30103
-1.1307075	adjudication pour	-0.30103
-1.1307075	accordée pour	-0.30103
-0.856382	nationale pour	-0.30103
-2.1550903	pour parvenir	-0.30103
-2.119597	d' harmonisation	-0.30103
-2.1395538	une harmonisation	-0.30103
-2.039452	ce domaine	-0.30103
-1.1807498	domaine aussi	-0.30103
-0.88227075	principes aussi	-0.30103
-1.5749108	Je peux	-0.30103
-0.88304293	peux m'	-0.30103
-0.88304293	m' accommoder	-0.30103
-1.9438318	ces normes	-0.30103
-0.88304293	normes minimales	-0.30103
-1.7184141	je prie	-0.30103
-2.7823591	de suivre	-0.30103
-2.039452	ce dossier	-0.30103
-1.3499736	accord avec	-0.30103
-0.88080513	dossier avec	-0.30103
-0.88080513	incompatible avec	-0.30103
-2.1530066	une réelle	-0.30103
-0.88227075	réelle attention	-0.30103
-0.88227075	peu attention	-0.30103
-1.3565986	pense toutefois	-0.30103
-1.5758011	nous devrions	-0.30103
-1.4797654	tout faire	-0.30103
-2.1550903	pour limiter	-0.30103
-2.1424487	pour autant	-0.30103
-0.88227075	limiter autant	-0.30103
-2.2284582	que possible	-0.30103
-2.7823591	de marchandises	-0.30103
-0.88304293	marchandises dangereuses	-0.30103
-2.4357367	l' ensemble	-0.30103
-2.3124352	des pays	-0.30103
-1.47099	tout pays	-0.30103
-0.85090375	son pays	-0.30103
-1.1522698	qu' ils	-0.30103
-0.88304293	ils soient	-0.30103
-2.3733342	des régions	-0.30103
-2.7823591	de transit	-0.30103
-1.9438318	ou non	-0.30103
-2.835721	<s> J'	-0.30103
-0.88304293	J' espère	-0.30103
-2.746009	de ma	-0.30103
-2.2135663	que ma	-0.30103
-1.1822865	ma proposition	-0.30103
-0.88080513	proposition sera	-0.30103
-1.1778405	emploi sera	-0.30103
-1.6412827	ne sera	-0.30103
-2.2794724	est prise	-0.30103
-1.355584	sera prise	-0.30103
-2.245353	en considération	-0.30103
-2.558492	, lors	-0.30103
-0.88080513	considération lors	-0.30103
-1.1778405	fois lors	-0.30103
-2.746009	de vote	-0.30103
-2.1424487	du vote	-0.30103
-2.7823591	de demain	-0.30103
-1.713533	je voudrais	-0.30103
-1.5711257	Je voudrais	-0.30103
-1.1822865	voudrais demander	-0.30103
-2.5243468	la vice	-0.30103
-1.5749108	- présidente	-0.30103
-2.3946598	et si	-0.30103
-0.88227075	présidente si	-0.30103
-1.5565068	elle peut	-0.30103
-1.868285	commission peut	-0.30103
-1.5565068	conseil peut	-0.30103
-1.1747401	durée peut	-0.30103
-1.5758011	nous dire	-0.30103
-1.3499736	cas où	-0.30103
-0.88080513	dire où	-0.30103
-1.3499736	mesure où	-0.30103
-1.9747936	__DIGIT__ sont	-0.30103
-2.1045165	, sont	-0.30103
-1.9336464	en sont	-0.30103
-1.0061662	qui sont	-0.30103
-1.1506277	mesures sont	-0.30103
-1.1391641	ratification sont	-0.30103
-1.4752992	aide sont	-0.30103
-0.86085796	crédits sont	-0.30103
-0.86085796	forfaitaires sont	-0.30103
-0.86085796	décidées sont	-0.30103
-1.1391641	adaptations sont	-0.30103
-0.7412351	juges sont	-0.30103
-0.86085796	adaptés sont	-0.30103
-1.1391641	Ils sont	-0.30103
-0.86085796	dérogations sont	-0.30103
-1.2936616	base sont	-0.30103
-1.9353986	ces efforts	-0.30103
-2.4301448	les efforts	-0.30103
-1.1822865	harmonisation déployés	-0.30103
-2.5008755	, deux	-0.30103
-2.3238835	et deux	-0.30103
-1.9036397	ces deux	-0.30103
-2.3442984	les deux	-0.30103
-1.4797654	deux organisations	-0.30103
-2.4357367	l' Ue	-0.30103
-2.5243468	la possibilité	-0.30103
-2.1324	d' accélérer	-0.30103
-2.245353	en appliquant	-0.30103
-2.3733342	des principes	-0.30103
-1.1822865	aussi simples	-0.30103
-2.2284582	que possibles	-0.30103
-1.8598373	<s> Monsieur	-0.30103
-2.6200728	, Monsieur	-0.30103
-2.343561	le président	-0.30103
-1.7184141	je souhaite	-0.30103
-0.88304293	souhaite vivement	-0.30103
-2.5307462	à remercier	-0.30103
-0.88227075	vivement remercier	-0.30103
-2.6200728	, mme	-0.30103
-0.45524728	remercier mme	-0.30103
-1.1822865	mme Schroedter	-0.30103
-2.324956	le travail	-0.30103
-1.1807498	excellent travail	-0.30103
-1.9446993	a accompli	-0.30103
-2.4145951	et expliquer	-0.30103
-2.325662	, aux	-0.30103
-1.1625547	attention aux	-0.30103
-0.8730243	expliquer aux	-0.30103
-0.8730243	surtout aux	-0.30103
-1.3274429	conformément aux	-0.30103
-0.8730243	relatif aux	-0.30103
-0.8730243	adhèrent aux	-0.30103
-0.8730243	contrôles aux	-0.30103
-1.7737794	aux députés	-0.30103
-2.3946598	et j'	-0.30103
-2.2135663	que j'	-0.30103
-1.1822865	j' interviens	-0.30103
-1.2738092	applicable au	-0.30103
-1.7926229	d' au	-0.30103
-1.6649351	commission au	-0.30103
-0.8534235	interviens au	-0.30103
-0.8534235	approuvé au	-0.30103
-0.8534235	député au	-0.30103
-0.8534235	réduite au	-0.30103
-0.44698614	annexé au	-0.30103
-1.2738092	conformément au	-0.30103
-0.8534235	italienne au	-0.30103
-0.8534235	réunis au	-0.30103
-1.1251599	visés au	-0.30103
-0.8534235	protocoles au	-0.30103
-0.30309537	visée au	-0.30103
-1.1251599	nécessaires au	-0.30103
-0.8534235	perturbation au	-0.30103
-1.1251599	fonction au	-0.30103
-1.5249063	nommés au	-0.30103
-0.8534235	publiés au	-0.30103
-0.8534235	joint au	-0.30103
-0.8534235	visé au	-0.30103
-2.194433	au nom	-0.30103
-1.1822865	ma collègue	-0.30103
-1.1822865	mme Flautre	-0.30103
-1.9446993	a suivi	-0.30103
-2.039452	ce sujet	-0.30103
-2.4357367	l' emploi	-0.30103
-2.3733342	des affaires	-0.30103
-0.88304293	affaires sociales	-0.30103
-2.298816	est hélas	-0.30103
-0.88304293	hélas malade	-0.30103
-2.1779766	<s> Mais	-0.30103
-2.343561	le manque	-0.30103
-2.746009	de lignes	-0.30103
-2.4301448	les lignes	-0.30103
-0.4554631	lignes directrices	-0.30103
-2.298816	est ici	-0.30103
-0.88304293	ici particulièrement	-0.30103
-0.88304293	particulièrement regrettable	-0.30103
-2.6563106	, alors	-0.30103
-2.4357367	l' idée	-0.30103
-2.7823591	de lier	-0.30103
-2.4548967	les interventions	-0.30103
-2.5307462	à fond	-0.30103
-2.1424487	du fond	-0.30103
-1.1822865	fond social	-0.30103
-2.5243468	la stratégie	-0.30103
-0.63122004	sera appliquée	-0.30103
-2.5243468	la première	-0.30103
-0.88227075	première fois	-0.30103
-1.1807498	Une fois	-0.30103
-2.5755334	de période	-0.30103
-2.366719	la période	-0.30103
-2.0667086	une période	-0.30103
-0.84790045	cette période	-0.30103
-1.1716615	nouvelle période	-0.30103
-2.324956	le programme	-0.30103
-2.1424487	du programme	-0.30103
-2.5243468	la vérité	-0.30103
-1.5758011	nous estimons	-0.30103
-2.4145951	et cela	-0.30103
-2.746009	de se	-0.30103
-0.88227075	cela se	-0.30103
-1.1822865	se reflète	-0.30103
-2.5243468	la formulation	-0.30103
-2.3733342	des conclusions	-0.30103
-2.291328	et doit	-0.30103
-1.8532912	commission doit	-0.30103
-1.1716615	programme doit	-0.30103
-1.5491285	il doit	-0.30103
-0.877676	arrêt doit	-0.30103
-1.5758011	doit tenir	-0.30103
-0.88080513	tenir compte	-0.30103
-0.88080513	tenu compte	-0.30103
-0.88080513	tiennent compte	-0.30103
-2.298816	est approuvé	-0.30103
-2.1193635	du parlement	-0.30103
-1.4832761	au parlement	-0.30103
-1.7566752	Le parlement	-0.30103
-2.6563106	, essentiellement	-0.30103
-2.0649307	qui concerne	-0.30103
-1.8489923	la révision	-0.30103
-1.230283	ces orientations	-0.30103
-2.245353	en milieu	-0.30103
-2.343561	le commissaire	-0.30103
-2.6563106	, chers	-0.30103
-0.88304293	chers collègues	-0.30103
-1.7184141	je tiens	-0.30103
-2.4376862	à son	-0.30103
-2.5755334	de son	-0.30103
-2.225321	dans son	-0.30103
-1.4327364	pour son	-0.30103
-0.877676	adopte son	-0.30103
-1.5766933	son excellent	-0.30103
-1.1822865	excellent rapport	-0.30103
-0.88227075	rapport ;	-0.30103
-0.88227075	destinataires ;	-0.30103
-2.5008755	, s'	-0.30103
-1.5565068	elle s'	-0.30103
-1.5565068	il s'	-0.30103
-0.9273552	ne s'	-0.30103
-2.298816	est consacrée	-0.30103
-2.7437823	<s> sa	-0.30103
-1.8435048	à sa	-0.30103
-2.2628996	dans sa	-0.30103
-1.4797654	sa tâche	-0.30103
-2.4357367	l' examen	-0.30103
-1.9446993	a tenu	-0.30103
-2.3733342	des nombreux	-0.30103
-0.88304293	nombreux amendements	-0.30103
-2.5008755	, ont	-0.30103
-1.9223896	n' ont	-0.30103
-1.3448638	qui ont	-0.30103
-1.1747401	actuelles ont	-0.30103
-1.9011699	pas été	-0.30103
-1.5565068	ont été	-0.30103
-0.8792378	déjà été	-0.30103
-0.8792378	aient été	-0.30103
-1.4797654	été apportés	-0.30103
-2.835721	<s> On	-0.30103
-1.9446993	a intégré	-0.30103
-1.688098	des questions	-0.30103
-2.7823591	de détail	-0.30103
-1.5749108	ont déjà	-0.30103
-1.4797654	été abordées	-0.30103
-2.3733342	des rapports	-0.30103
-0.88304293	rapports antérieurs	-0.30103
-2.835721	<s> C'	-0.30103
-2.1530066	une histoire	-0.30103
-2.0649307	qui dure	-0.30103
-0.88304293	dure depuis	-0.30103
-2.5307462	à cinq	-0.30103
-0.88227075	depuis cinq	-0.30103
-0.45439708	cinq ans	-0.30103
-1.1747401	quatre ans	-0.30103
-0.45439708	trois ans	-0.30103
-0.8792378	six ans	-0.30103
-1.7184141	je suis	-0.30103
-0.88304293	suis député	-0.30103
-1.1822865	j' ai	-0.30103
-0.88304293	ai abordé	-0.30103
-2.5484354	à maintes	-0.30103
-0.88304293	maintes reprises	-0.30103
-1.5758011	cette question	-0.30103
-2.8018079	<s> En	-0.30103
-1.1807498	) En	-0.30103
-1.1822865	En conséquence	-0.30103
-1.1466378	qu' il	-0.30103
-2.5008755	, il	-0.30103
-1.345373	où il	-0.30103
-1.4649212	s' il	-0.30103
-1.5749108	il me	-0.30103
-0.88304293	me semble	-0.30103
-1.5758011	doit anticiper	-0.30103
-2.4145951	et établir	-0.30103
-2.5484354	à mi	-0.30103
-1.5749108	- parcours	-0.30103
-2.6563106	, voire	-0.30103
-0.88304293	voire influencer	-0.30103
-2.5243468	la seconde	-0.30103
-0.88304293	seconde phase	-0.30103
-2.1305354	de programmation	-0.30103
-2.0649307	qui suivra	-0.30103
-1.3565986	oeuvre impliquerait	-0.30103
-0.88304293	impliquerait certainement	-0.30103
-2.1530066	une extension	-0.30103
-2.0962286	d' instruments	-0.30103
-1.7606553	les instruments	-0.30103
-1.8040748	Les instruments	-0.30103
-2.7823591	de redistribution	-0.30103
-0.88080513	redistribution comme	-0.30103
-0.88080513	utilisées comme	-0.30103
-0.88080513	considérée comme	-0.30103
-1.7758689	les fonds	-0.30103
-1.1822865	fonds structurels	-0.30103
-1.1822865	également féliciter	-0.30103
-2.343561	le rapporteur	-0.30103
-1.5711257	Je conclus	-0.30103
-1.1807498	soient conclus	-0.30103
-2.343561	le Président	-0.30103
-2.245353	en affirmant	-0.30103
-2.298816	est assez	-0.30103
-0.88304293	assez grave	-0.30103
-2.5243468	la Commission	-0.30103
-1.4797654	sa communication	-0.30103
-1.9503009	n' ait	-0.30103
-0.88304293	ait porté	-0.30103
-2.2284582	que peu	-0.30103
-1.7737794	aux pactes	-0.30103
-0.88304293	pactes territoriaux	-0.30103
-2.4145951	et surtout	-0.30103
-2.359079	et modalités	-0.30103
-2.3866158	les modalités	-0.30103
-1.7566752	aux modalités	-0.30103
-2.7823591	de lutte	-0.30103
-0.88304293	lutte contre	-0.30103
-2.343561	le chômage	-0.30103
-0.88304293	chômage chez	-0.30103
-2.4548967	les femmes	-0.30103
-2.4548967	les jeunes	-0.30103
-2.835721	<s> ANA	-0.30103
-1.9446993	a utilisé	-0.30103
-2.1530066	une série	-0.30103
-2.7823591	de mots	-0.30103
-0.88304293	mots clés	-0.30103
-2.1550903	pour cibler	-0.30103
-2.4548967	les utilisateurs	-0.30103
-0.88304293	utilisateurs spécialement	-0.30103
-0.88304293	spécialement intéressés	-0.30103
-2.343561	le voyage	-0.30103
-2.5243468	la culture	-0.30103
-0.88304293	culture japonaise	-0.30103
-2.1779766	<s> Vous	-0.30103
-1.1807498	Vous pouvez	-0.30103
-1.6490716	ne pouvez	-0.30103
-1.1822865	pouvez désormais	-0.30103
-0.88304293	désormais voir	-0.30103
-2.4548967	les mises	-0.30103
-2.5307462	à jour	-0.30103
-1.354305	premier jour	-0.30103
-1.1807498	jour publiques	-0.30103
-0.88227075	fonctions publiques	-0.30103
-2.3733342	des personnes	-0.30103
-1.5758011	vous intéressent	-0.30103
-2.4548967	les ajouter	-0.30103
-2.5484354	à votre	-0.30103
-0.88304293	votre liste	-0.30103
-2.1324	d' amis	-0.30103
-1.6424203	<s> Si	-0.30103
-1.5491285	elle ne	-0.30103
-2.291328	et ne	-0.30103
-0.84790045	vous ne	-0.30103
-0.877676	européennes ne	-0.30103
-0.877676	sauvegarde ne	-0.30103
-1.6532212	ne voyez	-0.30103
-2.039452	ce bouton	-0.30103
-2.6563106	, c'	-0.30103
-1.5758011	vous abonner	-0.30103
-1.1822865	Vous avez	-0.30103
-2.1530066	une page	-0.30103
-0.88304293	page Facebook	-0.30103
-0.88304293	Facebook ?	-0.30103
-2.8018079	<s> (	-0.30103
-0.88227075	équivalent (	-0.30103
-2.2239413	__DIGIT__ )	-0.30103
-0.88227075	an )	-0.30103
-1.1822865	En règle	-0.30103
-0.88304293	règle générale	-0.30103
-2.5243468	la consommation	-0.30103
-1.4277054	d' énergie	-0.30103
-2.3733342	des produits	-0.30103
-0.88304293	produits consommateurs	-0.30103
-2.245353	en mode	-0.30103
-0.88304293	mode veille	-0.30103
-1.9438318	ou arrêt	-0.30103
-1.869446	pas être	-0.30103
-1.6131328	peut être	-0.30103
-0.84659386	doit être	-0.30103
-0.7512994	peuvent être	-0.30103
-0.87612	devront être	-0.30103
-0.87612	cependant être	-0.30103
-1.774659	être réduite	-0.30103
-2.194433	au minimum	-0.30103
-0.88227075	minimum nécessaire	-0.30103
-0.88227075	strictement nécessaire	-0.30103
-2.1550903	pour leur	-0.30103
-0.88304293	leur bon	-0.30103
-1.4883571	au fonctionnement	-0.30103
-0.88227075	bon fonctionnement	-0.30103
-1.774659	être reconduit	-0.30103
-2.1395538	une nouvelle	-0.30103
-1.5711257	aide nouvelle	-0.30103
-2.324956	le moins	-0.30103
-2.1809933	au moins	-0.30103
-2.746009	de quatre	-0.30103
-1.1807498	moins quatre	-0.30103
-2.6563106	, assortie	-0.30103
-1.7678111	un budget	-0.30103
-2.1809933	au budget	-0.30103
-1.1822865	budget équivalent	-0.30103
-2.2359324	__DIGIT__ million	-0.30103
-2.1324	d' euros	-0.30103
-1.9807568	par an	-0.30103
-1.5758011	doit porter	-0.30103
-1.4584682	les mêmes	-0.30103
-1.8880692	ces mesures	-0.30103
-1.7401149	les mesures	-0.30103
-1.3408206	mêmes mesures	-0.30103
-1.7785236	Les mesures	-0.30103
-1.1716615	Ces mesures	-0.30103
-1.3565986	mêmes destinataires	-0.30103
-1.354305	Toute personne	-0.30103
-2.6200728	, personne	-0.30103
-2.7823591	de quitter	-0.30103
-2.343561	le sien	-0.30103
-2.7823591	de revenir	-0.30103
-1.4797654	À partir	-0.30103
-2.4357367	l' âge	-0.30103
-0.88304293	âge nubile	-0.30103
-2.4357367	l' homme	-0.30103
-2.5243468	la femme	-0.30103
-2.746009	de restriction	-0.30103
-1.354305	aucune restriction	-0.30103
-1.1822865	restriction quant	-0.30103
-2.5243468	la race	-0.30103
-2.5243468	la nationalité	-0.30103
-2.5243468	la religion	-0.30103
-1.1822865	se marier	-0.30103
-2.7823591	de fonder	-0.30103
-2.1395538	une famille	-0.30103
-1.4767225	sa famille	-0.30103
-2.5484354	à accéder	-0.30103
-2.1324	d' égalité	-0.30103
-1.7737794	aux fonctions	-0.30103
-2.745608	. Quiconque	-0.30103
-0.88304293	Quiconque travaille	-0.30103
-2.1530066	une rémunération	-0.30103
-0.88304293	rémunération équitable	-0.30103
-2.4145951	et satisfaisante	-0.30103
-0.88304293	satisfaisante lui	-0.30103
-0.88304293	lui assurant	-0.30103
-2.1530066	une existence	-0.30103
-0.88304293	existence conforme	-0.30103
-2.5243468	la dignité	-0.30103
-0.88304293	dignité humaine	-0.30103
-2.4145951	et complétée	-0.30103
-1.2288784	a lieu	-0.30103
-0.88227075	avoir lieu	-0.30103
-1.9732009	par tous	-0.30103
-2.2135663	que tous	-0.30103
-1.1822865	tous autres	-0.30103
-0.88304293	autres moyens	-0.30103
-2.7823591	de protection	-0.30103
-0.88304293	protection sociale	-0.30103
-1.3565986	Si maman	-0.30103
-1.942966	pas contente	-0.30103
-2.298816	est content	-0.30103
-2.4979675	la République	-0.30103
-1.6478145	La République	-0.30103
-2.6842575	de Bulgarie	-0.30103
-2.451805	la Bulgarie	-0.30103
-1.639341	La Bulgarie	-0.30103
-1.5320987	la Roumanie	-0.30103
-1.4797654	Roumanie deviennent	-0.30103
-1.6567733	des membres	-0.30103
-0.877676	deviennent membres	-0.30103
-1.1716615	états membres	-0.30103
-0.877676	États membres	-0.30103
-0.877676	nouveaux membres	-0.30103
-1.7555029	l' Union	-0.30103
-0.88304293	Union Européenne	-0.30103
-0.94427603	<s> Les	-0.36797678
-2.4115233	l' admission	-0.30103
-2.119597	d' admission	-0.30103
-1.1807498	admission figurent	-0.30103
-1.354305	article figurent	-0.30103
-2.0139542	ce protocole	-0.30103
-2.291612	le protocole	-0.30103
-0.78326625	présent protocole	-0.30103
-2.2794724	est annexé	-0.30103
-1.354305	protocole annexé	-0.30103
-2.0139542	ce traité	-0.30103
-0.5593642	présent traité	-0.30103
-1.4427805	du traité	-0.30103
-2.3124352	des dispositions	-0.30103
-1.4510763	les dispositions	-0.30103
-1.8040748	Les dispositions	-0.30103
-1.345373	protocole font	-0.30103
-1.1747401	acte font	-0.30103
-1.345373	textes font	-0.30103
-0.8792378	appendices font	-0.30103
-1.1822865	partie intégrante	-0.30103
-2.6842575	de cet	-0.30103
-1.47099	À cet	-0.30103
-2.1865654	que cet	-0.30103
-2.4115233	l' acte	-0.30103
-1.354305	cet acte	-0.30103
-0.85089433	<s> Le	-0.41753554
-2.298816	est ratifié	-0.30103
-2.4548967	les Hautes	-0.30103
-0.88304293	Hautes Parties	-0.30103
-0.88304293	Parties Contractantes	-0.30103
-2.558492	, conformément	-0.30103
-1.3499736	adoptées conformément	-0.30103
-0.9293364	nommés conformément	-0.30103
-2.5484354	à leurs	-0.30103
-1.7678111	aux règles	-0.30103
-0.88227075	leurs règles	-0.30103
-1.1822865	règles constitutionnelles	-0.30103
-0.88304293	constitutionnelles respectives	-0.30103
-2.7823591	de ratification	-0.30103
-2.118424	sont déposés	-0.30103
-1.4767225	été déposés	-0.30103
-1.1822865	déposés auprès	-0.30103
-2.1550903	du gouvernement	-0.30103
-1.3574963	République italienne	-0.30103
-1.1822865	plus tard	-0.30103
-2.2359324	__DIGIT__ décembre	-0.30103
-1.6478145	traité entre	-0.30103
-0.88227075	commerciaux entre	-0.30103
-2.2359324	__DIGIT__ er	-0.30103
-2.2239413	__DIGIT__ janvier	-0.30103
-0.88227075	er janvier	-0.30103
-2.5484354	à condition	-0.30103
-1.1822865	ratification aient	-0.30103
-1.354305	prise avant	-0.30103
-1.1807498	déposés avant	-0.30103
-1.5293387	la date	-0.30103
-1.57239	cette date	-0.30103
-1.4496517	une telle	-0.30103
-1.7737794	un seul	-0.30103
-1.688098	des états	-0.30103
-1.1822865	états adhérents	-0.30103
-2.1550903	pour ledit	-0.30103
-1.4965869	<s> Ces	-0.39794
-1.9503009	n' entrent	-0.30103
-2.2284582	que sous	-0.30103
-0.88304293	sous réserve	-0.30103
-2.4357367	l' entrée	-0.30103
-1.7737794	Le texte	-0.30103
-1.6523345	traité établissant	-0.30103
-2.4979675	la constitution	-0.30103
-2.1395538	une constitution	-0.30103
-2.4357367	l' Europe	-0.30103
-2.6563106	, rédigé	-0.30103
-1.5425744	en langues	-0.30103
-2.4301448	les langues	-0.30103
-1.1822865	langues bulgare	-0.30103
-2.4145951	et roumaine	-0.30103
-2.835721	<s> Protocole	-0.30103
-0.88304293	Protocole relatif	-0.30103
-1.4797654	Roumanie adhèrent	-0.30103
-1.7737794	aux décisions	-0.30103
-2.4145951	et accords	-0.30103
-0.88227075	accords adoptés	-0.30103
-0.88227075	actes adoptés	-0.30103
-2.4548967	les représentants	-0.30103
-2.3733342	des gouvernements	-0.30103
-1.6523345	membres réunis	-0.30103
-2.194433	au sein	-0.30103
-1.1257167	du conseil	-0.30103
-2.1565127	au conseil	-0.30103
-1.7566752	Le conseil	-0.30103
-2.835721	<s> Parmi	-0.30103
-1.4819765	instruments particuliers	-0.30103
-0.88304293	particuliers mentionnés	-0.30103
-2.4115233	l' article	-0.30103
-1.8251364	présent article	-0.30103
-1.1822865	figurent ceux	-0.30103
-2.118424	sont visés	-0.30103
-1.1807498	stocks visés	-0.30103
-1.3565986	article IV-438	-0.30103
-1.9068934	commission soumet	-0.30103
-2.3513784	des projets	-0.30103
-2.4301448	les projets	-0.30103
-2.7823591	de protocoles	-0.30103
-1.5749108	conseil statue	-0.30103
-2.4357367	l' unanimité	-0.30103
-2.4500153	, après	-0.30103
-1.5491285	ans après	-0.30103
-0.877676	engagées après	-0.30103
-1.1716615	arrêtées après	-0.30103
-1.3408206	adoptées après	-0.30103
-1.5788865	après consultation	-0.30103
-0.63122004	parlement européen	-0.30103
-1.3565986	L' application	-0.30103
-2.3733342	des actes	-0.30103
-2.3513784	des institutions	-0.30103
-2.4301448	les institutions	-0.30103
-2.4357367	l' objet	-0.30103
-2.5307462	à titre	-0.30103
-1.4767225	À titre	-0.30103
-1.1822865	titre transitoire	-0.30103
-1.5749108	dispositions dérogatoires	-0.30103
-1.5711257	dispositions prévues	-0.30103
-0.88227075	dérogatoires prévues	-0.30103
-2.835721	<s> Par	-0.30103
-2.1395538	une dérogation	-0.30103
-0.88227075	Par dérogation	-0.30103
-2.0649307	qui précède	-0.30103
-2.4548967	les procédures	-0.30103
-2.7823591	de marchés	-0.30103
-0.88304293	marchés publics	-0.30103
-0.88304293	publics engagées	-0.30103
-1.2140927	l' adhésion	-0.38021123
-2.119597	d' adhésion	-0.30103
-1.7755405	adhésion respectent	-0.30103
-1.5749108	dispositions pertinentes	-0.30103
-2.4357367	l' union	-0.30103
-1.7737794	Le dernier	-0.30103
-0.88304293	dernier exercice	-0.30103
-2.289414	l' aide	-0.30103
-2.049955	d' aide	-0.30103
-2.0667086	une aide	-0.30103
-1.1716615	Cette aide	-0.30103
-0.877676	toute aide	-0.30103
-2.1305354	de préadhésion	-0.30103
-1.6412827	période visée	-0.30103
-1.1778405	préadhésion visée	-0.30103
-0.88080513	assistance visée	-0.30103
-1.4910511	au paragraphe	-0.30103
-1.354305	lieu pendant	-0.30103
-0.88227075	maintenues pendant	-0.30103
-2.5243468	la dernière	-0.30103
-2.4115233	l' année	-0.30103
-0.88227075	dernière année	-0.30103
-1.1822865	année précédant	-0.30103
-2.119597	d' adjudication	-0.30103
-1.354305	L' adjudication	-0.30103
-1.9077625	mesures prises	-0.30103
-2.343561	le cadre	-0.30103
-1.9438318	ces programmes	-0.30103
-0.88304293	programmes devra	-0.30103
-0.88304293	devra avoir	-0.30103
-1.4797654	deux années	-0.30103
-2.0649307	qui suivront	-0.30103
-2.835721	<s> Aucune	-0.30103
-2.1395538	une prolongation	-0.30103
-0.88227075	Aucune prolongation	-0.30103
-1.9968739	ce délai	-0.30103
-2.2584662	le délai	-0.30103
-1.7450343	un délai	-0.30103
-2.0958831	du délai	-0.30103
-2.2794724	est accordée	-0.30103
-1.7690538	être accordée	-0.30103
-1.1822865	titre exceptionnel	-0.30103
-1.3565986	cas dûment	-0.30103
-0.88304293	dûment justifiés	-0.30103
-1.1822865	prolongation limitée	-0.30103
-1.8489923	la durée	-0.30103
-2.4357367	l' exécution	-0.30103
-2.3733342	des contrats	-0.30103
-2.835721	<s> Pour	-0.30103
-2.4548967	les frais	-0.30103
-2.1324	d' audit	-0.30103
-2.1324	d' évaluation	-0.30103
-1.1822865	préadhésion prévus	-0.30103
-1.6330767	ne peuvent	-0.30103
-0.8792378	prévus peuvent	-0.30103
-0.8792378	Elles peuvent	-0.30103
-0.8792378	elles peuvent	-0.30103
-1.774659	être engagés	-0.30103
-0.88304293	engagés jusqu'	-0.30103
-2.835721	<s> Cependant	-0.30103
-2.1424487	du règlement	-0.30103
-0.85199505	son règlement	-0.30103
-1.3565986	règlement financier	-0.30103
-1.1822865	budget général	-0.30103
-2.3733342	des communautés	-0.30103
-0.88304293	communautés européennes	-0.30103
-1.4797654	s' appliquent	-0.30103
-1.6523345	peut arrêter	-0.30103
-2.245353	en œuvre	-0.30103
-2.4357367	l' assistance	-0.30103
-1.3565986	cet effet	-0.30103
-2.298816	est assistée	-0.30103
-1.7678111	un comité	-0.30103
-1.7678111	Le comité	-0.30103
-1.1822865	comité adopte	-0.30103
-1.354305	règlement intérieur	-0.30103
-0.88227075	marché intérieur	-0.30103
-2.1779766	<s> Cette	-0.30103
-1.5749108	aide finance	-0.30103
-2.7823591	de renforcement	-0.30103
-2.7823591	de petits	-0.30103
-0.88304293	petits investissements	-0.30103
-0.88304293	investissements limités	-0.30103
-2.1315558	sont accessoires	-0.30103
-2.5484354	à ceux-ci	-0.30103
-1.8231955	Les crédits	-0.30103
-2.1315558	sont autorisés	-0.30103
-2.4357367	l' autorité	-0.30103
-0.88304293	autorité budgétaire	-0.30103
-2.5243468	la limite	-0.30103
-2.3733342	des perspectives	-0.30103
-0.88304293	perspectives financières	-0.30103
-1.7737794	un douzième	-0.30103
-1.5937089	de chaque	-0.30103
-2.1424487	pour chaque	-0.30103
-1.5749108	chaque montant	-0.30103
-0.88304293	montant annuel	-0.30103
-2.298816	est versé	-0.30103
-2.291612	le premier	-0.30103
-2.1193635	du premier	-0.30103
-1.4832761	au premier	-0.30103
-1.1822865	jour ouvrable	-0.30103
-1.1807498	quatre mois	-0.30103
-1.5711257	chaque mois	-0.30103
-1.1822865	année correspondante	-0.30103
-1.8231955	Les paiements	-0.30103
-0.88304293	paiements forfaitaires	-0.30103
-2.1315558	sont utilisés	-0.30103
-2.746009	de trois	-0.30103
-2.4301448	les trois	-0.30103
-1.1647903	à compter	-0.5228787
-1.3565986	premier décaissement	-0.30103
-1.3565986	Toute somme	-0.30103
-0.88304293	somme inutilisée	-0.30103
-1.9438318	ou dépensée	-0.30103
-2.7823591	de manière	-0.30103
-0.88304293	manière injustifiable	-0.30103
-2.298816	est recouvrée	-0.30103
-1.6523345	peut adopter	-0.30103
-1.5749108	dispositions techniques	-0.30103
-0.88227075	techniques nécessaires	-0.30103
-0.88227075	rendues nécessaires	-0.30103
-2.5243468	la facilité	-0.30103
-2.7823591	de trésorerie	-0.30103
-1.1822865	facilité Schengen	-0.30103
-0.88304293	Schengen temporaires	-0.30103
-1.6523345	ainsi décidées	-0.30103
-2.1315558	sont immédiatement	-0.30103
-1.1807498	vote applicables	-0.30103
-0.88227075	immédiatement applicables	-0.30103
-2.6563106	, tiennent	-0.30103
-2.3733342	des intérêts	-0.30103
-2.7823591	de toutes	-0.30103
-2.4548967	les parties	-0.30103
-0.88304293	parties concernées	-0.30103
-1.9503009	n' entraînent	-0.30103
-2.7823591	de contrôles	-0.30103
-1.7737794	aux frontières	-0.30103
-2.0649307	qui causent	-0.30103
-2.7823591	de perturbation	-0.30103
-2.1550903	du marché	-0.30103
-1.3565986	intérieur devront	-0.30103
-1.774659	être choisies	-0.30103
-2.245353	en priorité	-0.30103
-2.7823591	de sauvegarde	-0.30103
-1.774659	être utilisées	-0.30103
-1.3565986	comme moyen	-0.30103
-2.7823591	de discrimination	-0.30103
-0.88304293	discrimination arbitraire	-0.30103
-1.1822865	restriction déguisée	-0.30103
-2.3733342	des échanges	-0.30103
-0.88304293	échanges commerciaux	-0.30103
-2.4548967	les États	-0.30103
-2.1315558	sont maintenues	-0.30103
-1.1822865	durée strictement	-0.30103
-2.7823591	de cause	-0.30103
-2.1315558	sont levées	-0.30103
-1.1822865	levées lorsque	-0.30103
-2.4357367	l' engagement	-0.30103
-0.88304293	engagement correspondant	-0.30103
-2.298816	est rempli	-0.30103
-2.1779766	<s> Elles	-0.30103
-1.4806595	peuvent cependant	-0.30103
-1.0555212	être appliquées	-0.30103
-1.9341834	pas au-delà	-0.30103
-1.1807498	appliquées au-delà	-0.30103
-1.3565986	premier alinéa	-0.30103
-1.1822865	alinéa tant	-0.30103
-2.4301448	les engagements	-0.30103
-0.88227075	ses engagements	-0.30103
-1.1822865	engagements correspondants	-0.30103
-1.4797654	été remplis	-0.30103
-1.6523345	peut adapter	-0.30103
-2.118424	sont arrêtées	-0.30103
-1.9000262	mesures arrêtées	-0.30103
-1.5456543	en fonction	-0.30103
-1.8432866	la mesure	-0.30103
-1.5711257	chaque mesure	-0.30103
-2.2917354	dans laquelle	-0.30103
-0.852401	état membre	-0.30103
-1.3565986	membre concerné	-0.30103
-0.88304293	concerné remplit	-0.30103
-0.88304293	remplit ses	-0.30103
-1.1822865	levées dès	-0.30103
-2.343561	le manquement	-0.30103
-0.88304293	manquement constaté	-0.30103
-2.298816	est corrigé	-0.30103
-1.9438318	ces manquements	-0.30103
-0.88304293	manquements persistent	-0.30103
-2.1779766	<s> Une	-0.30103
-1.1822865	loi européenne	-0.30103
-1.6523345	peut prolonger	-0.30103
-1.4275386	sont adoptées	-0.30103
-1.3565986	adoptées durant	-0.30103
-2.5008755	, apporte	-0.30103
-1.5565068	conseil apporte	-0.30103
-1.1747401	européen apporte	-0.30103
-1.4649212	justice apporte	-0.30103
-1.9353986	ces adaptations	-0.30103
-1.7705678	les adaptations	-0.30103
-1.1822865	adaptations rendues	-0.30103
-2.1779766	<s> Un	-0.30103
-0.88304293	Un ressortissant	-0.30103
-2.298816	est nommé	-0.30103
-1.7678111	un mandat	-0.30103
-1.7678111	Le mandat	-0.30103
-1.6216943	ainsi nommés	-0.30103
-2.0471568	sont nommés	-0.30103
-1.6216943	membres nommés	-0.30103
-1.4589361	justice nommés	-0.30103
-1.3408206	tribunal nommés	-0.30103
-2.2019985	__DIGIT__ expire	-0.30103
-0.9293364	nommés expire	-0.30103
-1.1778405	juge expire	-0.30103
-2.245353	en même	-0.30103
-2.2284582	que celui	-0.30103
-2.194433	au moment	-0.30103
-2.835721	<s> Deux	-0.30103
-2.3124352	des juges	-0.30103
-1.47099	deux juges	-0.30103
-0.88080513	Deux juges	-0.30103
-1.5293387	la Cour	-0.30103
-1.6478145	La Cour	-0.30103
-2.7823591	de justice	-0.30103
-2.1193635	du tribunal	-0.30103
-2.1565127	au tribunal	-0.30103
-1.7566752	Le tribunal	-0.30103
-2.2359324	__DIGIT__ octobre	-0.30103
-2.835721	<s> Ce	-0.30103
-1.1807498	autre juge	-0.30103
-0.88227075	Ce juge	-0.30103
-2.298816	est désigné	-0.30103
-2.343561	le sort	-0.30103
-2.2359324	__DIGIT__ août	-0.30103
-2.1305354	de procédure	-0.30103
-1.8231955	Les règlements	-0.30103
-1.6523345	ainsi adaptés	-0.30103
-2.1315558	sont soumis	-0.30103
-2.4357367	l' approbation	-0.30103
-2.3733342	des comptes	-0.30103
-2.7823591	de six	-0.30103
-2.3733342	des nouveaux	-0.30103
-2.1779766	<s> Ils	-0.30103
-1.1822865	Ils communiquent	-0.30103
-2.6563106	, ultérieurement	-0.30103
-1.4797654	délai prévu	-0.30103
-2.4357367	l' adoption	-0.30103
-2.1550903	pour lequel	-0.30103
-1.1822865	dérogation temporaire	-0.30103
-2.298816	est demandée	-0.30103
-2.1779766	<s> Lorsque	-0.30103
-1.9438318	ces dérogations	-0.30103
-2.6563106	, elles	-0.30103
-2.1315558	sont publiés	-0.30103
-2.194433	au journal	-0.30103
-0.88304293	journal officiel	-0.30103
-1.7705678	les textes	-0.30103
-1.1807498	Ces textes	-0.30103
-1.1822865	langues actuelles	-0.30103
-1.1822865	telle publication	-0.30103
-1.8231955	Les annexes	-0.30103
-0.88304293	annexes I	-0.30103
-2.5484354	à IX	-0.30103
-2.4548967	les appendices	-0.30103
-2.6563106	, établi	-0.30103
-2.298816	est joint	-0.30103
-1.4819765	font foi	-0.30103
-1.6523345	traité visé	-0.30103
-2.6563106	, établis	-0.30103
-2.835721	<s> Tant	-0.30103
-1.942966	pas conclu	-0.30103
-1.4797654	s' applique	-0.30103
-0.88304293	applique provisoirement	-0.30103
-2.835721	<s> Il	-0.30103
-2.298816	est institué	-0.30103
-1.4496517	une superficie	-0.30103
-2.1221642	de base	-0.30103
-2.4979675	la base	-0.30103
-1.3565986	base nationale	-0.30103
-1.3565986	membre producteur	-0.30103
-2.835721	<s> Toutefois	-0.30103
-2.5243468	la France	-0.30103
-1.4797654	deux superficies	-0.30103
-2.1315558	sont établies	-0.30103
-1.1822865	superficie maximale	-0.30103
-2.2359324	__DIGIT__ ha	-0.30103
-1.6523345	ainsi établie	-0.30103
-2.1315558	sont notifiées	-0.30103
-1.1822865	Cette notification	-0.30103
-0.88304293	notification comporte	-0.30103
-2.3733342	des informations	-0.30103
-1.3565986	base juridique	-0.30103
-1.4797654	délai écoulé	-0.30103
-2.6563106	, toute	-0.30103
-1.5749108	aide jugée	-0.30103
-0.88304293	jugée incompatible	-0.30103
-2.298816	est considérée	-0.30103
-2.746009	de stocks	-0.30103
-1.8165133	Les stocks	-0.30103
-2.194433	au point	-0.30103
-2.1315558	sont déduits	-0.30103
-2.5243468	la quantité	-0.30103
-0.88304293	quantité excédant	-0.30103
-2.343561	le report	-0.30103
-0.88304293	report normal	-0.30103

\3-grams:
-0.07212078	__DIGIT__ . </s>	0
-0.013458886	interdite . </s>	0
-0.013458886	oeuvre . </s>	0
-0.013458886	pas . </s>	0
-0.013458886	appropriée . </s>	0
-0.013458886	cas . </s>	0
-0.013458886	vigueur . </s>	0
-0.013458886	commission . </s>	0
-0.013458886	aussi . </s>	0
-0.013458886	attention . </s>	0
-0.013458886	pays . </s>	0
-0.013458886	non . </s>	0
-0.013458886	demain . </s>	0
-0.013458886	possibles . </s>	0
-0.013458886	travail . </s>	0
-0.013458886	malade . </s>	0
-0.013458886	période . </s>	0
-0.013458886	apportés . </s>	0
-0.013458886	antérieurs . </s>	0
-0.013458886	ans . </s>	0
-0.013458886	question . </s>	0
-0.013458886	structurels . </s>	0
-0.013458886	conclus . </s>	0
-0.013458886	jeunes . </s>	0
-0.013458886	japonaise . </s>	0
-0.013458886	amis . </s>	0
-0.013458886	abonner . </s>	0
-0.013458886	fonctionnement . </s>	0
-0.013458886	nouvelle . </s>	0
-0.013458886	famille . </s>	0
-0.013458886	sociale . </s>	0
-0.013458886	content . </s>	0
-0.013458886	membres . </s>	0
-0.013458886	Européenne . </s>	0
-0.013458886	protocole . </s>	0
-0.013458886	traité . </s>	0
-0.013458886	respectives . </s>	0
-0.013458886	date . </s>	0
-0.013458886	constitution . </s>	0
-0.013458886	conseil . </s>	0
-0.013458886	européen . </s>	0
-0.013458886	adhésion . </s>	0
-0.013458886	union . </s>	0
-0.013458886	suivront . </s>	0
-0.013458886	accordée . </s>	0
-0.013458886	contrats . </s>	0
-0.013458886	comité . </s>	0
-0.013458886	intérieur . </s>	0
-0.013458886	ceux-ci . </s>	0
-0.013458886	financières . </s>	0
-0.013458886	correspondante . </s>	0
-0.013458886	décaissement . </s>	0
-0.013458886	temporaires . </s>	0
-0.013458886	frontières . </s>	0
-0.013458886	priorité . </s>	0
-0.013458886	rempli . </s>	0
-0.013458886	engagements . </s>	0
-0.013458886	remplis . </s>	0
-0.013458886	mesure . </s>	0
-0.013458886	corrigé . </s>	0
-0.013458886	persistent . </s>	0
-0.013458886	tribunal . </s>	0
-0.013458886	sort . </s>	0
-0.013458886	demandée . </s>	0
-0.013458886	actuelles . </s>	0
-0.013458886	publication . </s>	0
-0.013458886	provisoirement . </s>	0
-0.013458886	producteur . </s>	0
-0.013458886	établies . </s>	0
-0.013458886	établie . </s>	0
-0.013458886	stocks . </s>	0
-0.24716164	temps : </s>	0
-0.17029776	rapport ; </s>	0
-0.17029776	destinataires ; </s>	0
-0.24716164	Facebook ? </s>	0
-0.24697915	<s> Paternité -	-0.013711469
-0.29802436	programme __DIGIT__ -	-0.013711469
-0.24697915	la vice -	-0.013711469
-0.24697915	à mi -	-0.013711469
-0.28962335	Paternité - Partage	-0.013711469
-0.2426228	- Partage des	-0.013711469
-0.2426228	l' exception des	-0.013711469
-0.807291	, dans des	-0.013711469
-0.27502754	et dans des	-0.013711469
-0.27502754	abordées dans des	-0.013711469
-0.28824317	l' un des	-0.013711469
-0.2954384	transitoire , des	-0.013711469
-0.28009725	emploi et des	-0.013711469
-0.28009725	détail et des	-0.013711469
-0.28009725	constitution et des	-0.013711469
-0.27693856	La sécurité des	-0.013711469
-0.2426228	les formations des	-0.013711469
-0.2426228	l' ensemble des	-0.013711469
-0.5385257	ils soient des	-0.013711469
-0.2426228	en appliquant des	-0.013711469
-0.2426228	la formulation des	-0.013711469
-0.20599523	tenu compte des	-0.013711469
-0.20599523	tiennent compte des	-0.013711469
-0.2426228	a intégré des	-0.013711469
-0.26810208	jour publiques des	-0.013711469
-0.5385257	d' énergie des	-0.013711469
-0.2426228	un seul des	-0.013711469
-0.2426228	les représentants des	-0.013711469
-0.2426228	des gouvernements des	-0.013711469
-0.2426228	l' exécution des	-0.013711469
-0.2426228	budget général des	-0.013711469
-0.2426228	aide finance des	-0.013711469
-0.2426228	de renforcement des	-0.013711469
-0.2426228	la limite des	-0.013711469
-0.2426228	restriction déguisée des	-0.013711469
-0.55693036	Le mandat des	-0.013711469
-0.2426228	que celui des	-0.013711469
-0.817082	la Cour des	-0.013711469
-0.2426228	notification comporte des	-0.013711469
-0.2917523	Partage des conditions	-0.013711469
-0.7508924	dans des conditions	-0.013711469
-0.29328766	relatif aux conditions	-0.013711469
-0.7229869	les mêmes conditions	-0.013711469
-1.3701102	<s> Les conditions	-0.013711469
-0.57958364	des conditions initiales	-0.013711469
-0.23902558	conditions initiales à	-0.013711469
-0.583729	janvier __DIGIT__ à	-0.013711469
-0.26423037	ainsi qu' à	-0.013711469
-0.26423037	appliquée qu' à	-0.013711469
-0.27304688	a droit à	-0.013711469
-0.2920892	objet , à	-0.013711469
-0.2746333	est mise à	-0.013711469
-0.53144425	y compris à	-0.013711469
-0.28652492	certes pas à	-0.013711469
-0.26428846	pas partie à	-0.013711469
-0.8441333	Bulgarie et à	-0.013711469
-0.28552368	réserve et à	-0.013711469
-0.23902558	garantie relative à	-0.013711469
-0.27749324	serait tout à	-0.013711469
-0.23902558	des conseillers à	-0.013711469
-1.0970434	la commission à	-0.013711469
-0.23902558	pour parvenir à	-0.013711469
-0.54778814	est prise à	-0.013711469
-0.23902558	voudrais demander à	-0.013711469
-0.26428846	à fond à	-0.013711469
-0.23902558	fond social à	-0.013711469
-0.53144425	la révision à	-0.013711469
-0.23902558	je tiens à	-0.013711469
-0.23902558	est consacrée à	-0.013711469
-0.2801831	trois ans à	-0.15442182
-0.23902558	ai abordé à	-0.013711469
-0.23902558	les mises à	-0.013711469
-0.23902558	les ajouter à	-0.013711469
-0.28655556	ces mesures à	-0.013711469
-0.23902558	restriction quant à	-0.013711469
-0.23902558	existence conforme à	-0.013711469
-0.81574756	la Roumanie à	-0.013711469
-0.27304688	, conformément à	-0.013711469
-0.53144425	plus tard à	-0.013711469
-0.26428846	sont visés à	-0.013711469
-0.23902558	conseil statue à	-0.013711469
-0.26428846	dispositions prévues à	-0.013711469
-0.26428846	Par dérogation à	-0.013711469
-0.23902558	engagés jusqu' à	-0.013711469
-0.23902558	sont accessoires à	-0.013711469
-0.23902558	est versé à	-0.013711469
-0.26428846	quatre mois à	-0.013711469
-0.26428846	vote applicables à	-0.013711469
-0.53144425	être appliquées à	-0.013711469
-0.089093514	, apporte à	-0.013711469
-0.089093514	conseil apporte à	-0.013711469
-0.089093514	européen apporte à	-0.013711469
-0.089093514	justice apporte à	-0.013711469
-0.23902558	est nommé à	-0.013711469
-0.5678824	sont nommés à	-0.013711469
-0.23902558	sont soumis à	-0.013711469
-0.23902558	des comptes à	-0.013711469
-0.23902558	annexes I à	-0.013711469
-0.23902558	sont notifiées à	-0.013711469
-0.23304975	initiales à l'	-0.013711469
-0.23304975	compris à l'	-0.013711469
-0.23304975	relative à l'	-0.013711469
-0.23304975	prise à l'	-0.013711469
-0.23304975	Roumanie à l'	-0.013711469
-0.23304975	visés à l'	-0.013711469
-0.23304975	statue à l'	-0.013711469
-0.23304975	prévues à l'	-0.013711469
-0.23304975	applicables à l'	-0.013711469
-0.23304975	soumis à l'	-0.013711469
-0.23269169	utilisation de l'	-0.013711469
-0.47468904	ou de l'	-0.013711469
-0.23269169	exactitude de l'	-0.013711469
-0.47468904	commission de l'	-0.013711469
-0.47468904	lors de l'	-0.013711469
-0.23269169	stratégie de l'	-0.013711469
-0.23269169	programmation de l'	-0.013711469
-0.5988201	modalités de l'	-0.013711469
-0.23269169	partir de l'	-0.013711469
-0.23269169	membres de l'	-0.013711469
-0.23269169	date de l'	-0.013711469
-0.23269169	pertinentes de l'	-0.013711469
-0.23269169	œuvre de l'	-0.013711469
-0.23269169	mois de l'	-0.013711469
-0.47468904	mandat de l'	-0.013711469
-0.23269169	moment de l'	-0.013711469
-0.23269169	adoption de l'	-0.013711469
-0.23269169	officiel de l'	-0.013711469
-0.73005104	<s> À l'	-0.013711469
-0.2974952	ce dans l'	-0.013711469
-0.2946607	applicable , l'	-0.013711469
-0.2946607	nubile , l'	-0.013711469
-0.27616656	autorisés par l'	-0.013711469
-0.27616656	nécessaires par l'	-0.013711469
-0.2963548	disposition en l'	-0.013711469
-0.29621932	alors que l'	-0.013711469
-0.16324122	malheureusement fait l'	-0.013711469
-0.16324122	ont fait l'	-0.013711469
-0.16324122	institutions fait l'	-0.013711469
-0.28369677	constitution pour l'	-0.013711469
-0.28369677	accordée pour l'	-0.013711469
-0.27098447	et si l'	-0.013711469
-0.12531556	ans après l'	-0.013711469
-0.12531556	engagées après l'	-0.013711469
-0.12531556	arrêtées après l'	-0.013711469
-0.12531556	adoptées après l'	-0.013711469
-0.24534035	année précédant l'	-0.013711469
-0.24534035	levées lorsque l'	-0.013711469
-1.2853911	à l' identique	-0.013711469
-0.28693065	__DIGIT__ - __DIGIT__	-0.013711469
-0.24515869	l' identique __DIGIT__	-0.013711469
-0.29612696	garantie de __DIGIT__	-0.013711469
-0.29612696	parcours de __DIGIT__	-0.013711469
-0.26629508	état le __DIGIT__	-0.013711469
-0.26629508	vigueur le __DIGIT__	-0.013711469
-0.26629508	tard le __DIGIT__	-0.013711469
-0.26629508	expire le __DIGIT__	-0.15442182
-0.2707917	du programme __DIGIT__	-0.013711469
-0.24515869	qui suivra __DIGIT__	-0.013711469
-0.16904241	<s> ( __DIGIT__	-0.013711469
-0.16904241	équivalent ( __DIGIT__	-0.013711469
-0.24515869	__DIGIT__ décembre __DIGIT__	-0.013711469
-0.16904241	__DIGIT__ janvier __DIGIT__	-0.013711469
-0.16904241	er janvier __DIGIT__	-0.013711469
-0.5603675	l' article __DIGIT__	-0.013711469
-0.24515869	au paragraphe __DIGIT__	-0.013711469
-0.24515869	__DIGIT__ octobre __DIGIT__	-0.013711469
-0.24515869	__DIGIT__ août __DIGIT__	-0.013711469
-0.24515869	au point __DIGIT__	-0.013711469
-0.124594554	<s> __DIGIT__ .	-0.07839269
-0.17557505	- __DIGIT__ .	-0.013711469
-0.17557505	identique __DIGIT__ .	-0.013711469
-0.17557505	suivra __DIGIT__ .	-0.013711469
-0.17557505	décembre __DIGIT__ .	-0.013711469
-0.3793856	janvier __DIGIT__ .	-0.013711469
-0.47608948	paragraphe __DIGIT__ .	-0.013711469
-0.17557505	octobre __DIGIT__ .	-0.013711469
-0.17557505	août __DIGIT__ .	-0.013711469
-0.23510271	est interdite .	-0.013711469
-0.42963958	l' oeuvre .	-0.15442182
-0.5650885	appliquent pas .	-0.013711469
-0.23510271	fait appropriée .	-0.013711469
-0.26880592	le cas .	-0.013711469
-0.8866607	en vigueur .	-0.013711469
-1.0695173	la commission .	-0.013711469
-0.26013178	domaine aussi .	-0.013711469
-0.26013178	réelle attention .	-0.013711469
-0.27109057	son pays .	-0.15442182
-0.23510271	ou non .	-0.013711469
-0.23510271	de demain .	-0.013711469
-0.23510271	que possibles .	-0.013711469
-0.26013178	excellent travail .	-0.013711469
-0.23510271	hélas malade .	-0.013711469
-0.24131584	de période .	-0.013711469
-0.24131584	cette période .	-0.15442182
-0.23510271	été apportés .	-0.013711469
-0.23510271	rapports antérieurs .	-0.013711469
-0.27587223	six ans .	-0.013711469
-0.23510271	cette question .	-0.013711469
-0.23510271	fonds structurels .	-0.013711469
-0.26013178	soient conclus .	-0.013711469
-0.23510271	les jeunes .	-0.013711469
-0.23510271	culture japonaise .	-0.013711469
-0.23510271	d' amis .	-0.013711469
-0.23510271	vous abonner .	-0.013711469
-0.26880592	bon fonctionnement .	-0.013711469
-0.26013178	aide nouvelle .	-0.013711469
-0.26013178	une famille .	-0.013711469
-0.23510271	protection sociale .	-0.013711469
-0.23510271	est content .	-0.013711469
-0.2776569	États membres .	-0.013711469
-0.5237857	Union Européenne .	-0.013711469
-0.26880592	présent protocole .	-0.3503433
-0.64273894	présent traité .	-0.15442182
-0.23510271	constitutionnelles respectives .	-0.013711469
-0.27320892	cette date .	-0.013711469
-0.5398386	la constitution .	-0.013711469
-0.43991077	du conseil .	-0.15442182
-0.5237857	parlement européen .	-0.013711469
-0.33222768	l' adhésion .	-0.475282
-0.80021596	d' adhésion .	-0.013711469
-0.23510271	l' union .	-0.013711469
-0.23510271	qui suivront .	-0.013711469
-0.26013178	est accordée .	-0.013711469
-0.23510271	des contrats .	-0.013711469
-0.26013178	un comité .	-0.013711469
-0.5398386	règlement intérieur .	-0.013711469
-0.23510271	à ceux-ci .	-0.013711469
-0.23510271	perspectives financières .	-0.013711469
-0.23510271	année correspondante .	-0.013711469
-0.23510271	premier décaissement .	-0.013711469
-0.23510271	Schengen temporaires .	-0.013711469
-0.23510271	aux frontières .	-0.013711469
-0.23510271	en priorité .	-0.013711469
-0.23510271	est rempli .	-0.013711469
-0.26013178	ses engagements .	-0.013711469
-0.23510271	été remplis .	-0.013711469
-0.26880592	chaque mesure .	-0.013711469
-0.23510271	est corrigé .	-0.013711469
-0.23510271	manquements persistent .	-0.013711469
-0.26880592	au tribunal .	-0.013711469
-0.23510271	le sort .	-0.013711469
-0.23510271	est demandée .	-0.013711469
-0.5237857	langues actuelles .	-0.013711469
-0.23510271	telle publication .	-0.013711469
-0.23510271	applique provisoirement .	-0.013711469
-0.23510271	membre producteur .	-0.013711469
-0.23510271	sont établies .	-0.013711469
-0.23510271	ainsi établie .	-0.013711469
-0.26013178	de stocks .	-0.013711469
-1.3377283	__DIGIT__ . Toute	-0.013711469
-0.5654353	<s> Toute utilisation	-0.013711469
-0.2326247	Toute utilisation de	-0.013711469
-0.26087806	contenu ou de	-0.013711469
-0.26087806	arbitraire ou de	-0.013711469
-0.42576748	le droit de	-0.013711469
-0.27480915	tout état de	-0.013711469
-0.2661286	maximale garantie de	-0.013711469
-0.2326247	l' exactitude de	-0.013711469
-0.2793903	entraînent pas de	-0.013711469
-0.72968185	, et de	-0.013711469
-0.25077	marier et de	-0.013711469
-0.72968185	Bulgarie et de	-0.013711469
-0.25077	institutions et de	-0.013711469
-0.25077	trésorerie et de	-0.013711469
-0.2326247	aucune forme de	-0.013711469
-0.2326247	vous venez de	-0.013711469
-0.2326247	L' importance de	-0.013711469
-0.2326247	caractère international de	-0.013711469
-0.2326247	ces modes de	-0.013711469
-0.25750718	le transport de	-0.013711469
-0.8209122	la commission de	-0.013711469
-0.2326247	m' accommoder de	-0.013711469
-0.2326247	des régions de	-0.013711469
-0.19833219	, lors de	-0.013711469
-0.19833219	fois lors de	-0.013711469
-0.25750718	du vote de	-0.013711469
-0.2326247	au nom de	-0.013711469
-0.2326247	le manque de	-0.013711469
-0.51898146	lignes directrices de	-0.013711469
-0.2326247	l' idée de	-0.013711469
-0.2326247	la stratégie de	-0.013711469
-0.27631155	une période de	-0.013711469
-0.26885107	tenir compte de	-0.013711469
-0.51898146	la révision de	-0.013711469
-0.2326247	en milieu de	-0.013711469
-0.51898146	des questions de	-0.013711469
-0.2326247	- parcours de	-0.013711469
-0.2326247	seconde phase de	-0.013711469
-0.51898146	de programmation de	-0.013711469
-0.15595214	d' instruments de	-0.013711469
-0.3484222	les instruments de	-0.013711469
-0.15595214	Les instruments de	-0.013711469
-0.51898146	les fonds de	-0.013711469
-0.3484222	et modalités de	-0.013711469
-0.15595214	les modalités de	-0.013711469
-0.15595214	aux modalités de	-0.013711469
-0.2326247	une série de	-0.013711469
-0.25750718	fonctions publiques de	-0.013711469
-0.53485453	au fonctionnement de	-0.013711469
-0.25750718	le moins de	-0.013711469
-0.7171927	Ces mesures de	-0.013711469
-0.2326247	À partir de	-0.013711469
-0.2326247	autres moyens de	-0.013711469
-0.41636485	la République de	-0.013711469
-0.19833219	La République de	-0.013711469
-0.27492458	deviennent membres de	-0.013711469
-0.25750718	d' admission de	-0.013711469
-0.27315107	Les dispositions de	-0.013711469
-0.25750718	aux règles de	-0.013711469
-0.2326247	du gouvernement de	-0.013711469
-0.8651583	la date de	-0.013711469
-0.51898146	Le texte de	-0.013711469
-0.2326247	article IV-438 de	-0.013711469
-0.1611376	des projets de	-0.013711469
-0.1611376	les projets de	-0.013711469
