\data\
ngram 1=6009
ngram 2=17011
ngram 3=22490
ngram 4=22764
ngram 5=22059

\1-grams:
-4.281902	<unk>	0
0	<s>	-0.63821
-3.4214184	</s>	0
-2.5545273	«	-0.095858045
-4.035661	Alors	-0.1172792
-2.095768	que	-0.39123112
-1.9767953	la	-0.1937919
-2.4947615	plus	-0.18884496
-3.693375	grande	-0.21602291
-3.3587885	partie	-0.16602267
-1.314041	de	-0.30327266
-4.035661	transition	-0.06397125
-4.035661	numérique	-0.06397125
-2.1499364	est	-0.2031581
-3.070973	sans	-0.07412219
-4.1526756	précédent	-0.06397125
-2.613244	aux	-0.118461296
-3.693375	États-Unis	-0.09362752
-1.2899911	,	-0.50447905
-4.1526756	sereine	-0.06397125
-1.960176	du	-0.12575966
-3.3040626	pouvoir	-0.15803096
-3.1021266	elle	-0.14997983
-2.545469	ne	-0.16052482
-2.2648404	l'	-0.15986446
-2.5279005	pas	-0.12075036
-2.2464442	»	-0.53622735
-2.047613	a	-0.23600528
-4.035661	publié	-0.06397125
-4.1526756	Kori	-0.06397125
-4.1526756	Schulman	-0.06397125
-4.035661	assistante	-0.06397125
-4.035661	spéciale	-0.06397125
-2.0281153	d'	-0.21551049
-4.035661	Obama	-0.06397125
-2.0447733	dans	-0.7462433
-2.2160149	un	-0.12702265
-4.1526756	blog	-0.06397125
-2.73316	ce	-0.17985266
-4.1526756	lundi	-0.06397125
-1.3312123	.	-2.1662648
-4.1526756	Pour	-0.06397125
-3.4946272	ceux	-0.2813942
-2.2695637	qui	-0.21447301
-4.1526756	suivent	-0.06397125
-1.8894016	des	-0.104930475
-4.035661	réseaux	-0.17805827
-4.035661	sociaux	-0.06397125
-2.2889884	sur	-0.49889126
-1.9915648	le	-0.16647267
-4.1526756	Capitole	-0.06397125
-3.3040626	cela	-0.079687975
-3.4946272	va	-0.09877326
-2.9418926	être	-0.0707121
-3.1720643	peu	-0.12031761
-4.1526756	différent	-0.06397125
-4.1526756	Mais	-0.06397125
-1.8933778	en	-0.22758017
-4.035661	rupture	-0.06397125
-2.408259	avec	-0.31743583
-2.7471952	sa	-0.12496532
-4.1526756	rhétorique	-0.06397125
-4.1526756	précédente	-0.06397125
-3.5827298	concernant	-0.15271714
-3.8422177	réduction	-0.1172792
-4.1526756	immigration	-0.06397125
-4.035661	candidat	-0.06397125
-4.035661	parti	-0.06397125
-4.035661	républicain	-0.17805827
-4.1526756	annonçé	-0.06397125
-2.5732312	qu'	-0.42598784
-3.8422177	tant	-0.06397125
-3.3587885	président	-0.155809
-2.8606553	il	-0.24146958
-4.1526756	autoriserait	-0.06397125
-3.4946272	nombre	-0.1962502
-3.8422177	considérable	-0.06397125
-4.1526756	immigrants	-0.06397125
-4.1526756	légaux	-0.06397125
-4.1526756	fondé	-0.06397125
-3.8422177	principe	-0.06397125
-4.035661	mérite	-0.06397125
-3.2554674	je	-0.08451609
-4.035661	suis	-0.06397125
-4.1526756	désolé	-0.06397125
-3.3040626	vous	-0.06397125
-3.8422177	mettre	-0.06397125
-4.1526756	pression	-0.06397125
-3.3587885	mais	-0.11146494
-4.1526756	avenir	-0.06397125
-4.035661	république	-0.06397125
-4.1526756	repose	-0.06397125
-4.1526756	vos	-0.06397125
-4.1526756	épaules	-0.06397125
-3.3587885	dit	-0.12672544
-3.5827298	-il	-0.08980782
-1.7922724	à	-0.30680767
-4.1526756	foule	-0.06397125
-4.1526756	rassemblée	-0.06397125
-3.8422177	terrain	-0.13660894
-4.1526756	sport	-0.06397125
-4.1526756	Université	-0.06397125
-4.035661	Caroline	-0.17805827
-4.1526756	Nord	-0.06397125
-4.035661	Les	-0.06397125
-3.693375	nouvelles	-0.06397125
-3.5827298	dépenses	-0.06397125
-2.5732312	sont	-0.09973743
-4.1526756	alimentées	-0.06397125
-2.2375305	par	-0.3249354
-3.4946272	compte	-0.06397125
-3.8422177	banque	-0.06397125
-4.1526756	imposant	-0.06397125
-3.693375	Clinton	-0.06397125
-4.1526756	Ce	-0.06397125
-1.6898421	et	-0.34224766
-3.070973	fait	-0.08451609
-4.1526756	réellement	-0.06397125
-3.693375	c'	-0.3418519
-4.035661	incroyable	-0.13660894
-2.37675	__DIGIT__	-0.33481133
-3.8422177	dollars	-0.09362752
-3.5827298	personne	-0.13660894
-4.035661	maximum	-0.06397125
-4.1526756	autorisé	-0.06397125
-4.1526756	Début	-0.06397125
-3.5827298	octobre	-0.19131137
-4.035661	équipe	-0.06397125
-2.7063816	avait	-0.13962047
-3.4946272	utilisé	-0.09362752
-3.3040626	même	-0.075264886
-3.5827298	endroit	-0.06397125
-2.1186402	pour	-0.26681116
-3.8422177	réunion	-0.06397125
-2.02002	les	-0.1276471
-4.035661	lobbyistes	-0.06397125
-3.8422177	secteur	-0.06397125
-4.1526756	technologies	-0.06397125
-4.1526756	invitant	-0.06397125
-4.1526756	représentants	-0.06397125
-4.035661	Uber	-0.06397125
-4.1526756	Motion	-0.06397125
-4.1526756	Picture	-0.06397125
-4.035661	Association	-0.06397125
-3.2554674	of	-0.06397125
-4.1526756	America	-0.06397125
-4.1526756	Consumer	-0.06397125
-4.1526756	Technology	-0.06397125
-3.3587885	autres	-0.07241379
-4.035661	groupes	-0.06397125
-4.1526756	Au	-0.06397125
-3.8422177	départ	-0.06397125
-2.5193756	était	-0.11496474
-4.1526756	prévue	-0.06397125
-2.255545	au	-0.18127042
-4.1526756	Metropolitan	-0.06397125
-4.1526756	Club	-0.06397125
-3.8422177	privé	-0.06397125
-4.035661	Washington	-0.06397125
-4.1526756	H	-0.06397125
-4.035661	Street	-0.17805827
-3.4946272	quelques	-0.06397125
-4.1526756	rues	-0.06397125
-3.693375	loin	-0.10608127
-4.1526756	Peut-être	-0.06397125
-4.035661	code	-0.06397125
-4.1526756	vestimentaire	-0.06397125
-3.8422177	trop	-0.06397125
-4.1526756	strict	-0.06397125
-4.1526756	Plutôt	-0.06397125
-4.1526756	enseigner	-0.06397125
-4.035661	méthode	-0.06397125
-3.8422177	scientifique	-0.13660894
-3.8422177	unité	-0.06397125
-4.1526756	séparée	-0.06397125
-4.035661	exemple	-0.06397125
-3.693375	étudiants	-0.10608127
-4.1526756	apprennent	-0.06397125
-4.1526756	contenu	-0.06397125
-4.1526756	appliquant	-0.06397125
-4.1526756	Ils	-0.06397125
-2.3588867	ont	-0.2194017
-3.693375	moyenne	-0.09877326
-3.8422177	nationale	-0.06397125
-4.1526756	CM1	-0.06397125
-3.693375	au-dessus	-0.24494186
-4.035661	4ème	-0.06397125
-4.1526756	En	-0.06397122
-4.1526756	comparaison	-0.06397125
-4.035661	construction	-0.06397125
-4.1526756	station	-0.06397125
-4.035661	métro	-0.06397125
-4.1526756	NoMa	-0.06397125
-3.5827298	ouvert	-0.13660894
-4.1526756	coûté	-0.06397125
-3.693375	millions	-0.14660637
-4.035661	Nous	-0.1172792
-4.035661	sommes	-0.06397125
-4.1526756	confrontés	-0.06397125
-2.1995382	une	-0.12805855
-3.693375	forte	-0.06397125
-4.035661	concurrence	-0.06397125
-3.1720643	nous	-0.11456699
-4.035661	pensons	-0.06397125
-4.035661	transports	-0.06397125
-4.035661	pourront	-0.06397125
-3.693375	aider	-0.1172792
-3.5827298	déclaré	-0.06397122
-4.035661	Joe	-0.06397125
-4.1526756	Sternlieb	-0.06397125
-4.1526756	centre	-0.06397125
-3.693375	affaires	-0.06397125
-4.1526756	Georgetown	-0.06397125
-4.035661	L'	-0.06397125
-3.5827298	étude	-0.1172792
-4.1526756	faisabilité	-0.06397125
-3.8422177	estime	-0.06397125
-4.1526756	faudrait	-0.06397125
-3.3587885	environ	-0.21602291
-3.5827298	quatre	-0.06397125
-4.035661	minutes	-0.06397125
-4.1526756	passagers	-0.06397125
-4.035661	traverser	-0.06397125
-4.1526756	Potomac	-0.06397125
-4.1526756	gondole	-0.06397125
-4.1526756	Un	-0.06397125
-4.035661	témoin	-0.06397125
-3.8422177	police	-0.08102375
-4.1526756	victime	-0.06397125
-4.1526756	attaqué	-0.06397125
-4.1526756	suspect	-0.06397125
-3.693375	avril	-0.10608127
-4.035661	On	-0.08451609
-3.1720643	peut	-0.11102256
-3.8422177	établir	-0.13660894
-4.035661	parallèles	-0.06397125
-2.8083646	entre	-0.22485417
-4.1526756	jeux	-0.06397125
-3.693375	nos	-0.06397125
-4.1526756	vies	-0.06397125
-3.4214184	tous	-0.25316542
-3.4214184	jours	-0.17643645
-4.1526756	Cette	-0.06397125
-4.1526756	proportion	-0.06397125
-4.035661	progressé	-0.06397125
-4.1526756	régulièrement	-0.06397125
-3.693375	cours	-0.22758897
-3.3040626	années	-0.116573475
-2.7922459	après	-0.25538456
-4.035661	bureau	-0.06397125
-4.1526756	recensement	-0.06397125
-3.2117667	seulement	-0.08102375
-4.1526756	%	-0.06397128
-3.693375	votes	-0.06397125
-2.9418926	avaient	-0.15997234
-3.0146613	été	-0.0755919
-4.1526756	exprimés	-0.06397125
-3.0146613	avant	-0.23069295
-3.1720643	jour	-0.135822
-3.693375	élection	-0.06397125
-4.1526756	probable	-0.06397125
-3.8422177	progresse	-0.06397125
-3.693375	nouveau	-0.06397125
-2.8795848	cette	-0.15133823
-3.3587885	année	-0.15190046
-4.1526756	Aujourd'hui	-0.06397125
-4.1526756	Khanzir	-0.06397125
-3.5827298	peut-être	-0.06397125
-4.1526756	porc	-0.06397125
-4.1526756	solitaire	-0.06397125
-2.761699	n'	-0.3231429
-3.3040626	toujours	-0.079687975
-3.4946272	seul	-0.06397125
-4.035661	avons	-0.06397125
-3.5827298	demandé	-0.13660894
-3.2117667	pays	-0.06397122
-4.1526756	remplir	-0.06397125
-4.1526756	zoo	-0.06397125
-4.035661	différentes	-0.06397125
-4.035661	espèces	-0.06397125
-3.8422177	animaux	-0.06397125
-3.1720643	y	-0.19288538
-4.035661	compris	-0.06397125
-3.5827298	indiqué	-0.21602291
-4.1526756	Saqib	-0.06397125
-3.693375	M.	-0.06397125
-4.1526756	Panvalkar	-0.06397125
-3.4214184	moment	-0.06397125
-3.5827298	donné	-0.06397125
-4.1526756	senti	-0.06397125
-3.135689	ils	-0.1683202
-3.8422177	devraient	-0.06397125
-3.8422177	quitter	-0.13660894
-4.1526756	immeuble	-0.06397125
-4.1526756	Elle	-0.06397125
-3.1720643	aussi	-0.07593841
-4.1526756	accusée	-0.06397125
-4.035661	tentative	-0.06397125
-4.035661	meurtre	-0.06397125
-3.5827298	fille	-0.06397125
-2.989026	deux	-0.08451609
-3.3587885	ans	-0.17211995
-4.035661	La	-0.06397125
-4.035661	tué	-0.06397125
-4.1526756	Andre	-0.06397125
-4.1526756	Price	-0.06397125
-3.693375	III	-0.10608127
-3.0146613	lui	-0.13196589
-4.1526756	enfonçant	-0.06397125
-4.1526756	visage	-0.06397125
-4.1526756	matelas	-0.06397125
-4.1526756	pneumatique	-0.06397125
-3.8422177	situé	-0.13660894
-4.1526756	salle	-0.06397125
-4.035661	séjour	-0.06397125
-4.1526756	tenter	-0.06397125
-3.2554674	faire	-0.08980782
-3.8422177	chose	-0.06397125
-4.1526756	Angel	-0.06397125
-4.035661	De	-0.08685999
-3.2117667	toute	-0.13562548
-3.8422177	façon	-0.06397125
-4.1526756	vais	-0.06397125
-4.1526756	prison	-0.06397125
-4.035661	j'	-0.06397125
-4.1526756	espère	-0.06397125
-3.4946272	ça	-0.14509766
-4.1526756	valait	-0.06397125
-4.035661	peine	-0.06397125
-4.1526756	D'	-0.06397125
-4.035661	abord	-0.06397125
-4.035661	femmes	-0.06397125
-4.1526756	Yazidi	-0.06397125
-4.035661	commença	-0.17805827
-4.1526756	pleurer	-0.06397125
-4.035661	puis	-0.06397125
-2.7767038	ses	-0.08155418
-4.1526756	amies	-0.06397125
-4.1526756	Osborne	-0.06397125
-2.613244	s'	-0.2187083
-4.1526756	inscrit	-0.06397125
-3.8422177	agence	-0.13660894
-4.1526756	conférenciers	-0.06397125
-4.1526756	virer	-0.06397125
-4.035661	juillet	-0.15271714
-4.1526756	Michael	-0.06397125
-4.1526756	Fallon	-0.06397125
-4.1526756	annoncé	-0.06397125
-3.4946272	date	-0.11102256
-4.1526756	commencement	-0.06397125
-4.035661	travaux	-0.06397125
-4.1526756	aiderait	-0.06397125
-3.8422177	obtenir	-0.06397125
-3.5827298	nouveaux	-0.06397125
-3.5827298	investissements	-0.202213
-4.035661	garantir	-0.06397125
-4.1526756	centaines	-0.06397125
-4.1526756	emplois	-0.06397125
-4.035661	qualifiés	-0.06397125
-3.041905	jusqu'	-0.3962096
-4.1526756	promesse	-0.06397125
-4.035661	commandes	-0.06397125
-4.1526756	Marine	-0.06397125
-4.1526756	Royale	-0.06397125
-3.2554674	britannique	-0.12142775
-4.1526756	destinées	-0.06397125
-3.693375	protéger	-0.1172792
-4.035661	industrie	-0.06397125
-4.1526756	navale	-0.06397125
-4.1526756	Clyde	-0.06397125
-4.035661	faite	-0.06397125
-4.035661	référendum	-0.06397125
-3.8422177	indépendance	-0.1172792
-4.1526756	Écosse	-0.06397125
-4.1526756	C'	-0.06397125
-4.1526756	particulièrement	-0.06397125
-3.8422177	évident	-0.06397125
-3.041905	quand	-0.1824364
-4.035661	prénom	-0.06397125
-4.1526756	célébrité	-0.06397125
-4.035661	rare	-0.06397125
-3.693375	origine	-0.06397125
-4.035661	Et	-0.06397125
-4.035661	sommet	-0.17805827
-4.1526756	popularité	-0.06397125
-2.613244	(	-0.1236625
-4.035661	celle	-0.13660894
-4.1526756	Knightley	-0.06397125
-2.6690762	)	-0.42420292
-4.035661	prénoms	-0.06397125
-4.1526756	communs	-0.06397125
-3.2117667	trois	-0.12142775
-3.2554674	fois	-0.13595307
-4.035661	bébés	-0.06397125
-4.1526756	nommés	-0.06397125
-4.1526756	Keira	-0.06397125
-4.1526756	Kiera	-0.06397125
-3.693375	compagnie	-0.10608127
-4.1526756	sud-coréenne	-0.06397125
-4.1526756	pensé	-0.06397125
-4.1526756	défaut	-0.06397125
-4.1526756	venait	-0.06397125
-4.035661	batterie	-0.06397125
-4.035661	remplacé	-0.06397125
-2.6811588	son	-0.07993812
-3.8422177	propre	-0.06397125
-3.8422177	matériel	-0.06397125
-4.1526756	sous-traitant	-0.06397125
-4.1526756	Plusieurs	-0.06397125
-4.035661	analystes	-0.06397125
-4.1526756	suggéré	-0.06397125
-4.1526756	Huawei	-0.06397125
-3.5827298	mieux	-0.06397125
-4.1526756	placé	-0.06397125
-4.1526756	profiter	-0.06397125
-4.1526756	recul	-0.06397125
-4.1526756	Samsung	-0.06397125
-4.035661	téléphones	-0.06397125
-4.1526756	Mate	-0.06397125
-4.1526756	disposent	-0.06397125
-4.1526756	interface	-0.06397125
-4.1526756	intelligente	-0.06397125
-3.4214184	telles	-0.24284402
-4.1526756	Google	-0.06397125
-4.1526756	Assistant	-0.06397125
-2.825105	ou	-0.12371001
-4.1526756	Siri	-0.06397125
-4.1526756	Apple	-0.06397125
-4.1526756	expert	-0.06397125
-4.035661	averti	-0.17805827
-3.4214184	accès	-0.16240233
-3.693375	Internet	-0.06397125
-4.1526756	vol	-0.06397125
-3.4214184	souvent	-0.06397125
-4.035661	fiable	-0.06397125
-4.1526756	influençait	-0.06397125
-4.1526756	propablement	-0.06397125
-4.1526756	voyageurs	-0.06397125
-3.3040626	lors	-0.29609442
-4.035661	choix	-0.13660894
-4.1526756	aérienne	-0.06397125
-3.693375	semble	-0.06397125
-4.1526756	BA	-0.06397125
-3.8422177	and	-0.06397125
-4.1526756	IAG	-0.06397125
-4.035661	trouvé	-0.17805827
-4.035661	solution	-0.06397125
-3.2554674	peuvent	-0.08260768
-4.1526756	proposer	-0.06397125
-3.5827298	quelque	-0.15271714
-4.1526756	vaguement	-0.06397125
-4.035661	BBC	-0.06397125
-4.035661	décision	-0.06397125
-4.1526756	facturer	-0.06397125
-3.3587885	serait	-0.06397125
-4.1526756	ressort	-0.06397125
-3.3587885	chaque	-0.06397125
-4.035661	plupart	-0.13660894
-3.693375	gens	-0.06397125
-4.1526756	trouveraient	-0.06397125
-4.1526756	Wifi	-0.06397125
-4.1526756	aéroport	-0.06397125
-4.1526756	utile	-0.06397125
-4.1526756	possibilité	-0.06397125
-3.693375	envoyer	-0.06397125
-4.1526756	mails	-0.06397125
-3.1720643	depuis	-0.155809
-3.8422177	avion	-0.06397125
-3.693375	parfois	-0.06397125
-2.582894	comme	-0.16748331
-3.8422177	super	-0.06397125
-4.035661	Le	-0.06721988
-3.5827298	programme	-0.06397125
-4.1526756	gagne	-0.06397125
-4.035661	argent	-0.06397125
-3.693375	grâce	-0.1172792
-4.035661	parrainage	-0.06397125
-4.1526756	publicité	-0.06397125
-3.4946272	formation	-0.06397125
-3.8422177	semaines	-0.1172792
-4.1526756	certifiée	-0.06397125
-4.1526756	espionnage	-0.06397125
-4.035661	anglaise	-0.06397125
-4.1526756	GCHQ	-0.06397125
-4.035661	experts	-0.06397125
-3.693375	sécurité	-0.09362752
-3.8422177	remis	-0.13660894
-3.8422177	question	-0.06397125
-3.693375	besoin	-0.13660894
-3.1021266	ainsi	-0.19182172
-3.693375	objectif	-0.1172792
-4.1526756	Auparavant	-0.06397125
-4.1526756	jets	-0.06397125
-4.1526756	vus	-0.06397125
-4.1526756	bloggeurs	-0.06397125
-4.1526756	Naturellement	-0.06397125
-3.5827298	Chine	-0.12967384
-4.1526756	présentera	-0.06397125
-4.035661	nombreux	-0.06397125
-4.035661	équipements	-0.06397125
-4.035661	militaires	-0.06397125
-3.693375	semaine	-0.26122126
-4.1526756	hélicoptères	-0.06397125
-3.693375	combat	-0.06397125
-4.1526756	hydravions	-0.06397125
-3.8422177	voie	-0.06397125
-3.5827298	devenir	-0.09877326
-3.4946272	grand	-0.14276604
-3.8422177	marché	-0.09877326
-4.1526756	aéronautique	-0.06397125
-4.1526756	prochaine	-0.06397125
-4.035661	décennie	-0.06397125
-4.1526756	salon	-0.06397125
-4.1526756	opportunité	-0.06397125
-3.693375	Pékin	-0.10608127
-4.1526756	manifester	-0.06397125
-4.035661	ambitions	-0.06397125
-3.8422177	domaine	-0.06397125
-4.1526756	aviation	-0.06397125
-4.035661	civile	-0.06397125
-3.693375	militaire	-0.24494186
-4.1526756	Malheureusement	-0.06397125
-4.1526756	minorité	-0.06397125
-4.1526756	gâche	-0.06397125
-3.070973	tout	-0.13812003
-3.693375	majorité	-0.06397125
-3.8422177	écrit	-0.06397125
-4.1526756	Jesse	-0.06397125
-4.1526756	LaBrocca	-0.06397125
-4.035661	fondateur	-0.06397125
-4.1526756	Hack	-0.06397125
-4.1526756	Forums	-0.06397125
-3.8422177	message	-0.06397125
-4.1526756	justifiant	-0.06397125
-4.035661	fermeture	-0.06397125
-4.035661	section	-0.17805827
-3.8422177	événements	-0.06397125
-3.8422177	récents	-0.06397125
-3.4214184	probablement	-0.09362752
-4.1526756	attaques	-0.06397125
-4.1526756	temporairement	-0.06397125
-4.035661	causé	-0.13660894
-4.1526756	suppression	-0.06397125
-3.8422177	sites	-0.06397125
-4.035661	populaires	-0.06397125
-3.8422177	tels	-0.3270773
-4.1526756	Reddit	-0.06397125
-3.8422177	Twitter	-0.06397125
-4.035661	Spotify	-0.06397125
-3.041905	bien	-0.08562476
-4.035661	analyse	-0.06397125
-3.8422177	révélé	-0.10608127
-3.8422177	quantité	-0.06397125
-3.693375	historique	-0.1172792
-3.693375	données	-0.09362752
-4.1526756	employée	-0.06397125
-4.1526756	causer	-0.06397125
-4.1526756	bouleversement	-0.06397125
-4.1526756	Une	-0.06397125
-4.1526756	plans	-0.06397125
-3.693375	nationaux	-0.06397125
-4.1526756	visant	-0.06397125
-3.8422177	réduire	-0.24494186
-4.035661	émissions	-0.06397125
-4.035661	carbone	-0.06397125
-4.1526756	conduite	-0.06397125
-4.1526756	ONU	-0.06397125
-4.1526756	montre	-0.06397125
-3.2554674	avoir	-0.073633365
-4.035661	niveaux	-0.06397125
-4.1526756	requis	-0.06397125
-4.1526756	contenir	-0.06397125
-4.035661	augmentation	-0.06397125
-4.035661	températures	-0.06397125
-3.135689	sous	-0.4640188
-4.1526756	seuil	-0.06397125
-4.1526756	°	-0.06397125
-4.1526756	C	-0.06397125
-4.035661	scientifiques	-0.06397125
-4.035661	disent	-0.17805827
-4.035661	technologie	-0.06397125
-4.1526756	extraction	-0.06397125
-3.693375	air	-0.06397125
-4.1526756	ambiant	-0.06397125
-3.693375	maintenant	-0.06397125
-3.693375	nécessaire	-0.06397125
-4.1526756	atteindre	-0.06397125
-4.035661	objectifs	-0.06397125
-3.8422177	Paris	-0.09877326
-4.035661	allons	-0.06397125
-3.8422177	bonne	-0.06397125
-3.693375	direction	-0.09877326
-2.9418926	:	-0.2459434
-4.1526756	Accord	-0.06397125
-4.1526756	ralentir	-0.06397125
-3.693375	changement	-0.06397125
-4.035661	climatique	-0.06397125
-4.1526756	Amendement	-0.06397125
-3.8422177	récent	-0.13660894
-4.1526756	Kigali	-0.06397125
-3.0146613	également	-0.06397125
-4.1526756	HFC	-0.06397125
-4.1526756	Erik	-0.06397125
-4.1526756	Solheim	-0.06397125
-3.693375	responsable	-0.10608127
-4.1526756	Environnement	-0.06397125
-3.8422177	milliards	-0.10608127
-4.1526756	fantastique	-0.06397125
-3.4946272	aient	-0.06397125
-3.8422177	obtenu	-0.06397125
-3.1021266	leurs	-0.06397125
-4.035661	contributions	-0.06397125
-4.1526756	degrés	-0.06397125
-4.1526756	Ca	-0.06397125
-3.693375	mis	-0.202213
-4.1526756	œuvre	-0.06397125
-4.035661	large	-0.06397125
-4.1526756	côte	-0.06397125
-3.8422177	Mexique	-0.06397125
-3.5827298	juin	-0.10608127
-4.1526756	Cela	-0.06397125
-3.693375	imposer	-0.06397125
-4.1526756	limitations	-0.06397125
-4.035661	nature	-0.06397125
-3.8422177	changements	-0.06397125
-4.1526756	environnementaux	-0.06397125
-4.1526756	frappé	-0.06397125
-3.8422177	Terre	-0.06397125
-4.1526756	extinction	-0.06397125
-3.8422177	nombreuses	-0.09362752
-3.8422177	uniquement	-0.06397125
-4.1526756	dinosaures	-0.06397125
-3.693375	signe	-0.1172792
-4.1526756	indicateur	-0.06397125
-4.1526756	météorique	-0.06397125
-3.5827298	sera	-0.06397125
-4.1526756	hauts	-0.06397125
-4.1526756	iridium	-0.06397125
-3.8422177	plantes	-0.06397125
-3.3040626	dont	-0.17899662
-3.8422177	graines	-0.13660894
-4.035661	provenaient	-0.06397125
-2.989026	étaient	-0.073633365
-3.070973	encore	-0.09630325
-4.1526756	vivantes	-0.06397125
-4.035661	provenant	-0.06397125
-3.5827298	espace	-0.09877326
-3.8422177	résultats	-0.06397125
-3.5827298	expérience	-0.06397125
-4.1526756	étayent	-0.06397125
-4.1526756	roquettes	-0.06397125
-4.1526756	envoyées	-0.06397125
-4.1526756	conservées	-0.06397125
-2.8795848	pendant	-0.22464064
-3.1720643	mois	-0.09158616
-4.1526756	Station	-0.06397125
-4.1526756	Spatiale	-0.06397125
-4.1526756	Internationale	-0.06397125
-3.5827298	effet	-0.06397125
-4.035661	néfaste	-0.06397125
-2.7922459	leur	-0.090218626
-4.1526756	capacité	-0.06397125
-4.1526756	germer	-0.06397125
-4.1526756	pousser	-0.06397125
-4.1526756	RHS	-0.06397125
-4.1526756	compilé	-0.06397125
-3.693375	commentaires	-0.06397125
-4.1526756	instituteurs	-0.06397125
-4.1526756	écoliers	-0.06397125
-3.4214184	ayant	-0.15803096
-3.4946272	prit	-0.09877326
-3.3587885	part	-0.1172792
-3.8422177	explique	-0.06397125
-4.035661	existe	-0.06397125
-4.1526756	beurk	-0.06397125
-3.8422177	idée	-0.06397125
-4.1526756	acheter	-0.06397125
-4.035661	porter	-0.06397125
-3.8422177	morceaux	-0.06397125
-4.035661	corps	-0.06397125
-3.3587885	autre	-0.08102375
-4.1526756	cheveux	-0.06397125
-3.8422177	généralement	-0.06397125
-4.035661	placés	-0.06397125
-4.1526756	bain	-0.06397125
-4.1526756	chimique	-0.06397125
-3.4946272	afin	-0.15803096
-3.693375	complètement	-0.06397125
-3.693375	retirer	-0.06397125
-4.1526756	cuticule	-0.06397125
-4.035661	Tarlo	-0.17805827
-4.035661	A	-0.06397125
-4.035661	travers	-0.06397125
-3.3587885	histoire	-0.19057108
-4.035661	international	-0.06397125
-4.1526756	cheveu	-0.06397125
-3.4214184	eu	-0.1246365
-4.1526756	connotation	-0.06397125
-3.3587885	politique	-0.06397125
-3.8422177	déclare	-0.06397125
-3.8422177	soir	-0.06397125
-4.035661	punir	-0.17805827
-4.035661	conducteurs	-0.06397125
-3.8422177	utilisent	-0.06397125
-4.1526756	feux	-0.06397125
-3.693375	route	-0.1172792
-4.035661	indique	-0.13660894
-4.035661	routière	-0.06397125
-4.1526756	Shenzhen	-0.06397125
-4.1526756	opté	-0.06397125
-4.1526756	pénalités	-0.06397125
-4.1526756	inhabituelles	-0.06397125
-3.3587885	passé	-0.08685999
-4.1526756	Qui	-0.06397125
-4.1526756	-ils	-0.06397125
-3.1720643	?	-0.5824242
-3.8422177	débat	-0.06397125
-3.8422177	étant	-0.06397125
-3.4946272	côté	-0.06397125
-3.8422177	démocrates	-0.06397125
-4.1526756	centrée	-0.06397125
-4.1526756	identité	-0.06397125
-3.8422177	masculine	-0.06397125
-4.1526756	blanche	-0.06397125
-4.035661	Je	-0.079687975
-3.2554674	ai	-0.06397125
-4.035661	coup	-0.06397125
-3.041905	si	-0.11405226
-3.693375	comprenait	-0.06397125
-3.5827298	pourquoi	-0.06397125
-3.3587885	pourraient	-0.08980782
-4.035661	voter	-0.06397125
-3.4214184	Trump	-0.22244833
-4.1526756	Tout	-0.06397125
-3.5827298	monde	-0.076697454
-4.1526756	élever	-0.06397125
-4.1526756	dessus	-0.06397125
-4.1526756	Heureusement	-0.06397125
-4.1526756	quelqu'un	-0.06397125
-3.135689	chez	-0.21531673
-4.1526756	Sony	-0.06397125
-3.5827298	Australie	-0.28843087
-4.1526756	Tiens	-0.06397125
-4.1526756	propos	-0.06397125
-4.1526756	avez	-0.06397125
-3.8422177	vu	-0.06397125
-4.1526756	ca	-0.06397125
-4.1526756	Pall	-0.06397125
-4.035661	Seagal	-0.13660894
-4.035661	gros	-0.06397125
-4.035661	titres	-0.06397125
-3.8422177	décrit	-0.13660894
-3.693375	intervention	-0.09877326
-3.8422177	Russie	-0.06397125
-4.1526756	Crimée	-0.06397125
-4.1526756	annexé	-0.06397125
-3.0146613	très	-0.06397125
-4.1526756	raisonnable	-0.06397125
-4.1526756	Guitariste	-0.06397125
-4.1526756	passionné	-0.06397125
-4.035661	participé	-0.17805827
-4.035661	concert	-0.06397125
-4.035661	grand-mère	-0.06397125
-4.1526756	Vladivostok	-0.06397125
-4.035661	extrême	-0.06397125
-3.693375	Est	-0.06397125
-4.1526756	fréquents	-0.06397125
-4.1526756	voyages	-0.06397125
-3.4214184	dernières	-0.21602291
-4.1526756	visité	-0.06397125
-4.1526756	Kamchatka	-0.06397125
-4.1526756	Sakhalin	-0.06397125
-3.8422177	septembre	-0.10608127
-4.1526756	Plus	-0.06397125
-4.035661	tôt	-0.06397125
-4.1526756	nationalité	-0.06397125
-4.1526756	serbe	-0.06397125
-3.693375	proposé	-0.06397125
-4.035661	ouvrir	-0.06397125
-3.693375	école	-0.09877326
-4.035661	arts	-0.06397125
-4.1526756	martiaux	-0.06397125
-4.1526756	capitale	-0.06397125
-4.1526756	Belgrade	-0.06397125
-3.693375	porte-parole	-0.1172792
-4.1526756	Associated	-0.06397125
-4.1526756	Press	-0.06397125
-4.1526756	altercation	-0.06397125
-3.4946272	lieu	-0.20815982
-3.8422177	échange	-0.06397125
-4.1526756	verbal	-0.06397125
-3.4946272	aucun	-0.06397125
-4.1526756	blessé	-0.06397125
-4.1526756	signalé	-0.06397125
-4.1526756	rapports	-0.06397125
-4.1526756	Cuaron	-0.06397125
-3.693375	dernier	-0.08451609
-3.4946272	film	-0.08260768
-4.1526756	Gravity	-0.06397125
-3.693375	reçu	-0.09877326
-3.8422177	Oscar	-0.13660894
-4.1526756	plateau	-0.06397125
-4.035661	tournage	-0.06397125
-4.035661	incident	-0.17805827
-4.1526756	municipale	-0.06397125
-4.035661	incendie	-0.1172792
-4.035661	arrivée	-0.06397125
-3.8422177	groupe	-0.06397125
-3.4946272	important	-0.06397125
-4.1526756	…	-0.06397125
-2.545469	se	-0.14830898
-4.1526756	présentant	-0.06397125
-4.1526756	autorités	-0.06397125
-4.1526756	locales	-0.06397125
-4.1526756	mardi	-0.06397125
-4.035661	Des	-0.06397125
-4.035661	chercheurs	-0.06397125
-4.1526756	étudient	-0.06397125
-4.1526756	potentiel	-0.06397125
-4.1526756	contraceptions	-0.06397125
-4.1526756	hormonales	-0.06397125
-4.1526756	masculines	-0.06397125
-3.8422177	Il	-0.0890019
-4.1526756	ajouta	-0.06397125
-4.035661	Ceci	-0.13660894
-3.0146613	vers	-0.28046125
-4.1526756	découverte	-0.06397125
-4.1526756	combinaison	-0.06397125
-4.035661	contraception	-0.06397125
-4.1526756	hormonale	-0.06397125
-4.1526756	Néanmoins	-0.06397125
-3.4946272	membres	-0.34040248
-4.1526756	assemblée	-0.06397125
-4.035661	législative	-0.06397125
-4.1526756	croyances	-0.06397125
-3.693375	religieuses	-0.06397125
-4.1526756	fortes	-0.06397125
-4.1526756	opposés	-0.06397125
-4.035661	lois	-0.06397125
-4.035661	affirment	-0.17805827
-4.035661	ADN	-0.06397125
-4.035661	tumeurs	-0.06397125
-3.3040626	pourrait	-0.08102375
-4.1526756	comprendre	-0.06397125
-4.1526756	causes	-0.06397125
-4.1526756	sous-jacentes	-0.06397125
-4.1526756	cancers	-0.06397125
-4.035661	démontre	-0.06397125
-3.693375	lien	-0.10608127
-3.693375	direct	-0.06397125
-3.8422177	total	-0.13660894
-4.1526756	cigarettes	-0.06397125
-4.1526756	fumées	-0.06397125
-4.1526756	mutations	-0.06397125
-3.8422177	pu	-0.06397125
-3.693375	trouver	-0.06397125
-4.1526756	schéma	-0.06397125
-4.035661	tissus	-0.06397125
-4.035661	directement	-0.06397125
-4.035661	exposés	-0.06397125
-4.1526756	vessie	-0.06397125
-3.693375	Mme	-0.15271714
-4.1526756	Pugh	-0.06397125
-4.1526756	traitée	-0.06397125
-4.1526756	hôpitaux	-0.06397125
-4.1526756	Papworth	-0.06397125
-4.1526756	Addenbrooke	-0.06397125
-4.1526756	Cambridgeshire	-0.06397125
-4.1526756	scanner	-0.06397125
-3.8422177	montré	-0.06397125
-4.035661	tumeur	-0.06397125
-4.1526756	poumon	-0.06397125
-3.693375	droit	-0.10608127
-4.1526756	grossit	-0.06397125
-3.8422177	dû	-0.06397125
-4.035661	essai	-0.06397125
-4.1526756	Si	-0.06397125
-3.693375	Donald	-0.45201606
-4.1526756	devient	-0.06397125
-3.4214184	gouvernement	-0.1250938
-3.693375	ici	-0.06397125
-4.035661	devra	-0.06397125
-4.035661	travailler	-0.17805827
-4.1526756	avancer	-0.06397125
-4.035661	commun	-0.06397125
-3.693375	entreprises	-0.08685999
-4.1526756	intérêts	-0.06397125
-4.1526756	canadiens	-0.06397125
-3.8422177	soient	-0.06397125
-4.1526756	représentés	-0.06397125
-4.1526756	Trudeau	-0.06397125
-4.1526756	étendra	-0.06397125
-4.035661	invitation	-0.06397125
-4.1526756	45ème	-0.06397125
-4.035661	Etats-Unis	-0.1172792
-4.035661	quel	-0.06397125
-3.4946272	soit	-0.06397125
-4.1526756	Malgré	-0.06397125
-4.035661	photo	-0.06397125
-4.1526756	rendue	-0.06397125
-3.5827298	publique	-0.06397125
-3.8422177	matin	-0.3270773
-4.035661	C.B.	-0.17805827
-3.8422177	questions	-0.06397125
-4.035661	réponses	-0.06397125
-4.035661	soi-disant	-0.06397125
-4.1526756	sans-abri	-0.06397125
-4.035661	accusé	-0.06397125
-4.1526756	mortellement	-0.06397125
-4.1526756	poignardé	-0.06397125
-4.1526756	adolescente	-0.06397125
-4.035661	collège	-0.06397125
-4.1526756	Abbotsford	-0.06397125
-4.035661	précédemment	-0.06397125
-4.1526756	Klein	-0.06397125
-4.1526756	semblait	-0.06397125
-4.1526756	casier	-0.06397125
-4.1526756	judiciaire	-0.06397125
-4.1526756	détails	-0.06397125
-4.035661	vagues	-0.06397125
-4.035661	quant	-0.17805827
-3.693375	situation	-0.06397125
-4.035661	récente	-0.06397125
-3.693375	ait	-0.1172792
-4.035661	filles	-0.06397125
-3.5827298	région	-0.11293809
-4.1526756	particulier	-0.06397125
-4.1526756	-elle	-0.06397125
-4.1526756	réticent	-0.06397125
-4.1526756	communiquer	-0.06397125
-4.1526756	coopérer	-0.06397125
-4.1526756	refusait	-0.06397125
-4.1526756	déplacer	-0.06397125
-4.1526756	cellule	-0.06397125
-4.035661	tribunal	-0.06397125
-4.035661	rendre	-0.06397125
-4.035661	procès	-0.06397125
-4.1526756	association	-0.06397125
-3.8422177	représentant	-0.06397125
-4.035661	agents	-0.06397125
-4.1526756	immobiliers	-0.06397125
-3.8422177	Ontario	-0.06397125
-3.693375	davantage	-0.06397125
-3.8422177	clients	-0.10608127
-4.1526756	preuve	-0.06397125
-4.035661	comportement	-0.06397125
-3.8422177	contraire	-0.3270773
-4.1526756	éthique	-0.06397125
-4.1526756	souhaiterait	-0.06397125
-4.035661	meilleure	-0.06397125
-3.8422177	application	-0.06397125
-3.693375	loi	-0.06397125
-4.035661	meilleur	-0.06397125
-3.4946272	enquête	-0.08980782
-4.1526756	Real	-0.06397125
-4.1526756	Estate	-0.06397125
-4.1526756	Council	-0.06397125
-4.035661	RECO	-0.06397125
-4.1526756	réglemente	-0.06397125
-4.1526756	province	-0.06397125
-4.1526756	amende	-0.06397125
-4.1526756	agent	-0.06397125
-4.1526756	actuellement	-0.06397125
-4.1526756	25	-0.06397125
-3.2554674	000	-0.12246626
-4.035661	classe	-0.06397125
-3.8422177	chinoise	-0.06397125
-4.1526756	nombreuse	-0.06397125
-4.1526756	étonnement	-0.06397125
-4.035661	virulente	-0.06397125
-3.8422177	critiques	-0.06397125
-4.1526756	pollution	-0.06397125
-3.693375	villes	-0.06397125
-4.035661	tel	-0.06397125
-4.035661	subissent	-0.06397125
-4.1526756	smog	-0.06397125
-4.1526756	asphyxiant	-0.06397125
-3.4946272	voir	-0.06397125
-4.035661	énormément	-0.06397125
-3.8422177	notamment	-0.06397125
-4.035661	grands	-0.06397125
-4.1526756	émetteurs	-0.06397125
-4.035661	Brésil	-0.06397125
-3.693375	Afrique	-0.13660894
-4.1526756	Sud	-0.06397125
-4.035661	Inde	-0.06397125
-4.035661	prêts	-0.17805827
-3.8422177	jouer	-0.06397125
-3.4946272	rôle	-0.10207986
-4.1526756	Guilbeault	-0.06397125
-3.8422177	attendre	-0.06397125
-3.8422177	fin	-0.10608127
-3.5827298	premier	-0.06397125
-3.8422177	mandat	-0.06397125
-4.1526756	invoquer	-0.06397125
-3.8422177	disposition	-0.06397125
-4.1526756	Pendant	-0.06397125
-3.2554674	temps	-0.22545025
-4.035661	alliés	-0.06397125
-4.1526756	tentent	-0.06397125
-4.035661	maintenir	-0.06397125
-3.8422177	attention	-0.1172792
-4.1526756	argumentant	-0.06397125
-4.1526756	désobligeants	-0.06397125
-4.1526756	minorités	-0.06397125
-4.1526756	tempérament	-0.06397125
-4.1526756	rendent	-0.06397125
-4.035661	inapte	-0.06397125
-3.8422177	poste	-0.06397125
-4.035661	Notre	-0.06397125
-4.035661	mes	-0.06397125
-3.8422177	amis	-0.13660894
-3.693375	femme	-0.06397125
-4.1526756	Melania	-0.06397125
-3.4214184	première	-0.06397128
-4.1526756	apparition	-0.06397125
-4.035661	convention	-0.06397125
-4.1526756	républicaine	-0.06397125
-4.1526756	Rai	-0.06397125
-4.1526756	rencontrent	-0.06397125
-4.1526756	conseillers	-0.06397125
-4.1526756	parler	-0.06397125
-4.1526756	réconfort	-0.06397125
-4.1526756	désastre	-0.06397125
-4.1526756	malades	-0.06397125
-4.1526756	souffrance	-0.06397125
-4.1526756	Mailis	-0.06397125
-4.1526756	entretien	-0.06397125
-4.035661	CBS	-0.06397125
-4.035661	News	-0.06397125
-4.035661	jeudi	-0.06397125
-4.035661	médecins	-0.06397125
-3.1021266	ces	-0.089366086
-4.1526756	carnet	-0.06397125
-4.1526756	ordonnances	-0.06397125
-4.1526756	seringue	-0.06397125
-3.693375	Gerry	-0.24494186
-4.1526756	McNeilly	-0.06397125
-3.5827298	directeur	-0.09877326
-4.1526756	indépendant	-0.06397125
-4.1526756	examen	-0.06397125
-4.035661	présenté	-0.06397125
-4.1526756	bases	-0.06397125
-3.693375	rapport	-0.06397125
-4.1526756	inquiétantes	-0.06397125
-4.1526756	posées	-0.06397125
-4.1526756	comportent	-0.06397125
-3.693375	indigènes	-0.1172792
-4.1526756	examine	-0.06397125
-4.1526756	messages	-0.06397125
-4.035661	Facebook	-0.06397125
-4.1526756	incendiaires	-0.06397125
-4.1526756	prétendument	-0.06397125
-4.1526756	issus	-0.06397125
-3.693375	nord	-0.14385688
-3.5827298	ville	-0.07593841
-4.1526756	directeurs	-0.06397125
-4.035661	prime	-0.06397125
-4.035661	rendement	-0.06397125
-4.1526756	atteinte	-0.06397125
-4.1526756	dépassement	-0.06397125
-2.7063816	;	-0.1569418
-4.1526756	partagé	-0.06397125
-4.1526756	enveloppe	-0.06397125
-4.1526756	milliard	-0.06397125
-4.1526756	demi	-0.06397125
-4.1526756	équivaut	-0.06397125
-4.1526756	15	-0.06397125
-4.1526756	Son	-0.06397125
-4.1526756	budget	-0.06397125
-4.035661	annuel	-0.06397125
-3.8422177	dépasse	-0.06397125
-4.1526756	emploie	-0.06397125
-3.2554674	personnes	-0.116573475
-4.035661	fédéral	-0.06397125
-4.1526756	communique	-0.06397125
-4.1526756	proactive	-0.06397125
-4.035661	bonus	-0.06397125
-4.035661	primes	-0.17805827
-4.1526756	globaux	-0.06397125
-4.1526756	département	-0.06397125
-4.035661	site	-0.06397125
-4.1526756	web	-0.06397125
-4.1526756	périmé	-0.06397125
-3.5827298	dernière	-0.06397122
-3.8422177	mise	-0.13660894
-4.1526756	2013-2014	-0.06397125
-4.035661	élevait	-0.17805827
-4.1526756	million	-0.06397125
-4.1526756	somme	-0.06397125
-4.1526756	2015-2016	-0.06397125
-4.1526756	Gomery	-0.06397125
-4.1526756	commission	-0.06397125
-4.1526756	charge	-0.06397125
-4.1526756	scandale	-0.06397125
-4.035661	structures	-0.06397125
-4.1526756	indispensables	-0.06397125
-4.1526756	rétablir	-0.06397125
-4.035661	confiance	-0.06397125
-3.4214184	public	-0.16240233
-4.035661	État	-0.06397125
-3.4946272	derniers	-0.06397125
-3.3040626	moins	-0.06397122
-3.693375	six	-0.06397125
-4.035661	journalistes	-0.06397125
-4.1526756	québécois	-0.06397125
-3.8422177	cible	-0.06397125
-4.1526756	opérations	-0.06397125
-4.1526756	surveillance	-0.06397125
-4.1526756	provinciale	-0.06397125
-3.8422177	ligne	-0.06397125
-4.1526756	directrice	-0.06397125
-3.8422177	doit	-0.06397125
-4.1526756	préférentiel	-0.06397125
-4.1526756	perception	-0.06397125
-4.1526756	individus	-0.06397125
-4.1526756	compagnies	-0.06397125
-4.035661	apporté	-0.06397125
-3.8422177	financières	-0.13660894
-4.1526756	politiciens	-0.06397125
-4.035661	partis	-0.17805827
-3.693375	politiques	-0.10608127
-4.1526756	juge	-0.06397125
-4.035661	Duffy	-0.06397125
-4.035661	fraude	-0.06397125
-4.1526756	abus	-0.06397125
-4.1526756	respecté	-0.06397125
-3.8422177	règles	-0.06397125
-3.8422177	Sénat	-0.06397125
-4.1526756	levé	-0.06397125
-4.035661	charges	-0.06397125
-4.1526756	pesaient	-0.06397125
-3.1021266	contre	-0.18888175
-4.1526756	Nos	-0.06397125
-4.1526756	portables	-0.06397125
-3.8422177	tellement	-0.06397125
-4.1526756	impressionnant	-0.06397125
-4.1526756	Lindsay	-0.06397125
-4.1526756	Gay	-0.06397125
-4.1526756	cliente	-0.06397125
-4.1526756	forfait	-0.06397125
-4.1526756	illimité	-0.06397125
-4.1526756	SaskTel	-0.06397125
-4.1526756	affirmé	-0.06397125
-4.1526756	Rogers	-0.06397125
-4.1526756	récemment	-0.06397125
-4.035661	introduit	-0.06397125
-3.8422177	nouvelle	-0.06397122
-3.3587885	aide	-0.14509766
-3.8422177	gérer	-0.06397125
-3.8422177	utilisation	-0.15271714
-4.035661	revenir	-0.06397125
-4.1526756	Ces	-0.06397125
-4.1526756	estimations	-0.06397125
-4.1526756	coïncident	-0.06397125
-4.1526756	pourcentage	-0.06397125
-4.1526756	appartements	-0.06397125
-4.1526756	arrivant	-0.06397125
-4.1526756	location	-0.06397125
-4.035661	dès	-0.06397125
-4.035661	ceci	-0.06397125
-3.8422177	investisseurs	-0.06397125
-4.1526756	immobilier	-0.06397125
-4.1526756	GTA	-0.06397125
-4.1526756	souche	-0.06397125
-4.1526756	apaise	-0.06397125
-4.1526756	douleurs	-0.06397125
-4.1526756	dorsales	-0.06397125
-4.1526756	nausées	-0.06397125
-4.035661	produit	-0.06397125
-4.1526756	dormir	-0.06397125
-4.1526756	nuit	-0.06397125
-4.1526756	Dietrich	-0.06397125
-4.035661	quartier	-0.06397125
-3.3587885	général	-0.18617031
-3.8422177	société	-0.06397125
-4.1526756	Denver	-0.06397125
-4.1526756	Colorado	-0.06397125
-3.0146613	où	-0.14726074
-4.1526756	marijuana	-0.06397125
-4.1526756	vendue	-0.06397125
-4.035661	légalement	-0.06397125
-4.035661	absence	-0.06397125
-4.1526756	encadrement	-0.06397125
-4.1526756	législatif	-0.06397125
-3.693375	réputation	-0.06397125
-4.1526756	substance	-0.06397125
-4.1526756	psychotrope	-0.06397125
-4.1526756	populaire	-0.06397125
-4.035661	sociétés	-0.06397125
-4.1526756	savent	-0.06397125
-3.8422177	quelle	-0.06397125
-3.693375	position	-0.06397125
-4.035661	adopter	-0.06397125
-3.8422177	fer	-0.06397125
-4.035661	élément	-0.06397125
-3.693375	essentiel	-0.06397125
-4.035661	produire	-0.1172792
-4.035661	hémoglobine	-0.06397125
-4.1526756	protéine	-0.06397125
-4.1526756	globules	-0.06397125
-4.1526756	rouges	-0.06397125
-3.8422177	transport	-0.1172792
-4.1526756	oxygène	-0.06397125
-4.1526756	organisme	-0.06397125
-3.5827298	période	-0.13529815
-4.1526756	attente	-0.06397125
-3.5827298	actuelle	-0.06397125
-4.035661	huit	-0.06397125
-4.1526756	possible	-0.06397125
-4.035661	présenter	-0.06397125
-3.693375	taux	-0.12545833
-4.035661	normal	-0.06397125
-4.1526756	carences	-0.06397125
-4.1526756	Société	-0.06397125
-4.035661	canadienne	-0.06397125
-4.035661	sang	-0.06397125
-4.1526756	impliquent	-0.06397125
-4.1526756	donneurs	-0.06397125
-4.035661	nécessaires	-0.06397125
-3.693375	commencé	-0.24284402
-4.1526756	écographie	-0.06397125
-4.1526756	routine	-0.06397125
-4.1526756	compliqué	-0.06397125
-4.1526756	future	-0.06397125
-3.8422177	mère	-0.06397125
-4.035661	Margaret	-0.06397125
-4.1526756	Boemer	-0.06397125
-4.1526756	Plano	-0.06397125
-4.1526756	Texas	-0.06397125
-4.1526756	appris	-0.06397125
-4.1526756	fœtus	-0.06397125
-4.1526756	maladie	-0.06397125
-4.035661	allait	-0.06397125
-4.1526756	nécessiter	-0.06397125
-4.1526756	tératome	-0.06397125
-4.1526756	sacro-coccygien	-0.06397125
-4.1526756	développe	-0.06397125
-3.8422177	naissance	-0.06397125
-3.693375	partir	-0.24494186
-4.1526756	coccyx	-0.06397125
-4.1526756	fréquente	-0.06397125
-4.1526756	survenant	-0.06397125
-3.8422177	toutes	-0.3270773
-4.1526756	35	-0.06397125
-4.1526756	naissances	-0.06397125
-4.1526756	décrite	-0.06397125
-4.035661	remarquable	-0.06397125
-4.1526756	tendre	-0.06397125
-4.1526756	merveilleuse	-0.06397125
-4.1526756	laissé	-0.06397125
-4.1526756	trace	-0.06397125
-4.035661	littéraire	-0.06397125
-3.693375	histoires	-0.06397125
-4.035661	Dans	-0.08102375
-4.035661	Leive	-0.06397125
-3.5827298	certains	-0.06397125
-3.5827298	hommes	-0.06397125
-4.1526756	pigent	-0.06397125
-4.1526756	Bono	-0.06397125
-3.4214184	eux	-0.06397125
-3.5827298	voix	-0.06397125
-4.1526756	harcèlement	-0.06397125
-4.1526756	encourage	-0.06397125
-4.1526756	standard	-0.06397125
-4.035661	beauté	-0.06397125
-4.1526756	Sa	-0.06397125
-4.1526756	littéralement	-0.06397125
-4.035661	tour	-0.06397125
-4.1526756	Dès	-0.06397125
-3.693375	photos	-0.06397125
-4.035661	officielles	-0.06397125
-4.1526756	diffusées	-0.06397125
-4.1526756	explosés	-0.06397125
-4.1526756	favorables	-0.06397125
-4.1526756	allèguent	-0.06397125
-4.1526756	banalisent	-0.06397125
-4.035661	culture	-0.06397125
-4.1526756	Premières	-0.06397125
-4.1526756	Nations	-0.06397125
-4.035661	débats	-0.06397125
-4.1526756	CRTC	-0.06397125
-4.035661	recevoir	-0.06397125
-4.1526756	intervenants	-0.06397125
-4.1526756	concernerait	-0.06397125
-4.1526756	divertissement	-0.06397125
-4.035661	éducation	-0.06397125
-4.1526756	recherche	-0.06397125
-4.1526756	discours	-0.06397125
-4.1526756	Après	-0.06397125
-4.1526756	luxe	-0.06397125
-4.035661	outil	-0.06397125
-4.1526756	débris	-0.06397125
-4.1526756	formé	-0.06397125
-4.1526756	anneau	-0.06397125
-3.4946272	autour	-0.42103314
-4.1526756	équateur	-0.06397125
-4.035661	fini	-0.17805827
-4.1526756	agglomérer	-0.06397125
-3.8422177	force	-0.06397125
-4.1526756	gravité	-0.06397125
-4.035661	former	-0.06397125
-4.035661	lune	-0.1172792
-4.1526756	demeurent	-0.06397125
-4.1526756	réponse	-0.06397125
-4.1526756	Hillsborough	-0.06397125
-4.1526756	périphérie	-0.06397125
-4.1526756	Chapel	-0.06397125
-4.1526756	Hill	-0.06397125
-4.1526756	bombe	-0.06397125
-4.1526756	incendiaire	-0.06397125
-3.4946272	place	-0.08980782
-4.1526756	restriction	-0.06397125
-3.693375	vote	-0.09877326
-4.1526756	Campbell	-0.06397125
-4.1526756	allé	-0.06397125
-3.8422177	église	-0.06397125
-4.1526756	expliquer	-0.06397125
-3.8422177	comment	-0.06397125
-4.035661	difficultés	-0.06397125
-4.035661	inscription	-0.06397125
-3.5827298	pouvait	-0.06397125
-4.1526756	sentir	-0.06397125
-4.035661	effets	-0.06397125
-4.1526756	explosions	-0.06397125
-4.035661	conflits	-0.06397125
-4.1526756	croisements	-0.06397125
-4.1526756	étranges	-0.06397125
-4.035661	anciennes	-0.06397125
-4.035661	idées	-0.06397125
-4.1526756	discordance	-0.06397125
-3.8422177	économiques	-0.13660894
-3.5827298	connu	-0.06397125
-3.4946272	devrait	-0.06397125
-4.035661	républicains	-0.06397125
-4.1526756	économistes	-0.06397125
-4.035661	mettent	-0.06397125
-4.1526756	garde	-0.06397125
-4.1526756	prouver	-0.06397125
-4.1526756	lamentable	-0.06397125
-3.693375	économique	-0.06397125
-4.1526756	sais	-0.06397125
-4.035661	progression	-0.06397125
-4.1526756	P.I.B.	-0.06397125
-4.1526756	mandats	-0.06397125
-4.035661	Lincoln	-0.06397125
-4.035661	développements	-0.06397125
-4.1526756	institutionnels	-0.06397125
-4.1526756	initiés	-0.06397125
-4.1526756	périodes	-0.06397125
-4.1526756	durables	-0.06397125
-3.4946272	importants	-0.06397125
-3.8422177	différences	-0.06397125
-4.1526756	similitudes	-0.06397125
-4.1526756	Sulla	-0.06397125
-4.035661	Rome	-0.06397125
-4.1526756	remet	-0.06397125
-3.693375	cause	-0.202213
-4.035661	ressemblances	-0.06397125
-4.1526756	admit	-0.06397125
-4.035661	faut	-0.06397125
-3.8422177	regarder	-0.06397125
-3.8422177	reconnu	-0.06397125
-4.1526756	devons	-0.06397125
-4.035661	agir	-0.06397125
-4.1526756	différemment	-0.06397125
-3.4946272	-	-0.06397125
-4.035661	pouvons	-0.06397125
-4.1526756	regrets	-0.06397125
-3.8422177	mesure	-0.13660894
-4.1526756	critique	-0.06397125
-3.8422177	Première	-0.1172792
-4.1526756	dame	-0.06397125
-3.8422177	faisait	-0.06397125
-4.035661	Karel	-0.06397125
-3.5827298	devint	-0.06397125
-4.1526756	compatissante	-0.06397125
-4.035661	Quand	-0.06397125
-4.035661	joue	-0.06397125
-4.035661	me	-0.06397125
-3.693375	sens	-0.1172792
-4.1526756	puissant	-0.06397125
-4.035661	expliqué	-0.06397125
-4.035661	John	-0.06397125
-4.1526756	Di	-0.06397125
-4.1526756	Domenico	-0.06397125
-4.1526756	imitateur	-0.06397125
-4.1526756	Slate	-0.06397125
-4.1526756	hystérie	-0.06397125
-3.5827298	campagne	-0.09877326
-4.1526756	présidentielle	-0.06397125
-4.1526756	intensifie	-0.06397125
-4.035661	menace	-0.06397125
-3.5827298	importante	-0.06397125
-4.1526756	baratin	-0.06397125
-4.1526756	inquiète	-0.06397125
-3.8422177	artistes	-0.06397125
-4.1526756	veulent	-0.06397125
-4.1526756	tas	-0.06397125
-4.1526756	trucs	-0.06397125
-3.693375	ensuite	-0.09877326
-4.1526756	pub	-0.06397125
-4.1526756	termine	-0.06397125
-4.1526756	producteurs	-0.06397125
-4.1526756	Miami	-0.06397125
-4.035661	Bass	-0.06397125
-3.8422177	professionnels	-0.06397125
-4.035661	art	-0.06397125
-4.1526756	remuer	-0.06397125
-4.1526756	popotins	-0.06397125
-3.8422177	intérêt	-0.06397125
-3.8422177	principal	-0.06397125
-4.1526756	interview	-0.06397125
-4.1526756	Zay	-0.06397125
-4.1526756	Zayion	-0.06397125
-4.1526756	enregistrement	-0.06397125
-3.8422177	version	-0.1172792
-4.1526756	Knuck	-0.06397125
-4.1526756	If	-0.06397125
-4.035661	You	-0.06397125
-4.1526756	Buck	-0.06397125
-4.1526756	ordinateur	-0.06397125
-4.1526756	portable	-0.06397125
-4.035661	défis	-0.06397125
-4.1526756	chansons	-0.06397125
-4.1526756	faites	-0.06397125
-4.1526756	rajoutent	-0.06397125
-3.5827298	système	-0.08260768
-4.035661	nerveux	-0.06397125
-4.1526756	conjonctif	-0.06397125
-4.1526756	tangible	-0.06397125
-4.1526756	masse	-0.06397125
-4.1526756	vibrante	-0.06397125
-4.1526756	vidéos	-0.06397125
-4.1526756	mauvaise	-0.06397125
-4.1526756	qualité	-0.06397125
-4.1526756	Leurs	-0.06397125
-4.035661	reprises	-0.06397125
-4.1526756	soulignent	-0.06397125
-4.035661	appétit	-0.06397125
-4.035661	bon	-0.06397125
-3.8422177	défi	-0.06397125
-4.035661	artistique	-0.06397125
-4.1526756	malaise	-0.06397125
-3.5827298	croissance	-0.17643645
-4.1526756	significatif	-0.06397125
-3.2554674	beaucoup	-0.20815982
-4.1526756	prudent	-0.06397125
-4.1526756	confier	-0.06397125
-4.1526756	gardiens	-0.06397125
-4.1526756	soigneusement	-0.06397125
-4.1526756	formés	-0.06397125
-3.693375	pensait	-0.06397125
-4.1526756	Platon	-0.06397125
-4.1526756	Comme	-0.06397125
-4.1526756	connais	-0.06397125
-4.035661	lire	-0.06397125
-4.1526756	sondages	-0.06397125
-4.1526756	terrorisé	-0.06397125
-3.5827298	tard	-0.08685999
-4.1526756	Caplan	-0.06397125
-4.1526756	réfute	-0.06397125
-4.1526756	posteriori	-0.06397125
-4.1526756	citant	-0.06397125
-4.1526756	professeurs	-0.06397125
-3.693375	appelle	-0.06397125
-4.1526756	logique	-0.06397125
-4.035661	tuer	-0.13660894
-3.8422177	pharaon	-0.24494186
-4.1526756	Nil	-0.06397125
-4.1526756	crue	-0.06397125
-3.5827298	rien	-0.06397125
-4.1526756	visiblement	-0.06397125
-4.035661	relation	-0.06397125
-4.1526756	fondation	-0.06397125
-4.1526756	dactylographiée	-0.06397125
-4.1526756	Zettel's	-0.06397125
-4.1526756	Traum	-0.06397125
-4.1526756	éliminant	-0.06397125
-4.1526756	obstacle	-0.06397125
-4.1526756	renâclaient	-0.06397125
-4.035661	aspect	-0.06397125
-4.1526756	brouillon	-0.06397125
-4.1526756	document	-0.06397125
-4.1526756	Correspondant	-0.06397125
-4.1526756	e-mail	-0.06397125
-4.1526756	Woods	-0.06397125
-4.1526756	m'	-0.06397125
-4.1526756	essayais	-0.06397125
-4.1526756	étymologie	-0.06397125
-4.035661	santé	-0.06397125
-4.1526756	rapporté	-0.06397125
-4.1526756	Alice	-0.06397125
-4.035661	Chaque	-0.06397125
-3.8422177	carte	-0.13660894
-4.035661	exposition	-0.06397125
-3.8422177	raconte	-0.06397125
-4.1526756	basée	-0.06397125
-4.035661	faits	-0.06397125
-4.035661	réels	-0.17805827
-4.035661	cartes	-0.06397125
-4.1526756	Ministère	-0.06397125
-4.1526756	Défense	-0.06397125
-4.1526756	exposées	-0.06397125
-3.4946272	elles	-0.06397125
-4.1526756	simulent	-0.06397125
-4.035661	batailles	-0.06397125
-3.4214184	guerre	-0.10534769
-4.1526756	froide	-0.06397125
-4.035661	utilisées	-0.06397125
-4.1526756	examens	-0.06397125
-4.1526756	électorat	-0.06397125
-3.693375	conseil	-0.06397125
-4.1526756	régional	-0.06397125
-3.8422177	North	-0.06397125
-4.1526756	Kesteven	-0.06397125
-4.035661	voté	-0.06397125
-4.035661	sortie	-0.06397125
-3.8422177	UE	-0.13660894
-4.1526756	habilité	-0.06397125
-4.035661	solutions	-0.06397125
-4.1526756	contribuables	-0.06397125
-4.1526756	manquera	-0.06397125
-4.1526756	Christian	-0.06397125
-4.1526756	Wolmar	-0.06397125
-3.693375	série	-0.06397125
-4.1526756	ouvrages	-0.06397125
-4.1526756	ferroviaire	-0.06397125
-4.1526756	entrera	-0.06397125
-4.1526756	compétition	-0.06397125
-3.8422177	décembre	-0.17805827
-4.1526756	libéraux	-0.06397125
-4.035661	représentaient	-0.06397125
-4.1526756	opulent	-0.06397125
-4.1526756	espèrent	-0.06397125
-4.035661	récupérer	-0.06397125
-4.035661	candidate	-0.06397125
-4.1526756	Sarah	-0.06397125
-4.1526756	Olney	-0.06397125
-4.1526756	ex-femme	-0.06397125
-4.1526756	whip	-0.06397125
-3.8422177	lancé	-0.06397125
-4.1526756	conquérir	-0.06397125
-3.8422177	siège	-0.06397125
-4.035661	extrêmement	-0.06397125
-4.1526756	courtois	-0.06397125
-4.1526756	serré	-0.06397125
-4.1526756	dents	-0.06397125
-3.693375	au-delà	-0.45201606
-4.1526756	colère	-0.06397125
-4.1526756	équipage	-0.06397125
-4.035661	navire	-0.06397125
-4.035661	comporte	-0.06397125
-4.1526756	Vega	-0.06397125
-4.1526756	suggèrait	-0.06397125
-4.1526756	ignoreraient	-0.06397125
-3.8422177	âge	-0.06397125
-3.5827298	font	-0.06397125
-4.035661	centrale	-0.06397125
-4.035661	charbon	-0.06397125
-4.1526756	Badarpur	-0.06397125
-4.035661	Sud-Est	-0.06397125
-4.1526756	Delhi	-0.06397125
-4.1526756	arrêt	-0.06397125
-4.1526756	générateurs	-0.06397125
-4.035661	diesel	-0.06397125
-4.035661	radio	-0.06397125
-4.1526756	World	-0.06397125
-4.1526756	Service	-0.06397125
-4.1526756	Bush	-0.06397125
-4.1526756	House	-0.06397125
-4.035661	travaillé	-0.06397125
-4.1526756	publications	-0.06397125
-4.1526756	deuil	-0.06397125
-3.693375	contient	-0.06397125
-4.1526756	phrase	-0.06397125
-3.4946272	aurait	-0.06397125
-4.1526756	enchanté	-0.06397125
-4.035661	Chris	-0.06397125
-3.693375	jamais	-0.06397125
-4.1526756	Africain	-0.06397125
-4.035661	toi	-0.06397125
-4.035661	arrêter	-0.06397125
-4.1526756	Leur	-0.06397125
-4.1526756	divin	-0.06397125
-4.1526756	parure	-0.06397125
-4.035661	meilleurs	-0.06397125
-4.1526756	garanti	-0.06397125
-4.1526756	occasion	-0.06397125
-4.1526756	pardonner	-0.06397125
-4.035661	battre	-0.06397125
-4.1526756	Angleterre	-0.06397125
-3.693375	presque	-0.06397125
-3.5827298	point	-0.24284402
-3.693375	non	-0.06397125
-3.4946272	retour	-0.06397125
-4.1526756	capable	-0.06397125
-4.1526756	montrer	-0.06397125
-4.1526756	envie	-0.06397125
-4.035661	donne	-0.06397125
-4.035661	jeu	-0.06397125
-4.1526756	agressif	-0.06397125
-4.035661	main	-0.06397125
-4.1526756	velours	-0.06397125
-4.1526756	emmener	-0.06397125
-4.1526756	Vous	-0.06397125
-4.035661	devez	-0.06397125
-4.1526756	opposer	-0.06397125
-4.1526756	préfère	-0.06397125
-4.035661	affronté	-0.06397125
-3.4214184	face	-0.34834105
-3.8422177	plutôt	-0.3270773
-4.035661	évité	-0.06397125
-4.1526756	poussait	-0.06397125
-4.1526756	ballon	-0.06397125
-4.1526756	arrière	-0.06397125
-4.035661	dessous	-0.06397125
-4.1526756	tasses	-0.06397125
-4.1526756	renversées	-0.06397125
-4.1526756	endurcie	-0.06397125
-4.1526756	matchs	-0.06397125
-4.1526756	Rugby	-0.06397125
-4.1526756	Championship	-0.06397125
-4.035661	passée	-0.06397125
-4.1526756	vitesse	-0.06397125
-4.035661	supérieure	-0.06397125
-3.8422177	victoire	-0.06397125
-4.1526756	immédiat	-0.06397125
-4.1526756	inquiétant	-0.06397125
-4.1526756	incertain	-0.06397125
-3.3587885	déjà	-0.08451609
-4.1526756	va-t-en-guerre	-0.06397125
-4.1526756	modéré	-0.06397125
-4.1526756	vue	-0.06397125
-4.1526756	anti-guerre	-0.06397125
-3.8422177	population	-0.06397125
-4.1526756	parlé	-0.06397125
-4.035661	faveur	-0.06397125
-4.1526756	torture	-0.06397125
-4.1526756	J'	-0.06397125
-4.035661	mal	-0.06397125
-4.1526756	mots	-0.06397125
-4.035661	passe	-0.06397125
-4.1526756	vraies	-0.06397125
-4.1526756	sous-titres	-0.06397125
-4.1526756	déroulants	-0.06397125
-4.1526756	édifiantes	-0.06397125
-4.1526756	Evidemment	-0.06397125
-4.035661	comprends	-0.06397125
-3.8422177	Allemagne	-0.06397125
-3.693375	moderne	-0.10608127
-4.1526756	dissociée	-0.06397125
-4.1526756	régime	-0.06397125
-4.1526756	nazi	-0.06397125
-4.1526756	coin	-0.06397125
-4.035661	porte	-0.06397125
-4.1526756	jean	-0.06397125
-4.1526756	foulard	-0.06397125
-4.1526756	discrète	-0.06397125
-4.1526756	pense	-0.06397125
-4.1526756	atteignent	-0.06397125
-4.1526756	coeur	-0.06397125
-3.1720643	on	-0.08451609
-4.1526756	rassembler	-0.06397125
-4.1526756	Ses	-0.06397125
-4.1526756	distinctionss	-0.06397125
-4.1526756	étonnantes	-0.06397125
-4.1526756	ambassadeur	-0.06397125
-3.8422177	mondial	-0.06397125
-4.035661	New	-0.17805827
-4.035661	York	-0.1172792
-4.035661	City	-0.06397125
-4.1526756	Health	-0.06397125
-4.1526756	Hospitals	-0.06397125
-4.1526756	Corporation	-0.06397125
-3.693375	commerce	-0.09362752
-4.1526756	Harvard	-0.06397125
-4.035661	peux	-0.06397125
-3.5827298	juste	-0.10608127
-4.035661	ma	-0.06397125
-3.4946272	vie	-0.12877356
-4.1526756	voulais	-0.06397125
-4.1526756	finir	-0.06397125
-4.1526756	préféré	-0.06397125
-4.035661	moi	-0.17805827
-4.035661	laisser	-0.06397125
-4.1526756	raciste	-0.06397125
-4.1526756	sexiste	-0.06397125
-4.1526756	incroyablement	-0.06397125
-4.035661	commandant	-0.06397125
-3.693375	chef	-0.10608127
-4.1526756	crédit..	-0.06397125
-4.035661	Bien	-0.13660894
-4.1526756	gérable	-0.06397125
-4.035661	instant	-0.17805827
-4.1526756	circonstances	-0.06397125
-4.1526756	soudain	-0.06397125
-4.1526756	mener	-0.06397125
-3.8422177	problèmes	-0.13660894
-4.1526756	dette	-0.06397125
-4.1526756	Selon	-0.06397125
-3.8422177	protection	-0.1172792
-4.1526756	insuffisante	-0.06397125
-4.1526756	offerte	-0.06397125
-4.1526756	ouvriers	-0.06397125
-3.8422177	américains	-0.06397125
-3.4214184	travail	-0.08451609
-3.693375	niveau	-0.08980782
-4.1526756	altérés	-0.06397125
-4.035661	contexte	-0.06397125
-4.1526756	fulminer	-0.06397125
-4.1526756	Théoriquement	-0.06397125
-3.8422177	couple	-0.06397125
-3.8422177	comptes	-0.13660894
-4.1526756	auprès	-0.06397125
-4.1526756	Tesco	-0.06397125
-4.035661	investissement	-0.06397125
-3.4214184	£	-0.406333
-4.1526756	12	-0.06397125
-4.035661	Bank	-0.06397125
-4.1526756	Scotland	-0.06397125
-3.693375	cependant	-0.1172792
-4.1526756	obtiennent	-0.06397125
-2.2648404	d’	-0.20245302
-4.1526756	soldes	-0.06397125
-2.4947615	l’	-0.09595503
-4.1526756	option	-0.06397125
-4.1526756	gratuite	-0.06397125
-4.1526756	Vantage	-0.06397125
-4.1526756	ajoutée	-0.06397125
-4.1526756	Par	-0.06397125
-4.035661	conséquent	-0.17805827
-4.1526756	théoriquement	-0.06397125
-4.1526756	instantané	-0.06397125
-3.8422177	votre	-0.06397125
-4.1526756	souhaitez	-0.06397125
-2.9201148	s’	-0.23534288
-4.1526756	applique	-0.06397125
-4.1526756	titulaires	-0.06397125
-4.035661	fidélité	-0.06397125
-4.1526756	Nectar	-0.06397125
-4.1526756	cherchent	-0.06397125
-4.1526756	emprunter	-0.06397125
-4.035661	durée	-0.13660894
-4.1526756	soufre	-0.06397125
-4.1526756	nutriment	-0.06397125
-4.1526756	assurer	-0.06397125
-4.1526756	saine	-0.06397125
-4.035661	sols	-0.06397125
-3.8422177	britanniques	-0.06397125
-4.1526756	manquent	-0.06397125
-4.1526756	naturellement	-0.06397125
-4.1526756	minéral	-0.06397125
-4.1526756	Avance	-0.06397125
-4.035661	rapide	-0.06397125
-3.693375	jusqu’	-0.24494186
-3.5827298	notre	-0.06397125
-4.1526756	Aussi	-0.06397125
-4.035661	surprenant	-0.17805827
-3.8422177	puisse	-0.06397125
-4.1526756	paraître	-0.06397125
-4.035661	nuages	-0.06397125
-4.1526756	pluies	-0.06397125
-4.1526756	acides	-0.06397125
-4.035661	conduire	-0.13660894
-4.035661	possibilités	-0.06397125
-4.1526756	prometteuses	-0.06397125
-4.1526756	enragé	-0.06397125
-4.1526756	absurde	-0.06397125
-4.1526756	quelqu’un	-0.06397125
-4.1526756	respecte	-0.06397125
-4.1526756	continue	-0.06397125
-4.1526756	dénoncer	-0.06397125
-4.035661	finit	-0.17805827
-4.1526756	écouter	-0.06397125
-4.1526756	intensément	-0.06397125
-3.8422177	prochain	-0.06397125
-4.1526756	bruit	-0.06397125
-4.1526756	agacé	-0.06397125
-4.1526756	entend	-0.06397125
-4.1526756	Légitime	-0.06397125
-4.1526756	horrible	-0.06397125
-3.5827298	!	-0.3418519
-4.1526756	crois	-0.06397125
-2.7195644	qu’	-0.46232945
-4.035661	dire	-0.06397125
-4.1526756	Rocco	-0.06397125
-4.035661	Catalano	-0.06397125
-4.035661	vit	-0.06397125
-4.035661	style	-0.06397125
-4.1526756	rétro	-0.06397125
-4.1526756	Voilà	-0.06397125
-4.1526756	plongés	-0.06397125
-4.1526756	motifs	-0.06397125
-4.035661	couleurs	-0.06397125
-4.1526756	retourné	-0.06397125
-4.1526756	habiter	-0.06397125
-4.1526756	habité	-0.06397125
-4.035661	Londres	-0.06397125
-4.035661	Glasgow	-0.06397125
-4.1526756	étudié	-0.06397125
-4.1526756	créationn	-0.06397125
-4.1526756	bijoux	-0.06397125
-4.1526756	School	-0.06397125
-4.1526756	Art	-0.06397125
-4.035661	J’	-0.06397125
-4.1526756	adorais	-0.06397125
-4.1526756	exotiques	-0.06397125
-4.1526756	affirme	-0.06397125
-3.5827298	-t	-0.3418519
-4.1526756	assiste	-0.06397125
-4.1526756	diplômés	-0.06397125
-4.035661	université	-0.06397125
-4.1526756	Northampton	-0.06397125
-4.035661	rechercher	-0.06397125
-4.1526756	e	-0.06397125
-4.035661	talents	-0.06397125
-4.1526756	rigole	-0.06397125
-3.8422177	suggère	-0.13660894
-4.035661	demander	-0.06397125
-4.1526756	Frank	-0.06397125
-3.8422177	travaille	-0.13660894
-4.1526756	mannequin	-0.06397125
-4.1526756	environnement	-0.06397125
-4.035661	caractérise	-0.06397125
-4.035661	vêtements	-0.06397125
-4.035661	nourriture	-0.06397125
-4.1526756	Wintour	-0.06397125
-4.035661	elle-même	-0.06397125
-4.035661	apparaît	-0.06397125
-3.8422177	brièvement	-0.06397125
-4.1526756	filme	-0.06397125
-4.035661	lorsqu’	-0.06397125
-4.035661	met	-0.06397125
-4.1526756	lunettes	-0.06397125
-4.035661	soleil	-0.06397125
-3.8422177	commence	-0.06397125
-4.1526756	entrevue	-0.06397125
-4.1526756	regardé	-0.06397125
-4.1526756	motocross	-0.06397125
-4.1526756	regardais	-0.06397125
-4.035661	apparaissait	-0.06397125
-4.1526756	semblaient	-0.06397125
-4.1526756	prises	-0.06397125
-3.8422177	m’	-0.06397125
-4.1526756	amuse	-0.06397125
-4.1526756	jongler	-0.06397125
-3.8422177	cherche	-0.13660894
-4.1526756	muses	-0.06397125
-4.1526756	conviendraient	-0.06397125
-3.5827298	car	-0.09362752
-3.3587885	lorsque	-0.14509766
-4.035661	trouve	-0.06397125
-4.1526756	création	-0.06397125
-4.035661	collection	-0.06397125
-4.1526756	intéresse	-0.06397125
-4.1526756	définir	-0.06397125
-4.1526756	naïve	-0.06397125
-4.1526756	pire	-0.06397125
-4.1526756	tenants	-0.06397125
-4.1526756	lobby	-0.06397125
-3.8422177	armes	-0.06397125
-3.8422177	feu	-0.06397125
-4.1526756	tirés	-0.06397125
-3.693375	affaire	-0.06397125
-4.1526756	Jeff	-0.06397125
-4.1526756	Knott	-0.06397125
-4.1526756	matière	-0.06397125
-4.1526756	serais	-0.06397125
-4.035661	étonné	-0.06397125
-3.693375	conséquence	-0.45201606
-4.1526756	interdiction	-0.06397125
-4.1526756	octroi	-0.06397125
-3.4946272	permis	-0.19517347
-4.1526756	introduits	-0.06397125
-4.1526756	adoptée	-0.06397125
-4.1526756	RSPB	-0.06397125
-4.1526756	crée	-0.06397125
-3.041905	plusieurs	-0.10027023
-4.035661	acteurs	-0.06397125
-3.693375	plan	-0.06397125
-4.1526756	conservation	-0.06397125
-4.1526756	environnementale	-0.06397125
-4.035661	Mark	-0.06397125
-4.1526756	Avery	-0.06397125
-4.1526756	auteur	-0.06397125
-4.035661	pétition	-0.06397125
-4.1526756	Packam	-0.06397125
-4.1526756	présentateur	-0.06397125
-4.1526756	télévision	-0.06397125
-4.035661	Disons	-0.06397125
-4.1526756	tort	-0.06397125
-4.1526756	Sur	-0.06397125
-3.8422177	sujet	-0.06397125
-4.1526756	ordre	-0.06397125
-4.1526756	Maroc	-0.06397125
-4.035661	celui	-0.06397125
-4.035661	samedi	-0.06397125
-3.8422177	milieu	-0.06397125
-4.035661	événement	-0.06397125
-4.035661	développés	-0.06397125
-4.1526756	interroger	-0.06397125
-3.693375	projets	-0.1172792
-4.1526756	réfléchissons	-0.06397125
-4.1526756	activement	-0.06397125
-3.8422177	moyens	-0.06397125
-4.1526756	possibles	-0.06397125
-4.1526756	décourager	-0.06397125
-4.1526756	contentieux	-0.06397125
-4.1526756	exception	-0.06397125
-4.1526756	émanant	-0.06397125
-4.035661	projet	-0.13660894
-4.1526756	stocks	-0.06397125
-4.035661	cabillaud	-0.06397125
-3.5827298	mer	-0.15921634
-4.1526756	Celtique	-0.06397125
-4.035661	effondrer	-0.06397125
-4.1526756	quotas	-0.06397125
-4.035661	pêche	-0.06397125
-4.1526756	proposés	-0.06397125
-4.1526756	Cependant	-0.06397125
-4.1526756	réductions	-0.06397125
-3.693375	importantes	-0.06397125
-4.1526756	prévues	-0.06397125
-4.1526756	sole	-0.06397125
-4.1526756	sardine	-0.06397125
-4.1526756	jaune	-0.06397125
-4.035661	Irlande	-0.06397125
-4.035661	L’	-0.06397125
-4.035661	annonce	-0.06397125
-4.1526756	favorablement	-0.06397125
-4.1526756	accueillie	-0.06397125
-4.1526756	défenseurs	-0.06397125
-4.1526756	Seulement	-0.06397125
-4.035661	cinquante	-0.06397125
-3.693375	marchés	-0.06397125
-4.1526756	Agora	-0.06397125
-4.1526756	facilement	-0.06397125
-4.1526756	accessibles	-0.06397125
-4.1526756	savez	-0.06397125
-4.035661	quoi	-0.06397125
-4.035661	précise	-0.06397125
-4.1526756	Dr	-0.06397125
-4.1526756	Lee	-0.06397125
-2.989026	n’	-0.29878718
-3.5827298	enfants	-0.06397125
-4.1526756	manifestaient	-0.06397125
-4.1526756	désapprobation	-0.06397125
-4.1526756	haine	-0.06397125
-4.1526756	parents	-0.06397125
-4.035661	modernes	-0.06397125
-4.1526756	C’	-0.06397125
-4.1526756	monstre	-0.06397125
-4.1526756	dis	-0.06397125
-4.1526756	légère	-0.06397125
-3.8422177	troisième	-0.06397125
-4.035661	remonté	-0.06397125
-4.035661	mon	-0.06397125
-4.1526756	EMicro	-0.06397125
-4.035661	extension	-0.06397125
-4.035661	Grande-Bretagne	-0.06397125
-4.1526756	connaît	-0.06397125
-4.1526756	pénurie	-0.06397125
-4.1526756	main-d’œuvre	-0.06397125
-4.1526756	qualifiée	-0.06397125
-4.1526756	dotée	-0.06397125
-4.035661	compétences	-0.06397125
-4.035661	organiser	-0.06397125
-4.035661	défense	-0.06397125
-4.1526756	efficace	-0.06397125
-4.1526756	essayer	-0.06397125
-4.1526756	configurer	-0.06397125
-4.1526756	pare-feu	-0.06397125
-4.035661	systèmes	-0.17805827
-3.693375	haute	-0.06397125
-4.035661	l‘	-0.06397125
-4.1526756	intrusion	-0.06397125
-4.1526756	pouvoirs	-0.06397125
-4.035661	étrangers	-0.06397125
-4.1526756	pratique	-0.06397125
-4.1526756	fonctionne	-0.06397125
-4.035661	poser	-0.06397125
-4.1526756	pièges	-0.06397125
-3.8422177	créer	-0.06397125
-4.1526756	confusion	-0.06397125
-4.1526756	dissuader	-0.06397125
-4.035661	ennemi	-0.06397125
-4.1526756	active	-0.06397125
-4.035661	découvert	-0.06397125
-4.1526756	animé	-0.06397125
-4.035661	liste	-0.06397125
-4.035661	devenue	-0.06397125
-4.1526756	exagérément	-0.06397125
-4.035661	longue	-0.06397125
-4.1526756	états	-0.06397125
-4.1526756	sein	-0.06397125
-4.035661	Union	-0.06397125
-4.1526756	aperçu	-0.06397125
-4.1526756	Mon	-0.06397125
-4.1526756	étape	-0.06397125
-3.8422177	suivante	-0.1172792
-4.1526756	Bellingham	-0.06397125
-3.4214184	près	-0.406333
-4.035661	frontière	-0.06397125
-3.8422177	train	-0.06397125
-4.1526756	reprenons	-0.06397125
-4.1526756	chemin	-0.06397125
-3.693375	sud	-0.19288538
-4.035661	proximité	-0.13660894
-4.1526756	minarets	-0.06397125
-4.1526756	gare	-0.06397125
-4.1526756	casquette	-0.06397125
-4.035661	rouge	-0.06397125
-3.8422177	contrôle	-0.06397125
-4.1526756	quais	-0.06397125
-4.1526756	marteau	-0.06397125
-4.035661	marche	-0.06397125
-3.693375	long	-0.06397125
-4.1526756	vérifie	-0.06397125
-4.035661	petits	-0.06397125
-4.1526756	coups	-0.06397125
-4.1526756	intégrité	-0.06397125
-4.1526756	châssis	-0.06397125
-4.1526756	Ensuite	-0.06397125
-4.1526756	pouvez	-0.06397125
-4.1526756	parcourir	-0.06397125
-4.1526756	06h30	-0.06397125
-4.1526756	10h00	-0.06397125
-4.1526756	achètent	-0.06397125
-4.1526756	sucettes	-0.06397125
-4.1526756	riz	-0.06397125
-4.1526756	cocons	-0.06397125
-4.1526756	guêpes	-0.06397125
-4.1526756	nymphes	-0.06397125
-4.1526756	considérées	-0.06397125
-4.1526756	délicatesse	-0.06397125
-4.1526756	buffle	-0.06397125
-4.1526756	écorce	-0.06397125
-4.1526756	feuilles	-0.06397125
-4.1526756	bétel	-0.06397125
-4.1526756	crapauds	-0.06397125
-4.035661	vivants	-0.13660894
-4.1526756	poisson-chat	-0.06397125
-4.1526756	potentiellement	-0.06397125
-4.1526756	rétrocession	-0.06397125
-3.693375	faisant	-0.06397125
-3.8422177	acte	-0.06397125
-4.1526756	allégeance	-0.06397125
-4.1526756	législateurs	-0.06397125
-4.1526756	reconnaissent	-0.06397125
-3.8422177	Hong	-0.3270773
-4.1526756	Kong	-0.06397125
-4.1526756	intégrante	-0.06397125
-4.035661	République	-0.10608127
-4.1526756	Populaire	-0.06397125
-4.1526756	mené	-0.06397125
-3.8422177	partisans	-0.13660894
-4.1526756	Péking	-0.06397125
-3.8422177	assumer	-0.13660894
-4.1526756	postes	-0.06397125
-4.035661	éviter	-0.06397125
-4.1526756	paralysie	-0.06397125
-4.1526756	prolongée	-0.06397125
-4.1526756	prépare	-0.06397125
-4.1526756	vague	-0.06397125
-4.1526756	protestations	-0.06397125
-4.1526756	Franchement	-0.06397125
-4.1526756	générale	-0.06397125
-4.1526756	voudrait	-0.06397125
-4.035661	émission	-0.17805827
-3.5827298	The	-0.06397125
-4.1526756	Andrew	-0.06397125
-4.1526756	Marr	-0.06397125
-4.1526756	Show	-0.06397125
-4.035661	rêve	-0.06397125
-4.1526756	terminer	-0.06397125
-4.035661	carrière	-0.06397125
-4.1526756	Faire	-0.06397125
-4.035661	match	-0.06397125
-4.035661	nul	-0.06397125
-4.035661	domine	-0.06397125
-3.8422177	facile	-0.06397125
-4.1526756	ignorer	-0.06397125
-3.693375	suite	-0.09362752
-4.035661	laisse	-0.06397125
-4.1526756	entrevoir	-0.06397125
-4.1526756	faiblesse	-0.06397125
-4.035661	déçus	-0.06397125
-3.3587885	parce	-0.29378417
-4.035661	chuté	-0.13660894
-4.035661	points	-0.06397125
-4.035661	jouant	-0.06397125
-3.8422177	domicile	-0.13660894
-2.8083646	fut	-0.0755919
-4.1526756	certainement	-0.06397125
-3.8422177	cas	-0.202213
-4.035661	Andy	-0.06397125
-4.1526756	joué	-0.06397125
-4.1526756	Benoît	-0.06397125
-4.1526756	Paire	-0.06397125
-4.1526756	Monte	-0.06397125
-4.1526756	Carlo	-0.06397125
-3.693375	heure	-0.06397125
-4.1526756	décalage	-0.06397125
-3.8422177	demande	-0.06397125
-4.1526756	Coupe	-0.06397125
-4.1526756	Davis	-0.06397125
-4.1526756	annuelle	-0.06397125
-4.1526756	flambée	-0.06397125
-4.1526756	inquiétudes	-0.06397125
-4.035661	provoquée	-0.17805827
-4.035661	prise	-0.06397125
-4.1526756	décisions	-0.06397125
-4.1526756	relatives	-0.06397125
-3.8422177	hausse	-0.06397125
-4.1526756	brutale	-0.06397125
-4.035661	risques	-0.13660894
-4.1526756	passer	-0.06397125
-4.1526756	inaperçue	-0.06397125
-3.8422177	entreprise	-0.06397125
-4.1526756	duré	-0.06397125
-4.035661	perte	-0.17805827
-3.8422177	dizaines	-0.13660894
-3.8422177	euros	-0.09877326
-4.1526756	valeur	-0.06397125
-4.1526756	bourse	-0.06397125
-4.035661	VW	-0.06397125
-4.035661	emploi	-0.06397125
-3.8422177	Martin	-0.06397125
-4.035661	Winterkorn	-0.06397125
-4.1526756	vulnérable	-0.06397125
-4.035661	demandes	-0.06397125
-4.1526756	réparation	-0.06397125
-4.1526756	élevées	-0.06397125
-4.1526756	menaces	-0.06397125
-4.1526756	action	-0.06397125
-3.8422177	justice	-0.06397125
-4.1526756	témoigne	-0.06397125
-4.1526756	provisions	-0.06397125
-4.1526756	montant	-0.06397125
-4.1526756	concentrée	-0.06397125
-3.693375	marque	-0.06397125
-4.1526756	Herbert	-0.06397125
-4.1526756	Diess	-0.06397125
-4.1526756	constructeur	-0.06397125
-4.1526756	automobile	-0.06397125
-4.1526756	promu	-0.06397125
-4.1526756	éclatement	-0.06397125
-3.8422177	anticipé	-0.06397125
-4.1526756	diminution	-0.06397125
-4.035661	activité	-0.06397125
-4.035661	immédiatement	-0.06397125
-4.035661	Royaume-Uni	-0.06397125
-4.035661	européenne	-0.06397125
-4.035661	réussi	-0.06397125
-4.1526756	constante	-0.06397125
-4.1526756	secteurs	-0.06397125
-4.1526756	vente	-0.06397125
-4.035661	détail	-0.06397125
-4.1526756	développaient	-0.06397125
-4.035661	tandis	-0.13660894
-3.8422177	consommateurs	-0.06397125
-4.1526756	restaient	-0.06397125
-4.1526756	confiants	-0.06397125
-3.8422177	services	-0.06397125
-4.1526756	connaissaient	-0.06397125
-4.035661	seront	-0.06397125
-4.1526756	limitées	-0.06397125
-4.1526756	déficit	-0.06397125
-4.1526756	budgétaire	-0.06397125
-4.1526756	frais	-0.06397125
-4.1526756	mensuels	-0.06397125
-4.1526756	varieront	-0.06397125
-3.5827298	prix	-0.09877326
-4.035661	augmenter	-0.06397125
-3.693375	hiver	-0.202213
-4.1526756	fur	-0.06397125
-4.035661	usage	-0.06397125
-4.1526756	augmentera	-0.06397125
-3.8422177	tarif	-0.06397125
-4.1526756	fixe	-0.06397125
-4.1526756	Eon	-0.06397125
-4.1526756	Avro	-0.06397125
-4.1526756	Energy	-0.06397125
-4.1526756	payeraient	-0.06397125
-4.1526756	Simple	-0.06397125
-4.1526756	Select	-0.06397125
-4.1526756	Sinon	-0.06397125
-4.1526756	prépayé	-0.06397125
-4.1526756	cher	-0.06397125
-4.1526756	investisseur	-0.06397125
-4.1526756	acheté	-0.06397125
-4.035661	10	-0.17805827
-3.8422177	obligations	-0.10608127
-4.035661	chance	-0.06397125
-4.035661	espérer	-0.06397125
-4.1526756	rendements	-0.06397125
-3.8422177	an	-0.10608127
-4.1526756	oui	-0.06397125
-4.1526756	distinguées	-0.06397125
-4.1526756	épargne	-0.06397125
-4.1526756	ordinaires	-0.06397125
-4.1526756	placements	-0.06397125
-4.035661	utilisés	-0.06397125
-4.1526756	apporter	-0.06397125
-4.1526756	financière	-0.06397125
-4.035661	publiques	-0.06397125
-4.1526756	conjoncture	-0.06397125
-4.1526756	entravé	-0.06397125
-4.1526756	afflué	-0.06397125
-3.4946272	fonds	-0.06397125
-4.035661	suivi	-0.06397125
-4.1526756	Fonds	-0.06397125
-4.1526756	stratégie	-0.06397125
-4.1526756	mixte	-0.06397125
-4.1526756	revenus	-0.06397125
-4.1526756	Aviva	-0.06397125
-3.693375	lequel	-0.06397125
-4.035661	respectivement	-0.06397125
-3.8422177	livres	-0.06397125
-4.035661	sterling	-0.17805827
-4.1526756	signifie	-0.06397125
-4.1526756	bénéficié	-0.06397125
-4.1526756	actifs	-0.06397125
-4.1526756	étranger	-0.06397125
-4.1526756	baisse	-0.06397125
-3.5827298	livre	-0.06397125
-4.1526756	Adidas	-0.06397125
-4.035661	maritime	-0.06397125
-4.035661	utilisant	-0.06397125
-3.8422177	déchets	-0.06397125
-4.1526756	flottants	-0.06397125
-4.035661	chaussures	-0.06397125
-4.1526756	stimuler	-0.06397125
-3.693375	janvier	-0.22148402
-4.1526756	constaté	-0.06397125
-4.1526756	matières	-0.06397125
-4.1526756	plastiques	-0.06397125
-4.1526756	poissons	-0.06397125
-4.1526756	océans	-0.06397125
-4.035661	radicale	-0.06397125
-4.035661	but	-0.06397125
-4.1526756	empêcher	-0.06397125
-4.1526756	accumulation	-0.06397125
-4.1526756	mers	-0.06397125
-4.035661	subi	-0.06397125
-4.1526756	chirurgicale	-0.06397125
-4.1526756	extraordinaire	-0.06397125
-4.035661	traitements	-0.06397125
-4.1526756	réadaptation	-0.06397125
-4.1526756	physique	-0.06397125
-4.035661	difficiles	-0.06397125
-4.035661	complétement	-0.06397125
-4.1526756	signalant	-0.06397125
-4.1526756	NHS	-0.06397125
-4.1526756	subit	-0.06397125
-4.1526756	pressions	-0.06397125
-4.1526756	énormes	-0.06397125
-4.1526756	encouragé	-0.06397125
-4.1526756	responsabilité	-0.06397125
-4.1526756	Quatre	-0.06397125
-4.1526756	adultes	-0.06397125
-3.5827298	dix	-0.06397125
-4.1526756	blessés	-0.06397125
-3.693375	raison	-0.10608127
-4.035661	mauvaises	-0.06397125
-4.035661	conditions	-0.06397125
-4.1526756	climatiques	-0.06397125
-4.1526756	neuf	-0.06397125
-4.1526756	sous-estiment	-0.06397125
-4.1526756	faibles	-0.06397125
-3.693375	durant	-0.06397125
-4.1526756	jouent	-0.06397125
-4.1526756	rebondir	-0.06397125
-4.1526756	autant	-0.06397125
-4.035661	débute	-0.06397125
-4.1526756	RSC	-0.06397125
-4.035661	soixante	-0.06397125
-4.1526756	patiente	-0.06397125
-4.1526756	asile	-0.06397125
-4.1526756	aliénés	-0.06397125
-4.1526756	pièce	-0.06397125
-4.1526756	Marat	-0.06397125
-4.1526756	/	-0.06397125
-4.1526756	Sade	-0.06397125
-4.1526756	robe	-0.06397125
-4.035661	contemporain	-0.06397125
-4.1526756	D’	-0.06397125
-4.035661	vient	-0.06397125
-3.693375	énergie	-0.06397125
-4.035661	provoquer	-0.17805827
-4.1526756	ondes	-0.06397125
-4.035661	choc	-0.06397125
-4.1526756	pousse	-0.06397125
-4.1526756	nuque	-0.06397125
-4.1526756	confrontation	-0.06397125
-4.1526756	veines	-0.06397125
-4.1526756	accentuées	-0.06397125
-4.035661	mains	-0.06397125
-4.1526756	tremblent	-0.06397125
-4.1526756	Glenda	-0.06397125
-3.693375	donner	-0.06397125
-4.035661	performance	-0.06397125
-4.1526756	exceptionnelle	-0.06397125
-4.1526756	blâmer	-0.06397125
-4.1526756	chaînes	-0.06397125
-3.693375	informations	-0.06397125
-4.1526756	actualité	-0.06397125
-4.1526756	indétectable	-0.06397125
-4.1526756	correctement	-0.06397125
-4.1526756	Laisse	-0.06397125
-4.035661	tomber	-0.06397125
-4.1526756	micro	-0.06397125
-4.1526756	calculs	-0.06397125
-3.8422177	présent	-0.06397125
-4.1526756	réalisateur	-0.06397125
-4.035661	tourné	-0.06397125
-3.693375	films	-0.13660894
-4.035661	cinéma	-0.06397125
-4.1526756	changé	-0.06397125
-4.1526756	radicalement	-0.06397125
-4.1526756	Hollywood	-0.06397125
-4.1526756	aliéné	-0.06397125
-4.035661	familial	-0.06397125
-4.1526756	Du	-0.06397125
-4.1526756	équilibre	-0.06397125
-4.1526756	précaire	-0.06397125
-4.1526756	chahut	-0.06397125
-4.1526756	convivial	-0.06397125
-4.035661	drame	-0.06397125
-4.035661	social	-0.06397125
-4.1526756	percutant	-0.06397125
-3.693375	c’	-0.3418519
-4.1526756	agréable	-0.06397125
-4.035661	simple	-0.06397125
-4.1526756	réconfortant	-0.06397125
-4.1526756	idéal	-0.06397125
-3.8422177	dimanche	-0.06397125
-4.1526756	après-midi	-0.06397125
-4.1526756	sûr	-0.06397125
-4.1526756	Bob	-0.06397125
-4.1526756	divertissant	-0.06397125
-3.693375	alors	-0.06397125
-4.1526756	perfection	-0.06397125
-3.4946272	zone	-0.06397125
-3.4946272	conflit	-0.12545833
-4.1526756	exploits	-0.06397125
-4.1526756	Doss	-0.06397125
-4.1526756	farfelus	-0.06397125
-4.1526756	improbable	-0.06397125
-4.1526756	confère	-0.06397125
-4.1526756	irrésistible	-0.06397125
-4.1526756	Tous	-0.06397125
-4.1526756	assistants	-0.06397125
-4.035661	médicaux	-0.06397125
-4.1526756	armés	-0.06397125
-4.1526756	sauf	-0.06397125
-4.1526756	Millican	-0.06397125
-3.5827298	mort	-0.11102256
-4.1526756	pensions	-0.06397125
-4.1526756	verrions	-0.06397125
-4.1526756	Odi	-0.06397125
-4.1526756	Synthèt	-0.06397125
-4.1526756	défectueux	-0.06397125
-4.1526756	Ça	-0.06397125
-3.4214184	deuxième	-0.06397125
-4.035661	saison	-0.06397125
-4.1526756	super-héros	-0.06397125
-4.035661	restent	-0.06397125
-4.035661	humaine	-0.06397125
-3.8422177	traité	-0.06397125
-4.1526756	Zimmer	-0.06397125
-3.5827298	actions	-0.10608127
-4.035661	Cotton	-0.06397125
-4.1526756	produites	-0.06397125
-4.035661	fort	-0.06397125
-4.035661	désir	-0.06397125
-4.1526756	né	-0.06397125
-4.1526756	village	-0.06397125
-4.035661	proche	-0.17805827
-4.1526756	Sunderland	-0.06397125
-3.8422177	importance	-0.06397125
-4.1526756	soixante-dix	-0.06397125
-4.1526756	flocage	-0.06397125
-4.1526756	revêtement	-0.06397125
-4.035661	surface	-0.06397125
-4.1526756	quelconque	-0.06397125
-4.035661	mode	-0.06397125
-4.1526756	South	-0.06397125
-4.1526756	Tower	-0.06397125
-4.1526756	emblématique	-0.06397125
-4.1526756	retenu	-0.06397125
-4.1526756	Rachel	-0.06397125
-4.1526756	Winham	-0.06397125
-4.1526756	architecte	-0.06397125
-3.8422177	intérieur	-0.06397125
-4.1526756	aménagement	-0.06397125
-4.1526756	appartement	-0.06397125
-4.1526756	entendu	-0.06397125
-3.5827298	tendance	-0.10608127
-4.035661	tactile	-0.06397125
-4.1526756	étroitement	-0.06397125
-4.035661	liée	-0.17805827
-4.1526756	obsession	-0.06397125
-4.1526756	croissante	-0.06397125
-4.035661	fabrication	-0.06397125
-4.035661	objets	-0.06397125
-4.1526756	Deux	-0.06397125
-4.1526756	Jutting	-0.06397125
-4.035661	jugement	-0.06397125
-4.1526756	Haute	-0.06397125
-4.035661	Cour	-0.1172792
-4.1526756	accusations	-0.06397125
-4.1526756	empêchement	-0.06397125
-4.1526756	enterrement	-0.06397125
-4.1526756	choisie..	-0.06397125
-4.1526756	apparu	-0.06397125
-4.035661	calme	-0.17805827
-4.1526756	organisation	-0.06397125
-4.035661	rarement	-0.06397125
-4.1526756	mesurée	-0.06397125
-4.035661	suivies	-0.06397125
-4.1526756	Ainsi	-0.06397125
-4.1526756	ouvrent	-0.06397125
-3.693375	rapidement	-0.06397125
-4.035661	e-mails	-0.06397125
-4.1526756	cliquent	-0.06397125
-4.1526756	réfléchir	-0.06397125
-4.1526756	liens	-0.06397125
-4.1526756	pièces-jointes	-0.06397125
-4.035661	penser	-0.06397125
-3.8422177	conséquences	-0.13660894
-4.1526756	Premièrement	-0.06397125
-4.1526756	sensibiliser	-0.06397125
-4.1526756	nécessité	-0.06397125
-4.035661	enfin	-0.06397125
-4.1526756	faciliter	-0.06397125
-4.1526756	signalement	-0.06397125
-4.1526756	violations	-0.06397125
-4.1526756	malveillants	-0.06397125
-4.035661	devenu	-0.06397125
-4.1526756	langage	-0.06397125
-4.1526756	terreur	-0.06397125
-3.8422177	intérieure	-0.06397125
-4.1526756	existentiel	-0.06397125
-4.1526756	profond	-0.06397125
-4.1526756	Mardi	-0.06397125
-4.1526756	concentrerons	-0.06397125
-4.1526756	mobilisation	-0.06397125
-4.1526756	servira	-0.06397125
-4.1526756	électeurs	-0.06397125
-3.8422177	inscrits	-0.06397125
-4.1526756	figurent	-0.06397125
-4.1526756	électorale	-0.06397125
-4.1526756	telle	-0.06397125
-4.1526756	chaos	-0.06397125
-4.1526756	contesté	-0.06397125
-4.1526756	zéro	-0.06397125
-4.035661	cet	-0.06397125
-3.693375	homme	-0.06397125
-4.1526756	arrogant	-0.06397125
-4.1526756	pompeux	-0.06397125
-4.035661	attitude	-0.06397125
-4.1526756	indiquant	-0.06397125
-4.1526756	Floridiens	-0.06397125
-4.1526756	Grâce	-0.06397125
-3.693375	élevé	-0.1172792
-4.1526756	correspondance	-0.06397125
-4.035661	Parti	-0.06397125
-4.035661	enregistré	-0.06397125
-4.1526756	avance	-0.06397125
-4.1526756	globale	-0.06397125
-4.1526756	16	-0.06397125
-4.1526756	500	-0.06397125
-4.1526756	Game	-0.06397125
-4.1526756	Thrones	-0.06397125
-4.1526756	achever	-0.06397125
-4.1526756	réputée	-0.06397125
-4.1526756	Winds	-0.06397125
-4.1526756	Winter	-0.06397125
-4.1526756	Dream	-0.06397125
-4.1526756	Spring	-0.06397125
-4.1526756	néerlandais	-0.06397125
-4.035661	doivent	-0.06397125
-4.1526756	décider	-0.06397125
-4.1526756	commercialiseront	-0.06397125
-4.035661	moto	-0.06397125
-4.035661	électrique	-0.17805827
-4.1526756	Harley-Davidson	-0.06397125
-4.1526756	précisé	-0.06397125
-4.1526756	délais	-0.06397125
-4.1526756	diffusés	-0.06397125
-4.035661	médias	-0.06397125
-4.1526756	confirmés	-0.06397125
-4.1526756	contrats	-0.06397125
-3.8422177	terme	-0.06397125
-4.1526756	bondissent	-0.06397125
-4.1526756	parallèle	-0.06397125
-4.1526756	européens	-0.06397125
-3.8422177	commencent	-0.3270773
-4.1526756	manquer	-0.06397125
-4.1526756	gouvernementales	-0.06397125
-4.1526756	américaines	-0.06397125
-4.1526756	australiennes	-0.06397125
-4.1526756	ressentent	-0.06397125
-4.1526756	fortement	-0.06397125
-4.035661	impact	-0.17805827
-4.1526756	contribuer	-0.06397125
-4.1526756	régler	-0.06397125
-4.1526756	montagne	-0.06397125
-4.1526756	dettes	-0.06397125
-4.1526756	accumulées	-0.06397125
-4.1526756	gouvernements	-0.06397125
-4.035661	locaux	-0.06397125
-4.1526756	Agence	-0.06397125
-3.5827298	américaine	-0.06397125
-4.1526756	alerté	-0.06397125
-4.1526756	abordée	-0.06397125
-4.1526756	insatiable	-0.06397125
-4.1526756	poulet	-0.06397125
-4.1526756	frit	-0.06397125
-4.1526756	autrefois	-0.06397125
-4.1526756	excellente	-0.06397125
-3.8422177	laquelle	-0.10608127
-4.1526756	appréciaient	-0.06397125
-4.1526756	Yum	-0.06397125
-4.1526756	Brands	-0.06397125
-4.1526756	KFC	-0.06397125
-4.1526756	Enfin	-0.06397125
-4.1526756	soutien	-0.06397125
-4.1526756	Libertés	-0.06397125
-4.1526756	Civiles	-0.06397125
-4.1526756	Américaines	-0.06397125
-3.3040626	état	-0.07593841
-3.8422177	finalement	-0.06397125
-4.1526756	porté	-0.06397125
-4.1526756	devant	-0.06397125
-4.1526756	Suprême	-0.06397125
-4.1526756	clairement	-0.06397125
-4.035661	Loving	-0.06397125
-4.035661	surtout	-0.06397125
-3.693375	Richard	-0.06397125
-4.1526756	contrecœur	-0.06397125
-3.5827298	début	-0.29378417
-3.8422177	voit	-0.06397125
-4.1526756	Mildred	-0.06397125
-4.1526756	laissant	-0.06397125
-3.693375	époque	-0.08260768
-4.1526756	courtisaient	-0.06397125
-4.1526756	intéressant	-0.06397125
-4.035661	-ce	-0.17805827
-4.035661	fêtes	-0.06397125
-4.1526756	personnalités	-0.06397125
-4.1526756	fans	-0.06397125
-4.1526756	voire	-0.06397125
-4.035661	CNN	-0.06397125
-4.1526756	habillent	-0.06397125
-4.1526756	personnages	-0.06397125
-4.1526756	Stranger	-0.06397125
-4.1526756	Things	-0.06397125
-4.1526756	avais	-0.06397125
-4.035661	épisodes	-0.06397125
-4.1526756	téléphone	-0.06397125
-4.1526756	allumé	-0.06397125
-4.1526756	conféré	-0.06397125
-3.8422177	droits	-0.06397125
-3.8422177	haut	-0.06397125
-4.1526756	Negan	-0.06397125
-4.1526756	Jeffery	-0.06397125
-4.1526756	Dean	-0.06397125
-4.1526756	Morgan	-0.06397125
-4.1526756	Norman	-0.06397125
-4.035661	bons	-0.06397125
-4.1526756	copains	-0.06397125
-4.1526756	aimé	-0.06397125
-4.1526756	émotionnel	-0.06397125
-4.035661	suivis	-0.17805827
-4.1526756	after-show	-0.06397125
-4.035661	the	-0.06397125
-4.1526756	Talking	-0.06397125
-4.1526756	Dead	-0.06397125
-3.8422177	grandes	-0.24494186
-3.4946272	développement	-0.06397125
-4.1526756	continuera	-0.06397125
-4.1526756	confirma	-0.06397125
-4.1526756	Barratt	-0.06397125
-3.8422177	considérait	-0.06397125
-4.035661	efforts	-0.06397125
-4.1526756	moteur	-0.06397125
-4.1526756	hésitent	-0.06397125
-4.035661	considérer	-0.06397125
-4.035661	service	-0.06397125
-4.1526756	Aux	-0.06397125
-4.035661	Pays-Bas	-0.06397125
-4.1526756	approche	-0.06397125
-4.1526756	faible	-0.06397125
-4.1526756	technicité	-0.06397125
-3.8422177	envers	-0.06397125
-4.1526756	drones	-0.06397125
-4.1526756	Microsoft	-0.06397125
-4.1526756	mercredi	-0.06397125
-3.8422177	nouvel	-0.06397125
-4.1526756	clavardage	-0.06397125
-4.1526756	apprête	-0.06397125
-4.1526756	Slack	-0.06397125
-4.1526756	chouchou	-0.06397125
-4.035661	actuel	-0.17805827
-4.1526756	plate-forme	-0.06397125
-4.1526756	emojis	-0.06397125
-4.1526756	gif	-0.06397125
-4.1526756	mèmes	-0.06397125
-4.1526756	personnalisés	-0.06397125
-4.1526756	autocollants	-0.06397125
-4.1526756	connecter	-0.06397125
-3.8422177	flux	-0.06397125
-4.1526756	démarche	-0.06397125
-4.035661	souligné	-0.06397125
-4.1526756	usagers	-0.06397125
-4.1526756	produits	-0.06397125
-4.1526756	outils	-0.06397125
-4.1526756	productivité	-0.06397125
-4.1526756	pénétrer	-0.06397125
-4.1526756	illustrent	-0.06397125
-4.1526756	généralisée	-0.06397125
-4.1526756	Isner	-0.06397125
-4.1526756	set	-0.06397125
-4.035661	donc	-0.06397125
-3.8422177	forcé	-0.06397125
-4.1526756	rendu	-0.06397125
-4.1526756	hommage	-0.06397125
-4.1526756	dois	-0.06397125
-4.1526756	féliciter	-0.06397125
-4.1526756	Devenir	-0.06397125
-4.1526756	numéro	-0.06397125
-3.5827298	vraiment	-0.06397125
-4.035661	américain	-0.06397125
-4.1526756	invités	-0.06397125
-4.1526756	tournoi	-0.06397125
-4.035661	golf	-0.06397125
-4.035661	Corée	-0.17805827
-3.693375	selon	-0.06397125
-4.1526756	Nine	-0.06397125
-4.035661	Brisbane	-0.06397125
-4.1526756	Australiens	-0.06397125
-4.1526756	aveu	-0.06397125
-4.1526756	savaient	-0.06397125
-4.1526756	semblant	-0.06397125
-4.1526756	vrais	-0.06397125
-4.1526756	Snowman	-0.06397125
-4.1526756	sauterait	-0.06397125
-4.1526756	clôture	-0.06397125
-4.1526756	séparait	-0.06397125
-4.035661	propriétés	-0.06397125
-4.1526756	retournerait	-0.06397125
-4.1526756	là	-0.06397125
-4.1526756	trouvait	-0.06397125
-4.1526756	grange	-0.06397125
-4.1526756	plaisantais	-0.06397125
-3.693375	clair	-0.06397125
-4.1526756	voulait	-0.06397125
-4.035661	vendu	-0.06397125
-4.1526756	Johnny	-0.06397125
-4.035661	Carson	-0.06397125
-4.1526756	chercher	-0.06397125
-4.1526756	escabeau	-0.06397125
-4.1526756	assis	-0.06397125
-4.1526756	dos	-0.06397125
-4.1526756	étais	-0.06397125
-4.035661	garçon	-0.06397125
-4.1526756	couvertes	-0.06397125
-4.1526756	boue	-0.06397125
-3.8422177	défilé	-0.13660894
-4.1526756	évènement	-0.06397125
-4.1526756	rivaliser	-0.06397125
-4.1526756	carnaval	-0.06397125
-4.1526756	Alejandra	-0.06397125
-4.1526756	González	-0.06397125
-4.035661	Anaya	-0.06397125
-4.1526756	directrices	-0.06397125
-4.1526756	artistiques	-0.06397125
-3.693375	décidé	-0.12545833
-4.1526756	spectacle	-0.06397125
-4.035661	volontaires	-0.06397125
-4.035661	travaillent	-0.06397125
-4.1526756	Gonzáles	-0.06397125
-4.1526756	formidable	-0.06397125
-4.1526756	sauver	-0.06397125
-4.1526756	reconfigurer	-0.06397125
-3.8422177	tradition	-0.1172792
-4.1526756	achevant	-0.06397125
-4.1526756	Maglev	-0.06397125
-4.1526756	anticipe	-0.06397125
-4.1526756	robuste	-0.06397125
-4.035661	Japon	-0.06397125
-4.1526756	billet	-0.06397125
-4.1526756	F1	-0.06397125
-4.1526756	accorde	-0.06397125
-4.035661	internet	-0.06397125
-4.1526756	Yas	-0.06397125
-4.1526756	Marina	-0.06397125
-4.1526756	Circuit	-0.06397125
-4.1526756	fournit	-0.06397125
-4.1526756	minutage	-0.06397125
-4.035661	exact	-0.06397125
-4.1526756	voulez	-0.06397125
-4.1526756	splendeur	-0.06397125
-3.8422177	novembre	-0.10608127
-4.1526756	aller	-0.06397125
-4.1526756	émergence	-0.06397125
-4.1526756	gratte-ciels	-0.06397125
-4.1526756	MahaNakhon	-0.06397125
-4.1526756	visionnaire	-0.06397125
-4.1526756	Bangkok	-0.06397125
-4.1526756	transformations	-0.06397125
-4.1526756	connues	-0.06397125
-3.3040626	succès	-0.08451609
-4.1526756	Enterré	-0.06397125
-4.1526756	profondeur	-0.06397125
-4.1526756	mètres	-0.06397125
-4.1526756	pieds	-0.06397125
-4.035661	Pyongyang	-0.06397125
-4.1526756	CCN	-0.06397125
-4.1526756	Style	-0.06397125
-4.1526756	À	-0.06397125
-4.1526756	j’	-0.06397125
-4.1526756	Smartphones	-0.06397125
-4.035661	architecture	-0.06397125
-4.035661	construire	-0.06397125
-4.035661	pont	-0.06397125
-4.1526756	métaphorique	-0.06397125
-4.1526756	morts	-0.06397125
-4.1526756	certaine	-0.06397125
-4.1526756	brouiller	-0.06397125
-4.1526756	limites	-0.06397125
-4.1526756	meurt	-0.06397125
-4.1526756	vieillesse	-0.06397125
-4.1526756	supposé	-0.06397125
-4.1526756	fête	-0.06397125
-4.1526756	Conçu	-0.06397125
-4.1526756	Juan	-0.06397125
-4.035661	Carlos	-0.06397125
-4.1526756	Salas	-0.06397125
-4.1526756	bâtiment	-0.06397125
-4.1526756	primé	-0.06397125
-4.035661	bénéficie	-0.06397125
-4.1526756	sculptural	-0.06397125
-4.1526756	porteur	-0.06397125
-4.1526756	perpétuer	-0.06397125
-4.1526756	souvenirs	-0.06397125
-4.1526756	charte	-0.06397125
-4.035661	permit	-0.06397125
-4.1526756	guilde	-0.06397125
-4.1526756	marchands	-0.06397125
-3.8422177	dirigée	-0.3270773
-4.1526756	bourgeoisie	-0.06397125
-4.035661	payer	-0.06397125
-4.1526756	impôt	-0.06397125
-4.1526756	traversant	-0.06397125
-4.1526756	exceptionnellement	-0.06397125
-4.1526756	riche	-0.06397125
-4.1526756	minéraux	-0.06397125
-4.1526756	contenant	-0.06397125
-4.035661	dépôts	-0.06397125
-3.8422177	or	-0.1172792
-4.1526756	diamants	-0.06397125
-4.1526756	minerais	-0.06397125
-4.1526756	manganèse	-0.06397125
-4.1526756	plomb	-0.06397125
-4.1526756	zinc	-0.06397125
-4.1526756	nickel	-0.06397125
-4.1526756	cobalt	-0.06397125
-4.1526756	molybdène	-0.06397125
-4.1526756	Au-delà	-0.06397125
-3.8422177	nord-ouest	-0.13660894
-4.1526756	taïga	-0.06397125
-4.1526756	recouvrant	-0.06397125
-4.1526756	intégralité	-0.06397125
-4.1526756	Sibérie	-0.06397125
-4.1526756	Krasnoïarsk	-0.06397125
-4.1526756	accueillera	-0.06397125
-4.1526756	Universiade	-0.06397125
-4.1526756	Hiver	-0.06397125
-4.1526756	citer	-0.06397125
-4.035661	exemples	-0.06397125
-4.1526756	Îles	-0.06397125
-4.1526756	Ligne	-0.06397125
-4.035661	Pacifique	-0.06397125
-4.1526756	Maldives	-0.06397125
-4.035661	océan	-0.06397125
-4.1526756	Indien	-0.06397125
-3.5827298	îles	-0.06397125
-4.1526756	granitées	-0.06397125
-4.035661	incluent	-0.06397125
-4.1526756	Seychelles	-0.06397125
-4.1526756	Tioman	-0.06397125
-4.1526756	volcaniques	-0.06397125
-4.1526756	Sainte-Hélène	-0.06397125
-4.1526756	désertes	-0.06397125
-3.8422177	petites	-0.06397125
-4.1526756	Basse-Californie	-0.06397125
-4.1526756	cinquième	-0.06397125
-3.041905	siècle	-0.3960181
-4.035661	J.-C.	-0.13660894
-4.1526756	cité-état	-0.06397125
-4.035661	grecque	-0.06397125
-4.035661	Athènes	-0.06397125
-4.1526756	dépendait	-0.06397125
-4.1526756	importation	-0.06397125
-4.1526756	grain	-0.06397125
-4.1526756	Scythie	-0.06397125
-4.1526756	maintenait	-0.06397125
-4.1526756	alliances	-0.06397125
-4.1526756	primordiales	-0.06397125
-4.1526756	contrôlaient	-0.06397125
-4.1526756	détroits	-0.06397125
-4.1526756	colonie	-0.06397125
-4.1526756	mégarienne	-0.06397125
-4.1526756	Byzance	-0.06397125
-4.1526756	Mégabaze	-0.06397125
-4.1526756	réputé	-0.06397125
-4.1526756	Darius	-0.06397125
-4.035661	chargé	-0.17805827
-4.1526756	peupler	-0.06397125
-3.8422177	territoires	-0.13660894
-3.693375	conquis	-0.06397125
-4.035661	Balkans	-0.13660894
-3.693375	troupes	-0.06397125
-4.1526756	achéménides	-0.06397125
-4.1526756	conquirent	-0.06397125
-4.035661	Thrace	-0.06397125
-4.035661	côtières	-0.06397125
-4.1526756	grecques	-0.06397125
-4.1526756	Péonie	-0.06397125
-4.1526756	512-511	-0.06397125
-3.693375	roi	-0.06397125
-4.1526756	macédonien	-0.06397125
-4.1526756	Amyntas	-0.06397125
-3.8422177	Ier	-0.06397125
-4.1526756	accepter	-0.06397125
-4.1526756	domination	-0.06397125
-3.8422177	achéménide	-0.06397125
-4.1526756	capitula	-0.06397125
-4.1526756	vassal	-0.06397125
-4.1526756	Perse	-0.06397125
-3.4946272	armée	-0.11727924
-4.1526756	multiethnique	-0.06397125
-3.693375	composée	-0.17805827
-4.1526756	soldats	-0.06397125
-4.1526756	issues	-0.06397125
-4.1526756	élites	-0.06397125
-4.1526756	perses	-0.06397125
-4.1526756	macédoniennes	-0.06397125
-4.1526756	mariaient	-0.06397125
-3.693375	production	-0.06397125
-4.1526756	cinématrographique	-0.06397125
-4.1526756	Athina	-0.06397125
-4.035661	Film	-0.06397125
-4.1526756	créée	-0.06397125
-4.1526756	Asty	-0.06397125
-4.035661	El	-0.06397125
-4.1526756	Greco	-0.06397125
-4.035661	réalisé	-0.06397125
-4.1526756	Yannis	-0.06397125
-4.1526756	Smaragdis	-0.06397125
-4.1526756	franco-monégasque	-0.06397125
-3.693375	signé	-0.06397125
-4.1526756	prévoyant	-0.06397125
-4.1526756	limitée	-0.06397125
-3.8422177	France	-0.10608127
-4.1526756	Monaco	-0.06397125
-4.1526756	branche	-0.06397125
-4.1526756	exécutive	-0.06397125
-3.5827298	ministre	-0.10608127
-4.1526756	préside	-0.06397125
-3.8422177	cinq	-0.06397125
-4.1526756	comprend	-0.06397125
-4.1526756	patrouilles	-0.06397125
-4.1526756	bateaux	-0.06397125
-4.1526756	actuels	-0.06397125
-4.1526756	réhabilitation	-0.06397125
-4.035661	territoire	-0.06397125
-4.1526756	agrandissement	-0.06397125
-4.1526756	Fontvieille	-0.06397125
-4.1526756	Toutefois	-0.06397125
-4.1526756	procédures	-0.06397125
-4.035661	celles	-0.06397125
-4.1526756	Pays	-0.06397125
-4.1526756	Galle	-0.06397125
-4.035661	classification	-0.17805827
-4.1526756	Bergeron	-0.06397125
-4.1526756	forme	-0.06397125
-4.1526756	répandue	-0.06397125
-4.1526756	identification	-0.06397125
-3.8422177	utilisée	-0.13660894
-4.1526756	prévisions	-0.06397125
-4.1526756	météorologiques	-0.06397125
-4.1526756	climatologues	-0.06397125
-4.1526756	climatologies	-0.06397125
-4.1526756	synoptiques	-0.06397125
-4.1526756	mousson	-0.06397125
-4.035661	vent	-0.06397125
-4.1526756	saisonnier	-0.06397125
-4.035661	dominant	-0.06397125
-4.1526756	dure	-0.06397125
-4.1526756	annonçant	-0.06397125
-4.1526756	pluvieuse	-0.06397125
-4.1526756	Différentes	-0.06397125
-4.035661	tribus	-0.06397125
-4.1526756	germaniques	-0.06397125
-4.1526756	slaves	-0.06397125
-4.1526756	traversé	-0.06397125
-4.1526756	Moravie	-0.06397125
-4.1526756	migration	-0.06397125
-4.1526756	Slaves	-0.06397125
-4.1526756	installent	-0.06397125
-4.035661	définitivement	-0.06397125
-4.1526756	sixième	-0.06397125
-4.1526756	huitième	-0.06397125
-4.1526756	principauté	-0.06397125
-4.1526756	morave	-0.06397125
-4.1526756	Záhorie	-0.06397125
-4.1526756	sud-ouest	-0.06397125
-4.035661	Slovaquie	-0.06397125
-3.8422177	certaines	-0.06397125
-3.8422177	parties	-0.06397125
-4.1526756	Basse-Autriche	-0.06397125
-4.035661	actuelles	-0.06397125
-4.1526756	Grande-Moravie	-0.06397125
-4.1526756	conquête	-0.06397125
-4.1526756	Nitra	-0.06397125
-4.035661	Mojmír	-0.06397125
-4.1526756	régna	-0.06397125
-4.035661	Louis	-0.06397125
-3.5827298	II	-0.06397125
-4.1526756	Bavière	-0.06397125
-4.1526756	envahit	-0.06397125
-4.1526756	remplaça	-0.06397125
-4.1526756	neveu	-0.06397125
-4.1526756	Rastiz	-0.06397125
-3.8422177	Saint	-0.06397125
-4.1526756	Rastislav	-0.06397125
-4.035661	détermine	-0.06397125
-4.1526756	regroupement	-0.06397125
-3.693375	régions	-0.06397125
-4.1526756	arrondissements	-0.06397125
-4.1526756	Islande	-0.06397125
-4.1526756	fût	-0.06397125
-4.1526756	Danemark	-0.06397125
-4.1526756	jusque	-0.06397125
-4.035661	danois	-0.06397125
-3.8422177	influence	-0.13660894
-4.035661	langue	-0.06397125
-4.1526756	islandaise	-0.06397125
-4.1526756	emprunts	-0.06397125
-4.035661	langues	-0.06397125
-4.1526756	dérivées	-0.06397125
-4.1526756	finnois	-0.06397125
-4.1526756	évolué	-0.06397125
-4.1526756	indépendamment	-0.06397125
-4.1526756	meänkieli	-0.06397125
-4.1526756	Suède	-0.06397125
-4.1526756	kvène	-0.06397125
-4.035661	Norvège	-0.06397125
-4.1526756	alternance	-0.06397125
-4.1526756	consonantique	-0.06397125
-4.035661	propriété	-0.06397125
-4.035661	dialectes	-0.17805827
-4.1526756	sami	-0.06397125
-3.8422177	retrouve	-0.06397125
-4.1526756	Caucase	-0.06397125
-4.035661	connue	-0.06397125
-3.693375	nom	-0.10608127
-4.1526756	Ciscaucasie	-0.06397125
-4.1526756	Transcaucasie	-0.06397125
-4.035661	atmosphère	-0.06397125
-4.1526756	chaotique	-0.06397125
-4.1526756	infimes	-0.06397125
-3.8422177	entier	-0.3270773
-4.1526756	Lors	-0.06397125
-4.1526756	précipitations	-0.06397125
-4.1526756	pluie	-0.06397125
-4.1526756	gouttes	-0.06397125
-3.693375	eau	-0.08980782
-4.1526756	absorbent	-0.06397125
-4.1526756	dissolvent	-0.06397125
-4.1526756	dioxide	-0.06397125
-4.1526756	issu	-0.06397125
-4.1526756	environnant	-0.06397125
-4.1526756	préparatifs	-0.06397125
-3.693375	Jeux	-0.45201606
-4.1526756	Olympiques	-0.06397125
-4.1526756	météorologique	-0.06397125
-4.1526756	Formée	-0.06397125
-4.035661	forces	-0.06397125
-4.1526756	tectoniques	-0.06397125
-4.1526756	planétaires	-0.06397125
-4.035661	créé	-0.06397125
-4.1526756	rift	-0.06397125
-4.1526756	est-africain	-0.06397125
-4.1526756	trouvent	-0.06397125
-4.1526756	Kilimandjaro	-0.06397125
-4.1526756	mont	-0.06397125
-4.1526756	Kenya	-0.06397125
-4.1526756	pics	-0.06397125
-4.1526756	propagé	-0.06397125
-4.1526756	religion	-0.06397125
-4.035661	islamique	-0.06397125
-4.035661	bande	-0.06397125
-4.1526756	côtière	-0.06397125
-4.1526756	Bantous	-0.06397125
-4.1526756	rapprochés	-0.06397125
-4.1526756	islam	-0.06397125
-4.1526756	restés	-0.06397125
-4.1526756	traditionnelle	-0.06397125
-4.1526756	africaine	-0.06397125
-4.1526756	intégré	-0.06397125
-3.8422177	économie	-0.1172792
-3.8422177	Cameroun	-0.06397125
-4.1526756	sienne	-0.06397125
-4.035661	amélioré	-0.06397125
-4.1526756	infrastructure	-0.06397125
-4.1526756	capitaux	-0.06397125
-4.035661	travailleurs	-0.06397125
-4.035661	modifiant	-0.06397125
-3.8422177	1er	-0.1172792
-3.8422177	ancien	-0.1172792
-4.1526756	unit	-0.06397125
-4.035661	français	-0.06397125
-4.1526756	Fédérale	-0.06397125
-4.1526756	pires	-0.06397125
-4.1526756	formes	-0.06397125
-4.1526756	Département	-0.06397125
-4.1526756	âgés	-0.06397125
-4.1526756	travaillaient	-0.06397125
-4.1526756	alliaient	-0.06397125
-3.693375	climat	-0.10608127
-4.035661	Sahel	-0.06397125
-4.035661	similaire	-0.06397125
-3.8422177	désert	-0.06397125
-4.1526756	saharien	-0.06397125
-4.1526756	famine	-0.06397125
-4.1526756	touché	-0.06397125
-3.693375	août	-0.24494186
-3.8422177	civilisations	-0.06397125
-4.1526756	antiques	-0.06397125
-4.1526756	développées	-0.06397125
-4.1526756	côtes	-0.06397125
-4.035661	méditerranéennes	-0.06397125
-3.693375	grandement	-0.06397125
-4.1526756	influencées	-0.06397125
-4.035661	communautés	-0.06397125
-4.1526756	servait	-0.06397125
-4.1526756	passage	-0.06397125
-4.035661	permettant	-0.06397125
-4.1526756	commercer	-0.06397125
-4.1526756	coloniser	-0.06397125
-4.1526756	offrait	-0.06397125
-4.1526756	collecte	-0.06397125
-4.1526756	fruits	-0.06397125
-4.1526756	Parce	-0.06397125
-4.1526756	partageaient	-0.06397125
-4.1526756	géologie	-0.06397125
-4.1526756	croiser	-0.06397125
-4.1526756	méditéranéennes	-0.06397125
-4.1526756	antiquité	-0.06397125
-4.1526756	Grecs	-0.06397125
-4.1526756	Phéniciens	-0.06397125
-4.1526756	amplement	-0.06397125
-4.1526756	colonisé	-0.06397125
-4.1526756	littoraux	-0.06397125
-4.1526756	Méditerranée	-0.06397125
-4.035661	Auguste	-0.06397125
-4.1526756	fonda	-0.06397125
-4.035661	Empire	-0.10608127
-4.035661	romain	-0.17805827
-4.1526756	Romains	-0.06397125
-4.1526756	baptisèrent	-0.06397125
-4.1526756	Mare	-0.06397125
-4.1526756	Nostrum	-0.06397125
-4.035661	Mer	-0.06397125
-4.1526756	Blindleia	-0.06397125
-4.1526756	naviguable	-0.06397125
-4.1526756	entourée	-0.06397125
-4.1526756	récifs	-0.06397125
-4.1526756	Kristiansand	-0.06397125
-4.1526756	étend	-0.06397125
-4.1526756	Lillesand	-0.06397125
-4.035661	mot	-0.06397125
-4.1526756	désigner	-0.06397125
-4.1526756	lagons	-0.06397125
-4.035661	profonds	-0.17805827
-4.1526756	fjords	-0.06397125
-4.1526756	lacs	-0.06397125
-4.1526756	douce	-0.06397125
-4.1526756	boissons	-0.06397125
-4.1526756	alcoolisées	-0.06397125
-4.1526756	bière	-0.06397125
-4.1526756	hydromel	-0.06397125
-4.1526756	bjórr	-0.06397125
-4.035661	vin	-0.06397125
-4.1526756	fruité	-0.06397125
-3.693375	assez	-0.06397125
-4.1526756	riches	-0.06397125
-4.1526756	importé	-0.06397125
-4.1526756	consommées	-0.06397125
-4.1526756	Quelles	-0.06397125
-4.1526756	fussent	-0.06397125
-4.1526756	combats	-0.06397125
-4.1526756	terminaient	-0.06397125
-4.1526756	étalons	-0.06397125
-4.1526756	Schlei	-0.06397125
-3.8422177	zones	-0.06397125
-4.1526756	humides	-0.06397125
-4.035661	Danevirke	-0.06397125
-4.1526756	Husum	-0.06397125
-4.1526756	gelé	-0.06397125
-4.1526756	rude	-0.06397125
-3.4214184	terres	-0.09362752
-4.1526756	conquises	-0.06397125
-3.8422177	allemande	-0.06397125
-4.1526756	continuait	-0.06397125
-4.1526756	progresser	-0.06397125
-4.035661	retraite	-0.17805827
-4.1526756	surprise	-0.06397125
-4.1526756	austro-prussienne	-0.06397125
-4.035661	danoise	-0.06397125
-4.1526756	réussit	-0.06397125
-4.1526756	évacuer	-0.06397125
-3.693375	pièces	-0.06397125
-4.1526756	artillerie	-0.06397125
-4.1526756	lourde	-0.06397125
-3.4214184	furent	-0.06397125
-4.1526756	abandonnées	-0.06397125
-4.1526756	raisons	-0.06397125
-4.035661	lesquelles	-0.06397125
-4.1526756	ferrée	-0.06397125
-4.1526756	Flensburg	-0.06397125
-4.1526756	évacuation	-0.06397125
-4.1526756	sujettes	-0.06397125
-3.8422177	historiens	-0.06397125
-4.035661	opinion	-0.06397125
-4.1526756	imprenable	-0.06397125
-4.1526756	Meza	-0.06397125
-4.1526756	relevé	-0.06397125
-4.035661	commandement	-0.06397125
-4.1526756	restée	-0.06397125
-4.035661	possession	-0.17805827
-4.1526756	marchandises	-0.06397125
-4.1526756	transportées	-0.06397125
-4.1526756	via	-0.06397125
-4.035661	Danube	-0.06397125
-4.1526756	augmenté	-0.06397125
-4.1526756	tonnes	-0.06397125
-4.1526756	delta	-0.06397125
-4.1526756	Roumanie	-0.06397125
-4.1526756	județ	-0.06397125
-4.1526756	Tulcea	-0.06397125
-4.1526756	rive	-0.06397125
-4.1526756	gauche	-0.06397125
-4.1526756	Chilia	-0.06397125
-4.1526756	situe	-0.06397125
-4.035661	Ukraine	-0.06397125
-4.1526756	oblast	-0.06397125
-4.1526756	Odessa	-0.06397125
-4.1526756	sec	-0.06397125
-3.8422177	plaines	-0.13660894
-4.1526756	confondues	-0.06397125
-4.1526756	Sahara	-0.06397125
-4.1526756	diffère	-0.06397125
-4.035661	ouest	-0.06397125
-4.1526756	topographiques	-0.06397125
-4.1526756	ressemblent	-0.06397125
-4.1526756	Algérie	-0.06397125
-4.1526756	tempérée	-0.06397125
-4.1526756	méditerranéen	-0.06397125
-4.1526756	doux	-0.06397125
-4.1526756	rivière	-0.06397125
-4.1526756	Ohio	-0.06397125
-4.1526756	affluent	-0.06397125
-4.035661	fleuve	-0.06397125
-4.1526756	Mississippi	-0.06397125
-4.1526756	Kansas	-0.06397125
-4.035661	rejoindre	-0.06397125
-4.1526756	esclavagiste	-0.06397125
-4.1526756	libre	-0.06397125
-4.1526756	cœur	-0.06397125
-4.1526756	réactions	-0.06397125
-4.1526756	nationales	-0.06397125
-4.1526756	survenus	-0.06397125
-3.8422177	démontré	-0.06397125
-3.8422177	divisé	-0.06397125
-3.8422177	termes	-0.13660894
-4.1526756	couleur	-0.06397125
-4.035661	possèdent	-0.06397125
-4.1526756	variété	-0.06397125
-4.1526756	verts	-0.06397125
-4.1526756	vert-jaune	-0.06397125
-4.1526756	vert-bleu	-0.06397125
-4.1526756	constituaient	-0.06397125
-4.1526756	Amérindiens	-0.06397125
-4.1526756	églises	-0.06397125
-4.1526756	chrétiennes	-0.06397125
-3.693375	Europe	-0.15803096
-4.1526756	rameaux	-0.06397125
-4.1526756	saule	-0.06397125
-4.035661	palmiers	-0.06397125
-4.1526756	Rameaux	-0.06397125
-4.035661	Alpes	-0.06397125
-4.1526756	bénéficient	-0.06397125
-4.1526756	potable	-0.06397125
-4.1526756	irrigation	-0.06397125
-4.1526756	hydroélectrique	-0.06397125
-3.8422177	représente	-0.06397125
-4.035661	continent	-0.06397125
-4.1526756	offrent	-0.06397125
-4.1526756	endroits	-0.06397125
-4.1526756	secs	-0.06397125
-4.1526756	Milan	-0.06397125
-4.035661	dépendent	-0.06397125
-3.8422177	sources	-0.06397125
-4.1526756	alpines	-0.06397125
-4.035661	fleuves	-0.06397125
-3.8422177	centrales	-0.06397125
-4.1526756	hydroélectriques	-0.06397125
-4.1526756	génèrent	-0.06397125
-4.1526756	kilowatts	-0.06397125
-4.1526756	électricité	-0.06397125
-4.1526756	rivières	-0.06397125
-4.1526756	Rhin	-0.06397125
-4.1526756	Rhône	-0.06397125
-4.1526756	Inn	-0.06397125
-4.1526756	Tessin	-0.06397125
-4.1526756	Pô	-0.06397125
-4.1526756	prennent	-0.06397125
