\data\
ngram 1=2929
ngram 2=7392
ngram 3=9069
ngram 4=9058
ngram 5=8751

\1-grams:
-3.8997788	<unk>	0
0	<s>	-0.43461633
-1.9653376	</s>	0
-3.5545561	cela	-0.056805037
-3.7958052	signifie	-0.056805037
-2.1439815	que	-0.24941349
-3.0198584	leur	-0.056805037
-3.6279054	consommation	-0.17883521
-3.7958052	énergétique	-0.056805037
-1.3172368	,	-0.32841697
-2.2770119	qui	-0.16083364
-3.7958052	représente	-0.056805037
-3.3828125	actuellement	-0.056805037
-1.9991689	__DIGIT__	-0.3577556
-3.7958052	%	-0.056805037
-1.3148042	de	-0.28785706
-2.0358598	la	-0.1328651
-3.6279054	moyenne	-0.1342388
-2.104873	l'	-0.12798128
-3.7958052	UE	-0.056805037
-3.7958052	enregistrera	-0.056805037
-2.112418	une	-0.07961176
-3.6279054	forte	-0.056805037
-3.5545561	augmentation	-0.1342388
-1.761343	à	-0.3310258
-3.5545561	mesure	-0.056805037
-2.5251248	qu'	-0.37336776
-3.2600641	ils	-0.056805037
-3.7958052	exigeront	-0.056805037
-1.8116225	des	-0.09933533
-3.7958052	commodités	-0.056805037
-3.7958052	élémentaires	-0.056805037
-2.9623404	comme	-0.076591745
-3.6279054	eau	-0.056805037
-3.7958052	chaude	-0.056805037
-1.7162852	et	-0.22555141
-3.3828125	peut-être	-0.056805037
-3.0198584	même	-0.056805037
-3.7958052	air	-0.056805037
-3.7958052	conditionné	-0.056805037
-3.7958052	moyens	-0.056805037
-3.7958052	transport	-0.056805037
-3.7958052	modernisation	-0.056805037
-3.3828125	leurs	-0.056805037
-3.7958052	industries	-0.056805037
-1.4454151	.	-1.8983905
-3.7958052	Nous	-0.056805063
-3.6279054	avons	-0.056805037
-3.7958052	noté	-0.056805037
-3.7958052	production	-0.056805037
-1.8003476	d'	-0.18112147
-3.7958052	électricité	-0.056805037
-3.7958052	correspond	-0.056805037
-3.6279054	émissions	-0.17883521
-3.7958052	CO2	-0.056805037
-3.7958052	imputables	-0.056805037
-3.5545561	homme	-0.056805037
-3.7958052	Je	-0.056805037
-3.5545561	me	-0.056805037
-3.6279054	pose	-0.056805037
-2.7527654	également	-0.0712265
-3.3828125	questions	-0.056805037
-3.3828125	quant	-0.5333251
-3.7958052	sagesse	-0.056805037
-3.7958052	EU	-0.056805037
-2.8249438	sa	-0.056805037
-3.6279054	réaction	-0.056805037
-3.7958052	formation	-0.056805037
-1.8641758	du	-0.12327917
-3.6279054	gouvernement	-0.056805063
-1.9599468	en	-0.13797091
-3.7958052	Autriche	-0.056805037
-3.6279054	manière	-0.056805037
-3.0198584	dont	-0.13550845
-3.7958052	affectera	-0.056805037
-3.6279054	opinion	-0.056805037
-3.6279054	publique	-0.056805037
-3.7958052	là-bas	-0.056805037
-3.7958052	Aux	-0.056805037
-3.7958052	États-Unis	-0.056805037
-2.0358598	le	-0.12833792
-3.6279054	traité	-0.056805037
-3.7958052	OMPI	-0.056805037
-2.2448761	est	-0.1229723
-3.2600641	déjà	-0.056805037
-3.7958052	entré	-0.056805037
-3.7958052	vigueur	-0.056805037
-2.2149553	au	-0.10246528
-3.6279054	moyen	-0.056805037
-3.7958052	Digital	-0.056805037
-3.7958052	Millenium	-0.056805037
-3.7958052	Corporate	-0.056805037
-3.7958052	Act	-0.056805037
-2.720727	cette	-0.1313573
-3.7958052	législative	-0.056805037
-2.1869636	a	-0.23100652
-3.7958052	permis	-0.056805037
-3.7958052	sauvegarder	-0.056805037
-3.7958052	équilibre	-0.056805037
-3.6279054	délicat	-0.056805037
-3.6279054	Les	-0.06757601
-3.7958052	recommandations	-0.056805037
-3.7958052	proposées	-0.056805037
-2.5663962	n'	-0.22774792
-3.7958052	amélioreront	-0.056805037
-2.3907497	pas	-0.12725618
-3.7958052	position	-0.056805037
-3.7958052	culture	-0.056805037
-3.6279054	Europe	-0.056805037
-3.1644735	bien	-0.056805037
-3.7958052	contraire	-0.056805037
-3.6279054	En	-0.07227517
-3.3828125	tant	-0.11354809
-3.7958052	remarque	-0.056805037
-3.7958052	isolée	-0.056805037
-3.3828125	je	-0.101590835
-3.6279054	voudrais	-0.056805037
-3.2600641	donc	-0.056805063
-3.7958052	remercier	-0.056805037
-3.5545561	Mme	-0.056805063
-3.7958052	Cederschiöld	-0.056805037
-3.0198584	fait	-0.056805037
-3.3828125	elle	-0.08111396
-3.7958052	ait	-0.056805037
-3.7958052	clarifié	-0.056805037
-2.0974567	par	-0.31636408
-3.6279054	exemple	-0.09379843
-3.7958052	notion	-0.056805037
-3.7958052	desdites	-0.056805037
-3.7958052	copies	-0.056805037
-3.7958052	temporaires	-0.056805037
-2.127913	dans	-0.50479215
-2.7873569	son	-0.082587115
-3.6279054	avis	-0.056805037
-3.1644735	Le	-0.069895476
-3.3828125	nouveau	-0.056805037
-3.6279054	cadre	-0.11354809
-3.6279054	action	-0.056805037
-3.6279054	constitue	-0.056805037
-3.6279054	surtout	-0.056805037
-3.7958052	énorme	-0.056805037
-3.7958052	possibilité	-0.056805037
-3.7958052	créer	-0.056805037
-3.7958052	diffuser	-0.056805037
-3.3828125	selon	-0.056805037
-3.7958052	modalités	-0.056805037
-3.7958052	inédites	-0.056805037
-3.7958052	Il	-0.056805037
-3.6279054	essentiel	-0.056805037
-3.7958052	considérer	-0.056805037
-2.1606674	les	-0.10020954
-3.6279054	intérêts	-0.056805037
-3.1644735	toutes	-0.43677568
-3.7958052	parties	-0.056805037
-2.1606674	(	-0.11946222
-3.7958052	EN	-0.056805037
-2.1439815	)	-0.35495666
-3.6279054	J'	-0.11354809
-3.5545561	ai	-0.056805037
-3.7958052	voté	-0.056805037
-3.7958052	faveur	-0.056805037
-3.2600641	rapport	-0.056805037
-3.7958052	Stenzel	-0.056805037
-2.2448761	sur	-0.43263775
-3.6279054	initiative	-0.056805037
-3.7958052	EQUAL	-0.056805037
-3.6279054	car	-0.056805037
-3.3828125	pense	-0.17883521
-2.9623404	il	-0.22719981
-3.7958052	poursuivre	-0.056805037
-3.5545561	travail	-0.1342388
-3.0198584	été	-0.056805037
-3.7958052	entamé	-0.056805037
-2.5058725	avec	-0.1713334
-3.7958052	précédentes	-0.056805037
-3.7958052	composantes	-0.056805037
-3.7958052	NOW	-0.056805037
-3.7958052	Horizon	-0.056805037
-3.7958052	Youthstart	-0.056805037
-3.7958052	Integra	-0.056805037
-3.7958052	initiatives	-0.056805037
-3.7958052	ADAPT	-0.056805037
-3.7958052	Employment	-0.056805037
-3.7958052	Au	-0.056805037
-3.5545561	cours	-0.1342388
-3.7958052	dernière	-0.056805037
-3.5545561	période	-0.11354809
-3.7958052	programmation	-0.056805037
-3.5545561	fonds	-0.056805037
-3.7958052	structurels	-0.056805037
-2.5251248	ont	-0.17373109
-3.7958052	alloués	-0.056805037
-3.7958052	communautaires	-0.056805037
-3.7958052	Revenons	-0.056805037
-3.7958052	-en	-0.056805037
-3.7958052	actualité	-0.056805037
-2.5452704	ne	-0.09765905
-3.7958052	pouvons	-0.056805037
-3.2600641	nous	-0.09379843
-3.5545561	demander	-0.056805037
-2.720727	ce	-0.11298227
-3.7958052	adviendra	-0.056805037
-3.6279054	Kosovo	-0.056805037
-3.2600641	encore	-0.09379843
-3.7958052	lu	-0.056805037
-3.7958052	ni	-0.056805037
-3.6279054	entendu	-0.056805037
-3.5545561	Conseil	-0.056805037
-2.662973	s'	-0.16397081
-3.1644735	y	-0.0883168
-3.2600641	soit	-0.056805063
-3.7958052	intéressé	-0.056805037
-3.3828125	demande	-0.11354809
-3.6279054	vraiment	-0.056805037
-2.9623404	si	-0.29000124
-3.7958052	possède	-0.056805037
-2.2770119	un	-0.13040161
-3.7958052	minimum	-0.056805037
-3.7958052	humanité	-0.056805037
-3.5545561	!	-0.40838635
-3.6279054	Si	-0.056805037
-3.7958052	représentants	-0.056805037
-3.2600641	avaient	-0.056805063
-3.5545561	fils	-0.1342388
-3.7958052	frère	-0.056805037
-2.4874372	ou	-0.12938848
-3.7958052	père	-0.056805037
-3.7958052	prisons	-0.056805037
-3.6279054	serbes	-0.056805037
-3.7958052	réagiraient	-0.056805037
-2.5663962	plus	-0.11897308
-3.6279054	vite	-0.056805037
-3.7958052	croyez	-0.056805037
-3.7958052	-moi	-0.056805037
-3.7958052	Comme	-0.056805037
-2.7873569	vous	-0.19539928
-3.3828125	tous	-0.11354809
-3.3828125	j'	-0.09379843
-3.7958052	entends	-0.056805037
-3.6279054	appels	-0.056805037
-3.2600641	aide	-0.056805063
-3.7958052	mères	-0.056805037
-3.6279054	épouses	-0.056805037
-3.7958052	soeurs	-0.056805037
-3.7958052	Kosovars	-0.056805037
-3.7958052	albanais	-0.056805037
-3.7958052	croupissent	-0.056805037
-3.7958052	geôles	-0.056805037
-3.6279054	aucun	-0.056805037
-3.7958052	motif	-0.056805037
-2.104873	pour	-0.20262487
-3.5545561	soient	-0.056805037
-3.7958052	Elle	-0.056805063
-3.7958052	condamnée	-0.056805037
-3.6279054	parce	-0.17883521
-3.1644735	médecin	-0.08425051
-3.7958052	porté	-0.056805037
-3.7958052	secours	-0.056805037
-3.7958052	blessés	-0.056805037
-2.8660946	deux	-0.056805037
-3.7958052	camps	-0.056805037
-3.7958052	Personne	-0.056805037
-3.6279054	femme	-0.056805037
-3.7958052	sortir	-0.056805037
-3.6279054	prison	-0.09379843
-3.6279054	crois	-0.056805037
-3.7958052	ministres	-0.056805037
-3.7958052	intéresse	-0.056805037
-3.0198584	moins	-0.076591745
-3.6279054	monde	-0.056805037
-2.9623404	ces	-0.074907966
-3.7958052	tragédies	-0.056805037
-3.5545561	seulement	-0.101590835
-3.7958052	exiger	-0.056805037
-3.6279054	Serbes	-0.056805037
-2.6120055	se	-0.10536379
-3.7958052	comportent	-0.056805037
-3.7958052	correctement	-0.056805037
-3.7958052	devons	-0.056805037
-3.6279054	obliger	-0.056805037
-3.6279054	ceux	-0.056805037
-3.5545561	sommes	-0.056805037
-3.6279054	venus	-0.056805037
-3.6279054	répondre	-0.056805037
-3.7958052	violence	-0.056805037
-3.7958052	C'	-0.056805037
-3.7958052	pourquoi	-0.056805037
-3.7958052	attends	-0.056805037
-3.3828125	tout	-0.09379843
-3.7958052	Albanais	-0.056805037
-3.7958052	laissent	-0.056805037
-3.7958052	troupes	-0.056805037
-3.7958052	KFOR	-0.056805037
-3.6279054	paix	-0.056805037
-3.7958052	estimons	-0.056805037
-3.5545561	possible	-0.056805037
-3.7958052	concilier	-0.056805037
-3.0861742	politique	-0.0883168
-3.7958052	pêche	-0.056805037
-3.7958052	basée	-0.056805037
-3.6279054	conservation	-0.056805037
-3.7958052	milieu	-0.056805037
-3.7958052	marin	-0.056805037
-3.7958052	communautés	-0.056805037
-3.7958052	pêcheurs	-0.056805037
-3.7958052	Pouvez	-0.056805037
-3.7958052	-vous	-0.056805037
-3.5545561	donner	-0.056805037
-3.7958052	mêmes	-0.056805037
-3.7958052	garanties	-0.056805037
-3.5545561	concerne	-0.056805037
-3.7958052	taxe	-0.056805037
-3.7958052	proposée	-0.056805037
-3.7958052	carburants	-0.056805037
-3.7958052	avions	-0.056805037
-3.7958052	débattue	-0.056805037
-3.7958052	sein	-0.056805037
-3.7958052	Écofin	-0.056805037
-3.6279054	semaine	-0.056805037
-3.7958052	impôt	-0.056805037
-3.7958052	sociétés	-0.056805037
-3.7958052	Union	-0.056805037
-3.5545561	européenne	-0.08425051
-3.0861742	?	-0.77636313
-3.5545561	Y	-0.056805037
-3.7958052	-t	-0.056805037
-3.6279054	-il	-0.056805037
-3.7958052	circonstances	-0.056805037
-3.7958052	lesquelles	-0.056805037
-3.7958052	Commission	-0.056805037
-3.7958052	chercherait	-0.056805037
-3.7958052	utiliser	-0.056805037
-3.6279054	vote	-0.056805037
-3.7958052	majorité	-0.056805037
-3.7958052	qualifiée	-0.056805037
-3.6279054	sujets	-0.056805037
-3.7958052	On	-0.056805037
-3.7958052	aperçoit	-0.056805037
-2.5663962	aux	-0.07755681
-3.6279054	nombreuses	-0.056805037
-3.7958052	lettres	-0.056805037
-3.7958052	recevons	-0.056805037
-3.7958052	organisations	-0.056805037
-3.7958052	environnementales	-0.056805037
-3.1644735	mais	-0.09732312
-3.1644735	aussi	-0.056805037
-3.7958052	secteur	-0.056805037
-3.7958052	économique	-0.056805037
-3.7958052	tête	-0.056805037
-3.7958052	industrie	-0.056805037
-3.7958052	ciment	-0.056805037
-3.6279054	beaucoup	-0.056805037
-3.1644735	autres	-0.056805037
-3.7958052	secteurs	-0.056805037
-3.7958052	transformation	-0.056805037
-3.7958052	bois	-0.056805037
-3.7958052	papier	-0.056805037
-3.7958052	métal	-0.056805037
-3.7958052	etc.	-0.056805037
-3.7958052	introduit	-0.056805037
-3.5545561	commission	-0.101590835
-3.7958052	environnement	-0.056805037
-3.7958052	santé	-0.056805037
-3.7958052	consommateurs	-0.056805037
-3.3828125	proposition	-0.056805037
-3.6279054	concernant	-0.056805037
-3.7958052	NOX	-0.056805037
-3.2600641	cas	-0.056805063
-3.7958052	coïncinération	-0.056805037
-3.7958052	ambitieuse	-0.056805037
-3.7958052	celles	-0.056805037
-3.7958052	Monsieur	-0.056805037
-3.7958052	Président	-0.056805037
-3.6279054	nom	-0.1342388
-3.5545561	groupe	-0.056805037
-3.6279054	parti	-0.056805037
-3.7958052	socialistes	-0.056805037
-3.5545561	européens	-0.056805037
-3.7958052	réjouir	-0.056805037
-3.5545561	résolution	-0.056805037
-3.7958052	Malmström	-0.056805037
-3.7958052	faut	-0.056805037
-3.7958052	accorder	-0.056805037
-3.5545561	attention	-0.056805037
-3.7958052	particulière	-0.056805037
-2.720727	-	-0.09281625
-3.3828125	c'	-0.2905446
-3.7958052	objet	-0.056805037
-3.7958052	amendement	-0.056805037
-3.7958052	présenterons	-0.056805037
-3.6279054	demain	-0.056805037
-3.7958052	plénière	-0.056805037
-3.2600641	droit	-0.09379843
-3.6279054	vie	-0.1342388
-3.7958052	privée	-0.056805037
-3.3828125	hommes	-0.056805063
-3.3828125	femmes	-0.15153179
-3.7958052	citoyens	-0.056805037
-3.0861742	non	-0.0883168
-3.7958052	simples	-0.056805037
-3.7958052	numéros	-0.056805037
-3.7958052	Enfin	-0.056805037
-3.7958052	profiter	-0.056805037
-3.6279054	occasion	-0.056805037
-3.6279054	rappeler	-0.056805037
-3.5545561	collègues	-0.056805037
-3.3828125	on	-0.056805037
-3.7958052	récolté	-0.056805037
-3.7958052	cent	-0.056805037
-3.6279054	signatures	-0.17883521
-3.3828125	députés	-0.101590835
-3.6279054	soutenir	-0.056805037
-3.7958052	candidature	-0.056805037
-3.7958052	prix	-0.056805037
-3.7958052	Nobel	-0.056805037
-3.7958052	Mères	-0.056805037
-3.2600641	place	-0.056805037
-3.7958052	Mai	-0.056805037
-3.7958052	conséquence	-0.056805037
-3.5545561	devrait	-0.056805037
-3.7958052	éclaircissements	-0.056805037
-3.7958052	idées	-0.056805037
-2.8249438	très	-0.056805037
-3.7958052	strictes	-0.056805037
-3.7958052	claires	-0.056805037
-3.6279054	Parlement	-0.11354809
-3.7958052	considérons	-0.056805037
-3.6279054	certaines	-0.056805037
-3.7958052	soulevées	-0.056805037
-3.7958052	baronne	-0.056805037
-3.7958052	Ludford	-0.056805037
-3.3828125	certains	-0.056805063
-3.6279054	problèmes	-0.056805037
-3.6279054	soulevés	-0.056805037
-3.7958052	Boumediene-Thiery	-0.056805037
-2.8249438	sont	-0.056805037
-3.7958052	importants	-0.056805037
-3.1644735	doivent	-0.26489592
-2.720727	être	-0.056805037
-3.7958052	envisagés	-0.056805037
-3.7958052	règlement	-0.056805037
-3.7958052	protection	-0.056805037
-3.7958052	temporaire	-0.056805037
-3.7958052	subsidiaire	-0.056805037
-3.7958052	prépare	-0.056805037
-3.7958052	activement	-0.056805037
-3.6279054	sûr	-0.056805037
-3.6279054	preuve	-0.056805037
-3.7958052	générosité	-0.056805037
-3.5545561	sens	-0.056805037
-3.7958052	confié	-0.056805037
-3.7958052	gestion	-0.056805037
-3.7958052	fonctionnement	-0.056805037
-3.6279054	technique	-0.056805037
-3.7958052	Cette	-0.056805037
-3.2600641	solution	-0.056805063
-3.7958052	équilibrée	-0.056805037
-3.6279054	permettra	-0.056805037
-3.7958052	détendue	-0.056805037
-3.7958052	confiante	-0.056805037
-3.7958052	réserves	-0.056805037
-3.6279054	doutes	-0.056805037
-3.3828125	politiques	-0.056805063
-3.2600641	lors	-0.38083437
-3.7958052	débat	-0.056805037
-3.7958052	suis	-0.056805037
-3.7958052	têtu	-0.056805037
-3.7958052	sincèrement	-0.056805037
-3.6279054	espère	-0.17883521
-3.7958052	incitera	-0.056805037
-3.7958052	adopter	-0.056805037
-3.7958052	attitude	-0.056805037
-3.6279054	active	-0.056805037
-3.7958052	moi	-0.056805037
-3.7958052	défaut	-0.056805037
-3.2600641	jusqu'	-0.30165312
-3.5545561	présent	-0.056805037
-3.7958052	invite	-0.056805037
-3.6279054	prendre	-0.056805037
-3.7958052	signal	-0.056805037
-3.6279054	grand	-0.056805037
-3.7958052	sérieux	-0.056805037
-3.6279054	fournir	-0.056805037
-3.7958052	Ils	-0.056805037
-3.7958052	assurés	-0.056805037
-3.7958052	Irak	-0.056805037
-3.7958052	dispose	-0.056805037
-3.7958052	aucune	-0.056805037
-3.7958052	fusée	-0.056805037
-3.7958052	longue	-0.056805037
-3.6279054	portée	-0.056805037
-3.7958052	pouvant	-0.056805037
-3.7958052	menacer	-0.056805037
-2.9623404	ses	-0.056805063
-3.3828125	voisins	-0.056805037
-3.7958052	Sans	-0.056805037
-3.7958052	moindre	-0.056805037
-3.7958052	Washington	-0.056805037
-3.7958052	continue	-0.056805037
-3.7958052	accuser	-0.056805037
-3.7958052	fabriquer	-0.056805037
-3.7958052	secrètement	-0.056805037
-3.6279054	armes	-0.056805037
-3.7958052	biologiques	-0.056805037
-3.7958052	chimiques	-0.056805037
-3.7958052	Selon	-0.056805037
-3.7958052	agences	-0.056805037
-3.7958052	humanitaires	-0.056805037
-3.7958052	ONU	-0.056805037
-3.2600641	plusieurs	-0.056805037
-3.7958052	centaines	-0.056805037
-3.7958052	milliers	-0.056805037
-3.7958052	Irakiens	-0.056805037
-3.6279054	quelque	-0.056805037
-3.6279054	500	-0.056805037
-3.0861742	000	-0.0883168
-3.1644735	enfants	-0.12229514
-3.5545561	morts	-0.056805037
-3.7958052	prématurément	-0.056805037
-3.5545561	raison	-0.15153179
-3.7958052	embargo	-0.056805037
-3.7958052	faute	-0.056805037
-3.5545561	produits	-0.056805037
-3.7958052	alimentaires	-0.056805037
-3.1644735	médicaments	-0.1930912
-3.7958052	soins	-0.056805037
-3.7958052	adéquats	-0.056805037
-3.7958052	soumettrons	-0.056805037
-3.6279054	aujourd'hui	-0.056805037
-3.7958052	Madame	-0.056805037
-3.6279054	Présidente	-0.056805037
-3.7958052	appris	-0.056805037
-3.6279054	hier	-0.056805037
-3.7958052	soir	-0.056805037
-3.1644735	M.	-0.056805037
-3.7958052	Akim	-0.056805037
-3.7958052	Birdal	-0.056805037
-3.5545561	ancien	-0.12229514
-3.3828125	président	-0.101590835
-3.6279054	comité	-0.17883521
-3.6279054	droits	-0.056805037
-3.7958052	Turquie	-0.056805037
-3.6279054	remis	-0.056805037
-3.7958052	serait	-0.056805037
-3.7958052	bienvenu	-0.056805037
-3.7958052	vous-même	-0.056805037
-3.6279054	européen	-0.056805037
-3.7958052	adressiez	-0.056805037
-3.6279054	formes	-0.056805037
-3.7958052	conviendraient	-0.056805037
-3.7958052	autorités	-0.056805037
-3.7958052	turques	-0.056805037
-3.7958052	libération	-0.056805037
-3.3828125	cet	-0.056805037
-3.6279054	honneur	-0.056805037
-3.7958052	répète	-0.056805037
-3.7958052	parler	-0.056805037
-3.7958052	aidées	-0.056805037
-3.7958052	grandeur	-0.056805037
-2.1692572	"	-0.21935618
-3.7958052	répétons	-0.056805037
-3.7958052	insistance	-0.056805037
-2.4364083	:	-0.14771576
-3.2600641	fois	-0.09379843
-3.7958052	union	-0.056805037
-3.6279054	États	-0.056805037
-3.7958052	peuples	-0.056805037
-3.7958052	Ceci	-0.056805037
-3.7958052	présente	-0.056805037
-3.7958052	avantage	-0.056805037
-3.7958052	solde	-0.056805037
-3.7958052	résultant	-0.056805037
-3.6279054	comptes	-0.056805037
-3.5545561	peut	-0.056805037
-3.7958052	reporté	-0.056805037
-3.6279054	année	-0.056805037
-3.6279054	suivante	-0.056805037
-3.7958052	Bien	-0.056805037
-3.7958052	800	-0.056805037
-3.7958052	tonnes	-0.056805037
-3.6279054	urgence	-0.056805037
-3.7958052	promises	-0.056805037
-3.7958052	communauté	-0.056805037
-3.7958052	internationale	-0.056805037
-3.7958052	envoyées	-0.056805037
-3.7958052	heure	-0.056805037
-3.6279054	simplement	-0.056805037
-3.6279054	appel	-0.056805037
-3.7958052	population	-0.056805037
-3.7958052	souffre	-0.056805037
-3.7958052	entendre	-0.056805037
-3.7958052	discuter	-0.056805037
-2.8660946	pendant	-0.15148714
-3.3828125	temps	-0.056805037
-3.7958052	m'	-0.056805037
-3.7958052	imparti	-0.056805037
-3.6279054	conférence	-0.056805037
-3.6279054	financement	-0.056805037
-3.7958052	pacte	-0.056805037
-3.6279054	stabilité	-0.056805037
-3.6279054	vient	-0.17883521
-3.7958052	dérouler	-0.056805037
-3.7958052	estime	-0.056805037
-3.7958052	judicieux	-0.056805037
-3.7958052	diriger	-0.056805037
-3.7958052	celui-ci	-0.056805037
-3.6279054	texte	-0.056805037
-3.5545561	mon	-0.056805037
-3.6279054	écrit	-0.056805037
-3.7958052	Voici	-0.056805037
-3.6279054	ensemble	-0.056805037
-3.7958052	apprécié	-0.056805037
-3.5545561	voir	-0.056805037
-3.7958052	enthousiasme	-0.056805037
-2.7527654	était	-0.056805037
-3.7958052	tables	-0.056805037
-3.7958052	réussite	-0.056805037
-3.7958052	dis	-0.056805037
-3.7958052	complimenter	-0.056805037
-3.7958052	commissaire	-0.056805037
-3.7958052	évident	-0.056805037
-3.6279054	enfin	-0.056805037
-3.3828125	pris	-0.056805037
-3.7958052	tandis	-0.056805037
-3.7958052	restée	-0.056805037
-3.7958052	trop	-0.056805037
-3.7958052	longtemps	-0.056805037
-3.7958052	arrière-plan	-0.056805037
-3.7958052	Un	-0.056805037
-3.6279054	montant	-0.056805037
-3.2600641	notamment	-0.056805037
-3.6279054	jamais	-0.056805037
-3.7958052	cité	-0.056805037
-3.7958052	Banque	-0.056805037
-3.7958052	investissement	-0.056805037
-3.7958052	mentionné	-0.056805037
-3.6279054	tard	-0.056805037
-3.7958052	Prodi	-0.056805037
-3.6279054	sait	-0.056805037
-3.7958052	comment	-0.056805037
-3.2600641	sera	-0.056805063
-3.7958052	déboursé	-0.056805037
-3.7958052	prochaine	-0.056805037
-3.7958052	Quelle	-0.056805037
-3.7958052	intention	-0.056805037
-3.6279054	supprimer	-0.056805037
-3.6279054	court	-0.056805037
-3.6279054	terme	-0.056805037
-3.6279054	obstacles	-0.056805037
-3.7958052	commerciaux	-0.056805037
-3.3828125	dernier	-0.101590835
-3.3828125	lieu	-0.056805037
-3.7958052	organisation	-0.056805037
-3.7958052	succès	-0.056805037
-3.7958052	marché	-0.056805037
-3.7958052	américain	-0.056805037
-3.7958052	tient	-0.056805037
-3.6279054	essentiellement	-0.056805037
-3.7958052	roi	-0.056805037
-3.7958052	dollar	-0.056805037
-3.7958052	contexte	-0.056805037
-3.7958052	paradoxal	-0.056805037
-3.7958052	constater	-0.056805037
-3.7958052	partisans	-0.056805037
-3.7958052	chauds	-0.056805037
-3.7958052	libéralisation	-0.056805037
-3.6279054	financière	-0.056805037
-3.7958052	opposants	-0.056805037
-3.7958052	euro	-0.056805037
-3.7958052	Mais	-0.056805037
-3.7958052	introduction	-0.056805037
-3.7958052	effective	-0.056805037
-3.7958052	va	-0.056805037
-3.7958052	traduire	-0.056805037
-3.7958052	transparence	-0.056805037
-3.7958052	concurrence	-0.056805037
-3.7958052	telles	-0.056805037
-3.5545561	marchés	-0.101590835
-3.6279054	nationaux	-0.056805037
-3.6279054	vont	-0.056805037
-3.7958052	devoir	-0.056805037
-3.7958052	adapter	-0.056805037
-3.5545561	rapidement	-0.056805037
-3.6279054	prévu	-0.056805037
-3.7958052	John	-0.056805037
-3.7958052	Kenneth	-0.056805037
-3.7958052	Galbraith	-0.056805037
-3.7958052	dénoncé	-0.056805037
-3.7958052	illusion	-0.056805037
-3.6279054	laquelle	-0.056805037
-3.6279054	argent	-0.056805037
-3.7958052	intelligence	-0.056805037
-3.7958052	seraient	-0.056805037
-3.7958052	facteurs	-0.056805037
-3.7958052	liés	-0.056805037
-3.7958052	Kuckelkorn	-0.056805037
-3.7958052	dois	-0.056805037
-3.6279054	féliciter	-0.056805037
-3.7958052	auteur	-0.056805037
-3.7958052	ténacité	-0.056805037
-3.7958052	plaide	-0.056805037
-3.7958052	retraites	-0.056805037
-3.7958052	complémentaires	-0.056805037
-3.7958052	celles-ci	-0.056805037
-3.6279054	effectivement	-0.056805037
-3.7958052	second	-0.056805037
-3.7958052	pilier	-0.056805037
-3.6279054	assurance	-0.056805037
-3.7958052	vieillesse	-0.056805037
-3.7958052	Où	-0.056805037
-3.7958052	-ils	-0.056805037
-3.3828125	quelques	-0.056805037
-3.7958052	levés	-0.056805037
-3.7958052	lèveront	-0.056805037
-3.7958052	absents	-0.056805037
-3.6279054	maintenant	-0.056805037
-3.7958052	délibérons	-0.056805037
-3.7958052	Bref	-0.056805037
-3.7958052	faisons	-0.056805037
-3.7958052	déplacer	-0.056805037
-3.7958052	problème	-0.056805037
-3.5545561	mes	-0.056805037
-3.7958052	chers	-0.056805037
-3.7958052	développement	-0.056805037
-3.7958052	infrastructure	-0.056805037
-3.6279054	efficace	-0.056805037
-3.7958052	territoire	-0.056805037
-3.7958052	primordial	-0.056805037
-3.7958052	régions	-0.056805037
-3.7958052	enclavées	-0.056805037
-3.7958052	zones	-0.056805037
-3.7958052	rurales	-0.056805037
-3.2600641	France	-0.056805037
-3.6279054	nombreux	-0.056805037
-3.7958052	peux	-0.056805037
-3.7958052	mettre	-0.056805037
-3.7958052	voix	-0.056805037
-3.7958052	désire	-0.056805037
-3.7958052	ma	-0.056805037
-3.6279054	collègue	-0.056805037
-3.7958052	Roth-Behrendt	-0.056805037
-3.5545561	effet	-0.1342388
-3.7958052	découle	-0.056805037
-3.7958052	engagement	-0.056805037
-3.6279054	suivi	-0.056805037
-3.7958052	Demandez	-0.056805037
-3.7958052	écossais	-0.056805037
-3.7958052	gallois	-0.056805037
-3.7958052	Troisièmement	-0.056805037
-3.7958052	considère	-0.056805037
-3.7958052	positive	-0.056805037
-3.7958052	obligation	-0.056805037
-3.7958052	imposée	-0.056805037
-3.7958052	exploitations	-0.056805037
-3.7958052	frappées	-0.056805037
-3.5545561	maladie	-0.056805037
-3.7958052	détruire	-0.056805037
-3.7958052	cheptel	-0.056805037
-3.7958052	Quatrièmement	-0.056805037
-3.7958052	urgent	-0.056805037
-3.7958052	élaborer	-0.056805037
-3.7958052	législation	-0.056805037
-3.7958052	complémentaire	-0.056805037
-3.6279054	tels	-0.17883521
-3.7958052	cosmétiques	-0.056805037
-3.7958052	médicinaux	-0.056805037
-3.7958052	exclus	-0.056805037
-3.6279054	important	-0.056805037
-3.7958052	garantir	-0.056805037
-3.7958052	davantage	-0.056805037
-3.7958052	démocratie	-0.056805037
-3.7958052	défaire	-0.056805037
-3.7958052	comitologie	-0.056805037
-3.7958052	renforcer	-0.056805037
-3.6279054	contrôle	-0.056805037
-3.6279054	Des	-0.056805063
-3.7958052	observateurs	-0.056805037
-3.7958052	dépêchés	-0.056805037
-3.7958052	Zimbabwe	-0.056805037
-3.7958052	plutôt	-0.056805037
-3.6279054	Pour	-0.08425051
-3.7958052	instant	-0.056805037
-3.3828125	pays	-0.056805063
-3.7958052	restent	-0.056805037
-3.7958052	enfermés	-0.056805037
-3.7958052	mutisme	-0.056805037
-3.5545561	total	-0.056805037
-3.6279054	agit	-0.056805037
-3.6279054	sorte	-0.056805037
-3.7958052	saisies	-0.056805037
-3.7958052	illégales	-0.056805037
-3.7958052	terres	-0.056805037
-3.7958052	pourraient	-0.056805037
-3.7958052	étendre	-0.056805037
-3.5545561	reste	-0.11354809
-3.7958052	Afrique	-0.056805037
-3.7958052	australe	-0.056805037
-3.7958052	entraîner	-0.056805037
-3.7958052	catastrophe	-0.056805037
-3.6279054	région	-0.056805037
-3.7958052	gère	-0.056805037
-3.7958052	budgets	-0.056805037
-3.7958052	recherche	-0.056805037
-3.7958052	spatiale	-0.056805037
-3.7958052	politicien	-0.056805037
-3.7958052	pourrais	-0.056805037
-3.6279054	devenir	-0.056805037
-3.6279054	astronaute	-0.056805037
-3.6279054	premier	-0.056805037
-3.7958052	retraité	-0.056805037
-3.6279054	visite	-0.056805037
-3.7958052	inscrivait	-0.056805037
-3.7958052	neuvième	-0.056805037
-3.6279054	rencontre	-0.056805037
-3.0198584	entre	-0.39518628
-3.5545561	présidents	-0.056805037
-3.7958052	candidats	-0.056805037
-3.7958052	initiée	-0.056805037
-3.3828125	années	-0.11354809
-3.7958052	prédécesseurs	-0.056805037
-3.7958052	Enrique	-0.056805037
-3.7958052	Barón	-0.056805037
-3.7958052	Crespo	-0.056805037
-3.7958052	Klaus	-0.056805037
-3.7958052	Hänsch	-0.056805037
-3.7958052	José	-0.056805037
-3.7958052	Maria	-0.056805037
-3.7958052	Gil	-0.056805037
-3.7958052	Robles	-0.056805037
-3.6279054	Dans	-0.056805037
-3.7958052	objectifs	-0.056805037
-3.6279054	avez	-0.08111396
-3.7958052	évoqués	-0.056805037
-3.7958052	parlé	-0.056805037
-3.0861742	votre	-0.20928855
-3.5545561	souhait	-0.056805037
-3.7958052	entrer	-0.056805037
-3.7958052	maison	-0.056805037
-3.5545561	commune	-0.056805037
-3.7958052	solide	-0.056805037
-3.7958052	unie	-0.056805037
-3.6279054	pouvoir	-0.056805037
-3.7958052	dire	-0.056805037
-3.6279054	tel	-0.056805037
-3.6279054	notre	-0.056805037
-3.6279054	Assemblée	-0.056805037
-3.7958052	égard	-0.056805037
-3.5545561	semaines	-0.11354809
-3.7958052	80	-0.056805037
-3.7958052	jeunes	-0.056805037
-3.7958052	participé	-0.056805037
-3.7958052	concours	-0.056805037
-3.6279054	devise	-0.056805037
-3.6279054	finalement	-0.056805037
-3.7958052	retenue	-0.056805037
-3.7958052	jury	-0.056805037
-3.2600641	L'	-0.056805037
-3.7958052	unité	-0.056805037
-3.7958052	diversité	-0.056805037
-3.0861742	La	-0.056805037
-3.6279054	séance	-0.056805037
-3.7958052	solennelle	-0.056805037
-3.7958052	close	-0.056805037
-3.6279054	h	-0.056805037
-3.7958052	Par	-0.056805037
-3.5545561	ailleurs	-0.056805037
-3.7958052	délégation	-0.056805037
-3.7958052	britannique	-0.056805037
-3.7958052	composée	-0.056805037
-3.7958052	présenté	-0.056805037
-3.6279054	forme	-0.056805037
-3.7958052	originale	-0.056805037
-3.7958052	souligner	-0.056805037
-3.7958052	précédent	-0.056805037
-3.7958052	orateur	-0.056805037
-3.7958052	nécessité	-0.056805037
-3.6279054	passer	-0.056805037
-3.7958052	développer	-0.056805037
-3.7958052	coopération	-0.056805037
-3.7958052	polices	-0.056805037
-3.7958052	augmenter	-0.056805037
-3.2600641	information	-0.15153179
-3.6279054	domaine	-0.056805037
-3.7958052	mots	-0.056805037
-3.7958052	condamner	-0.056805037
-3.7958052	assassins	-0.056805037
-3.7958052	soutiennent	-0.056805037
-3.7958052	politiquement	-0.056805037
-3.7958052	juridique	-0.056805037
-3.7958052	recommande	-0.056805037
-3.7958052	lever	-0.056805037
-3.7958052	immunité	-0.056805037
-3.3828125	affaire	-0.12166822
-3.7958052	manifestation	-0.056805037
-3.6279054	organisée	-0.056805037
-3.7958052	Brie	-0.056805037
-3.7958052	Septembre	-0.056805037
-3.7958052	quand	-0.056805037
-3.0861742	lui	-0.056805037
-3.6279054	huit	-0.17883521
-3.6279054	personnes	-0.056805037
-3.7958052	déroulé	-0.056805037
-3.7958052	exhibé	-0.056805037
-3.7958052	affiche	-0.056805037
-3.7958052	Porte	-0.056805037
-3.7958052	Brandebourg	-0.056805037
-3.7958052	Berlin	-0.056805037
-3.7958052	protester	-0.056805037
-3.1644735	contre	-0.056805037
-3.7958052	fossé	-0.056805037
-3.7958052	existe	-0.056805037
-3.7958052	société	-0.056805037
-3.7958052	riches	-0.056805037
-3.7958052	pauvres	-0.056805037
-3.7958052	Premièrement	-0.056805037
-3.7958052	base	-0.056805037
-3.7958052	légale	-0.056805037
-3.7958052	Lechner	-0.056805037
-3.7958052	suffisamment	-0.056805037
-3.7958052	argumenté	-0.056805037
-3.7958052	Deuxièmement	-0.056805037
-3.7958052	directive	-0.056805037
-3.6279054	propose	-0.056805037
-3.7958052	limitation	-0.056805037
-3.7958052	exportations	-0.056805037
-3.7958052	panneau	-0.056805037
-3.7958052	stop	-0.056805037
-3.7958052	paraît	-0.056805037
-3.7958052	formule	-0.056805037
-3.7958052	mieux	-0.056805037
-3.7958052	adaptée	-0.056805037
-3.7958052	assurer	-0.056805037
-3.7958052	sécurité	-0.056805037
-3.7958052	usagers	-0.056805037
-3.7958052	délibérant	-0.056805037
-3.7958052	assemblée	-0.056805037
-3.7958052	accepté	-0.056805037
-3.6279054	maire	-0.056805037
-3.6279054	chargé	-0.056805037
-3.5545561	faire	-0.056805063
-3.5545561	établir	-0.056805037
-3.7958052	services	-0.056805037
-3.7958052	DDE	-0.056805037
-3.5545561	dossier	-0.056805063
-3.7958052	subvention	-0.056805037
-3.7958052	répartition	-0.056805037
-3.7958052	amendes	-0.056805037
-3.7958052	police	-0.056805037
-3.7958052	remise	-0.056805037
-3.7958052	lavoir	-0.056805037
-3.7958052	abrite	-0.056805037
-3.0861742	depuis	-0.0883168
-3.1644735	jours	-0.12229514
-3.6279054	exposition	-0.056805037
-3.7958052	inaugurée	-0.056805037
-3.7958052	Roger	-0.056805037
-3.7958052	Thiriot	-0.056805037
-3.7958052	Association	-0.056805037
-3.7958052	insertion	-0.056805037
-3.7958052	Saulx	-0.056805037
-3.7958052	Perthois	-0.056805037
-3.6279054	présence	-0.056805037
-3.7958052	élus	-0.056805037
-3.7958052	canton	-0.056805037
-3.7958052	Après	-0.056805037
-3.5545561	études	-0.1342388
-3.7958052	conduite	-0.056805037
-3.6279054	travaux	-0.056805037
-3.7958052	menée	-0.056805037
-3.6279054	cabinet	-0.056805037
-3.7958052	Cadel	-0.056805037
-3.7958052	associé	-0.056805037
-3.7958052	Bruand	-0.056805037
-2.9623404	sous	-0.056805037
-3.7958052	Equipement	-0.056805037
-3.7958052	neuf	-0.056805037
-3.1644735	mois	-0.22141512
-3.7958052	espace	-0.056805037
-3.7958052	couleurs	-0.056805037
-3.7958052	silence	-0.056805037
-3.2600641	peuvent	-0.09379843
-3.5545561	élément	-0.056805037
-3.7958052	harmonie	-0.056805037
-3.6279054	projets	-0.056805037
-3.5545561	seront	-0.056805037
-3.7958052	réalisés	-0.056805037
-3.7958052	esprit	-0.056805037
-3.7958052	cyclistes	-0.056805037
-3.7958052	vététistes	-0.056805037
-3.7958052	réunir	-0.056805037
-3.7958052	matin	-0.056805037
-3.7958052	Jacques-Bailleurs	-0.056805037
-3.6279054	sortie	-0.056805037
-3.7958052	entraînement	-0.056805037
-3.7958052	Tir	-0.056805037
-3.7958052	tireurs	-0.056805037
-3.7958052	Vaux-Racine	-0.056805037
-3.7958052	rendez-vous	-0.056805037
-3.6279054	partir	-0.17883521
-3.7958052	tir	-0.056805037
-3.7958052	Nos	-0.056805037
-3.6279054	condoléances	-0.056805037
-3.7958052	Photos	-0.056805037
-2.9623404	Jacques	-0.17565759
-3.7958052	FISSIER	-0.056805037
-3.7958052	précis	-0.056805037
-3.6279054	autour	-0.056805037
-3.7958052	aviculture	-0.056805037
-3.7958052	Belfort	-0.056805037
-3.7958052	réelle	-0.056805037
-3.7958052	importance	-0.056805037
-3.7958052	présidence	-0.056805037
-3.5545561	Claude	-0.056805037
-3.7958052	Simon	-0.056805037
-3.6279054	S'	-0.056805037
-3.7958052	apercevant	-0.056805037
-3.7958052	mari	-0.056805037
-3.0861742	avait	-0.056805037
-3.7958052	soudainement	-0.056805037
-3.6279054	perdu	-0.056805037
-3.7958052	connaissance	-0.056805037
-3.7958052	épouse	-0.056805037
-3.7958052	passagère	-0.056805037
-3.6279054	avant	-0.056805037
-3.7958052	tenté	-0.056805037
-3.6279054	garder	-0.056805037
-3.7958052	véhicule	-0.056805037
-3.7958052	ligne	-0.056805037
-3.5545561	droite	-0.056805037
-3.7958052	saisissant	-0.056805037
-3.7958052	volant	-0.056805037
-3.7958052	voiture	-0.056805037
-3.7958052	circulait	-0.056805037
-3.7958052	Mulhouse-Montbéliard	-0.056805037
-3.7958052	lorsqu'	-0.056805037
-2.7527654	après	-0.18443738
-3.7958052	passée	-0.056805037
-3.7958052	hauteur	-0.056805037
-3.7958052	35e	-0.056805037
-3.7958052	RI	-0.056805037
-3.7958052	quitté	-0.056805037
-3.7958052	chaussée	-0.056805037
-3.7958052	plein	-0.056805037
-3.7958052	midi	-0.056805037
-3.7958052	ville	-0.056805037
-3.7958052	Maxéville	-0.056805037
-3.7958052	plongée	-0.056805037
-3.3828125	durant	-0.056805037
-3.6279054	secondes	-0.056805037
-3.7958052	nuit	-0.056805037
-3.7958052	préparer	-0.056805037
-3.7958052	phénomène	-0.056805037
-3.7958052	centre	-0.056805037
-3.7958052	Marie-Marvingt	-0.056805037
-3.5545561	juin	-0.1342388
-3.6279054	réalisée	-0.056805037
-3.7958052	CNRS	-0.056805037
-3.7958052	intitulée	-0.056805037
-3.6279054	Images	-0.056805037
-3.7958052	ciel	-0.056805037
-3.7958052	Petit	-0.056805037
-3.7958052	Prince	-0.056805037
-3.7958052	programme	-0.056805037
-3.6279054	élèves	-0.1342388
-3.7958052	Jules-Romains	-0.056805037
-3.7958052	travers	-0.056805037
-3.7958052	oeuvre	-0.056805037
-3.7958052	CM2	-0.056805037
-3.7958052	classe	-0.056805037
-3.7958052	Galotte	-0.056805037
-3.7958052	abordé	-0.056805037
-3.7958052	compréhension	-0.056805037
-3.7958052	aisance	-0.056805037
-3.5545561	toute	-0.056805037
-3.7958052	naturelle	-0.056805037
-3.7958052	apprentis-acteurs	-0.056805037
-3.7958052	joué	-0.056805037
-3.7958052	Plus	-0.056805037
-3.7958052	hasards	-0.056805037
-3.7958052	calendrier	-0.056805037
-3.7958052	Comité	-0.056805037
-3.7958052	départemental	-0.056805037
-3.7958052	touristique	-0.056805037
-3.7958052	coïncider	-0.056805037
-3.7958052	promotion	-0.056805037
-3.7958052	Office	-0.056805037
-3.7958052	tourisme	-0.056805037
-3.7958052	classement	-0.056805037
-3.7958052	hôtel-restaurant	-0.056805037
-3.7958052	Relais	-0.056805037
-3.6279054	Arc-et-Senans	-0.056805037
-3.6279054	Une	-0.056805063
-3.6279054	juste	-0.056805037
-3.7958052	récompense	-0.056805037
-3.7958052	efforts	-0.056805037
-3.7958052	qualité	-0.056805037
-3.7958052	entrepris	-0.056805037
-3.7958052	Jeanine	-0.056805037
-3.7958052	Willy	-0.056805037
-3.7958052	Schaer	-0.056805037
-3.5545561	jeune	-0.056805037
-3.7958052	couple	-0.056805037
-3.7958052	hôteliers	-0.056805037
-3.7958052	originaires	-0.056805037
-3.7958052	Haute-Saône	-0.056805037
-3.6279054	installés	-0.056805037
-3.7958052	treize	-0.056805037
-3.0861742	ans	-0.188287
-3.7958052	Deux	-0.056805037
-3.7958052	étoiles	-0.056805037
-3.7958052	prend	-0.056805037
-3.5545561	ainsi	-0.11354809
-3.7958052	cour	-0.056805037
-3.5545561	grands	-0.056805037
-3.7958052	derrière	-0.056805037
-3.7958052	offices	-0.056805037
-3.7958052	Besançon	-0.056805037
-3.7958052	Montbéliard	-0.056805037
-3.7958052	Atteinte	-0.056805037
-3.3828125	peu	-0.056805037
-3.7958052	grave	-0.056805037
-3.7958052	Suzanne	-0.056805037
-3.7958052	Sequin	-0.056805037
-3.7958052	éteinte	-0.056805037
-3.6279054	samedi	-0.056805037
-3.7958052	hospitalier	-0.056805037
-3.7958052	Bar-le-Duc	-0.056805037
-3.3828125	où	-0.101590835
-3.7958052	admise	-0.056805037
-3.6279054	fut	-0.056805037
-3.7958052	affectée	-0.056805037
-3.6279054	décès	-0.056805037
-3.6279054	avril	-0.17883521
-3.7958052	disparition	-0.056805037
-3.7958052	surmonta	-0.056805037
-3.7958052	courage	-0.056805037
-3.6279054	chef	-0.056805037
-3.6279054	explique	-0.056805037
-3.7958052	démissionnaires	-0.056805037
-3.7958052	entreprise	-0.056805037
-3.7958052	reparlera	-0.056805037
-3.7958052	nécessite	-0.056805037
-3.5545561	budget	-0.056805037
-3.7958052	SOLEUVRE	-0.056805037
-3.7958052	Lorsque	-0.056805037
-3.7958052	ordre	-0.056805037
-3.7958052	présentent	-0.056805037
-3.7958052	lieux	-0.056805037
-3.7958052	trace	-0.056805037
-3.7958052	bagarre	-0.056805037
-3.7958052	Ce	-0.056805037
-3.7958052	Belfortain	-0.056805037
-3.7958052	recouvré	-0.056805037
-3.7958052	liberté	-0.056805037
-3.1644735	avoir	-0.056805037
-3.7958052	passé	-0.056805037
-3.7958052	restant	-0.056805037
-3.7958052	cellule	-0.056805037
-3.7958052	dégrisement	-0.056805037
-3.7958052	exactement	-0.056805037
-3.7958052	servi	-0.056805037
-3.6279054	régler	-0.17883521
-3.3828125	partie	-0.056805063
-3.7958052	salaires	-0.056805037
-3.5545561	janvier	-0.056805037
-3.7958052	Car	-0.056805037
-3.7958052	EFI	-0.056805037
-3.2600641	mise	-0.101590835
-3.7958052	redressement	-0.056805037
-3.6279054	judiciaire	-0.056805037
-3.7958052	plan	-0.056805037
-3.7958052	continuation	-0.056805037
-3.7958052	dix	-0.056805037
-3.7958052	devait	-0.056805037
-3.7958052	impérativement	-0.056805037
-3.7958052	dues	-0.056805037
-3.7958052	créanciers	-0.056805037
-3.7958052	Alors	-0.056805037
-3.7958052	tribunal	-0.056805037
-3.7958052	accordé	-0.056805037
-3.7958052	ultime	-0.056805037
-3.5545561	délai	-0.056805037
-3.3828125	fin	-0.056805037
-3.7958052	échec	-0.056805037
-3.7958052	maires	-0.056805037
-3.7958052	vallée	-0.056805037
-3.7958052	député	-0.056805037
-3.7958052	Jacquot	-0.056805037
-3.7958052	collectivement	-0.056805037
-3.7958052	courrier	-0.056805037
-3.7958052	attirer	-0.056805037
-3.7958052	justifie	-0.056805037
-3.7958052	décret	-0.056805037
-3.7958052	juillet	-0.056805037
-3.7958052	crée	-0.056805037
-3.7958052	dispositif	-0.056805037
-3.5545561	particulier	-0.056805037
-3.7958052	Fédération	-0.056805037
-3.6279054	nationale	-0.056805037
-3.1644735	;	-0.31183696
-3.7958052	Grosse	-0.056805037
-3.6279054	journée	-0.056805037
-3.7958052	bénévoles	-0.056805037
-3.7958052	section	-0.056805037
-3.7958052	puisque	-0.056805037
-3.7958052	petits	-0.056805037
-3.7958052	combattants	-0.056805037
-3.6279054	répondu	-0.056805037
-3.5545561	présents	-0.1342388
-3.7958052	particulièrement	-0.056805037
-3.6279054	orages	-0.056805037
-3.6279054	formations	-0.056805037
-3.7958052	nuageuses	-0.056805037
-3.7958052	précèdent	-0.056805037
-3.7958052	De	-0.056805037
-3.7958052	magnifiques	-0.056805037
-3.7958052	photographies	-0.056805037
-3.7958052	prises	-0.056805037
-3.6279054	plupart	-0.056805037
-3.7958052	observatoire	-0.056805037
-3.7958052	Montsec	-0.056805037
-3.6279054	point	-0.17883521
-3.6279054	vue	-0.056805037
-3.7958052	somptueux	-0.056805037
-3.7958052	Lac	-0.056805037
-3.7958052	Madine	-0.056805037
-3.7958052	visiteur	-0.056805037
-3.7958052	pourra	-0.056805037
-3.7958052	découvrir	-0.056805037
-3.7958052	exposé	-0.056805037
-3.5545561	histoire	-0.1342388
-3.7958052	planètes	-0.056805037
-3.7958052	astrologie	-0.056805037
-3.1644735	général	-0.056805037
-3.7958052	animation	-0.056805037
-3.7958052	ludique	-0.056805037
-3.6279054	Maggie	-0.056805037
-3.7958052	Jankowski	-0.056805037
-3.7958052	épidermique	-0.056805037
-3.7958052	commentait	-0.056805037
-3.7958052	central	-0.056805037
-3.7958052	poursuite	-0.056805037
-3.6279054	investigations	-0.056805037
-3.7958052	policières	-0.056805037
-3.7958052	apporter	-0.056805037
-3.7958052	réponse	-0.056805037
-3.7958052	origine	-0.056805037
-3.7958052	sinistre	-0.056805037
-3.7958052	perturbé	-0.056805037
-3.7958052	tranquillité	-0.056805037
-3.6279054	dizaines	-0.17883521
-3.7958052	familles	-0.056805037
-3.5545561	immeuble	-0.056805037
-3.7958052	Serbie	-0.056805037
-3.7958052	Milan	-0.056805037
-3.7958052	Milutinovic	-0.056805037
-3.7958052	inculpé	-0.056805037
-3.7958052	côtés	-0.056805037
-3.7958052	ex-chef	-0.056805037
-3.7958052	Etat	-0.056805037
-3.7958052	yougoslave	-0.056805037
-3.7958052	Slobodan	-0.056805037
-3.7958052	Milosevic	-0.056805037
-3.7958052	crimes	-0.056805037
-3.5545561	guerre	-0.056805037
-3.7958052	rendu	-0.056805037
-3.7958052	volontairement	-0.056805037
-3.7958052	Tribunal	-0.056805037
-3.7958052	pénal	-0.056805037
-3.7958052	international	-0.056805037
-3.7958052	TPI	-0.056805037
-3.7958052	ex-Yougoslavie	-0.056805037
-3.7958052	Haye	-0.056805037
-3.7958052	Et	-0.056805037
-3.5545561	alors	-0.11354809
-3.7958052	fort	-0.056805037
-3.7958052	retard	-0.056805037
-3.6279054	nos	-0.056805037
-3.7958052	Elles	-0.056805037
-3.5545561	produit	-0.056805037
-3.6279054	auprès	-0.17883521
-3.7958052	grandes	-0.056805037
-3.7958052	susceptibles	-0.056805037
-3.1644735	D'	-0.056805037
-3.7958052	autant	-0.056805037
-3.7958052	relèvement	-0.056805037
-3.7958052	seuils	-0.056805037
-3.7958052	exclurait	-0.056805037
-3.7958052	petites	-0.056805037
-3.7958052	listes	-0.056805037
-3.7958052	Importantes	-0.056805037
-3.7958052	recherches	-0.056805037
-3.7958052	retrouver	-0.056805037
-3.7958052	disparue	-0.056805037
-3.7958052	Aussitôt	-0.056805037
-3.7958052	gendarmes	-0.056805037
-3.7958052	effectuaient	-0.056805037
-3.5545561	enquête	-0.056805037
-3.7958052	voisinage	-0.056805037
-3.7958052	informaient	-0.056805037
-3.7958052	hôpitaux	-0.056805037
-3.2600641	autre	-0.056805063
-3.7958052	endroit	-0.056805037
-3.5545561	aurait	-0.056805037
-3.7958052	pu	-0.056805037
-3.7958052	trouver	-0.056805037
-3.7958052	refuge	-0.056805037
-3.6279054	fille	-0.056805037
-3.7958052	Pas	-0.056805037
-3.7958052	douzaine	-0.056805037
-3.2600641	étaient	-0.056805063
-3.7958052	mobilisés	-0.056805037
-3.6279054	équipe	-0.056805037
-3.7958052	cynophile	-0.056805037
-3.6279054	témoignage	-0.056805037
-3.7958052	reconnaissance	-0.056805037
-3.2600641	reçu	-0.101590835
-3.7958052	médaille	-0.056805037
-3.7958052	mérite	-0.056805037
-3.7958052	UNC	-0.056805037
-3.7958052	époux	-0.056805037
-3.6279054	famille	-0.17883521
-3.7958052	présentons	-0.056805037
-3.7958052	sincères	-0.056805037
-3.7958052	passionnés	-0.056805037
-3.7958052	jardinage	-0.056805037
-3.7958052	réunissaient	-0.056805037
-3.7958052	rue	-0.056805037
-3.7958052	Justice	-0.056805037
-3.6279054	générale	-0.056805037
-3.6279054	association	-0.056805037
-3.7958052	Jardiniers	-0.056805037
-3.7958052	afin	-0.056805037
-3.7958052	revenir	-0.056805037
-3.7958052	actions	-0.056805037
-3.6279054	menées	-0.056805037
-3.6279054	J.-P.	-0.17883521
-3.7958052	Bruneau	-0.056805037
-3.7958052	présenter	-0.056805037
-3.7958052	voeux	-0.056805037
-3.7958052	dizaine	-0.056805037
-3.7958052	adhérents	-0.056805037
-3.7958052	manifestations	-0.056805037
-3.7958052	fonctionné	-0.056805037
-3.7958052	affluence	-0.056805037
-3.7958052	fête	-0.056805037
-3.7958052	Fraises	-0.056805037
-3.7958052	1er	-0.056805037
-3.7958052	dimanche	-0.056805037
-3.7958052	associations	-0.056805037
-3.7958052	Zénith	-0.056805037
-3.7958052	visiteurs	-0.056805037
-3.7958052	jardin	-0.056805037
-3.5545561	moment	-0.056805037
-3.7958052	attendu	-0.056805037
-3.7958052	portes	-0.056805037
-3.7958052	ouvertes	-0.056805037
-3.7958052	organisées	-0.056805037
-3.7958052	m2	-0.056805037
-3.7958052	verger	-0.056805037
-3.7958052	potager	-0.056805037
-3.7958052	Cela	-0.056805037
-3.7958052	permet	-0.056805037
-3.7958052	échanger	-0.056805037
-3.7958052	transmettre	-0.056805037
-3.7958052	savoir	-0.056805037
-3.7958052	partager	-0.056805037
-3.7958052	passion	-0.056805037
-3.7958052	voyage	-0.056805037
-3.7958052	Arturo	-0.056805037
-3.7958052	corbeau	-0.056805037
-3.7958052	comédien	-0.056805037
-3.7958052	participer	-0.056805037
-3.7958052	spectacle	-0.056805037
-3.7958052	concrétisent	-0.056805037
-3.5545561	compte	-0.056805037
-3.7958052	avaloirs	-0.056805037
-3.7958052	nettoyés	-0.056805037
-3.6279054	an	-0.09379843
-3.7958052	limité	-0.056805037
-3.6279054	mars	-0.056805037
-3.3828125	octobre	-0.2905446
-3.7958052	passage	-0.056805037
-3.7958052	Cantine	-0.056805037
-3.6279054	Rousselot	-0.056805037
-3.7958052	tenait	-0.056805037
-3.6279054	conserver	-0.056805037
-3.7958052	Correa	-0.056805037
-3.7958052	repassa	-0.056805037
-3.7958052	offensive	-0.056805037
-3.5545561	première	-0.056805037
-3.7958052	rangea	-0.056805037
-3.7958052	joueur	-0.056805037
-3.7958052	souhaitait	-0.056805037
-3.7958052	Notre	-0.056805037
-3.7958052	objectif	-0.056805037
-3.7958052	maintien	-0.056805037
-3.7958052	insisté	-0.056805037
-3.7958052	remercie	-0.056805037
-3.7958052	néglige	-0.056805037
-3.7958052	aspect	-0.056805037
-3.6279054	financier	-0.056805037
-3.6279054	seul	-0.056805037
-3.7958052	Tout	-0.056805037
-3.7958052	joie	-0.056805037
-3.7958052	Uruguayen	-0.056805037
-3.7958052	tirait	-0.056805037
-3.7958052	pirouette	-0.056805037
-3.7958052	aurai	-0.056805037
-3.7958052	envie	-0.056805037
-3.6279054	jouer	-0.056805037
-3.7958052	automobile	-0.056805037
-3.7958052	roue	-0.056805037
-3.6279054	gauche	-0.056805037
-3.7958052	décollé	-0.056805037
-3.7958052	retourner	-0.056805037
-3.7958052	terminer	-0.056805037
-3.7958052	course	-0.056805037
-3.7958052	toit	-0.056805037
-3.7958052	état	-0.056805037
-3.7958052	dernières	-0.056805037
-3.7958052	dépêcher	-0.056805037
-3.7958052	ambulances	-0.056805037
-3.7958052	pompiers	-0.056805037
-3.7958052	Montreux-Château	-0.056805037
-3.7958052	Alkirch	-0.056805037
-3.7958052	Dannemarie	-0.056805037
-3.7958052	Samu	-0.056805037
-3.7958052	Haut-Rhin	-0.056805037
-3.7958052	Territoire	-0.056805037
-3.7958052	trio	-0.056805037
-3.3828125	eu	-0.101590835
-3.7958052	recours	-0.056805037
-3.7958052	physique	-0.056805037
-3.7958052	contraindre	-0.056805037
-3.7958052	chauffeur	-0.056805037
-3.5545561	rôle	-0.056805037
-3.7958052	taxi	-0.056805037
-3.7958052	cherché	-0.056805037
-3.7958052	impressionner	-0.056805037
-3.6279054	retour	-0.056805037
-3.7958052	Bethoncourt	-0.056805037
-3.3828125	trois	-0.101590835
-3.7958052	garnements	-0.056805037
-3.7958052	repartis	-0.056805037
-3.7958052	Anita	-0.056805037
-3.7958052	Dachaud	-0.056805037
-3.6279054	arrivée	-0.056805037
-3.7958052	chère	-0.056805037
-3.7958052	Italie	-0.056805037
-3.7958052	Cesano	-0.056805037
-3.7958052	Résumé	-0.056805037
-3.7958052	EPAR	-0.056805037
-3.5545561	public	-0.056805037
-3.7958052	Qu'	-0.056805037
-3.7958052	-ce	-0.056805037
-3.0861742	Angiox	-0.12807502
-3.7958052	utilisé	-0.056805037
-3.7958052	traiter	-0.056805037
-3.2600641	patients	-0.1196239
-3.6279054	adultes	-0.056805037
-3.6279054	souffrant	-0.056805037
-3.7958052	syndrome	-0.056805037
-3.7958052	coronaire	-0.056805037
-3.7958052	aigu	-0.056805037
-3.5545561	SCA	-0.1342388
-3.3828125	réduction	-0.056805037
-3.6279054	flux	-0.17883521
-3.7958052	sanguin	-0.056805037
-3.7958052	vers	-0.056805037
-3.7958052	coeur	-0.056805037
-3.6279054	angor	-0.056805037
-3.7958052	instable	-0.056805037
-3.5545561	douleurs	-0.056805037
-3.7958052	thoraciques	-0.056805037
-3.7958052	gravité	-0.056805037
-3.7958052	variable	-0.056805037
-3.7958052	infarctus	-0.056805037
-3.7958052	myocarde	-0.056805037
-3.5545561	crise	-0.40838635
-3.5545561	cardiaque	-0.056805063
-3.5545561	sans	-0.056805037
-3.7958052	sus-décalage	-0.056805037
-3.7958052	segment	-0.056805037
-3.7958052	ST	-0.056805037
-3.7958052	relevé	-0.056805037
-3.7958052	anormal	-0.056805037
-3.7958052	électrocardiogramme	-0.056805037
-3.7958052	ECG	-0.056805037
-3.7958052	conjonction	-0.056805037
-3.7958052	aspirine	-0.056805037
-3.7958052	clopidogel	-0.056805037
-3.7958052	contribuant	-0.056805037
-3.6279054	prévenir	-0.056805037
-3.6279054	caillots	-0.056805037
-3.7958052	sanguins	-0.056805037
-2.720727	chez	-0.43113732
-3.7958052	subir	-0.056805037
-3.1644735	traitement	-0.12166822
-3.7958052	médicamenteux	-0.056805037
-3.7958052	subissant	-0.056805037
-3.7958052	angioplastie	-0.056805037
-3.7958052	pontage	-0.056805037
-3.7958052	coronarien	-0.056805037
-3.6279054	usage	-0.056805037
-3.7958052	voie	-0.056805037
-3.5545561	intraveineuse	-0.056805037
-3.7958052	veine	-0.056805037
-3.7958052	bloque	-0.056805037
-3.7958052	spécifiquement	-0.056805037
-3.7958052	substances	-0.056805037
-3.7958052	impliquées	-0.056805037
-3.7958052	processus	-0.056805037
-3.6279054	coagulation	-0.056805037
-3.7958052	thrombine	-0.056805037
-3.7958052	contribuer	-0.056805037
-3.7958052	maintenir	-0.056805037
-3.7958052	atteints	-0.056805037
-3.7958052	améliorer	-0.056805037
-3.5545561	efficacité	-0.056805037
-3.1644735	ICP	-0.19794913
-3.7958052	Tous	-0.056805037
-3.7958052	clopidogrel	-0.056805037
-3.7958052	quatre	-0.056805037
-3.5545561	critères	-0.056805037
-3.7958052	principaux	-0.056805037
-3.7958052	suivants	-0.056805037
-3.1644735	taux	-0.09379843
-3.7958052	revascularisation	-0.056805037
-3.7958052	urgente	-0.056805037
-3.7958052	rétablissement	-0.056805037
-3.7958052	hémorragie	-0.056805037
-3.7958052	importante	-0.056805037
-3.3828125	saignement	-0.056805037
-3.7958052	détail	-0.056805037
-3.6279054	effets	-0.17883521
-3.6279054	indésirables	-0.056805037
-3.7958052	observés	-0.056805037
-3.7958052	utilisation	-0.056805037
-3.7958052	notice	-0.056805037
-3.6279054	humain	-0.056805037
-3.7958052	CHMP	-0.056805037
-3.7958052	estimé	-0.056805037
-3.7958052	substitut	-0.056805037
-3.7958052	acceptable	-0.056805037
-3.6279054	héparine	-0.056805037
-3.7958052	Dernière	-0.056805037
-3.6279054	jour	-0.056805037
-3.7958052	résumé	-0.056805037
-3.7958052	Voie	-0.056805037
-3.7958052	reconstitution	-0.056805037
-3.7958052	ml	-0.056805037
-3.5545561	contient	-0.1342388
-3.7958052	mg	-0.056805037
-3.5545561	bivalirudine	-0.08425051
-3.7958052	dilution	-0.056805037
-3.7958052	Poudre	-0.056805037
-3.7958052	lyophilisée	-0.056805037
-3.7958052	blanche	-0.056805037
-3.7958052	blanc	-0.056805037
-3.7958052	cassé	-0.056805037
-3.7958052	faisant	-0.056805037
-3.7958052	conservateur	-0.056805037
-3.6279054	médical	-0.056805037
-3.7958052	continuer	-0.056805037
-3.2600641	perfusion	-0.078620896
-3.1644735	/	-0.056805037
-3.7958052	kg	-0.056805037
-3.7958052	heures	-0.056805037
-3.7958052	bénéficiant	-0.056805037
-3.7958052	aorto-coronaire	-0.056805037
-3.7958052	CEC	-0.056805037
-3.0198584	doit	-0.23274593
-3.6279054	maintenue	-0.056805037
-3.7958052	intervention	-0.056805037
-3.7958052	adaptation	-0.056805037
-3.5545561	dose	-0.056805037
-3.7958052	nécessaire	-0.056805037
-3.7958052	fonction	-0.056805037
-3.2600641	rénale	-0.056805037
-3.6279054	normale	-0.056805037
-3.7958052	prudence	-0.056805037
-3.7958052	impose	-0.056805037
-3.6279054	âgés	-0.056805037
-3.7958052	diminution	-0.056805037
-3.5545561	liée	-0.1342388
-3.7958052	âge	-0.056805037
-3.5545561	ACT	-0.056805037
-3.6279054	inférieur	-0.17883521
-3.6279054	bolus	-0.056805037
-3.5545561	administré	-0.056805037
-3.7958052	Insuffisance	-0.056805037
-3.7958052	contrôlé	-0.056805037
-3.7958052	minutes	-0.056805037
-3.7958052	procédure	-0.056805037
-3.5545561	valeurs	-0.11354809
-3.7958052	+/-	-0.056805037
-3.6279054	présentant	-0.17883521
-3.7958052	hypertension	-0.056805037
-3.6279054	sévère	-0.056805037
-3.7958052	contrôlée	-0.056805037
-3.7958052	endocardite	-0.056805037
-3.7958052	bactérienne	-0.056805037
-3.7958052	subaiguë	-0.056805037
-3.6279054	destiné	-0.17883521
-3.7958052	intramusculaire	-0.056805037
-3.7958052	anticorps	-0.056805037
-3.7958052	positifs	-0.056805037
-3.7958052	apparaissent	-0.056805037
-3.7958052	rares	-0.056805037
-3.6279054	associés	-0.17883521
-3.7958052	signes	-0.056805037
-3.5545561	cliniques	-0.056805037
-3.7958052	réactions	-0.056805037
-3.7958052	allergiques	-0.056805037
-3.7958052	anaphylactiques	-0.056805037
-3.7958052	Interactions	-0.056805037
-3.7958052	interaction	-0.056805037
-3.5545561	risque	-0.056805037
-3.7958052	potentiel	-0.056805037
-3.7958052	connu	-0.056805037
-3.5545561	saignements	-0.17883521
-3.6279054	majeurs	-0.1342388
-3.7958052	définis	-0.056805037
-3.7958052	ACUITY	-0.056805037
-3.7958052	TIMI	-0.056805037
-3.7958052	décrits	-0.056805037
-3.7958052	notes	-0.056805037
-3.7958052	bas	-0.056805037
-3.7958052	tableau	-0.056805037
-3.7958052	Rare	-0.056805037
-3.7958052	1/10000	-0.056805037
-3.7958052	1/1000	-0.056805037
-3.7958052	Troubles	-0.056805037
-3.7958052	vasculaires	-0.056805037
-3.2600641	étude	-0.0883168
-3.5545561	clinique	-0.056805037
-3.7958052	REPLACE-2	-0.056805037
-3.7958052	mineur	-0.056805037
-3.7958052	défini	-0.056805037
-3.6279054	étant	-0.056805037
-3.7958052	événement	-0.056805037
-3.6279054	hémorragique	-0.056805037
-3.3828125	observé	-0.056805063
-3.7958052	répondait	-0.056805037
-3.7958052	majeur	-0.056805037
-3.7958052	mineurs	-0.056805037
-3.7958052	rapportés	-0.056805037
-3.6279054	façon	-0.056805037
-3.6279054	fréquente	-0.17883521
-3.6279054	1/10	-0.17883521
-3.7958052	1/100	-0.056805037
-3.6279054	<	-0.056805037
-3.7958052	Tant	-0.056805037
-3.5545561	significativement	-0.056805037
-3.7958052	fréquents	-0.056805037
-3.6279054	comparaison	-0.056805037
-3.6279054	inhibiteur	-0.056805037
-3.7958052	GP	-0.056805037
-3.7958052	IIb/IIIa	-0.056805037
-3.7958052	Tableau	-0.056805037
-3.7958052	Site	-0.056805037
-3.7958052	Intracrânien	-0.056805037
-3.7958052	Classes	-0.056805037
-3.7958052	systèmes	-0.056805037
-3.7958052	organes	-0.056805037
-3.7958052	cependant	-0.056805037
-3.7958052	hémodialysable	-0.056805037
-3.7958052	direct	-0.056805037
-3.7958052	spécifique	-0.056805037
-3.7958052	lie	-0.056805037
-3.7958052	site	-0.056805037
-3.7958052	catalytique	-0.056805037
-3.7958052	exosite	-0.056805037
-3.7958052	liaison	-0.056805037
-3.7958052	anions	-0.056805037
-3.7958052	phase	-0.056805037
-3.7958052	liquide	-0.056805037
-3.7958052	montré	-0.056805037
-3.7958052	procure	-0.056805037
-3.7958052	anticoagulation	-0.056805037
-3.7958052	adéquate	-0.056805037
-3.6279054	procédures	-0.056805037
-3.7958052	peptide	-0.056805037
-3.7958052	logiquement	-0.056805037
-3.7958052	catabolisée	-0.056805037
-3.6279054	acides	-0.17883521
-3.7958052	aminés	-0.056805037
-3.7958052	constitutifs	-0.056805037
-3.7958052	recyclage	-0.056805037
-3.7958052	ultérieur	-0.056805037
-3.7958052	pool	-0.056805037
-3.7958052	organisme	-0.056805037
-3.7958052	métabolisée	-0.056805037
-3.7958052	protéases	-0.056805037
-3.6279054	Chez	-0.056805037
-3.6279054	insuffisance	-0.17883521
-3.7958052	paramètres	-0.056805037
-3.7958052	monitorés	-0.056805037
-3.7958052	Poids	-0.056805037
-3.7958052	Durée	-0.056805037
-3.7958052	physicochimique	-0.056805037
-3.7958052	reconstitué	-0.056805037
-3.7958052	démontrée	-0.056805037
-3.7958052	°C	-0.056805037
-3.7958052	réfrigérateur	-0.056805037
-3.7958052	Précautions	-0.056805037
-3.6279054	particulières	-0.056805037
-3.7958052	élimination	-0.056805037
-3.6279054	manipulation	-0.056805037
-3.7958052	solutions	-0.056805037
-3.7958052	contenant	-0.056805037
-3.7958052	particules	-0.056805037
-3.7958052	utilisées	-0.056805037
-3.7958052	NUMERO(S)	-0.056805037
-3.5545561	AUTORISATION	-0.056805037
-3.1644735	DE	-0.056805037
-3.7958052	MISE	-0.056805037
-3.7958052	SUR	-0.056805037
-3.7958052	LE	-0.056805037
-3.7958052	MARCHE	-0.056805037
-3.7958052	DATE	-0.056805037
-3.7958052	PREMIERE	-0.056805037
-3.7958052	RENOUVELLEMENT	-0.056805037
-3.7958052	AUTRES	-0.056805037
-3.7958052	CONDITIONS	-0.056805037
-3.7958052	MODE	-0.056805037
-3.7958052	ET	-0.056805037
-3.7958052	VOIE(S)	-0.056805037
-3.7958052	ADMINISTRATION	-0.056805037
-3.7958052	Tenir	-0.056805037
-3.7958052	hors	-0.056805037
-3.7958052	PEREMPTION	-0.056805037
-3.7958052	PRECAUTIONS	-0.056805037
-3.7958052	PARTICULIERES	-0.056805037
-3.7958052	CONSERVATION	-0.056805037
-3.7958052	ELIMINATION	-0.056805037
-3.6279054	DES	-0.056805037
-3.6279054	MEDICAMENTS	-0.056805037
-3.7958052	NON	-0.056805037
-3.7958052	UTILISES	-0.056805037
-3.7958052	OU	-0.056805037
-3.7958052	DECHETS	-0.056805037
-3.7958052	PROVENANT	-0.056805037
-3.7958052	CES	-0.056805037
-3.7958052	IL	-0.056805037
-3.5545561	A	-0.056805037
-3.7958052	LIEU	-0.056805037
-3.7958052	INDICATIONS	-0.056805037
-3.7958052	UTILISATION	-0.056805037
-3.7958052	flacons	-0.056805037
-3.7958052	justification	-0.056805037
-3.7958052	inclure	-0.056805037
-3.7958052	braille	-0.056805037
-3.7958052	acceptée	-0.056805037
-3.7958052	doute	-0.056805037
-3.7958052	demandez	-0.056805037
-3.7958052	informations	-0.056805037
-3.7958052	pharmacien	-0.056805037
-3.7958052	QUELLES	-0.056805037
-3.7958052	SONT	-0.056805037
-3.7958052	LES	-0.056805037
-3.7958052	INFORMATIONS	-0.056805037
-3.7958052	À	-0.056805037
-3.7958052	CONNAITRE	-0.056805037
-3.7958052	AVANT	-0.056805037
-3.7958052	UTILISER	-0.056805037
-3.7958052	ANGIOX	-0.056805037
-3.7958052	infection	-0.056805037
-3.7958052	tissu	-0.056805037
-3.7958052	similaires	-0.056805037
-3.7958052	lépirudine	-0.056805037
-3.7958052	Vous	-0.056805037
-3.5545561	devez	-0.056805037
-3.7958052	réduite	-0.056805037
-3.7958052	rénaux	-0.056805037
-3.6279054	modérés	-0.056805037
-3.7958052	administrant	-0.056805037
-3.7958052	surveillant	-0.056805037
-3.7958052	omission	-0.056805037
-3.6279054	probable	-0.056805037
-3.6279054	supplémentaires	-0.056805037
-3.7958052	contacter	-0.056805037
-3.7958052	susceptible	-0.056805037
-3.7958052	indésirable	-0.056805037
-3.7958052	fréquemment	-0.056805037
-3.7958052	hôpital	-0.056805037
-3.7958052	dirigez	-0.056805037
-3.7958052	immédiatement	-0.056805037
-3.6279054	service	-0.056805037
-3.7958052	urgences	-0.056805037
-3.6279054	proche	-0.056805037
-3.7958052	Essoufflements	-0.056805037
-3.6279054	claire	-0.056805037
-3.7958052	légèrement	-0.056805037
-3.7958052	opalescente	-0.056805037
-3.6279054	incolore	-0.056805037
-2.720727	Aclasta	-0.1769306
-3.7958052	maladies	-0.056805037
-3.6279054	suivantes	-0.056805037
-3.6279054	ostéoporose	-0.1342388
-3.7958052	fragilise	-0.056805037
-3.3828125	os	-0.101590835
-3.7958052	ménopausées	-0.056805037
-3.7958052	Comment	-0.056805037
-3.5545561	deviennent	-0.056805037
-3.7958052	progressivement	-0.056805037
-3.7958052	minces	-0.056805037
-3.7958052	fragiles	-0.056805037
-3.7958052	cassent	-0.056805037
-3.7958052	facilement	-0.056805037
-3.1644735	fracture	-0.09379843
-3.6279054	principal	-0.056805037
-3.6279054	critère	-0.056805037
-3.6279054	évaluation	-0.056805037
-3.6279054	mesurer	-0.056805037
-3.7958052	sang	-0.056805037
-3.7958052	phosphatases	-0.056805037
-3.7958052	alcalines	-0.056805037
-3.6279054	sériques	-0.056805037
-3.7958052	enzyme	-0.056805037
-3.7958052	impliquée	-0.056805037
-3.7958052	dégradation	-0.056805037
-3.7958052	revenu	-0.056805037
-3.7958052	redescendu	-0.056805037
-3.7958052	rapprocher	-0.056805037
-3.7958052	normaux	-0.056805037
-3.7958052	réduire	-0.056805037
-3.6279054	efficacement	-0.056805037
-3.7958052	nombre	-0.056805037
-3.0861742	fractures	-0.34169716
-3.3828125	placebo	-0.26489592
-3.7958052	six	-0.056805037
-3.7958052	pourcentage	-0.056805037
-3.2600641	ayant	-0.056805037
-3.7958052	risédronate	-0.056805037
-3.7958052	tendance	-0.056805037
-3.7958052	produire	-0.056805037
-3.7958052	suivant	-0.056805037
-3.6279054	perfusions	-0.056805037
-3.7958052	réitérées	-0.056805037
-3.7958052	Pourquoi	-0.056805037
-3.7958052	approuvé	-0.056805037
-3.7958052	hanche	-0.056805037
-3.7958052	récente	-0.056805037
-3.7958052	secondaire	-0.056805037
-3.7958052	traumatisme	-0.056805037
-3.7958052	modéré	-0.056805037
-3.7958052	recommandé	-0.056805037
-3.7958052	réaliser	-0.056805037
-3.6279054	administration	-0.056805037
-3.7958052	rubrique	-0.056805037
-3.7958052	troubles	-0.056805037
-3.7958052	métabolisme	-0.056805037
-3.6279054	minéraux	-0.17883521
-3.5545561	traités	-0.056805037
-3.7958052	ex.	-0.056805037
-3.7958052	hypoparathyroïdie	-0.056805037
-3.7958052	malabsorption	-0.056805037
-3.7958052	intestinale	-0.056805037
-3.5545561	calcium	-0.1342388
-3.7958052	appréciation	-0.056805037
-3.7958052	traitant	-0.056805037
-3.7958052	orienter	-0.056805037
-3.5545561	prise	-0.056805037
-3.7958052	charge	-0.056805037
-3.7958052	chaque	-0.056805037
-3.7958052	patient	-0.056805037
-3.7958052	basant	-0.056805037
-3.7958052	individuelle	-0.056805037
-3.7958052	bénéfice	-0.056805037
-3.7958052	Grossesse	-0.056805037
-3.7958052	allaitement	-0.056805037
-3.7958052	fibrillations	-0.056805037
-3.7958052	auriculaires	-0.056805037
-3.7958052	classé	-0.056805037
-3.7958052	évènements	-0.056805037
-3.7958052	graves	-0.056805037
-3.6279054	3	-0.056805037
-3.7958052	862	-0.056805037
-3.7958052	patientes	-0.056805037
-3.7958052	traitées	-0.056805037
-3.6279054	comparé	-0.056805037
-3.7958052	852	-0.056805037
-3.7958052	recevant	-0.056805037
-3.7958052	Peu	-0.056805037
-3.7958052	fréquent	-0.056805037
-3.7958052	dysgueusie	-0.056805037
-3.7958052	oesophagite	-0.056805037
-3.7958052	dentaires	-0.056805037
-3.7958052	estimer	-0.056805037
-3.7958052	fréquence	-0.056805037
-3.7958052	relation	-0.056805037
-3.7958052	médicament	-0.056805037
-3.7958052	observée	-0.056805037
-3.6279054	acide	-0.17883521
-3.7958052	zolédronique	-0.056805037
-3.7958052	altération	-0.056805037
-3.7958052	préexistante	-0.056805037
-3.7958052	chimiothérapie	-0.056805037
-3.7958052	anticancéreuse	-0.056805037
-3.7958052	néphrotoxiques	-0.056805037
-3.7958052	concomitants	-0.056805037
-3.7958052	déshydratation	-0.056805037
-3.7958052	Aucun	-0.056805037
-3.6279054	hypocalcémie	-0.056805037
-3.6279054	symptomatique	-0.056805037
-3.7958052	évolution	-0.056805037
-3.7958052	favorable	-0.056805037
-3.7958052	supérieure	-0.056805037
-3.7958052	recommandée	-0.056805037
-3.7958052	surveillés	-0.056805037
-3.7958052	attentivement	-0.056805037
-3.7958052	Effets	-0.056805037
-3.7958052	pharmacodynamiques	-0.056805037
-3.3828125	réduit	-0.2905446
-3.7958052	vitesse	-0.056805037
-3.7958052	renouvellement	-0.056805037
-3.6279054	osseux	-0.17883521
-3.7958052	post-ménopausiques	-0.056805037
-3.7958052	élevés	-0.056805037
-3.6279054	emploi	-0.056805037
-3.7958052	consécutives	-0.056805037
-3.7958052	démontrées	-0.056805037
-3.7958052	7	-0.056805037
-3.7958052	736	-0.056805037
-3.7958052	âgées	-0.056805037
-3.7958052	densité	-0.056805037
-3.7958052	minérale	-0.056805037
-3.7958052	osseuse	-0.056805037
-3.6279054	DMO	-0.056805037
-3.7958052	équivalente	-0.056805037
-3.7958052	T-score	-0.056805037
-3.6279054	col	-0.056805037
-3.6279054	fémur	-0.056805037
-3.7958052	-1,5	-0.056805037
-3.6279054	vertébrales	-0.056805037
-3.7958052	légères	-0.056805037
-3.7958052	modérée	-0.056805037
-3.7958052	prévalentes	-0.056805037
-3.7958052	vertébrale	-0.056805037
-3.7958052	prévalente	-0.056805037
-3.7958052	bisphosphonates	-0.056805037
-3.7958052	nouvelle	-0.056805037
-3.7958052	0-3	-0.056805037
-3.6279054	compris	-0.056805037
-3.7958052	dorsales	-0.056805037
-3.7958052	lombaires	-0.056805037
-3.7958052	P1NP	-0.056805037
-3.7958052	initiales	-0.056805037
-3.7958052	dessous	-0.056805037
-3.7958052	activité	-0.056805037
-3.7958052	limitée	-0.056805037
-3.7958052	alitement	-0.056805037
-3.7958052	rachidiennes	-0.056805037
-3.7958052	p	-0.056805037
-3.7958052	médian	-0.056805037
-3.6279054	environ	-0.17883521
-3.7958052	incidence	-0.056805037
-3.6279054	durée	-0.17883521
-3.7958052	conçue	-0.056805037
-3.7958052	montrer	-0.056805037
-3.7958052	différence	-0.056805037
-3.7958052	significative	-0.056805037
-3.7958052	nouvelles	-0.056805037
-3.7958052	HORIZON-RFT	-0.056805037
-3.6279054	augmenté	-0.056805037
-3.7958052	fémoral	-0.056805037
-3.7958052	mesures	-0.056805037
-3.7958052	versus	-0.056805037
-3.7958052	Etude	-0.056805037
-3.7958052	CZOL446M2308	-0.056805037
-3.7958052	rachis	-0.056805037
-3.7958052	lombaire	-0.056805037
-3.7958052	annuelle	-0.056805037
-3.7958052	celui	-0.056805037
-3.7958052	hebdomadaire	-0.056805037
-3.7958052	alendronate	-0.056805037
-3.7958052	Efficacité	-0.056805037
-3.7958052	Paget	-0.056805037
-3.7958052	uniques	-0.056805037
-3.7958052	multiples	-0.056805037
-3.7958052	généré	-0.056805037
-3.7958052	données	-0.056805037
-3.7958052	pharmacocinétiques	-0.056805037
-3.7958052	révélées	-0.056805037
-3.7958052	indépendantes	-0.056805037
-3.7958052	instauration	-0.056805037
-3.5545561	concentrations	-0.056805037
-3.7958052	plasmatiques	-0.056805037
-3.6279054	substance	-0.17883521
-3.7958052	atteignant	-0.056805037
-3.6279054	pic	-0.056805037
-3.5545561	rapide	-0.056805037
-3.5545561	inférieure	-0.40838635
-3.7958052	prolongée	-0.056805037
-3.7958052	faibles	-0.056805037
-3.7958052	dépassant	-0.056805037
-3.7958052	maximales	-0.056805037
-3.7958052	phases	-0.056805037
-3.7958052	distribution	-0.056805037
-3.7958052	précoce	-0.056805037
-3.7958052	demi-vies	-0.056805037
-3.7958052	t½	-0.056805037
-3.7958052	précisées	-0.056805037
-3.7958052	ci-dessus	-0.056805037
-3.7958052	reflètent	-0.056805037
-3.7958052	vraisemblablement	-0.056805037
-3.7958052	absorption	-0.056805037
-3.7958052	excrétion	-0.056805037
-3.7958052	seule	-0.056805037
-3.6279054	infirmière	-0.1342388
-3.7958052	Maladie	-0.056805037
-3.7958052	traitée	-0.056805037
-3.7958052	déforment	-0.056805037
-3.7958052	douloureux	-0.056805037
-3.7958052	casser	-0.056805037
-3.7958052	êtes	-0.056805037
-3.7958052	enceinte	-0.056805037
-3.7958052	prévoyez	-0.056805037
-3.7958052	allaitez	-0.056805037
-3.7958052	Faites	-0.056805037
-3.7958052	Patients	-0.056805037
-3.7958052	recevoir	-0.056805037
-3.7958052	habituelle	-0.056805037
-3.7958052	administrée	-0.056805037
-3.7958052	récemment	-0.056805037
-3.7958052	réparation	-0.056805037
-3.7958052	devrez	-0.056805037
-3.7958052	Votre	-0.056805037
-3.7958052	conseillera	-0.056805037
-3.7958052	décidera	-0.056805037
-3.7958052	combien	-0.056805037
-3.7958052	traité(e)	-0.056805037
-3.7958052	clairement	-0.056805037
-3.7958052	établi	-0.056805037
-3.7958052	entraîne	-0.056805037
-3.7958052	irrégularités	-0.056805037
-3.7958052	rythme	-0.056805037
-3.7958052	survenue	-0.056805037
-3.7958052	symptômes	-0.056805037
-3.3828125	part	-0.11354809
-3.6279054	Avant	-0.056805037
-3.7958052	ouverture	-0.056805037
-3.6279054	flacon	-0.056805037
-3.7958052	précautions	-0.056805037
-3.7958052	Chaque	-0.056805037
-3.7958052	anhydre	-0.056805037
-3.7958052	équivaut	-0.056805037
-3.7958052	monohydraté	-0.056805037
-3.7958052	composants	-0.056805037
-3.7958052	mannitol	-0.056805037
-3.7958052	citrate	-0.056805037
-3.7958052	sodium	-0.056805037
-3.7958052	préparations	-0.056805037
-3.7958052	injectables	-0.056805037
-3.7958052	administrer	-0.056805037
-3.7958052	créatinine	-0.056805037
-3.7958052	ions	-0.056805037
-3.7958052	réserve	-0.056805037
-3.7958052	parathyroïde	-0.056805037
-3.7958052	remodelage	-0.056805037
-3.7958052	transitoire	-0.056805037
-3.7958052	parfois	-0.056805037
-3.7958052	atteindre	-0.056805037
-3.7958052	généralement	-0.056805037
-3.7958052	valeur	-0.056805037
-3.7958052	maximale	-0.056805037
-3.7958052	premiers	-0.056805037
-3.7958052	apport	-0.056805037
-3.7958052	supplémentaire	-0.056805037
-3.7958052	approprié	-0.056805037
-3.7958052	vitamine	-0.056805037
-3.7958052	D	-0.056805037
-3.7958052	prête	-0.056805037
-3.7958052	unique	-0.056805037
-3.7958052	caporaux	-0.056805037
-3.7958052	Souain	-0.056805037
-3.6279054	fusillés	-0.056805037
-3.7958052	parmi	-0.056805037
-3.7958052	flagrants	-0.056805037
-3.7958052	médiatisés	-0.056805037
-3.7958052	injustice	-0.056805037
-3.7958052	militaire	-0.056805037
-3.7958052	Première	-0.056805037
-3.6279054	Guerre	-0.056805037
-3.7958052	mondiale	-0.056805037
-3.7958052	bombardement	-0.056805037
-3.6279054	tranchées	-0.056805037
-3.6279054	françaises	-0.056805037
-3.7958052	fera	-0.056805037
-3.7958052	polémique	-0.056805037
-3.7958052	suite	-0.056805037
-3.7958052	Réveilhac	-0.056805037
-3.7958052	ordonnateur	-0.056805037
-3.6279054	attaque	-0.056805037
-3.7958052	demandé	-0.056805037
-3.7958052	artillerie	-0.056805037
-3.7958052	pilonner	-0.056805037
-3.7958052	positions	-0.056805037
-3.2600641	française	-0.101590835
-3.7958052	soldats	-0.056805037
-3.7958052	donne	-0.056805037
-3.6279054	jugement	-0.056805037
-3.7958052	directe	-0.056805037
-3.7958052	désignés	-0.056805037
-3.7958052	coupables	-0.056805037
-3.5545561	Maupas	-0.056805037
-3.7958052	marié	-0.056805037
-3.6279054	eut	-0.056805037
-3.7958052	motions	-0.056805037
-3.7958052	protestations	-0.056805037
-3.6279054	devant	-0.056805037
-3.7958052	chambre	-0.056805037
-3.7958052	demandant	-0.056805037
-3.7958052	réhabilitation	-0.056805037
-3.7958052	reçurent	-0.056805037
-3.5545561	franc	-0.056805037
-3.7958052	symbolique	-0.056805037
-3.7958052	titre	-0.056805037
-3.7958052	dommages	-0.056805037
-3.7958052	réhabilités	-0.056805037
-3.7958052	mémoire	-0.056805037
-3.7958052	Français	-0.056805037
-3.7958052	veuves	-0.056805037
-3.7958052	puissent	-0.056805037
-3.7958052	valoir	-0.056805037
-3.7958052	pension	-0.056805037
-3.6279054	école	-0.056805037
-3.7958052	Percy	-0.056805037
-3.7958052	porte	-0.056805037
-3.6279054	Blanche	-0.056805037
-3.7958052	Théophile	-0.056805037
-3.7958052	livre	-0.056805037
-3.7958052	Théo	-0.056805037
-3.7958052	Jacqueline	-0.056805037
-3.7958052	Laisné	-0.056805037
-3.7958052	institutrice	-0.056805037
-3.7958052	prit	-0.056805037
-3.7958052	raconte	-0.056805037
-3.7958052	Bibliographie	-0.056805037
-3.3828125	Affaire	-0.23265573
-3.6279054	journal	-0.056805037
-3.7958052	Évènement	-0.056805037
-3.7958052	jeudi	-0.056805037
-3.7958052	décembre	-0.056805037
-3.7958052	titré	-0.056805037
-3.7958052	Dracula	-0.056805037
-3.7958052	communiste	-0.056805037
-3.7958052	Désinformation	-0.056805037
-3.7958052	Médias	-0.056805037
-3.7958052	vidé	-0.056805037
-3.7958052	supermarchés	-0.056805037
-3.7958052	nourriture	-0.056805037
-3.7958052	pharmacies	-0.056805037
-3.7958052	usines	-0.056805037
-3.7958052	matériel	-0.056805037
-3.7958052	cambriolé	-0.056805037
-3.7958052	maisons	-0.056805037
-3.7958052	torturé	-0.056805037
-3.7958052	amis	-0.056805037
-3.7958052	Propagande	-0.056805037
-3.7958052	Références	-0.056805037
-3.7958052	O'Kane	-0.056805037
-3.7958052	This	-0.056805037
-3.7958052	time	-0.056805037
-3.7958052	I	-0.056805037
-3.7958052	'	-0.056805037
-3.7958052	m	-0.056805037
-3.7958052	scared	-0.056805037
-3.7958052	The	-0.056805037
-3.7958052	Guardian	-0.056805037
-3.7958052	December	-0.056805037
-3.7958052	Ian	-0.056805037
-3.7958052	Urbina	-0.056805037
-3.7958052	HBO	-0.056805037
-3.7958052	adds	-0.056805037
-3.7958052	disclaimer	-0.056805037
-3.6279054	to	-0.056805037
-3.7958052	Gulf	-0.056805037
-3.7958052	War	-0.056805037
-3.7958052	movie	-0.056805037
-3.7958052	Asia	-0.056805037
-3.7958052	Times	-0.056805037
-3.7958052	Nov	-0.056805037
-3.6279054	vente	-0.056805037
-3.7958052	rétrocédé	-0.056805037
-3.7958052	Bangui	-0.056805037
-3.7958052	Croix-Rouge	-0.056805037
-3.7958052	Centrafrique	-0.056805037
-3.7958052	67	-0.056805037
-3.7958052	025	-0.056805037
-3.5545561	francs	-0.056805037
-3.7958052	versé	-0.056805037
-3.7958052	oeuvres	-0.056805037
-3.7958052	caritatives	-0.056805037
-3.6279054	pourrait	-0.17883521
-3.7958052	causes	-0.056805037
-3.7958052	défaite	-0.056805037
-3.7958052	Valéry	-0.056805037
-3.7958052	Giscard	-0.056805037
-3.7958052	Estaing	-0.056805037
-3.7958052	face	-0.056805037
-3.7958052	candidat	-0.056805037
-3.7958052	socialiste	-0.056805037
-3.7958052	François	-0.056805037
-3.7958052	Mitterrand	-0.056805037
-3.7958052	Notes	-0.056805037
-3.7958052	traversée	-0.056805037
-3.7958052	Beach	-0.056805037
-3.7958052	navette	-0.056805037
-3.7958052	fluviale	-0.056805037
-3.7958052	effectue	-0.056805037
-3.7958052	liaisons	-0.056805037
-3.7958052	Brazzaville-Kinshasa	-0.056805037
-3.7958052	comprend	-0.056805037
-3.7958052	HCR	-0.056805037
-3.7958052	traces	-0.056805037
-3.7958052	perdues	-0.056805037
-3.7958052	parle	-0.056805037
-3.7958052	métis	-0.056805037
-3.7958052	dès	-0.056805037
-3.7958052	Brazzaville	-0.056805037
-3.7958052	autorisé	-0.056805037
-3.7958052	file	-0.056805037
-3.7958052	attente	-0.056805037
-3.7958052	Wikipédia	-0.056805037
-3.7958052	ébauche	-0.056805037
-3.6279054	Histoire	-0.11354809
-3.2600641	République	-0.09379843
-3.7958052	Congo	-0.056805037
-3.7958052	publié	-0.056805037
-3.7958052	pamphlet	-0.056805037
-3.7958052	violent	-0.056805037
-3.7958052	Richelieu	-0.056805037
-3.7958052	opposait	-0.056805037
-3.7958052	fermement	-0.056805037
-3.7958052	destruction	-0.056805037
-3.7958052	murailles	-0.056805037
-3.7958052	Livres	-0.056805037
-3.7958052	Satanisme	-0.056805037
-3.7958052	emplois	-0.056805037
-3.7958052	fictifs	-0.056805037
-3.7958052	Mairie	-0.056805037
-3.5545561	Paris	-0.12229514
-3.2600641	RPR	-0.0883168
-3.7958052	instruite	-0.056805037
-3.6279054	juge	-0.056805037
-3.6279054	Patrick	-0.056805037
-3.7958052	Desmure	-0.056805037
-3.7958052	sept	-0.056805037
-3.7958052	employés	-0.056805037
-3.7958052	permanents	-0.056805037
-3.7958052	salaire	-0.056805037
-3.7958052	payé	-0.056805037
-3.7958052	mairie	-0.056805037
-3.7958052	poursuites	-0.056805037
-3.7958052	font	-0.056805037
-3.7958052	référence	-0.056805037
-3.7958052	instigateur	-0.056805037
-3.7958052	organisateur	-0.056805037
-3.7958052	ordonnance	-0.056805037
-3.7958052	rendue	-0.056805037
-3.7958052	Procureur	-0.056805037
-3.7958052	Nanterre	-0.056805037
-3.6279054	Yves	-0.056805037
-3.7958052	Bot	-0.056805037
-3.7958052	lettre	-0.056805037
-3.7958052	peser	-0.056805037
-3.7958052	encontre	-0.056805037
-3.6279054	Chirac	-0.056805037
-3.7958052	fortes	-0.056805037
-3.7958052	présomptions	-0.056805037
-3.7958052	participation	-0.056805037
-3.6279054	faits	-0.056805037
-3.7958052	illégale	-0.056805037
-3.6279054	intérêt	-0.056805037
-3.5545561	recel	-0.056805037
-3.6279054	abus	-0.17883521
-3.7958052	biens	-0.056805037
-3.7958052	sociaux	-0.056805037
-3.6279054	procureur	-0.056805037
-3.7958052	Cour	-0.056805037
-3.6279054	cassation	-0.056805037
-3.5545561	Jean-François	-0.056805037
-3.7958052	Burgelin	-0.056805037
-3.7958052	Chef	-0.056805037
-3.7958052	État	-0.056805037
-3.7958052	décide	-0.056805037
-3.5545561	août	-0.1342388
-3.7958052	juridiction	-0.056805037
-3.7958052	penchera	-0.056805037
-3.6279054	..	-0.056805037
-3.5545561	HLM	-0.1342388
-3.7958052	faux	-0.056805037
-3.7958052	chargés	-0.056805037
-3.6279054	mission	-0.056805037
-3.7958052	décision	-0.056805037
-3.7958052	confirmée	-0.056805037
-3.6279054	puis	-0.17883521
-3.7958052	Parmi	-0.056805037
-3.7958052	elles	-0.056805037
-3.7958052	figurent	-0.056805037
-3.7958052	3e	-0.056805037
-3.7958052	arrondissement	-0.056805037
-3.7958052	Dominati	-0.056805037
-3.7958052	Laurent	-0.056805037
-3.6279054	Philippe	-0.056805037
-3.7958052	bras	-0.056805037
-3.7958052	Jean	-0.056805037
-3.6279054	Tiberi	-0.056805037
-3.7958052	fédération	-0.056805037
-3.7958052	Guy	-0.056805037
-3.7958052	Legris	-0.056805037
-3.7958052	impliqué	-0.056805037
-3.7958052	Crédit	-0.056805037
-3.7958052	municipal	-0.056805037
-3.6279054	audience	-0.056805037
-3.7958052	durer	-0.056805037
-3.7958052	parquet	-0.056805037
-3.7958052	requis	-0.056805037
-3.7958052	peine	-0.056805037
-3.6279054	douze	-0.056805037
-3.7958052	sursis	-0.056805037
-3.7958052	2	-0.056805037
-3.5545561	euros	-0.056805037
-3.6279054	amende	-0.056805037
-3.5545561	cinq	-0.1342388
-3.7958052	inéligibilité	-0.056805037
-3.7958052	pratique	-0.056805037
-3.5545561	direction	-0.056805037
-3.7958052	G.O.	-0.056805037
-3.7958052	Ordre	-0.056805037
-3.7958052	circulaire	-0.056805037
-3.7958052	vénérables	-0.056805037
-3.7958052	maîtres	-0.056805037
-3.6279054	loge	-0.056805037
-3.7958052	obédience	-0.056805037
-3.7958052	rassembler	-0.056805037
-3.7958052	niveau	-0.056805037
-3.7958052	possibles	-0.056805037
-3.6279054	officiers	-0.056805037
-3.7958052	garnisons	-0.056805037
-3.7958052	villes	-0.056805037
-3.7958052	départements	-0.056805037
-3.7958052	fonctionnaires	-0.056805037
-3.7958052	époque	-0.056805037
-3.6279054	statut	-0.056805037
-3.7958052	protecteur	-0.056805037
-3.7958052	considérés	-0.056805037
-3.6279054	agents	-0.056805037
-3.7958052	militaires	-0.056805037
-3.7958052	Troisième	-0.056805037
-3.7958052	votent	-0.056805037
-3.7958052	exprimer	-0.056805037
-3.7958052	publiquement	-0.056805037
-3.7958052	opinions	-0.056805037
-3.7958052	factions	-0.056805037
-3.7958052	actif	-0.056805037
-3.7958052	André	-0.056805037
-3.7958052	paradoxalement	-0.056805037
-3.7958052	idée	-0.056805037
-3.7958052	prérogatives	-0.056805037
-3.7958052	ici	-0.056805037
-3.7958052	limites	-0.056805037
-3.7958052	légalité	-0.056805037
-3.7958052	surveiller	-0.056805037
-3.7958052	supérieur	-0.056805037
-3.7958052	provoque	-0.056805037
-3.7958052	chute	-0.056805037
-3.7958052	Combes	-0.056805037
-3.7958052	prime	-0.056805037
-3.7958052	ironie	-0.056805037
-3.7958052	radicaux	-0.056805037
-3.7958052	Clémenceau	-0.056805037
-3.7958052	colère	-0.056805037
-3.7958052	républicains	-0.056805037
-3.7958052	bloc	-0.056805037
-3.7958052	gauches	-0.056805037
-3.7958052	futurs	-0.056805037
-3.7958052	Raymond	-0.056805037
-3.7958052	Poincaré	-0.056805037
-3.5545561	Paul	-0.056805037
-3.7958052	Deschanel	-0.056805037
-3.7958052	Doumer	-0.056805037
-3.7958052	démissionnera	-0.056805037
-3.6279054	Grand	-0.056805037
-3.7958052	Orient	-0.056805037
-3.6279054	suites	-0.056805037
-3.7958052	morales	-0.056805037
-3.7958052	Tentative	-0.056805037
-3.7958052	analyse	-0.056805037
-3.7958052	conclusion	-0.056805037
-3.5545561	contrat	-0.056805037
-3.5545561	frégates	-0.056805037
-3.6279054	Taïwan	-0.101590835
-3.5545561	Bravo	-0.056805037
-3.7958052	signé	-0.056805037
-3.7958052	milliards	-0.056805037
-3.7958052	dollars	-0.056805037
-3.7958052	US	-0.056805037
-3.7958052	Réseau	-0.056805037
-3.7958052	C	-0.056805037
-3.6279054	Alfred	-0.17883521
-3.7958052	Sirven	-0.056805037
-3.7958052	Mis	-0.056805037
-3.7958052	...	-0.056805037
-3.7958052	conditions	-0.056805037
-3.7958052	rigoureuses	-0.056805037
-3.7958052	écrivait	-0.056805037
-3.7958052	Briand	-0.056805037
-3.7958052	directeur	-0.056805037
-3.6279054	Thomson-CSF	-0.17883521
-3.7958052	réseau	-0.056805037
-3.7958052	suscitait	-0.056805037
-3.7958052	certitudes	-0.056805037
-3.7958052	dirigeants	-0.056805037
-3.7958052	Elf	-0.056805037
-3.7958052	Depuis	-0.056805037
-3.6279054	Christine	-0.17883521
-3.7958052	Deviers-Joncour	-0.056805037
-3.6279054	mis	-0.17883521
-3.7958052	bancaire	-0.056805037
-3.7958052	accueillir	-0.056805037
-3.7958052	espérée	-0.056805037
-3.7958052	Ex-directeur	-0.056805037
-3.5545561	adjoint	-0.1342388
-3.5545561	Alain	-0.056805037
-3.7958052	Fribourg	-0.056805037
-3.7958052	assuré	-0.056805037
-3.6279054	juges	-0.056805037
-3.7958052	toujours	-0.056805037
-3.7958052	considéré	-0.056805037
-3.7958052	bénéficiait	-0.056805037
-3.7958052	bonne	-0.056805037
-3.7958052	versait	-0.056805037
-3.6279054	Wang	-0.056805037
-3.7958052	blocage	-0.056805037
-3.7958052	dispersion	-0.056805037
-3.5545561	commissions	-0.11354809
-3.7958052	occultes	-0.056805037
-3.6279054	Joël	-0.17883521
-3.7958052	Bucher	-0.056805037
-3.7958052	Société	-0.056805037
-3.7958052	Sogenal	-0.056805037
-3.7958052	souligné	-0.056805037
-3.7958052	implication	-0.056805037
-3.7958052	banques	-0.056805037
-3.5545561	système	-0.1342388
-3.7958052	ventes	-0.056805037
-3.6279054	début	-0.056805037
-3.7958052	Fayette	-0.056805037
-3.7958052	Mirages	-0.056805037
-3.7958052	Dassault	-0.056805037
-3.7958052	missiles	-0.056805037
-3.7958052	MICA	-0.056805037
-3.7958052	Matra	-0.056805037
-3.7958052	Audition	-0.056805037
-3.7958052	Taiwan	-0.056805037
-3.7958052	parlementaire	-0.056805037
-3.7958052	répression	-0.056805037
-3.7958052	délinquance	-0.056805037
-3.7958052	blanchiment	-0.056805037
-3.7958052	capitaux	-0.056805037
-3.7958052	Volume	-0.056805037
-3.7958052	Duché	-0.056805037
-3.7958052	Luxembourg	-0.056805037
-3.7958052	X	-0.056805037
-3.6279054	ouverte	-0.056805037
-3.7958052	découverte	-0.056805037
-3.7958052	suisse	-0.056805037
-3.7958052	séquestre	-0.056805037
-3.5545561	millions	-0.1342388
-3.7958052	Secret	-0.056805037
-3.7958052	Défense	-0.056805037
-3.7958052	quatrième	-0.056805037
-3.6279054	ministre	-0.1342388
-3.7958052	Economie	-0.056805037
-3.7958052	Thierry	-0.056805037
-3.7958052	Breton	-0.056805037
-3.7958052	refusé	-0.056805037
-3.7958052	déclassifier	-0.056805037
-3.6279054	documents	-0.056805037
-3.7958052	douanes	-0.056805037
-3.7958052	Renaud	-0.056805037
-3.7958052	van	-0.056805037
-3.7958052	Ruymbeke	-0.056805037
-3.6279054	Xavière	-0.056805037
-3.7958052	Simeoni	-0.056805037
-3.7958052	remplace	-0.056805037
-3.7958052	Dominique	-0.056805037
-3.7958052	Talancé	-0.056805037
-3.7958052	adressé	-0.056805037
-3.7958052	levée	-0.056805037
-3.7958052	secret	-0.056805037
-3.6279054	défense	-0.056805037
-3.7958052	ministère	-0.056805037
-3.7958052	Économie	-0.056805037
-3.7958052	Finances	-0.056805037
-3.7958052	habilité	-0.056805037
-3.7958052	saisir	-0.056805037
-3.7958052	consultative	-0.056805037
-3.7958052	CCSDN	-0.056805037
-3.7958052	genevois	-0.056805037
-3.7958052	Perraudin	-0.056805037
-3.7958052	bloqué	-0.056805037
-3.7958052	Zurich	-0.056805037
-3.7958052	milliard	-0.056805037
-3.6279054	suisses	-0.056805037
-3.7958052	appartenant	-0.056805037
-3.7958052	intermédiaire	-0.056805037
-3.7958052	taiwanais	-0.056805037
-3.7958052	Andrew	-0.056805037
-3.7958052	actuelle	-0.056805037
-3.7958052	Thales	-0.056805037
-3.7958052	présidée	-0.056805037
-3.7958052	Denis	-0.056805037
-3.7958052	Ranque	-0.056805037
-3.7958052	dit	-0.056805037
-3.7958052	concernée	-0.056805037
-3.7958052	désolidarisée	-0.056805037
-3.7958052	Gomez	-0.056805037
-3.7958052	PDG	-0.056805037
-3.7958052	Thomson	-0.056805037
-3.7958052	CSF	-0.056805037
-3.7958052	Morisson	-0.056805037
-3.7958052	Capitaine	-0.056805037
-3.7958052	vaisseau	-0.056805037
-3.7958052	marine	-0.056805037
-3.7958052	négociateur	-0.056805037
-3.7958052	volet	-0.056805037
-3.7958052	conçut	-0.056805037
-3.7958052	montage	-0.056805037
-3.7958052	opération	-0.056805037
-3.7958052	Swiss	-0.056805037
-3.7958052	Info	-0.056805037
-3.7958052	Épilogue	-0.056805037
-3.7958052	ISBN	-0.056805037
-3.7958052	Opération	-0.056805037
-3.7958052	Pocket	-0.056805037
-3.7958052	Chine	-0.056805037
-3.7958052	Chronologie	-0.056805037
-3.7958052	étonne	-0.056805037
-3.7958052	tarifs	-0.056805037
-3.7958052	100	-0.056805037
-3.7958052	page	-0.056805037
-3.7958052	15	-0.056805037
-3.7958052	demandés	-0.056805037
-3.6279054	entreprises	-0.056805037
-3.7958052	passent	-0.056805037
-3.7958052	publicités	-0.056805037
-3.7958052	Clichois	-0.056805037
-3.7958052	modeste	-0.056805037
-3.7958052	électoral	-0.056805037
-3.5545561	Didier	-0.40838635
-3.7958052	Schuller	-0.056805063
-3.6279054	Dr	-0.056805037
-3.7958052	Jean-Pierre	-0.056805037
-3.6279054	Maréchal	-0.056805037
-3.7958052	beau-père	-0.056805037
-3.7958052	Eric	-0.056805037
-3.6279054	Halphen	-0.056805037
-3.7958052	examen	-0.056805037
-3.5545561	trafic	-0.056805037
-3.7958052	influence	-0.056805037
-3.7958052	extorsion	-0.056805037
-3.7958052	enquêteurs	-0.056805037
-3.7958052	placent	-0.056805037
-3.7958052	scellés	-0.056805037
-3.7958052	cartons	-0.056805037
-3.7958052	relatifs	-0.056805037
-3.7958052	passation	-0.056805037
-3.7958052	publics	-0.056805037
-3.7958052	offre	-0.056805037
-3.7958052	Demande	-0.056805037
-3.7958052	extradition	-0.056805037
-3.7958052	localisé	-0.056805037
-3.7958052	Bahamas	-0.056805037
-3.7958052	Dominicaine	-0.056805037
-3.7958052	février	-0.056805037
-3.7958052	Balkany	-0.056805037
-3.7958052	renvoyés	-0.056805037
-3.7958052	correctionnel	-0.056805037
-3.7958052	Créteil	-0.056805037
-3.7958052	prévenus	-0.056805037
-3.7958052	issue	-0.056805037
-3.6279054	procès	-0.056805037
-3.6279054	condamné	-0.17883521
-3.7958052	complicité	-0.056805037
-3.7958052	Financement	-0.056805037
-3.7958052	illégal	-0.056805037
-3.6279054	partis	-0.056805037
-3.7958052	français	-0.056805037
-3.6279054	Hauts-de-Seine	-0.056805037
-3.7958052	Nicolas	-0.056805037
-3.7958052	Sarkozy	-0.056805037
-3.7958052	Balladur	-0.056805037
-3.7958052	Été	-0.056805037
-3.7958052	Éric	-0.056805037
-3.7958052	acquiert	-0.056805037
-3.7958052	conviction	-0.056805037
-3.5545561	Jean-Claude	-0.40838635
-3.7958052	Méry	-0.056805037
-3.7958052	clefs	-0.056805037
-3.7958052	Ses	-0.056805037
-3.7958052	confidences	-0.056805037
-3.7958052	dûment	-0.056805037
-3.7958052	enregistrées	-0.056805037
-3.7958052	procès-verbal	-0.056805037
-3.7958052	dimension	-0.056805037
-3.6279054	Robert	-0.17883521
-3.7958052	Pandraud	-0.056805037
-3.7958052	rencontré	-0.056805037
-3.7958052	reprises	-0.056805037
-3.6279054	Francis	-0.056805037
-3.7958052	Poullain	-0.056805037
-3.7958052	auraient	-0.056805037
-3.7958052	transmis	-0.056805037
-3.6279054	Rémy	-0.17883521
-3.7958052	Halbwax	-0.056805037
-3.7958052	policier	-0.056805037
-3.7958052	révoqué	-0.056805037
-3.7958052	RH	-0.056805037
-3.7958052	190	-0.056805037
-3.7958052	placé	-0.056805037
-3.7958052	mandat	-0.056805037
-3.7958052	dépôt	-0.056805037
-3.7958052	Monde	-0.056805037
-3.7958052	reproche	-0.056805037
-3.7958052	perçu	-0.056805037
-3.7958052	près	-0.056805037
-3.7958052	échange	-0.056805037
-3.7958052	livrées	-0.056805037
-3.7958052	OPAC	-0.056805037
-3.7958052	novembre	-0.056805037
-3.2600641	Michel	-0.38745463
-3.7958052	Roussin	-0.056805037
-3.7958052	Schuller-Maréchal	-0.056805037
-3.7958052	proposé	-0.056805037
-3.7958052	pression	-0.056805037
-3.7958052	gendre	-0.056805037
-3.7958052	freine	-0.056805037
-3.5545561	instruction	-0.056805037
-3.7958052	Son	-0.056805037
-3.7958052	correspondant	-0.056805037
-3.7958052	indique	-0.056805037
-3.7958052	transaction	-0.056805037
-3.7958052	déjeuner	-0.056805037
-3.7958052	hôtel	-0.056805037
-3.7958052	Mercure	-0.056805037
-3.7958052	Nogent-sur-Marne	-0.056805037
-3.7958052	remettre	-0.056805037
-3.7958052	50	-0.056805037
-3.7958052	cheveux	-0.056805037
-3.7958052	bruns	-0.056805037
-3.7958052	arrivera	-0.056805037
-3.7958052	4X4	-0.056805037
-3.7958052	membre	-0.056805037
-3.6279054	conseil	-0.17883521
-3.7958052	régional	-0.056805037
-3.7958052	Ile-de-France	-0.056805037
-3.7958052	annulée	-0.056805037
-3.7958052	justice	-0.056805037
-3.7958052	Toubon	-0.056805037
-3.7958052	envoie	-0.056805037
-3.7958052	hélicoptère	-0.056805037
-3.7958052	Himalaya	-0.056805037
-3.7958052	ramener	-0.056805037
-3.7958052	Essonne	-0.056805037
-3.7958052	éviter	-0.056805037
-3.7958052	ennuis	-0.056805037
-3.7958052	accusation	-0.056805037
-3.7958052	parvenue	-0.056805037
-3.7958052	formellement	-0.056805037
-3.7958052	personnelle	-0.056805037
-3.7958052	responsables	-0.056805037
-3.7958052	appareil	-0.056805037
-3.7958052	absence	-0.056805037
-3.7958052	responsable	-0.056805037
-3.6279054	élu	-0.056805037
-3.7958052	corrézien	-0.056805037
-3.7958052	Georges	-0.056805037
-3.7958052	Pérol	-0.056805037
-3.7958052	figure	-0.056805037
-3.7958052	clé	-0.056805037
-3.7958052	voûte	-0.056805037
-3.7958052	vaste	-0.056805037
-3.7958052	versements	-0.056805037
-3.7958052	détournement	-0.056805037
-3.7958052	attribution	-0.056805037
-3.7958052	maintenance	-0.056805037
-3.7958052	rénovation	-0.056805037
-3.7958052	092	-0.056805037
-3.7958052	cabines	-0.056805037
-3.7958052	ascenseurs	-0.056805037
-3.7958052	immeubles	-0.056805037
-3.7958052	parisiens	-0.056805037
-3.7958052	attribué	-0.056805037
-3.7958052	affaires	-0.056805037
-3.7958052	politico-financières	-0.056805037
-3.7958052	protagonistes	-0.056805037
-3.7958052	appartiennent	-0.056805037
-3.7958052	loges	-0.056805037
-3.7958052	maçonniques	-0.056805037
-3.7958052	Jacky	-0.056805037
-3.7958052	Chaisaz	-0.056805037
-3.7958052	Silence	-0.056805037
-3.7958052	GLNF	-0.056805037
-3.7958052	septembre	-0.056805037
-3.7958052	Île-de-France	-0.056805037
-3.7958052	truqués	-0.056805037
-3.7958052	lycées	-0.056805037
-3.7958052	emblématique	-0.056805037
-3.7958052	dérives	-0.056805037
-3.7958052	Chargé	-0.056805037
-3.7958052	premières	-0.056805037
-3.7958052	lois	-0.056805037
-3.7958052	décentralisation	-0.056805037
-3.6279054	dirigé	-0.17883521
-3.7958052	Giraud	-0.056805037
-3.7958052	engagé	-0.056805037
-3.7958052	extension	-0.056805037
-3.7958052	construction	-0.056805037
-3.7958052	établissements	-0.056805037
-3.7958052	prélevé	-0.056805037
-3.7958052	partagés	-0.056805037
-3.7958052	prorata	-0.056805037
-3.7958052	représentation	-0.056805037
-3.7958052	régionale	-0.056805037
-3.7958052	grosse	-0.056805037
-3.7958052	racket	-0.056805037
-3.7958052	revint	-0.056805037
-3.7958052	secondé	-0.056805037
-3.7958052	Soit	-0.056805037
-3.7958052	versés	-0.056805037
-3.7958052	groupes	-0.056805037
-3.7958052	Bouygues	-0.056805037
-3.7958052	Eiffage	-0.056805037
-3.7958052	Spie-Batignolles	-0.056805037
-3.7958052	Suez	-0.056805037
-3.7958052	Générale	-0.056805037
-3.7958052	eaux	-0.056805037
-3.7958052	Protagonistes	-0.056805037
-3.7958052	ex-bras	-0.056805037
-3.7958052	racontait	-0.056805037
-3.7958052	peronnellement	-0.056805037
-3.7958052	espèces	-0.056805037
-3.7958052	Gérard	-0.056805037
-3.7958052	Longuet	-0.056805037
-3.7958052	Cependant	-0.056805037
-3.7958052	tribunaux	-0.056805037
-3.7958052	examiner	-0.056805037
-3.7958052	voyages	-0.056805037
-3.7958052	payés	-0.056805037
-3.7958052	motivé	-0.056805037
-3.7958052	interrogatoire	-0.056805037
-3.7958052	proches	-0.056805037
-3.7958052	Procès	-0.056805037
-3.7958052	correctionnelle	-0.056805037
-3.7958052	instance	-0.056805037
-3.7958052	terminé	-0.056805037
-3.7958052	mercredi	-0.056805037
-3.7958052	Donzel	-0.056805037
-3.7958052	écologiste	-0.056805037
-3.7958052	dissident	-0.056805037
-3.7958052	Génération	-0.056805037
-3.7958052	écologie	-0.056805037
-3.7958052	ferme	-0.056805037
-3.7958052	étaler	-0.056805037
-3.7958052	Plusieurs	-0.056805037
-3.7958052	clubs	-0.056805037
-3.7958052	accusés	-0.056805037
-3.7958052	influencé	-0.056805037
-3.7958052	désignation	-0.056805037
-3.7958052	arbitres	-0.056805037
-3.6279054	matches	-0.056805037
-3.7958052	Lors	-0.056805037
-3.7958052	échanges	-0.056805037
-3.6279054	Moggi	-0.056805037
-3.7958052	donnait	-0.056805037
-3.7958052	instructions	-0.056805037
-3.7958052	membres	-0.056805037
-3.7958052	Juve	-0.056805037
-3.7958052	faisait	-0.056805037
-3.7958052	démissionnent	-0.056805037
-3.7958052	mai	-0.056805037
-3.6279054	[	-0.17883521
-3.7958052	]	-0.056805037
-3.7958052	rétrogradée	-0.056805037
-3.7958052	série	-0.056805037
-3.7958052	B	-0.056805037
-3.7958052	2e	-0.056805037
-3.7958052	division	-0.056805037
-3.7958052	points	-0.056805037
-3.7958052	pénalité	-0.056805037
-3.7958052	retrouvera	-0.056805037
-3.7958052	Fiorentina	-0.056805037
-3.7958052	Lazio	-0.056805037
-3.7958052	Rome	-0.056805037
-3.7958052	reléguées	-0.056805037
-3.6279054	respectivement	-0.056805037
-3.7958052	Liens	-0.056805037
-3.7958052	externes	-0.056805037
-3.7958052	football	-0.056805037
-3.7958052	Rochot	-0.056805037
-3.7958052	Hansen	-0.056805037
-3.7958052	Aurel	-0.056805037
-3.7958052	Cornéa	-0.056805037
-3.7958052	Jean-Louis	-0.056805037
-3.7958052	Normandin	-0.056805037
-3.7958052	Dernier	-0.056805037
-3.7958052	négligeable	-0.056805037
-3.7958052	pourtant	-0.056805037
-3.7958052	souvent	-0.056805037
-3.7958052	oublié	-0.056805037
-3.7958052	presse	-0.056805037
-3.7958052	Catégorie	-0.056805037
-3.7958052	politico-financière	-0.056805037
-3.7958052	incendie	-0.056805037
-3.7958052	ravage	-0.056805037
-3.7958052	paillote	-0.056805037
-3.7958052	construite	-0.056805037
-3.7958052	illégalité	-0.056805037
-3.7958052	bord	-0.056805037
-3.7958052	mer	-0.056805037
-3.7958052	maritime	-0.056805037
-3.7958052	plage	-0.056805037
-3.7958052	Cala	-0.056805037
-3.7958052	Orzo	-0.056805037
-3.7958052	sud	-0.056805037
-3.7958052	golfe	-0.056805037
-3.7958052	Ajaccio	-0.056805037
-3.7958052	Corse	-0.056805037
-3.7958052	Henri	-0.056805037
-3.7958052	Mazères	-0.056805037
-3.7958052	colonel	-0.056805037
-3.7958052	gendarmerie	-0.056805037
-3.7958052	fermes	-0.056805037
-3.7958052	Corse-du-Sud	-0.056805037
-3.6279054	photos	-0.056805037
-3.7958052	incriminées	-0.056805037
-3.7958052	commentaires	-0.056805037
-3.7958052	accompagnant	-0.056805037
-3.7958052	publication	-0.056805037
-3.3828125	Reuters	-0.101590835
-3.7958052	clichés	-0.056805037
-3.7958052	datés	-0.056805037
-3.7958052	censés	-0.056805037
-3.7958052	représenter	-0.056805037
-3.7958052	chacun	-0.056805037
-3.7958052	Beyrouth	-0.056805037
-3.7958052	détruit	-0.056805037
-3.7958052	précédente	-0.056805037
-3.7958052	raid	-0.056805037
-3.7958052	israélien	-0.056805037
-3.7958052	Sur	-0.056805037
-3.7958052	fumées	-0.056805037
-3.7958052	rajoutées	-0.056805037
-3.7958052	ordinateur	-0.056805037
-3.7958052	photo	-0.056805037
-3.7958052	représentant	-0.056805037
-3.7958052	quartier	-0.056805037
-3.7958052	subi	-0.056805037
-3.7958052	aérienne	-0.056805037
-3.7958052	Réaction	-0.056805037
-3.7958052	Drinking	-0.056805037
-3.7958052	From	-0.056805037
-3.7958052	Home	-0.056805037
-3.7958052	^	-0.056805037
-3.7958052	admits	-0.056805037
-3.7958052	more	-0.056805037
-3.7958052	image	-0.056805037
-3.7958052	Ynetnews	-0.056805037
-3.7958052	withdraws	-0.056805037
-3.7958052	all	-0.056805037
-3.7958052	by	-0.056805037
-3.7958052	Lebanese	-0.056805037
-3.7958052	freelance	-0.056805037
-3.7958052	August	-0.056805037
-3.7958052	Page	-0.056805037
-3.7958052	accédé	-0.056805037
-3.7958052	2006-08-07	-0.056805037
-3.7958052	fr	-0.056805037
-3.7958052	images	-0.056805037
-3.7958052	explication	-0.056805037
-3.7958052	modifications	-0.056805037
-3.7958052	Korkos	-0.056805037
-3.7958052	Boite	-0.056805037
-3.7958052	contribué	-0.056805037
-3.7958052	diminuer	-0.056805037
-3.7958052	soutien	-0.056805037
-3.7958052	tourna	-0.056805037
-3.7958052	perte	-0.056805037
-3.6279054	Indochine	-0.056805037
-3.7958052	climat	-0.056805037
-3.7958052	social	-0.056805037
-3.7958052	ensuivit	-0.056805037
-3.7958052	propice	-0.056805037
-3.7958052	débats	-0.056805037
-3.7958052	coloniale	-0.056805037
-3.7958052	judiciaires	-0.056805037
-3.7958052	1948-1953	-0.056805037
-3.7958052	administrativement	-0.056805037
-3.7958052	lié	-0.056805037
-3.7958052	CFP	-0.056805037
-3.7958052	CFA	-0.056805037
-3.7958052	théoriquement	-0.056805037
-3.7958052	décourager	-0.056805037
-3.7958052	spéculation	-0.056805037
-3.7958052	monétaire	-0.056805037
-3.7958052	affirmer	-0.056805037
-3.7958052	domination	-0.056805037
-3.7958052	Bernard	-0.056805037
-3.7958052	B.	-0.056805037
-3.7958052	Fall	-0.056805037
-3.7958052	sources	-0.056805037
-3.7958052	profit	-0.056805037
-3.7958052	colonisation	-0.056805037
-3.7958052	bilan	-0.056805037
-3.7958052	avéra	-0.056805037
-3.7958052	négatif	-0.056805037
-3.7958052	national	-0.056805037
-3.7958052	Voir	-0.056805037
-3.7958052	Gras	-0.056805037
-3.7958052	Plon	-0.056805037
-3.7958052	internes	-0.056805037
-3.7958052	Colloque	-0.056805037
-3.7958052	fraudes	-0.056805037
-3.7958052	Quatrième	-0.056805037

\2-grams:
-1.6360245	__DIGIT__ </s>	0
-0.0067783943	. </s>	0
-0.9396026	) </s>	0
-0.21201839	! </s>	0
-1.297816	conservation </s>	0
-0.07859537	? </s>	0
-1.5683471	aussi </s>	0
-1.1499323	etc. </s>	0
-2.05922	" </s>	0
-1.0640996	: </s>	0
-1.297816	appel </s>	0
-1.5683471	France </s>	0
-0.8457175	information </s>	0
-1.7351432	affaire </s>	0
-0.8790699	Tir </s>	0
-0.8790699	FISSIER </s>	0
-0.8790699	Jules-Romains </s>	0
-0.32175276	; </s>	0
-0.8790699	disparue </s>	0
-0.8790699	corbeau </s>	0
-1.297816	public </s>	0
-1.297816	intraveineuse </s>	0
-1.5638313	ICP </s>	0
-1.5683471	rénale </s>	0
-1.6050478	cliniques </s>	0
-0.8790699	interaction </s>	0
-0.8790699	vasculaires </s>	0
-1.1499323	hémorragique </s>	0
-0.8790699	Intracrânien </s>	0
-0.8790699	organes </s>	0
-1.1499323	manipulation </s>	0
-1.297816	AUTORISATION </s>	0
-0.8790699	MARCHE </s>	0
-0.8790699	CONDITIONS </s>	0
-0.8790699	ADMINISTRATION </s>	0
-0.8790699	PEREMPTION </s>	0
-0.8790699	CONSERVATION </s>	0
-0.8790699	LIEU </s>	0
-0.8790699	UTILISATION </s>	0
-0.8790699	pharmacien </s>	0
-0.8790699	ANGIOX </s>	0
-1.1499323	proche </s>	0
-0.8790699	Essoufflements </s>	0
-1.1499323	légèrement </s>	0
-1.9095592	Aclasta </s>	0
-0.8790699	allaitement </s>	0
-0.8790699	pharmacodynamiques </s>	0
-0.8790699	lombaires </s>	0
-0.8790699	Paget </s>	0
-1.4802656	française </s>	0
-0.8790699	Bibliographie </s>	0
-1.5106059	Affaire </s>	0
-0.8790699	Propagande </s>	0
-0.8790699	Références </s>	0
-0.8790699	Notes </s>	0
-1.4090428	Histoire </s>	0
-0.8790699	Congo </s>	0
-0.8790699	Livres </s>	0
-0.8790699	Satanisme </s>	0
-1.5902734	Paris </s>	0
-1.1499323	.. </s>	0
-1.1499323	mission </s>	0
-0.8790699	conclusion </s>	0
-1.4802656	Taïwan </s>	0
-0.8790699	Défense </s>	0
-0.8790699	Épilogue </s>	0
-0.8790699	Chine </s>	0
-0.8790699	Chronologie </s>	0
-0.8790699	Dominicaine </s>	0
-0.8790699	français </s>	0
-1.1499323	Hauts-de-Seine </s>	0
-1.297816	Île-de-France </s>	0
-0.8790699	Protagonistes </s>	0
-0.8790699	Longuet </s>	0
-0.8790699	correctionnelle </s>	0
-0.8790699	externes </s>	0
-0.8790699	fermes </s>	0
-0.8790699	incriminées </s>	0
-1.4802656	Reuters </s>	0
-0.8790699	internes </s>	0
-0.8790699	fraudes </s>	0
-3.430163	<s> cela	-0.023546342
-1.9770502	que cela	-0.023546342
-2.0161335	dont cela	-0.023546342
-1.5115656	cela signifie	-0.023546342
-0.88973516	signifie que	-0.023546342
-2.4038658	__DIGIT__ que	-0.023546342
-2.0697606	et que	-0.023546342
-0.88973516	noté que	-0.023546342
-1.8456935	également que	-0.023546342
-0.75872046	tant que	-0.023546342
-0.7606468	pense que	-0.023546342
-1.5017173	ce que	-0.023546342
-1.1700479	entendu que	-0.023546342
-2.1984723	pour que	-0.023546342
-0.88973516	exiger que	-0.023546342
-0.88973516	lettres que	-0.023546342
-0.88973516	ambitieuse que	-0.023546342
-1.3263652	faut que	-0.023546342
-0.88973516	amendement que	-0.023546342
-0.88973516	considérons que	-0.023546342
-0.88973516	subsidiaire que	-0.023546342
-1.1700479	doutes que	-0.023546342
-1.5111781	politiques que	-0.023546342
-0.46560895	espère que	-0.023546342
-0.88973516	assurés que	-0.023546342
-0.88973516	soir que	-0.023546342
-2.1856778	" que	-0.023546342
-0.88973516	souffre que	-0.023546342
-1.7902068	pendant que	-0.023546342
-0.88973516	celui-ci que	-0.023546342
-1.839476	était que	-0.023546342
-0.88973516	évident que	-0.023546342
-0.88973516	constater que	-0.023546342
-0.88973516	telles que	-0.023546342
-1.4323914	rapidement que	-0.023546342
-0.88973516	faisons que	-0.023546342
-1.623182	France que	-0.023546342
-0.46560895	tels que	-0.023546342
-0.88973516	plutôt que	-0.023546342
-0.88973516	objectifs que	-0.023546342
-0.88973516	dire que	-0.023546342
-1.3263652	élément que	-0.023546342
-0.88973516	apercevant que	-0.023546342
-0.88973516	naturelle que	-0.023546342
-0.75872046	ainsi que	-0.023546342
-1.1700479	explique que	-0.023546342
-0.88973516	échec que	-0.023546342
-0.75872046	alors que	-0.023546342
-0.88973516	autant que	-0.023546342
-0.88973516	-ce que	-0.023546342
-0.88973516	estimé que	-0.023546342
-1.1700479	mineurs que	-0.023546342
-0.88973516	montré que	-0.023546342
-1.1700479	probable que	-0.023546342
-1.1700479	ménopausées que	-0.023546342
-1.3359405	août que	-0.023546342
-1.3263652	époque que	-0.023546342
-0.88973516	conviction que	-0.023546342
-2.615437	que leur	-0.023546342
-2.0270617	de leur	-0.023546314
-2.3360317	à leur	-0.023546342
-1.9303117	dans leur	-0.023546342
-1.9716439	pour leur	-0.023546342
-1.5018339	durant leur	-0.023546342
-0.90853155	estimer leur	-0.023546342
-0.90853155	atteignant leur	-0.023546342
-2.076737	leur consommation	-0.023546342
-3.1059892	la consommation	-0.023546342
-0.47154847	consommation énergétique	-0.023546342
-0.98478496	énergétique ,	-0.023546342
-1.448869	qui ,	-0.023546342
-0.8434558	__DIGIT__ ,	-0.18490732
-0.78286314	UE ,	-0.023546342
-0.98478496	forte ,	-0.023546342
-1.4827852	et ,	-0.023546342
-1.2396646	même ,	-0.023546342
-0.78286314	conditionné ,	-0.023546342
-1.1371882	questions ,	-0.023546342
-0.78286314	États-Unis ,	-0.023546342
-1.4210737	est ,	-0.023546342
-0.98478496	Europe ,	-0.023546342
-0.78286314	isolée ,	-0.023546342
-0.8200962	exemple ,	-0.023546342
-1.0802357	avis ,	-0.023546342
-1.1371882	nouveau ,	-0.023546342
-1.1371882	action ,	-0.023546342
-1.0802357	intérêts ,	-0.023546342
-1.174618	) ,	-0.023546342
-0.98478496	initiative ,	-0.023546342
-0.78286314	NOW ,	-0.023546342
-0.78286314	Horizon ,	-0.023546342
-0.78286314	programmation ,	-0.023546342
-1.3783007	ce ,	-0.023546342
