\data\
ngram 1=1983
ngram 2=6625
ngram 3=8635
ngram 4=8838
ngram 5=8391

\1-grams:
-3.863676	<unk>	0
0	<s>	-0.77858084
-1.1413617	</s>	0
-1.6799359	euh	-0.31673586
-2.2144144	il	-0.32812604
-2.8950331	y	-0.13742311
-2.555512	a	-0.13862713
-2.1360147	une	-0.16584648
-3.4344528	petite	-0.07614889
-3.7395334	bifurcation	-0.07614889
-3.5936058	juste	-0.07614889
-2.8950331	avant	-0.1266003
-1.9157337	la	-0.20976508
-3.1741636	place	-0.07614889
-2.1271398	du	-0.13785493
-3.7395334	Tribunal	-0.07614889
-3.0858815	tu	-0.10064242
-3.7395334	passes	-0.07614889
-1.7550975	à	-0.3506034
-3.1741636	côté	-0.12128313
-1.9211668	d'	-0.36488658
-3.5936058	fontaine	-0.07614889
-3.7395334	arrives	-0.07614889
-2.8950331	aux	-0.09812995
-3.7395334	Herbes	-0.07614889
-2.183333	avec	-0.21590698
-3.5936058	sorte	-0.07614889
-1.3718058	de	-0.31345692
-3.7395334	halle	-0.07614889
-3.0125487	quoi	-0.107902
-3.7395334	structure	-0.07614889
-3.7395334	métallique	-0.07614889
-3.7395334	continues	-0.07614889
-3.5936058	rue	-0.07614889
-1.9211668	et	-0.22664915
-3.5936058	Notre	-0.19922052
-2.532572	-	-0.09608503
-3.7395334	Dame	-0.07614889
-2.8950331	ben	-0.09608503
-3.0858815	voilà	-0.15608929
-2.047134	des	-0.11240331
-3.4344528	produits	-0.07614892
-1.9266686	qui	-0.2889159
-2.154328	vous	-0.23410918
-3.7395334	changent	-0.07614889
-3.5936058	tellement	-0.07614889
-3.0858815	vie	-0.18549922
-2.0933495	qu'	-0.55127466
-2.2144144	on	-0.3455937
-2.6053815	se	-0.07614889
-2.7628999	dit	-0.17761447
-2.555512	mais	-0.14224242
-3.4344528	pourquoi	-0.12128313
-2.555512	ne	-0.14180118
-2.0933495	les	-0.14200474
-2.0257487	pas	-0.23218627
-3.7395334	inventés	-0.07614889
-2.2478929	plus	-0.16702688
-3.5936058	tôt	-0.15420888
-3.0125487	eh	-0.32729238
-2.4900358	bien	-0.13920535
-2.0933495	c'	-1.3736888
-2.085297	est	-0.20594935
-1.9103678	le	-0.18960005
-3.5936058	cas	-0.07614889
-2.7628999	aujourd'	-0.983048
-3.7395334	hui	-0.07614889
-2.1637828	ce	-0.3356697
-3.5936058	produit	-0.07614889
-2.7264943	vraiment	-0.087579094
-3.7395334	révolutionnaire	-0.07614889
-2.8026388	alors	-0.120505564
-2.3828602	au	-0.11266841
-3.4344528	début	-0.13333967
-2.4900358	n'	-0.34503058
-3.7395334	croyait	-0.07614889
-3.4344528	trop	-0.07614889
-3.0858815	toute	-0.11342744
-1.9733893	l'	-0.18616658
-3.7395334	équipe	-0.07614889
-3.7395334	boutique	-0.07614889
-3.5936058	Valérie	-0.07614889
-3.7395334	pourtant	-0.07614889
-3.7395334	croit	-0.07614889
-3.4344528	dur	-0.07614892
-2.4331503	comme	-0.15857585
-3.7395334	fer	-0.07614889
-2.6326423	s'	-0.15552235
-3.5936058	agit	-0.07614892
-2.2252896	tout	-0.29842478
-3.1741636	simplement	-0.10380357
-3.7395334	ceci	-0.07614889
-3.285093	boule	-0.32204065
-3.7395334	lavage	-0.07614889
-1.864843	que	-0.42116684
-3.5936058	allez	-0.07614889
-3.7395334	placer	-0.07614889
-3.7395334	coeur	-0.07614889
-2.692906	votre	-0.12379368
-3.285093	linge	-0.12128313
-3.285093	sans	-0.07614889
-2.9498281	rien	-0.07614889
-3.0858815	autre	-0.14739975
-3.4344528	mettre	-0.07614892
-3.285093	machine	-0.07614889
-1.8998308	en	-0.19209695
-3.4344528	route	-0.07614889
-2.9498281	ensuite	-0.12469386
-3.7395334	admirez	-0.07614889
-3.7395334	résultat	-0.07614889
-2.4702344	ça	-0.17315367
-3.4344528	incroyable	-0.07614889
-2.9498281	effectivement	-0.20156823
-3.7395334	oubliez	-0.07614889
-3.0125487	vos	-0.07614889
-3.7395334	habituels	-0.07614889
-3.7395334	mettez	-0.07614889
-3.7395334	intérieur	-0.07614889
-3.7395334	magique	-0.07614889
-3.5936058	vêtements	-0.19922052
-3.0125487	voir	-0.10380357
-3.0858815	peut	-0.09608503
-3.4344528	véritablement	-0.07614892
-3.285093	parler	-0.13333967
-3.7395334	miracle	-0.07614889
-2.7628999	hein	-0.50338364
-3.5936058	regardez	-0.19922052
-3.7395334	mise	-0.07614889
-3.7395334	épreuve	-0.07614889
-3.7395334	présence	-0.07614889
-1.9612296	un	-0.22099142
-3.5936058	huissier	-0.07614889
-2.154328	pour	-0.16787928
-3.7395334	prouver	-0.07614889
-3.5936058	raconte	-0.07614889
-2.4331503	nous	-0.2277264
-3.7395334	allons	-0.07614889
-3.5936058	efficacité	-0.19922052
-2.5797312	notre	-0.2260808
-3.7395334	compagnie	-0.07614889
-3.0125487	maître	-0.23991175
-3.7395334	Vendiste	-0.07614889
-3.7395334	justice	-0.07614889
-3.7395334	bonjour	-0.07614889
-3.4344528	Pierre	-0.13333967
-3.5936058	voulez	-0.07614889
-3.4344528	-vous	-0.07614892
-3.7395334	vérifier	-0.07614889
-3.5936058	ait	-0.07614889
-3.5936058	lessive	-0.15420888
-3.7395334	laver	-0.07614889
-1.864843	dans	-0.5655587
-3.5936058	tambour	-0.07614892
-2.9498281	également	-0.07614889
-3.7395334	tiroir	-0.07614889
-3.7395334	vide	-0.07614889
-2.8950331	va	-0.07614889
-3.0858815	ici	-0.07614892
-2.692906	cette	-0.09295773
-3.7395334	chemise	-0.07614889
-3.5936058	fond	-0.07614889
-3.7395334	teint	-0.07614889
-2.3523026	sur	-0.3104011
-3.7395334	col	-0.07614889
-3.1741636	difficile	-0.11342744
-3.7395334	partir	-0.07614889
-3.7395334	grosse	-0.07614889
-3.7395334	tache	-0.07614889
-3.7395334	café	-0.07614889
-3.7395334	constatez	-0.07614889
-2.3237543	très	-0.15373096
-3.7395334	sale	-0.07614889
-3.5936058	pantalon	-0.19922052
-3.7395334	grenadine	-0.07614889
-2.1637828	je	-0.30606863
-3.5936058	mets	-0.07614889
-3.4344528	puis	-0.07614889
-3.7395334	paire	-0.07614889
-3.7395334	baskets	-0.07614889
-3.7395334	salie	-0.07614889
-3.7395334	rajouter	-0.07614889
-3.5936058	remplacer	-0.19922052
-3.7395334	ferme	-0.07614889
-3.5936058	hublot	-0.15420888
-3.7395334	scellés	-0.07614889
-3.7395334	parti	-0.07614892
-3.5936058	marche	-0.13333967
-2.6617296	donc	-0.124186315
-3.5936058	heure	-0.07614889
-3.7395334	quarante-cinq	-0.07614889
-3.7395334	retrouve	-0.07614889
-3.0125487	après	-0.07614889
-3.7395334	cycle	-0.07614889
-3.7395334	terminé	-0.07614889
-3.7395334	vais	-0.07614889
-3.7395334	demander	-0.07614889
-3.7395334	briser	-0.07614889
-3.7395334	scellé	-0.07614889
-2.6053815	fait	-0.09672305
-2.3673127	j'	-0.48231083
-3.7395334	ouvre	-0.07614889
-3.7395334	avions	-0.07614889
-3.5936058	taches	-0.07614889
-2.6053815	là	-0.09812995
-2.8950331	moi	-0.21481195
-3.4344528	vois	-0.13333967
-3.285093	propre	-0.107902
-3.7395334	chemisier	-0.07614889
-3.7395334	traces	-0.07614889
-3.7395334	impeccable	-0.07614889
-3.0125487	nos	-0.07614886
-3.5936058	chaussures	-0.07614889
-2.8463836	sont	-0.12206653
-3.7395334	waouh	-0.07614889
-3.7395334	beau	-0.07614889
-3.4344528	elles	-0.15420888
-3.7395334	blanches	-0.07614889
-3.285093	blanc	-0.07614889
-3.7395334	immaculé	-0.07614889
-3.285093	cela	-0.18191981
-3.5936058	grâce	-0.07614889
-2.7628999	dire	-0.25256056
-3.7395334	conclusion	-0.07614889
-3.7395334	savon	-0.07614889
-2.6326423	tous	-0.24590653
-2.8950331	ces	-0.07614892
-3.7395334	linges	-0.07614889
-3.7395334	propres	-0.07614889
-3.5936058	merci	-0.07614892
-2.6053815	beaucoup	-0.2527207
-2.555512	elle	-0.22487402
-2.8950331	comment	-0.2527207
-3.7395334	secret	-0.07614889
-2.532572	oui	-0.16247931
-3.4344528	petit	-0.07614889
-3.7395334	bruit	-0.07614889
-3.4344528	entend	-0.07614892
-3.7395334	bah	-0.07614889
-3.7395334	billes	-0.07614889
-3.7395334	céramique	-0.07614889
-3.0125487	ont	-0.07614889
-3.7395334	chacune	-0.07614889
-3.7395334	différents	-0.07614889
-3.7395334	propose	-0.07614889
-3.7395334	écouter	-0.07614889
-3.5936058	sûr	-0.07614889
-3.4344528	spécialiste	-0.07614892
-3.7395334	expliquer	-0.07614889
-3.5936058	rayonnement	-0.07614889
-3.7395334	infra	-0.07614889
-3.7395334	rouge	-0.07614889
-3.7395334	accroît	-0.07614889
-3.4344528	mouvement	-0.07614889
-3.7395334	moléculaire	-0.07614889
-3.7395334	eau	-0.07614892
-3.7395334	renforce	-0.07614889
-2.7628999	son	-0.13743405
-3.4344528	pouvoir	-0.07614892
-3.7395334	nettoyant	-0.07614889
-3.7395334	abaisse	-0.07614889
-3.7395334	tension	-0.07614889
-3.7395334	superficielle	-0.07614889
-3.7395334	permet	-0.07614889
-3.7395334	meilleure	-0.07614889
-3.7395334	pénétration	-0.07614889
-3.5936058	niveau	-0.07614889
-3.7395334	fibre	-0.07614889
-3.7395334	textile	-0.07614889
-3.7395334	émettant	-0.07614889
-3.7395334	ions	-0.07614889
-3.7395334	négatifs	-0.07614889
-3.7395334	réduit	-0.07614889
-3.7395334	adhésion	-0.07614889
-2.9498281	entre	-0.2527207
-3.7395334	fibres	-0.07614889
-3.7395334	faciliter	-0.07614889
-3.7395334	élimination	-0.07614889
-3.7395334	impuretés	-0.07614889
-3.7395334	capte	-0.07614889
-3.7395334	chlore	-0.07614889
-3.4344528	présent	-0.07614892
-3.4344528	ville	-0.07614892
-3.7395334	protège	-0.07614889
-3.7395334	élasticité	-0.07614889
-3.7395334	couleurs	-0.07614889
-3.7395334	tissu	-0.07614889
-3.7395334	contenant	-0.07614889
-3.1741636	aucun	-0.07614889
-3.7395334	détergent	-0.07614889
-3.5936058	laisse	-0.07614889
-3.7395334	résidu	-0.07614889
-3.7395334	substance	-0.07614889
-3.7395334	allergène	-0.07614889
-3.7395334	écarte	-0.07614889
-3.4344528	risque	-0.07614892
-3.7395334	irritation	-0.07614889
-2.6326423	ou	-0.20150922
-3.7395334	allergie	-0.07614889
-2.7264943	faire	-0.10571132
-3.7395334	énormes	-0.07614889
-3.7395334	économies	-0.07614889
-3.7395334	car	-0.07614889
-2.3523026	si	-0.4413033
-3.7395334	utilisez	-0.07614889
-2.3523026	par	-0.16980115
-3.1741636	jour	-0.07614889
-3.0125487	pendant	-0.107902
-3.1741636	trois	-0.07614889
-2.7628999	ans	-0.29352778
-3.0858815	mille	-0.14896165
-3.7395334	euros	-0.07614889
-3.4344528	exceptionnel	-0.15420888
-3.285093	Magalie	-0.07614889
-3.7395334	utilise	-0.07614889
-2.9498281	depuis	-0.10380357
-3.5936058	combien	-0.07614889
-3.0125487	temps	-0.15608929
-2.9498281	deux	-0.07614889
-3.285093	mois	-0.12128313
-3.4344528	dites	-0.07614892
-3.5936058	-nous	-0.07614889
-3.7395334	pensez	-0.07614889
-3.7395334	génial	-0.07614889
-2.9498281	mon	-0.10064242
-3.7395334	super	-0.07614889
-3.5936058	douceur	-0.07614889
-3.7395334	conservées	-0.07614889
-3.7395334	formidable	-0.07614889
-3.5936058	crois	-0.107902
-3.285093	avez	-0.087579094
-3.7395334	garçon	-0.07614889
-3.5936058	salit	-0.07614889
-3.5936058	faisait	-0.07614889
-3.7395334	allergies	-0.07614889
-3.7395334	auparavant	-0.07614889
-3.7395334	grace	-0.07614889
-3.5936058	odeurs	-0.07614892
-3.7395334	-ce	-0.07614889
-3.7395334	efficace	-0.07614889
-3.5936058	ah	-0.07614889
-3.7395334	enlève	-0.07614889
-3.1741636	toutes	-0.20235364
-2.8950331	avoir	-0.07614889
-3.7395334	apporte	-0.07614889
-3.7395334	odeur	-0.07614889
-3.7395334	fraîcheur	-0.07614889
-2.4702344	quand	-0.3783688
-2.692906	même	-0.11248639
-3.7395334	agréable	-0.07614889
-3.5936058	silencieuse	-0.07614889
-3.5936058	tourne	-0.07614889
-3.5936058	problème	-0.07614889
-2.8463836	était	-0.11044347
-3.7395334	abîme	-0.07614889
-3.5936058	absolument	-0.07614889
-3.7395334	idéal	-0.07614889
-3.7395334	préserver	-0.07614889
-3.7395334	planète	-0.07614889
-3.5936058	puisque	-0.07614889
-3.1741636	sait	-0.07614889
-3.7395334	quantité	-0.07614889
-3.5936058	nombre	-0.07614892
-3.7395334	kilos	-0.07614889
-3.7395334	litres	-0.07614889
-3.7395334	nettoyage	-0.07614889
-3.7395334	déversés	-0.07614889
-3.7395334	partout	-0.07614889
-3.285093	monde	-0.09608503
-3.4344528	an	-0.07614889
-3.7395334	joli	-0.07614889
-3.7395334	geste	-0.07614889
-3.4344528	suis	-0.1258222
-2.8950331	être	-0.07614892
-3.7395334	convaincus	-0.07614889
-3.5936058	venue	-0.07614892
-3.7395334	plateau	-0.07614889
-3.4344528	maintenant	-0.07614892
-3.7395334	utiliserez	-0.07614889
-3.4344528	sais	-0.07614886
-3.7395334	Marguerite	-0.07614889
-3.7395334	Duras	-0.07614889
-3.5936058	v~	-0.07614889
-3.285093	vrai	-0.11342744
-3.7395334	obtenu	-0.07614889
-3.285093	autres	-0.094388284
-3.1741636	succès	-0.12128313
-3.0125487	ai	-0.1069879
-3.7395334	énuméré	-0.07614889
-3.5936058	ailleurs	-0.07614889
-3.7395334	générique	-0.07614889
-3.1741636	celui	-0.12128313
-2.6617296	-là	-0.18549922
-3.4344528	cent	-0.07614889
-3.7395334	exemplaires	-0.07614889
-3.285093	quatre	-0.07614889
-3.7395334	semaines	-0.07614889
-3.7395334	fabuleux	-0.07614889
-3.7395334	sensibilité	-0.07614889
-3.7395334	aiguë	-0.07614889
-3.7395334	pointue	-0.07614889
-2.9498281	avait	-0.17400807
-3.285093	peu	-0.10709528
-3.7395334	pressenti	-0.07614889
-2.8950331	non	-0.29004237
-3.5936058	contraire	-0.19922052
-3.285093	La	-0.13333967
-3.7395334	Maladie	-0.07614889
-3.5936058	mort	-0.07614889
-3.285093	avais	-0.09812995
-3.285093	peur	-0.07614889
-3.1741636	livre	-0.07614889
-2.8026388	enfin	-0.11406848
-3.7395334	relative	-0.07614889
-3.7395334	remarquez	-0.07614889
-2.8950331	soit	-0.11698062
-3.1741636	gens	-0.07614889
-3.7395334	attendaient	-0.07614889
-3.7395334	critique	-0.07614889
-3.7395334	déferlante	-0.07614889
-3.5936058	vague	-0.07614892
-3.1741636	quelqu'	-0.6028368
-3.285093	mal	-0.07614889
-3.4344528	c~	-0.07614892
-3.5936058	doit	-0.07614889
-3.1741636	faut	-0.07614892
-3.5936058	éditeur	-0.07614889
-2.7628999	me	-0.11342744
-3.285093	bon	-0.07614889
-3.5936058	n~	-0.07614892
-3.7395334	comprend	-0.07614889
-3.4344528	passer	-0.13333967
-3.7395334	fautes	-0.07614889
-3.7395334	grammaire	-0.07614889
-3.7395334	pareilles	-0.07614889
-3.7395334	reviendra	-0.07614889
-3.7395334	style	-0.07614889
-3.7395334	critiques	-0.07614889
-3.5936058	avaient	-0.07614889
-3.7395334	boudée	-0.07614889
-3.5936058	quelques	-0.07614889
-3.1741636	années	-0.07614889
-3.7395334	coup	-0.07614889
-2.9498281	ils	-0.13468294
-3.5936058	retrouvent	-0.19922052
-3.7395334	couvrent	-0.07614889
-3.7395334	fleurs	-0.07614889
-3.7395334	plaisir	-0.07614889
-3.7395334	gênant	-0.07614889
-2.6326423	aussi	-0.12748161
-3.5936058	savez	-0.07614892
-3.5936058	dix	-0.19922052
-3.7395334	duré	-0.07614889
-3.7395334	silence	-0.07614889
-3.7395334	autour	-0.07614889
-3.1741636	évidemment	-0.07614889
-3.7395334	peux	-0.07614889
-3.7395334	ouvrir	-0.07614889
-3.5936058	journal	-0.07614889
-3.7395334	réflexe	-0.07614889
-3.7395334	pudeur	-0.07614889
-3.7395334	fuite	-0.07614889
-3.0858815	toujours	-0.07614886
-3.7395334	parution	-0.07614889
-2.8463836	peut-être	-0.094388284
-3.7395334	habitude	-0.07614889
-3.285093	pris	-0.13333967
-3.7395334	certaine	-0.07614889
-3.7395334	culpabilité	-0.07614889
-3.7395334	êtes	-0.07614889
-3.7395334	accord	-0.07614889
-3.285093	mh	-0.07614889
-3.1741636	certainement	-0.12128313
-3.7395334	auteurs	-0.07614889
-3.4344528	ouais	-0.07614892
-3.7395334	di~	-0.07614889
-3.7395334	rumeur	-0.07614889
-3.7395334	court	-0.07614889
-3.5936058	Paris	-0.07614889
-3.1741636	certains	-0.07614889
-3.7395334	membres	-0.07614889
-3.7395334	Académie	-0.07614889
-3.5936058	Goncourt	-0.07614892
-3.7395334	auraient	-0.07614889
-2.8026388	lui	-0.09608503
-3.7395334	donnerait	-0.07614889
-3.4344528	-on	-0.07614892
-3.7395334	prix	-0.07614889
-3.5936058	regardé	-0.07614889
-3.7395334	statistiques	-0.07614889
-3.7395334	neuf	-0.07614889
-3.5936058	cinquante	-0.07614889
-3.5936058	paraître	-0.07614892
-3.1741636	chef	-0.12128313
-3.7395334	-d'	-0.07614889
-3.7395334	oeuvre	-0.07614889
-3.285093	appelle	-0.07614889
-3.7395334	Un	-0.07614889
-3.4344528	Barrage	-0.13333967
-3.4344528	contre	-0.07614892
-3.7395334	Pacifique	-0.07614889
-3.5936058	raté	-0.15420888
-3.7395334	complètement	-0.07614889
-3.7395334	misé	-0.07614889
-3.7395334	mêmes	-0.07614889
-3.1741636	ceux	-0.3118605
-2.692906	parce	-0.77892804
-3.7395334	couronné	-0.07614889
-3.7395334	Les	-0.07614889
-3.7395334	jeux	-0.07614889
-3.7395334	sauvages	-0.07614889
-3.4344528	Paul	-0.07614892
-3.7395334	Colin	-0.07614889
-3.5936058	laissé	-0.07614889
-3.7395334	tomber	-0.07614889
-3.7395334	doivent	-0.07614889
-3.7395334	regret	-0.07614889
-3.7395334	voulaient	-0.07614889
-3.7395334	donner	-0.07614889
-3.4344528	étais	-0.10064242
-3.4344528	gauche	-0.15420888
-3.7395334	communiste	-0.07614889
-3.1741636	moment	-0.10064242
-3.7395334	membre	-0.07614889
-3.7395334	PC	-0.07614889
-2.8026388	été	-0.09705758
-3.4344528	expérience	-0.07614889
-3.7395334	épouvantable	-0.07614889
-3.1741636	famille	-0.07614889
-2.8026388	ma	-0.19228823
-3.5936058	mère	-0.07614892
-3.7395334	punie	-0.07614889
-3.7395334	parlé	-0.07614889
-3.5936058	écrit	-0.07614889
-3.5936058	venons	-0.07614889
-3.4344528	L'	-0.15420888
-3.7395334	Amant	-0.07614889
-3.7395334	sommes	-0.07614892
-3.7395334	Saigon	-0.07614889
-3.7395334	guerres	-0.07614889
-3.5936058	vingt	-0.07614889
-3.4344528	quinze	-0.15420888
-3.7395334	demi	-0.07614889
-3.285093	bac	-0.15420888
-3.7395334	traverse	-0.07614889
-3.7395334	fleuve	-0.07614889
-3.7395334	Mekong	-0.07614889
-3.7395334	drôlement	-0.07614889
-3.5936058	attifée	-0.07614889
-3.7395334	racontez	-0.07614889
-3.5936058	chapeau	-0.07614889
-3.4344528	homme	-0.07614889
-3.7395334	feutre	-0.07614889
-3.5936058	rose	-0.07614889
-3.5936058	couleur	-0.07614889
-3.7395334	bois	-0.07614889
-3.7395334	large	-0.07614889
-3.7395334	ruban	-0.07614889
-3.5936058	noir	-0.07614889
-3.7395334	pieds	-0.07614889
-2.9498281	eu	-0.08975616
-3.7395334	lamés	-0.07614889
-3.7395334	or	-0.07614889
-3.7395334	souliers	-0.07614889
-3.5936058	danser	-0.07614889
-3.7395334	devez	-0.07614889
-3.7395334	remarquer	-0.07614889
-3.7395334	remarquerait	-0.07614892
-3.5936058	peine	-0.07614889
-3.7395334	mode	-0.07614889
-3.7395334	porte	-0.07614889
-3.7395334	couramment	-0.07614889
-3.0858815	chez	-0.15420888
-3.5936058	jeunes	-0.19922052
-3.7395334	filles	-0.07614892
-3.285093	époque	-0.11342744
-3.7395334	remarquée	-0.07614889
-3.4344528	grande	-0.07614889
-3.7395334	limousine	-0.07614889
-3.285093	noire	-0.13333967
-3.4344528	regards	-0.07614892
-3.7395334	croisent	-0.07614889
-2.9498281	cet	-0.07614889
-3.7395334	échange	-0.07614889
-3.7395334	changer	-0.07614889
-3.7395334	appelait	-0.07614889
-3.4344528	photographie	-0.15420888
-3.7395334	absolue	-0.07614889
-3.0858815	m'	-0.09812995
-3.7395334	commandé	-0.07614889
-3.7395334	attention	-0.07614889
-3.7395334	prise	-0.07614889
-3.285093	celle	-0.28255036
-3.5936058	vu	-0.07614889
-3.5936058	auto	-0.07614892
-3.4344528	jeune	-0.07614889
-3.5936058	fille	-0.07614892
-3.7395334	cars	-0.07614889
-3.7395334	indigènes	-0.07614889
-3.285093	fois	-0.07614889
-3.7395334	traversé	-0.07614889
-3.7395334	t	-0.07614889
-3.7395334	voiture	-0.07614889
-3.7395334	donnez	-0.07614889
-3.7395334	Morris	-0.07614889
-3.7395334	Léon	-0.07614889
-3.7395334	Bollée	-0.07614889
-3.7395334	autos	-0.07614889
-3.1741636	façon	-0.07614889
-3.4344528	longtemps	-0.38098803
-3.7395334	musées	-0.07614889
-3.7395334	pense	-0.07614889
-3.7395334	assis	-0.07614889
-3.5936058	devant	-0.07614889
-3.7395334	aurait	-0.07614889
-3.7395334	distance	-0.07614889
-3.7395334	gigantesque	-0.07614889
-3.5936058	regarde	-0.07614889
-3.7395334	Chinois	-0.07614889
-3.285093	riche	-0.13333967
-3.7395334	automobile	-0.07614889
-3.7395334	chauffeur	-0.07614889
-3.4344528	choses	-0.12128313
-3.4344528	douze	-0.07614892
-3.7395334	vingt-sept	-0.07614889
-3.7395334	impression	-0.07614889
-3.7395334	devenir	-0.07614889
-3.5936058	amant	-0.07614889
-3.1741636	premier	-0.07614889
-3.7395334	suite	-0.07614892
-3.4344528	su	-0.07614892
-3.7395334	déplu	-0.07614889
-3.7395334	avis	-0.07614889
-3.4344528	sauf	-0.15420888
-3.4344528	assez	-0.07614892
-3.285093	étonnée	-0.07614889
-3.7395334	attirail	-0.07614889
-3.7395334	milliardaire	-0.07614889
-3.7395334	épatée	-0.07614889
-3.7395334	attirée	-0.07614889
-3.5936058	préludes	-0.07614889
-3.7395334	Karol	-0.07614889
-3.7395334	Szymanowski	-0.07614889
-3.7395334	extraits	-0.07614889
-3.7395334	opus	-0.07614889
-3.5936058	cents	-0.07614889
-3.7395334	sixième	-0.07614889
-3.7395334	septième	-0.07614889
-3.7395334	interprétés	-0.07614889
-3.7395334	Maria	-0.07614889
-3.5936058	Yudina	-0.07614889
-3.7395334	enregistrés	-0.07614889
-3.7395334	cinquante-six	-0.07614889
-3.4344528	choisi	-0.13333967
-3.7395334	hasard	-0.07614889
-3.7395334	Didier	-0.07614889
-3.7395334	Von	-0.07614889
-3.7395334	Moere	-0.07614889
-3.7395334	choisie	-0.07614889
-3.7395334	élève	-0.07614889
-3.5936058	Blumenfeld	-0.07614889
-3.7395334	Felix	-0.07614889
-3.7395334	oncle	-0.07614889
-3.1741636	Szymanoski	-0.09812995
-3.285093	dont	-0.07614889
-3.5936058	penser	-0.07614889
-3.5936058	tradition	-0.07614889
-3.7395334	représentée	-0.07614889
-3.4344528	jouait	-0.07614892
-3.7395334	exemple	-0.07614892
-3.5936058	Neuhaus	-0.07614889
-3.7395334	cousin	-0.07614889
-3.7395334	prélude	-0.07614889
-3.7395334	Frédéric	-0.07614889
-3.7395334	Chopin	-0.07614889
-3.285093	trouve	-0.11342744
-3.7395334	chopinien	-0.07614889
-3.4344528	plutôt	-0.07614892
-3.7395334	mouvance	-0.07614889
-3.7395334	wagnérienne	-0.07614889
-3.285093	entendu	-0.07614889
-3.7395334	tristanien	-0.07614889
-3.7395334	motif	-0.07614889
-3.7395334	montée	-0.07614889
-3.7395334	chromatique	-0.07614889
-3.7395334	leitmotiv	-0.07614889
-3.7395334	désir	-0.07614889
-3.7395334	Tristan	-0.07614889
-3.7395334	apparaît	-0.07614889
-3.7395334	occasion	-0.07614889
-3.7395334	découverte	-0.07614889
-3.7395334	Wagner	-0.07614889
-3.7395334	déterminé	-0.07614889
-2.5797312	sa	-0.12392516
-3.7395334	vocation	-0.07614889
-3.7395334	musicale	-0.07614889
-3.7395334	treize	-0.07614889
-3.7395334	opéra	-0.07614889
-3.7395334	Vienne	-0.07614889
-3.285093	Lohengrin	-0.13333967
-3.5936058	plusieurs	-0.07614889
-3.7395334	reprises	-0.07614889
-3.7395334	révélation	-0.07614889
-3.5936058	demande	-0.07614889
-3.7395334	arrivée	-0.07614889
-3.5936058	berger	-0.07614889
-3.5936058	Le	-0.07614889
-3.7395334	roi	-0.07614889
-3.7395334	Roger	-0.07614889
-3.7395334	amène	-0.07614889
-3.5936058	valeurs	-0.07614889
-3.7395334	YYY	-0.07614889
-3.7395334	figé	-0.07614889
-3.4344528	rappelle	-0.15420888
-3.5936058	voudrais	-0.07614892
-3.7395334	psychanalyse	-0.07614889
-3.5936058	sous	-0.07614889
-3.7395334	Parsifal	-0.07614889
-3.7395334	semble	-0.07614889
-3.4344528	pourrait	-0.15420888
-3.7395334	page	-0.07614889
-3.7395334	ouvrage	-0.07614889
-3.7395334	monumentale	-0.07614889
-3.7395334	biographie	-0.07614889
-3.7395334	lis	-0.07614889
-3.7395334	portrait	-0.07614889
-3.7395334	héros	-0.07614889
-3.5936058	vers	-0.07614889
-3.5936058	vingt-six	-0.07614889
-3.5936058	près	-0.07614889
-3.7395334	ami	-0.07614889
-3.4344528	attend	-0.07614892
-3.7395334	gare	-0.07614889
-3.4344528	belle	-0.07614892
-3.7395334	taille	-0.07614889
-3.7395334	élégamment	-0.07614889
-3.7395334	vêtu	-0.07614889
-3.7395334	boitait	-0.07614889
-3.7395334	légèrement	-0.07614889
-3.7395334	jambe	-0.07614889
-3.7395334	courte	-0.07614889
-3.4344528	droite	-0.15420888
-3.7395334	trahissait	-0.07614889
-3.7395334	discrètement	-0.07614889
-3.1741636	chaque	-0.11342744
-3.7395334	raidissement	-0.07614889
-3.7395334	articulation	-0.07614889
-3.7395334	lavallière	-0.07614889
-3.7395334	soie	-0.07614889
-3.5936058	Berlin	-0.07614889
-3.285093	six	-0.12128313
-3.7395334	cravate	-0.07614889
-3.7395334	parfaitement	-0.07614889
-3.7395334	nouée	-0.07614889
-3.7395334	idéalement	-0.07614889
-3.7395334	assortie	-0.07614889
-3.5936058	ton	-0.07614889
-3.7395334	pèlerine	-0.07614889
-3.7395334	élégance	-0.07614889
-3.7395334	meilleur	-0.07614889
-3.7395334	genre	-0.07614889
-3.7395334	accompagnement	-0.07614889
-3.5936058	charme	-0.07614889
-3.7395334	émanait	-0.07614889
-3.285093	personne	-0.07614889
-3.7395334	artiste	-0.07614889
-3.5936058	lequel	-0.07614889
-3.7395334	attirait	-0.07614889
-3.7395334	aussitôt	-0.07614889
-3.7395334	visible	-0.07614889
-3.7395334	regard	-0.07614889
-2.8026388	ses	-0.1258222
-3.5936058	grands	-0.07614892
-3.285093	yeux	-0.07614889
-3.7395334	vert	-0.07614889
-3.7395334	foncé	-0.07614889
-3.7395334	élégant	-0.07614889
-3.7395334	aristocrate	-0.07614889
-3.7395334	dandy	-0.07614889
-3.7395334	esthète	-0.07614889
-3.7395334	gardera	-0.07614889
-3.285093	jusqu'	-0.2989594
-3.7395334	fin	-0.07614889
-3.7395334	attaché	-0.07614889
-3.7395334	beauté	-0.07614889
-3.7395334	explique	-0.07614889
-3.7395334	aimait	-0.07614889
-3.5936058	descendre	-0.19922052
-3.7395334	beaux	-0.07614889
-3.5936058	hôtels	-0.07614889
-3.5936058	France	-0.07614889
-3.7395334	essayer	-0.07614889
-3.7395334	soigner	-0.07614889
-3.7395334	vain	-0.07614889
-3.7395334	tuberculose	-0.07614889
-3.7395334	dira	-0.07614889
-3.7395334	dois	-0.07614889
-3.4344528	aller	-0.07614892
-3.7395334	bouiboui	-0.07614889
-3.7395334	caricature	-0.07614889
-3.7395334	hôtel	-0.07614889
-3.5936058	troisième	-0.07614889
-3.7395334	catégorie	-0.07614889
-3.7395334	vaut	-0.07614889
-3.5936058	guerre	-0.15420888
-3.4344528	grand	-0.07614889
-3.7395334	changement	-0.07614889
-3.7395334	fortune	-0.07614889
-2.8463836	encore	-0.11698062
-3.5936058	Pologne	-0.07614889
-3.7395334	occupée	-0.07614889
-2.8950331	où	-0.09812995
-3.5936058	artistique	-0.07614889
-3.7395334	importante	-0.07614889
-3.7395334	coalise	-0.07614889
-3.0858815	quelque	-0.3118605
-3.7395334	abord	-0.07614889
-3.7395334	devenu	-0.07614889
-3.4344528	musique	-0.07614889
-3.7395334	compositeurs	-0.07614889
-3.7395334	élèves	-0.07614889
-3.7395334	Noskowski	-0.07614889
-3.5936058	Rozycki	-0.07614889
-3.7395334	Fitelberg	-0.07614889
-3.7395334	abandonner	-0.07614889
-3.7395334	composition	-0.07614889
-3.5936058	direction	-0.07614889
-3.7395334	orchestre	-0.07614892
-3.7395334	Szeluto	-0.07614889
-3.5936058	groupe	-0.07614889
-3.7395334	vite	-0.07614889
-3.7395334	désunir	-0.07614889
-3.7395334	jalousies	-0.07614889
-3.7395334	inimitiés	-0.07614889
-3.5936058	uns	-0.15420888
-3.7395334	cimenter	-0.07614889
-3.5936058	intéressant	-0.07614889
-3.7395334	mousquetaires	-0.07614889
-3.5936058	polonaise	-0.07614889
-3.7395334	veulent	-0.07614889
-3.7395334	découdre	-0.07614889
-3.7395334	conservatisme	-0.07614889
-3.5936058	Varsovie	-0.07614889
-3.7395334	fondent	-0.07614889
-3.5936058	société	-0.07614892
-3.7395334	édition	-0.07614889
-3.7395334	siège	-0.07614889
-3.7395334	assure	-0.07614889
-3.4344528	esprit	-0.07614892
-3.7395334	proposée	-0.07614889
-3.5936058	ouverture	-0.15420888
-3.5936058	concert	-0.07614892
-3.4344528	date	-0.15420888
-3.4344528	cinq	-0.15420888
-3.7395334	justement	-0.07614889
-3.4344528	voit	-0.07614889
-3.7395334	marque	-0.07614892
-3.5936058	entendre	-0.19922052
-3.4344528	Strauss	-0.07614892
-3.7395334	évident	-0.07614889
-3.7395334	partition	-0.07614889
-3.7395334	communient	-0.07614889
-3.7395334	culte	-0.07614889
-3.7395334	souvenirs	-0.07614889
-3.7395334	jouaient	-0.07614889
-3.5936058	mains	-0.07614892
-3.7395334	pianiste	-0.07614889
-3.7395334	connu	-0.07614889
-3.7395334	Rozyski	-0.07614889
-3.5936058	pouvait	-0.07614889
-3.7395334	empêcher	-0.07614889
-3.7395334	Mort	-0.07614889
-3.7395334	transfiguration	-0.07614889
-3.4344528	résonner	-0.15420888
-3.7395334	accords	-0.07614889
-3.7395334	enchantaient	-0.07614889
-3.5936058	voici	-0.07614889
-3.7395334	extrait	-0.07614889
-3.7395334	interprété	-0.07614889
-3.7395334	national	-0.07614889
-3.7395334	radio	-0.07614889
-3.7395334	Casimir	-0.07614889
-3.7395334	Kord	-0.07614889
-3.7395334	bonsoir	-0.07614889
-3.7395334	consacrerons	-0.07614889
-3.4344528	dernière	-0.07614892
-3.5936058	partie	-0.19922052
-3.7395334	émission	-0.07614889
-3.7395334	questions	-0.07614889
-3.5936058	SMS	-0.07614889
-3.285093	grippe	-0.17341928
-3.7395334	A	-0.07614889
-3.7395334	H	-0.07614889
-3.7395334	N	-0.07614889
-3.7395334	tendance	-0.07614889
-3.7395334	médias	-0.07614889
-3.7395334	léger	-0.07614889
-3.7395334	assoupissement	-0.07614889
-3.7395334	déclarations	-0.07614889
-3.7395334	spécialistes	-0.07614889
-3.7395334	OMS	-0.07614892
-3.7395334	alarmer	-0.07614889
-3.5936058	mauvais	-0.07614889
-3.7395334	rendez	-0.07614889
-3.5936058	venir	-0.15420888
-3.7395334	rappelons	-0.07614889
-3.0858815	moins	-0.07614889
-3.7395334	semaine	-0.07614889
-3.7395334	numéro	-0.07614889
-3.5936058	organisation	-0.07614889
-3.4344528	mondiale	-0.15420888
-3.4344528	santé	-0.10380357
-3.7395334	estimait	-0.07614889
-3.5936058	tiers	-0.19922052
-3.5936058	population	-0.07614892
-3.7395334	contaminé	-0.07614889
-3.7395334	avons	-0.07614892
-3.7395334	intitulé	-0.07614889
-3.7395334	chiffres	-0.07614889
-3.7395334	alarmistes	-0.07614889
-3.7395334	invités	-0.07614889
-3.7395334	accepté	-0.07614889
-3.7395334	participer	-0.07614889
-3.5936058	direct	-0.07614889
-3.5936058	soir	-0.15420888
-3.5936058	Antoine	-0.19922052
-3.7395334	Flahault	-0.07614889
-3.7395334	épidémiologiste	-0.07614889
-3.7395334	directeur	-0.07614889
-3.7395334	École	-0.07614889
-3.7395334	hautes	-0.07614889
-3.5936058	études	-0.07614889
-3.7395334	publique	-0.07614889
-3.7395334	Rennes	-0.07614889
-3.285093	scénario	-0.07614889
-3.7395334	envisageant	-0.07614889
-3.1741636	trente	-0.3794604
-3.7395334	morts	-0.07614889
-2.9498281	pays	-0.20184678
-3.5936058	prochain	-0.07614889
-3.7395334	Des	-0.07614889
-3.0858815	épidémies	-0.11342744
-3.5936058	Hommes	-0.07614889
-3.5936058	vient	-0.07614889
-3.7395334	éditions	-0.07614889
-3.7395334	Martinière	-0.07614889
-3.285093	Jean	-0.07614889
-3.7395334	François	-0.07614889
-3.7395334	Saluzzo	-0.07614889
-3.7395334	virologue	-0.07614889
-3.7395334	expert	-0.07614889
-3.7395334	auprès	-0.07614889
-3.7395334	ancien	-0.07614889
-3.7395334	chercheur	-0.07614889
-3.7395334	institut	-0.07614889
-3.7395334	Pasteur	-0.07614889
-3.5936058	responsable	-0.19922052
-3.7395334	développement	-0.07614889
-3.5936058	vaccins	-0.07614889
-3.4344528	maladies	-0.07614892
-3.7395334	virales	-0.07614889
-3.7395334	émergentes	-0.07614889
-3.7395334	laboratoire	-0.07614889
-3.7395334	dernier	-0.07614889
-3.7395334	À	-0.07614889
-3.7395334	conquête	-0.07614889
-3.4344528	virus	-0.07614892
-3.7395334	Belin	-0.07614889
-3.7395334	Christian	-0.07614889
-3.7395334	Perronne	-0.07614889
-3.7395334	infectiologue	-0.07614889
-3.7395334	service	-0.07614889
-3.7395334	infectieuses	-0.07614889
-3.7395334	tropicales	-0.07614889
-3.7395334	hôpital	-0.07614889
-3.7395334	Raymond	-0.07614889
-3.7395334	Poincaré	-0.07614889
-3.7395334	Garches	-0.07614889
-3.7395334	Hauts	-0.07614889
-3.7395334	Seine	-0.07614889
-3.7395334	présidez	-0.07614889
-3.7395334	commission	-0.07614889
-3.7395334	transmissibles	-0.07614889
-3.7395334	Haut	-0.07614889
-3.7395334	Conseil	-0.07614889
-3.7395334	Michel	-0.07614889
-3.7395334	Setbon	-0.07614889
-3.7395334	sociologue	-0.07614889
-3.7395334	crises	-0.07614889
-3.7395334	sanitaires	-0.07614889
-3.7395334	recherche	-0.07614889
-3.7395334	CNRS	-0.07614889
-3.7395334	centre	-0.07614889
-3.7395334	régulation	-0.07614889
-3.7395334	commence	-0.07614889
-3.7395334	maintenez	-0.07614889
-3.5936058	prévisions	-0.07614889
-3.7395334	météo	-0.07614889
-3.5936058	m~	-0.07614889
-3.285093	mieux	-0.07614889
-3.7395334	explicité	-0.07614889
-3.5936058	disant	-0.07614889
-3.285093	scénarios	-0.11342744
-3.7395334	possibles	-0.07614889
-3.7395334	activité	-0.07614889
-3.7395334	constate	-0.07614889
-3.7395334	Amérique	-0.07614889
-3.7395334	Nord	-0.07614889
-3.7395334	devient	-0.07614889
-3.5936058	pandémie	-0.07614892
-3.0125487	jamais	-0.107902
-3.4344528	arrêter	-0.07614892
-3.7395334	saisonnière	-0.07614889
-3.7395334	pandémies	-0.07614889
-3.5936058	passées	-0.07614889
-3.7395334	instant	-0.07614889
-3.7395334	pandémique	-0.07614889
-3.4344528	possible	-0.07614892
-3.7395334	vingt-et-unième	-0.07614889
-3.5936058	siècle	-0.07614889
-3.7395334	dotés	-0.07614889
-3.7395334	puisse	-0.07614889
-3.7395334	freiner	-0.07614889
-3.7395334	atténuer	-0.07614889
-3.7395334	déroule	-0.07614889
-3.5936058	dirais	-0.15420888
-3.7395334	imaginer	-0.07614889
-3.7395334	précisiez	-0.07614889
-3.7395334	chiffre	-0.07614889
-3.7395334	finalement	-0.07614889
-3.7395334	extrapolation	-0.07614889
-3.7395334	faites	-0.07614889
-3.5936058	passés	-0.07614889
-3.7395334	guillemets	-0.07614889
-3.7395334	raisonnables	-0.07614889
-3.7395334	tenant	-0.07614889
-3.4344528	compte	-0.07614892
-3.4344528	pu	-0.13333967
-3.1741636	surtout	-0.07614889
-3.7395334	compris	-0.07614889
-3.7395334	exactement	-0.07614889
-3.7395334	parliez	-0.07614889
-3.7395334	veut	-0.07614889
-3.7395334	prédire	-0.07614889
-3.4344528	cyclone	-0.07614892
-3.7395334	rapporte	-0.07614889
-3.7395334	catalogue	-0.07614889
-3.7395334	cyclones	-0.07614889
-3.5936058	proche	-0.07614889
-3.7395334	embryon	-0.07614889
-3.7395334	actuellement	-0.07614889
-3.7395334	aujourd'hui	-0.07614889
-3.7395334	l'on	-0.07614889
-3.7395334	prémice	-0.07614889
-3.7395334	démarrage	-0.07614889
-3.7395334	devins	-0.07614889
-3.7395334	prédiction	-0.07614889
-3.7395334	prévision	-0.07614889
-3.5936058	imagine	-0.07614889
-3.285093	grave	-0.23267926
-3.7395334	Fran~	-0.07614889
-3.7395334	pa~	-0.07614889
-3.7395334	raison~	-0.07614889
-3.5936058	l~	-0.07614889
-3.5936058	chose	-0.12128313
-3.5936058	mortalité	-0.07614889
-3.7395334	voisine	-0.07614889
-3.7395334	meurtrière	-0.07614889
-3.4344528	raison	-0.07614892
-3.7395334	infectés	-0.07614889
-3.7395334	mécaniquement	-0.07614889
-3.7395334	chance	-0.07614889
-3.7395334	décès	-0.07614889
-3.285093	j~	-0.13333967
-3.7395334	pervers	-0.07614889
-3.7395334	de~	-0.07614889
-3.7395334	pardonnez	-0.07614889
-3.7395334	-moi	-0.07614889
-3.5936058	estimations	-0.15420888
-3.7395334	potentiel	-0.07614889
-3.7395334	raisonnable	-0.07614889
-3.7395334	estimation	-0.07614889
-3.5936058	inquiétante	-0.07614889
-3.7395334	inquiétantes	-0.07614889
-3.7395334	concernant	-0.07614889
-3.7395334	Français	-0.07614889
-3.7395334	semblent	-0.07614889
-3.5936058	beau~	-0.07614889
-3.7395334	probables	-0.07614889
-3.5936058	dix-huit	-0.07614892
-3.7395334	ensemble	-0.07614889
-3.7395334	quarante	-0.07614889
-3.7395334	millions	-0.07614889
-3.5936058	effroyable	-0.19922052
-3.7395334	soixante-dix	-0.07614889
-3.7395334	habitants	-0.07614889
-3.7395334	baignoires	-0.07614889
-3.7395334	moitié	-0.07614889
-3.7395334	domiciles	-0.07614889
-3.7395334	parisiens	-0.07614889
-3.7395334	raccord	-0.07614889
-3.7395334	égout	-0.07614889
-3.7395334	aviez	-0.07614892
-3.7395334	antibiotiques	-0.07614889
-3.7395334	savait	-0.07614889
-3.7395334	Moyen	-0.07614889
-3.7395334	Âge	-0.07614889
-3.7395334	anti	-0.07614889
-3.7395334	viraux	-0.07614889
-3.0858815	s~	-0.07614892
-3.7395334	virulente	-0.07614889
-3.7395334	entraînerait	-0.07614889
-3.5936058	catastrophes	-0.07614889
-3.7395334	éclore	-0.07614889
-3.7395334	ci	-0.07614889
-3.7395334	paraissent	-0.07614889
-3.7395334	devin	-0.07614889
-3.7395334	projection	-0.07614889
-3.7395334	limite	-0.07614889
-3.1741636	année	-0.07614886
-3.7395334	fixé	-0.07614889
-3.5936058	cadre	-0.07614889
-3.7395334	durée	-0.07614889
-3.285093	film	-0.07614889
-3.5936058	question	-0.07614889
-3.7395334	frai~	-0.07614889
-3.7395334	frappés	-0.07614889
-3.7395334	ministre	-0.07614889
-3.7395334	Roselyne	-0.07614889
-3.7395334	Bachelot	-0.07614889
-3.7395334	géré	-0.07614889
-3.5936058	crise	-0.07614889
-3.7395334	minimum	-0.07614889
-3.7395334	termes	-0.07614889
-3.7395334	communication	-0.07614889
-3.7395334	perçue	-0.07614889
-3.5936058	commencé	-0.07614889
-3.7395334	affaires	-0.07614889
-3.7395334	mis	-0.07614889
-3.7395334	Tamiflu	-0.07614889
-3.7395334	travaille	-0.07614889
-3.7395334	dessus	-0.07614889
-3.7395334	exclure	-0.07614889
-3.7395334	voyez	-0.07614889
-3.7395334	gradations	-0.07614889
-3.7395334	méfier	-0.07614889
-3.7395334	retour	-0.07614889
-3.7395334	balancier	-0.07614889
-3.7395334	gros	-0.07614889
-3.4344528	hiver	-0.07614889
-3.285093	déjà	-0.07614889
-3.7395334	traditionnelle	-0.07614889
-3.7395334	applique	-0.07614889
-3.5936058	connaît	-0.07614892
-3.7395334	maladie	-0.07614889
-3.5936058	revient	-0.07614889
-3.7395334	tour	-0.07614889
-3.7395334	émerge	-0.07614889
-3.5936058	part	-0.07614889
-3.7395334	hémisphère	-0.07614889
-3.7395334	sud	-0.07614892
-3.5936058	juillet	-0.07614889
-3.7395334	août	-0.07614889
-3.7395334	p~	-0.07614889
-3.285093	leur	-0.07614889
-3.7395334	austral	-0.07614889
-3.7395334	circule	-0.07614889
-3.7395334	surveillé	-0.07614889
-3.7395334	zone	-0.07614889
-3.7395334	intertropicale	-0.07614889
-3.7395334	remonte	-0.07614889
-3.7395334	auquel	-0.07614889
-3.7395334	attendre	-0.07614889
-3.7395334	précautions	-0.07614889
-3.7395334	usage	-0.07614889
-3.5936058	souche	-0.07614889
-3.7395334	plaire	-0.07614889
-3.7395334	nord	-0.07614889
-3.7395334	f~	-0.07614889
-3.7395334	entraîner	-0.07614889
-3.7395334	certain	-0.07614889
-3.5936058	forte	-0.07614889
-3.7395334	ampleur	-0.07614889
-3.7395334	saisonnières	-0.07614889
-3.7395334	habituelles	-0.07614889
-3.7395334	braqués	-0.07614889
-3.7395334	notamment	-0.07614889
-3.7395334	tempérée	-0.07614889
-3.5936058	surviennent	-0.07614889
-3.7395334	aura	-0.07614889
-3.5936058	renforcée	-0.07614889
-3.5936058	comprendre	-0.07614889
-3.7395334	discours	-0.07614889
-3.7395334	autorités	-0.07614889
-3.7395334	vont	-0.07614889
-3.7395334	réconfortées	-0.07614889
-3.7395334	vigilan~	-0.07614889
-3.5936058	vigilance	-0.07614889
-3.5936058	accrue	-0.07614889
-3.5936058	arrive	-0.07614892
-3.7395334	découvre	-0.07614889
-3.7395334	reportage	-0.07614889
-3.4344528	passe	-0.07614889
-3.7395334	octobre	-0.07614889
-3.7395334	décembre	-0.07614889
-3.5936058	veux	-0.07614889
-3.7395334	quel	-0.07614889
-3.4344528	journée	-0.07614892
-3.7395334	rire	-0.07614889
-3.7395334	qu~	-0.07614889
-3.7395334	automne	-0.07614892
-3.5936058	dedans	-0.07614889
-3.285093	sera	-0.07614889
-3.7395334	probabilité	-0.07614892
-3.7395334	augmenter	-0.07614889
-3.7395334	pars	-0.07614889
-3.7395334	vacances	-0.07614889
-3.1741636	bonne	-0.10380357
-3.7395334	humeur	-0.07614889
-3.7395334	reviens	-0.07614889
-3.5936058	milieu	-0.19922052
-3.7395334	reçois	-0.07614889
-3.5936058	bulletin	-0.07614889
-3.7395334	trimestrimel	-0.07614889
-3.7395334	trimestriel	-0.07614889
-3.7395334	pompes	-0.07614889
-3.7395334	funèbres	-0.07614889
-3.7395334	cumulatif	-0.07614889
-3.7395334	émergé	-0.07614889
-3.7395334	Mexique	-0.07614889
-3.7395334	contagieuse	-0.07614889
-3.7395334	espérer	-0.07614889
-3.7395334	ren~	-0.07614889
-3.7395334	répandue	-0.07614889
-3.7395334	rapidement	-0.07614889
-3.7395334	États	-0.07614889
-3.7395334	Unis	-0.07614889
-3.7395334	Canada	-0.07614889
-3.7395334	Grande	-0.07614889
-3.7395334	Bretagne	-0.07614889
-3.7395334	Royaume-Uni	-0.07614889
-3.7395334	endroits	-0.07614889
-3.7395334	chaînes	-0.07614889
-3.7395334	transmission	-0.07614889
-3.7395334	locale	-0.07614889
-3.7395334	besogne	-0.07614889
-3.7395334	-même	-0.07614889
-3.7395334	fortes	-0.07614889
-3.7395334	revienne	-0.07614889
-3.7395334	précocement	-0.07614889
-3.7395334	Organisation	-0.07614889
-3.7395334	contribue	-0.07614889
-3.7395334	largement	-0.07614889
-3.7395334	angoisse	-0.07614889
-3.7395334	inquiétude	-0.07614889
-3.7395334	communiqués	-0.07614889
-3.7395334	monté	-0.07614889
-3.7395334	échelle	-0.07614889
-3.7395334	concerne	-0.07614889
-3.7395334	niveaux	-0.07614889
-3.7395334	alerte	-0.07614889
-3.7395334	puisqu'	-0.07614889
-3.7395334	évoqué	-0.07614889
-3.7395334	possibilité	-0.07614889
-3.7395334	touchant	-0.07614889
-3.5936058	humanité	-0.07614889
-3.5936058	visite	-0.19922052
-3.7395334	épicentre	-0.07614889
-3.7395334	Sophie	-0.07614889
-3.7395334	Pagès	-0.07614889
-3.7395334	Dominique	-0.07614889
-3.7395334	Marchant	-0.07614889
-3.5936058	première	-0.15420888
-3.0858815	Jésus	-0.09812995
-3.7395334	manifeste	-0.07614889
-3.285093	autorité	-0.07614889
-3.7395334	nouveauté	-0.07614889
-3.7395334	nouvelle	-0.07614892
-3.7395334	évangile	-0.07614889
-3.7395334	remarqué	-0.07614889
-3.7395334	écoutant	-0.07614889
-3.7395334	épisode	-0.07614889
-3.7395334	lever	-0.07614889
-3.7395334	fièvre	-0.07614889
-3.7395334	quitte	-0.07614889
-3.7395334	guérit	-0.07614892
-3.7395334	sortes	-0.07614889
-3.4344528	malades	-0.07614892
-3.7395334	tard	-0.07614889
-3.7395334	acceptera	-0.07614889
-3.7395334	laisser	-0.07614889
-3.5936058	toucher	-0.07614889
-3.7395334	bénir	-0.07614889
-3.7395334	imposant	-0.07614889
-3.5936058	chasse	-0.07614889
-3.5936058	esprits	-0.07614889
-3.285093	parole	-0.07614889
-3.4344528	action	-0.07614892
-3.7395334	salutaire	-0.07614889
-3.7395334	compassion	-0.07614889
-3.7395334	violence	-0.07614889
-3.7395334	châtiment	-0.07614889
-3.7395334	montre	-0.07614889
-3.7395334	remet	-0.07614889
-3.7395334	debout	-0.07614889
-3.7395334	premières	-0.07614889
-3.7395334	disciples	-0.07614889
-3.7395334	répète	-0.07614889
-3.7395334	apôtre	-0.07614889
-3.7395334	restaurer	-0.07614889
-3.5936058	dignité	-0.07614889
-3.7395334	humaine	-0.07614889
-3.7395334	rétablir	-0.07614892
-3.7395334	qualité	-0.07614889
-3.7395334	sujet	-0.07614889
-3.7395334	relations	-0.07614889
-3.7395334	pose	-0.07614889
-3.7395334	gestes	-0.07614889
-3.7395334	bonté	-0.07614889
-3.7395334	appels	-0.07614889
-3.5936058	foi	-0.11342744
-3.7395334	inaugure	-0.07614889
-3.7395334	Dieu	-0.07614892
-3.285093	parmi	-0.07614889
-3.7395334	définitive	-0.07614889
-3.7395334	message	-0.07614889
-3.7395334	initial	-0.07614889
-3.7395334	convertissez	-0.07614889
-3.7395334	royaume	-0.07614889
-3.7395334	inscrit	-0.07614889
-3.7395334	traduction	-0.07614889
-3.7395334	libération	-0.07614889
-3.5936058	accorde	-0.07614889
-3.7395334	guérir	-0.07614889
-3.7395334	chasser	-0.07614889
-3.7395334	Salomon	-0.07614889
-3.7395334	faisaient	-0.07614889
-3.7395334	guérisseurs	-0.07614889
-3.7395334	communique	-0.07614889
-3.7395334	rencontre	-0.07614889
-3.7395334	engage	-0.07614889
-3.5936058	sois	-0.07614889
-3.7395334	purifié	-0.07614889
-3.7395334	fillette	-0.07614889
-3.7395334	te	-0.07614889
-3.7395334	dis	-0.07614889
-3.7395334	lève	-0.07614889
-3.7395334	-toi	-0.07614889
-3.7395334	ordonne	-0.07614889
-3.7395334	désormais	-0.07614889
-3.4344528	nom	-0.07614892
-3.7395334	démons	-0.07614889
-3.7395334	enseigne	-0.07614889
-3.7395334	pharisiens	-0.07614889
-3.7395334	scribes	-0.07614889
-3.7395334	donnant	-0.07614889
-3.7395334	moral	-0.07614889
-3.7395334	faisant	-0.07614889
-3.7395334	physique	-0.07614889
-3.7395334	naturelles	-0.07614889
-3.7395334	cri	-0.07614889
-3.5936058	Job	-0.07614892
-3.7395334	lecture	-0.07614889
-3.7395334	retentit	-0.07614889
-3.7395334	oreilles	-0.07614889
-3.5936058	terre	-0.07614892
-3.7395334	corvée	-0.07614889
-3.7395334	journées	-0.07614889
-3.5936058	manoeuvre	-0.07614889
-3.7395334	esclave	-0.07614889
-3.7395334	désire	-0.07614889
-3.7395334	ombre	-0.07614889
-3.7395334	paye	-0.07614889
-3.7395334	gagné	-0.07614889
-3.7395334	sinon	-0.07614889
-3.7395334	néant	-0.07614889
-3.5936058	nuits	-0.19922052
-3.5936058	souffrance	-0.07614892
-3.7395334	avouer	-0.07614889
-3.7395334	éloignent	-0.07614889
-3.7395334	cause	-0.07614889
-3.7395334	répit	-0.07614889
-3.7395334	approche	-0.07614889
-3.7395334	voulue	-0.07614889
-3.7395334	onze	-0.07614889
-3.7395334	février	-0.07614889
-3.4344528	fête	-0.15420888
-3.7395334	Lourdes	-0.07614889
-3.7395334	pastorale	-0.07614889
-3.7395334	puissance	-0.07614889
-3.7395334	guérison	-0.07614889
-3.7395334	don	-0.07614889
-3.7395334	interroge	-0.07614889
-3.7395334	responsabilité	-0.07614889
-3.7395334	Église	-0.07614889
-3.7395334	c'est-à-dire	-0.07614889
-3.7395334	chacun	-0.07614889
-3.5936058	chrétiens	-0.07614889
-3.7395334	entendue	-0.07614889
-3.7395334	Christ	-0.07614889
-3.7395334	donne	-0.07614889
-3.7395334	comprise	-0.07614889
-3.5936058	-il	-0.07614889
-3.7395334	agissions	-0.07614889
-3.7395334	Clara	-0.07614889
-3.5936058	dix-neuf	-0.19922052
-3.7395334	obtention	-0.07614889
-3.7395334	technologique	-0.07614889
-3.5936058	sciences	-0.19922052
-3.7395334	médico	-0.07614889
-3.5936058	sociales	-0.07614892
-3.7395334	littérature	-0.07614889
-3.5936058	aime	-0.13333967
-3.7395334	biologie	-0.07614889
-3.7395334	social	-0.07614889
-3.285093	italien	-0.17165783
-3.7395334	deuxième	-0.07614889
-3.5936058	choix	-0.07614892
-3.5936058	psychologie	-0.15420888
-3.7395334	acceptée	-0.07614889
-3.7395334	entretien	-0.07614889
-3.7395334	oral	-0.07614889
-3.7395334	savais	-0.07614889
-3.7395334	stupide	-0.07614889
-3.7395334	facilités	-0.07614889
-3.7395334	bilingue	-0.07614889
-3.7395334	parle	-0.07614889
-3.7395334	comprends	-0.07614889
-3.7395334	apprécie	-0.07614889
-3.5936058	fais	-0.07614889
-3.7395334	réorienter	-0.07614889
-3.7395334	finir	-0.07614889
-3.7395334	réussis	-0.07614889
-3.7395334	psycho	-0.07614889
-3.7395334	licence	-0.07614889
-3.7395334	passerai	-0.07614889
-3.7395334	fini~	-0.07614889
-3.7395334	finirai	-0.07614889
-3.7395334	appris	-0.07614889
-3.7395334	réorienterai	-0.07614889
-3.7395334	intéresse	-0.07614889
-3.5936058	écoute	-0.07614889
-3.7395334	personnes	-0.07614889
-3.7395334	compréhensive	-0.07614889
-3.5936058	faite	-0.19922052
-3.7395334	métiers	-0.07614889
-3.7395334	sûrement	-0.07614889
-3.7395334	étiez	-0.07614889
-3.4344528	sténodactylo	-0.38098803
-3.5936058	directrice	-0.15420888
-3.7395334	Express	-0.07614889
-3.7395334	petites	-0.07614889
-3.5936058	phrases	-0.07614889
-3.7395334	vraies	-0.07614889
-3.7395334	options	-0.07614889
-3.7395334	dessinent	-0.07614889
-3.5936058	témoigne	-0.07614889
-3.7395334	conduite	-0.07614889
-3.5936058	Françoise	-0.19922052
-3.7395334	Giroud	-0.07614889
-3.7395334	occupez	-0.07614889
-3.7395334	poste	-0.07614889
-3.7395334	observation	-0.07614889
-3.7395334	haut	-0.07614889
-3.7395334	placés	-0.07614889
-3.7395334	envient	-0.07614889
-3.7395334	craignais	-0.07614889
-3.5936058	entrer	-0.07614889
-3.7395334	jeu	-0.07614889
-3.4344528	hommes	-0.28255036
-3.7395334	abusent	-0.07614889
-3.7395334	condition	-0.07614889
-3.5936058	donné	-0.07614889
-3.5936058	femme	-0.07614892
-3.5936058	armes	-0.07614889
-3.7395334	persuasion	-0.07614889
-3.7395334	usez	-0.07614889
-3.7395334	réussir	-0.07614889
-3.5936058	incapable	-0.19922052
-3.7395334	répondre	-0.07614889
-3.4344528	point	-0.15420888
-3.7395334	travaillent	-0.07614889
-3.285093	travaillé	-0.12128313
-3.7395334	pourraient	-0.07614889
-3.5936058	reprendre	-0.07614889
-3.5936058	mot	-0.07614889
-2.9498281	disons	-0.12128313
-3.285093	carrière	-0.12128313
-3.7395334	simplifier	-0.07614889
-3.7395334	expliquez	-0.07614889
-3.5936058	conduit	-0.07614889
-3.7395334	conforme	-0.07614889
-3.5936058	bourgeoise	-0.07614892
-3.7395334	regrettez	-0.07614889
-3.1741636	Marcel	-0.6028368
-3.7395334	Achard	-0.07614892
-3.7395334	direz	-0.07614889
-3.7395334	écrivait	-0.07614889
-3.7395334	jolie	-0.07614889
-3.7395334	élégante	-0.07614889
-3.7395334	aperçoit	-0.07614889
-3.5936058	oublie	-0.07614889
-3.7395334	dès	-0.07614889
-3.7395334	profonds	-0.07614889
-3.7395334	perçants	-0.07614889
-3.7395334	pleins	-0.07614889
-3.7395334	curiosité	-0.07614889
-3.7395334	mystère	-0.07614889
-3.7395334	enregistrent	-0.07614889
-3.7395334	détail	-0.07614889
-3.7395334	implacable	-0.07614889
-3.7395334	précision	-0.07614889
-3.7395334	caméra	-0.07614889
-3.7395334	dessiné	-0.07614889
-3.5936058	écoutez	-0.07614889
-3.7395334	demandé	-0.07614889
-3.7395334	suppose	-0.07614889
-3.5936058	connaissez	-0.07614892
-3.7395334	désagréable	-0.07614889
-3.5936058	aurais	-0.07614892
-3.7395334	exception	-0.07614889
-3.7395334	règle	-0.07614889
-3.7395334	regarder	-0.07614889
-3.7395334	faculté	-0.07614889
-3.7395334	intéressée	-0.07614889
-3.7395334	mécanisme	-0.07614889
-3.5936058	spécialement	-0.07614889
-3.7395334	personnalité	-0.07614889
-3.7395334	conséquent	-0.07614889
-3.7395334	envie	-0.07614889
-3.7395334	savoir	-0.07614889
-3.7395334	marchait	-0.07614889
-3.7395334	précise	-0.07614889
-3.7395334	texte	-0.07614889
-3.7395334	presque	-0.07614889
-3.7395334	dix-sept	-0.07614889
-3.7395334	voyaient	-0.07614889
-3.7395334	paraissaient	-0.07614889
-3.7395334	évidentes	-0.07614889
-3.5936058	comportement	-0.07614889
-3.7395334	énorme	-0.07614889
-3.7395334	voient	-0.07614889
-3.7395334	étonne	-0.07614889
-3.7395334	desc~	-0.07614889
-3.7395334	destin	-0.07614892
-3.7395334	réussite	-0.07614889
-3.7395334	devait	-0.07614889
-3.7395334	passé	-0.07614889
-3.7395334	oh	-0.07614889
-3.5936058	paraît	-0.15420888
-3.7395334	différent	-0.07614889
-3.5936058	conditions	-0.19922052
-3.5936058	objectives	-0.15420888
-3.7395334	effet	-0.07614889
-3.5936058	différentes	-0.07614889
-3.5936058	obligée	-0.19922052
-3.4344528	travailler	-0.12128313
-3.7395334	génération	-0.07614889
-3.7395334	appartenant	-0.07614889
-3.7395334	bourgeois	-0.07614889
-3.7395334	travaillaient	-0.07614889
-3.7395334	normal	-0.07614889
-3.5936058	père	-0.15420888
-3.7395334	étaient	-0.07614889
-3.7395334	produites	-0.07614889
-3.7395334	sensiblement	-0.07614889
-3.7395334	vingt-deux	-0.07614889
-3.5936058	circonstances	-0.07614889
-3.4344528	gagner	-0.15420888
-3.5936058	serais	-0.07614889
-3.7395334	mariée	-0.07614889
-3.7395334	trouvé	-0.07614889
-3.7395334	commode	-0.07614889
-3.7395334	épouser	-0.07614889
-3.7395334	monsieur	-0.07614889
-3.5936058	argent	-0.15420888
-3.5936058	quatorze	-0.07614889
-3.7395334	journalisme	-0.07614889
-3.7395334	passait	-0.07614889
-3.5936058	aucune	-0.07614892
-3.5936058	métier	-0.15420888
-3.7395334	gagnais	-0.07614889
-3.5936058	cinéma	-0.15420888
-3.7395334	débuté	-0.07614889
-3.5936058	journaliste	-0.07614889
-3.7395334	bouleversé	-0.07614889
-3.5936058	collaboré	-0.07614889
-3.5936058	proposé	-0.07614889
-3.7395334	rédaction	-0.07614889
-3.5936058	faudrait	-0.07614889
-3.7395334	revenir	-0.07614889
-3.7395334	t~	-0.07614889
-3.7395334	appartenait	-0.07614889
-3.7395334	bourgeoisie	-0.07614889
-3.4344528	problèmes	-0.07614889
-3.5936058	mots	-0.07614889
-3.7395334	ruinée	-0.07614889
-3.7395334	fallu	-0.07614889
-3.7395334	pauvre	-0.07614889
-3.7395334	utile	-0.07614889
-3.7395334	emplois	-0.07614889
-3.7395334	subalternes	-0.07614889
-3.7395334	sentiment	-0.07614889
-3.7395334	sortira	-0.07614889
-3.7395334	oubliée	-0.07614889
-3.7395334	horrible	-0.07614889
-3.7395334	sortirai	-0.07614889
-3.7395334	prévu	-0.07614889
-3.7395334	cours	-0.07614889
-3.7395334	vérité	-0.07614889
-3.4344528	gagne	-0.07614889
-3.7395334	seule	-0.07614889
-3.7395334	décision	-0.07614889
-3.7395334	fière	-0.07614889
-3.7395334	lieu	-0.07614889
-3.7395334	accepter	-0.07614889
-3.7395334	prendre	-0.07614889
-3.7395334	emploi	-0.07614889
-3.7395334	type	-0.07614889
-3.5936058	vendeuse	-0.07614889
-3.7395334	humble	-0.07614889
-3.7395334	importance	-0.07614889
-3.7395334	sache	-0.07614889
-3.7395334	apprend	-0.07614889
-3.7395334	élevées	-0.07614889
-3.4344528	apprendre	-0.15420888
-3.7395334	aurai	-0.07614889
-3.7395334	école	-0.07614889
-3.7395334	Remington	-0.07614889
-3.7395334	départ	-0.07614889
-3.4344528	librairie	-0.28255036
-3.4344528	Allégret	-0.07614892
-3.7395334	trouvée	-0.07614889
-3.7395334	connaissais	-0.07614889
-3.7395334	rentrée	-0.07614889
-3.7395334	secrétaire	-0.07614889
-3.7395334	libraire	-0.07614889
-3.5936058	âge	-0.07614889
-3.4344528	sérieux	-0.07614892
-3.7395334	air	-0.07614889
-3.7395334	doutait	-0.07614889
-3.7395334	Marc	-0.07614889
-3.7395334	connaissait	-0.07614889
-3.7395334	entré	-0.07614889
-3.7395334	surpris	-0.07614889
-3.7395334	vends	-0.07614889
-3.7395334	livres	-0.07614889
-3.7395334	gagnes	-0.07614889
-3.7395334	francs	-0.07614889
-3.7395334	perds	-0.07614889
-3.7395334	attendant	-0.07614889
-3.7395334	paie	-0.07614889
-3.7395334	loyer	-0.07614889
-3.7395334	habitais	-0.07614889
-3.7395334	deviennes	-0.07614889
-3.7395334	script	-0.07614889
-3.7395334	girl	-0.07614889
-3.7395334	viens	-0.07614889
-3.7395334	serait	-0.07614889
-3.7395334	metteur	-0.07614889
-3.5936058	scène	-0.07614889
-3.5936058	rigide	-0.07614889
-3.7395334	tourner	-0.07614889
-3.7395334	mettons	-0.07614889
-3.7395334	ayez	-0.07614889
-3.5936058	tourné	-0.07614889
-3.7395334	soyez	-0.07614889
-3.5936058	devenue	-0.19922052
-3.7395334	vedette	-0.07614889
-3.7395334	normalement	-0.07614889
-3.7395334	entraînée	-0.07614889
-3.7395334	r~	-0.07614889
-3.7395334	douée	-0.07614889
-3.7395334	extraverti	-0.07614889
-3.7395334	qualités	-0.07614889
-3.7395334	ni	-0.07614889
-3.7395334	défauts	-0.07614889
-3.7395334	font	-0.07614889
-3.7395334	comédienne	-0.07614889
-3.7395334	enchaînements	-0.07614889
-3.7395334	normaux	-0.07614889
-3.5936058	Renoir	-0.19922052
-3.7395334	illusion	-0.07614889
-3.5936058	Jacques	-0.19922052
-3.7395334	Becker	-0.07614889
-3.7395334	directement	-0.07614889
-3.7395334	amitié	-0.07614889
-3.7395334	raisons	-0.07614889
-3.7395334	excuse	-0.07614889
-3.7395334	répéter	-0.07614889
-3.7395334	communes	-0.07614889
-3.7395334	étions	-0.07614889
-3.7395334	origine	-0.07614889
-3.7395334	élevés	-0.07614889
-3.7395334	manière	-0.07614889
-3.7395334	britannique	-0.07614889
-3.7395334	pleure	-0.07614889
-3.7395334	tient	-0.07614889
-3.5936058	un~	-0.07614889
-3.7395334	é~	-0.07614889
-3.7395334	édu~	-0.07614889
-3.5936058	éducation	-0.07614889
-3.7395334	égard	-0.07614889
-3.7395334	commun	-0.07614889
-3.7395334	extraordinairement	-0.07614889
-3.7395334	pauvres	-0.07614889
-3.4344528	contact	-0.15420888
-3.7395334	exhibitionniste	-0.07614889
-3.7395334	matière	-0.07614889
-3.7395334	passion	-0.07614889
-3.7395334	jouions	-0.07614889
-3.7395334	piano	-0.07614889
-3.7395334	Hermillon	-0.07614889
-3.7395334	prenez	-0.07614889
-3.7395334	Saint	-0.07614889
-3.7395334	passe~	-0.07614889
-3.5936058	ligne	-0.19922052
-3.7395334	tournez	-0.07614889
-3.7395334	passez	-0.07614889
-3.7395334	pompiers	-0.07614889
-3.7395334	continuez	-0.07614889
-3.7395334	tombez	-0.07614889
-3.7395334	mesdames	-0.07614889
-3.7395334	messieurs	-0.07614889
-3.7395334	heureux	-0.07614889
-3.7395334	retrouver	-0.07614889
-3.7395334	Landivisiau	-0.07614889
-3.7395334	île	-0.07614889
-3.7395334	Longue	-0.07614889
-3.7395334	matin	-0.07614889
-3.5936058	entière	-0.07614889
-3.7395334	passée	-0.07614889
-3.5936058	forces	-0.07614889
-3.4344528	armées	-0.15420888
-3.5936058	lien	-0.07614889
-3.7395334	unit	-0.07614889
-3.7395334	président	-0.07614889
-3.7395334	république	-0.07614889
-3.7395334	celles	-0.07614889
-3.7395334	mission	-0.07614889
-3.7395334	veiller	-0.07614889
-3.5936058	intérêts	-0.19922052
-3.5936058	sécurité	-0.19922052
-3.7395334	concitoyens	-0.07614889
-3.7395334	tenais	-0.07614889
-3.7395334	rencontrer	-0.07614889
-3.7395334	veille	-0.07614889
-3.7395334	nationale	-0.07614889
-3.7395334	lors	-0.07614889
-3.7395334	traditionnel	-0.07614889
-3.7395334	défilé	-0.07614889
-3.5936058	nation	-0.07614889
-3.5936058	rend	-0.07614889
-3.7395334	hommage	-0.07614889
-3.7395334	salue	-0.07614892
-3.5936058	courage	-0.07614889
-3.7395334	loyauté	-0.07614889
-3.7395334	dévouement	-0.07614889
-3.5936058	sacrifice	-0.07614889
-3.7395334	servir	-0.07614889
-3.285093	défense	-0.07614889
-3.5936058	travers	-0.07614889
-3.4344528	laquelle	-0.07614892
-3.7395334	honorerai	-0.07614889
-3.7395334	instants	-0.07614889
-3.7395334	tenu	-0.07614889
-3.5936058	Europe	-0.07614889
-3.5936058	demain	-0.07614889
-3.7395334	drapeaux	-0.07614889
-3.7395334	partenaires	-0.07614889
-3.7395334	européens	-0.07614889
-3.7395334	défileront	-0.07614889
-3.7395334	côtés	-0.07614889
-3.7395334	remercie	-0.07614889
-3.5936058	cher	-0.07614889
-3.7395334	Hervé	-0.07614889
-3.7395334	Alain	-0.07614889
-3.7395334	ministres	-0.07614889
-3.7395334	adresse	-0.07614889
-3.7395334	salut	-0.07614889
-3.7395334	amical	-0.07614889
-3.7395334	image	-0.07614889
-3.7395334	repart	-0.07614889
-3.7395334	résolue	-0.07614889
-3.7395334	remettre	-0.07614889
-3.7395334	immobilisme	-0.07614889
-3.7395334	vigilante	-0.07614889
-3.7395334	impératif	-0.07614889
-3.7395334	protection	-0.07614889
-3.7395334	instable	-0.07614889
-3.7395334	prévisible	-0.07614889
-3.7395334	prête	-0.07614889
-3.7395334	assumer	-0.07614889
-3.7395334	responsabilités	-0.07614889
-3.7395334	sein	-0.07614889
-3.7395334	intention	-0.07614889
-3.7395334	tenir	-0.07614889
-3.7395334	rang	-0.07614889
-3.7395334	bases	-0.07614889
-3.7395334	européenne	-0.07614889
-3.7395334	existent	-0.07614889
-3.7395334	grandir	-0.07614889
-3.7395334	quittant	-0.07614889
-3.7395334	terrain	-0.07614889
-3.5936058	davantage	-0.07614889
-3.7395334	souhaite	-0.07614889
-3.5936058	capable	-0.19922052
-3.7395334	assurer	-0.07614889
-3.7395334	autonome	-0.07614889
-3.5936058	pèse	-0.07614889
-3.7395334	internationale	-0.07614889
-3.7395334	outil	-0.07614889
-3.7395334	adapté	-0.07614889
-3.7395334	hauteur	-0.07614889
-3.7395334	ambitions	-0.07614889
-3.7395334	intérêt	-0.07614889
-3.7395334	fondamental	-0.07614889
-3.7395334	perd	-0.07614889
-3.7395334	combat	-0.07614889
-3.7395334	affirme	-0.07614889
-3.7395334	influence	-0.07614889
-3.7395334	coalition	-0.07614889
-3.7395334	engager	-0.07614889
-3.7395334	engagement	-0.07614889
-3.7395334	dangereux	-0.07614889
-3.7395334	Afghanistan	-0.07614889
-3.7395334	Proche	-0.07614889
-3.7395334	Orient	-0.07614889
-3.7395334	connais	-0.07614889
-3.7395334	somme	-0.07614889
-3.7395334	abnégation	-0.07614889
-3.7395334	requiert	-0.07614889
-3.7395334	accomplissement	-0.07614889
-3.7395334	missions	-0.07614889
-3.7395334	tel	-0.07614889
-3.7395334	contexte	-0.07614889
-3.7395334	signifie	-0.07614889
-3.7395334	familles	-0.07614889
-3.7395334	saluer	-0.07614889
-3.7395334	particulièrement	-0.07614889
-3.7395334	souvent	-0.07614889
-3.7395334	confrontées	-0.07614889
-3.7395334	absence	-0.07614889
-3.7395334	parfois	-0.07614889
-3.7395334	hélas	-0.07614889
-3.7395334	lourd	-0.07614889
-3.5936058	tribut	-0.07614889
-3.7395334	payé	-0.07614889
-3.7395334	compagnons	-0.07614889
-3.7395334	ultime	-0.07614889
-3.285093	région	-0.07614889
-3.5936058	géographique	-0.07614889
-3.4344528	vis	-0.15420888
-3.7395334	église	-0.07614889
-3.7395334	vis-à-vis	-0.07614889
-3.285093	chrétienne	-0.07614889
-3.4344528	Beauce	-0.12128313
-3.4344528	culture	-0.07614892
-3.4344528	travail	-0.13333967
-3.5936058	solide	-0.19922052
-3.7395334	long	-0.07614889
-3.7395334	mûrir	-0.07614889
-3.7395334	pousser	-0.07614889
-3.5936058	tempérament	-0.07614889
-3.7395334	Beaucerons	-0.07614889
-3.7395334	volontaire	-0.07614889
-3.7395334	travailleur	-0.07614889
-3.7395334	fidèle	-0.07614889
-3.7395334	durable	-0.07614889
-3.7395334	ressentons	-0.07614889
-3.5936058	religieux	-0.07614889
-3.7395334	traditions	-0.07614889
-3.7395334	transmettent	-0.07614889
-3.7395334	domaine	-0.07614889
-3.7395334	économie	-0.07614889
-3.7395334	résistance	-0.07614889
-3.7395334	cultures	-0.07614889
-3.7395334	familiale	-0.07614889
-3.7395334	sentons	-0.07614889
-3.7395334	lorsque	-0.07614889
-3.7395334	implantée	-0.07614889
-3.7395334	effort	-0.07614889
-3.7395334	curés	-0.07614889
-3.7395334	sentent	-0.07614889
-3.4344528	attachement	-0.07614889
-3.7395334	sent	-0.07614889
-3.7395334	Beauceron	-0.07614889
-3.5936058	fidélité	-0.07614889
-3.7395334	preuves	-0.07614889
-3.7395334	soi	-0.07614889
-3.7395334	observer	-0.07614889
-3.5936058	prêtres	-0.07614889
-3.5936058	campagne	-0.07614889
-3.7395334	général	-0.07614889
-3.7395334	superficiel	-0.07614889
-3.5936058	profondeur	-0.07614892
-3.7395334	correspond	-0.07614889
-3.7395334	race	-0.07614889
-3.5936058	Gâtinais	-0.07614889
-3.7395334	boisée	-0.07614889
-3.7395334	vouée	-0.07614889
-3.7395334	élevage	-0.07614889
-3.7395334	accueillant	-0.07614889
-3.7395334	bienveillant	-0.07614889
-3.7395334	aimable	-0.07614889
-3.7395334	joyeux	-0.07614889
-3.7395334	fêtes	-0.07614889
-3.7395334	nombreuses	-0.07614889
-3.7395334	pourrais	-0.07614889
-3.7395334	morale	-0.07614889
-3.7395334	lesquelles	-0.07614889
-3.7395334	spontanéité	-0.07614889
-3.7395334	amabilité	-0.07614889
-3.7395334	gentillesse	-0.07614889
-3.7395334	caractéristique	-0.07614889
-3.7395334	sympathie	-0.07614889
-3.7395334	accueil	-0.07614889
-3.7395334	charité	-0.07614889
-3.7395334	chercher	-0.07614889
-3.7395334	renoncement	-0.07614889
-3.7395334	austérité	-0.07614889
-3.7395334	différence	-0.07614889
-3.7395334	nette	-0.07614889
-3.4344528	couches	-0.13333967
-3.7395334	mesure	-0.07614889
-3.7395334	arrivez	-0.07614889
-3.7395334	attacher	-0.07614889
-3.5936058	Orléans	-0.07614889
-3.7395334	stratifiée	-0.07614889
-3.7395334	variée	-0.07614889
-3.7395334	aborde	-0.07614889
-3.7395334	vue	-0.07614892
-3.7395334	sociologique	-0.07614889
-3.7395334	campagnes	-0.07614889
-3.5936058	prêtre	-0.07614889
-3.7395334	côtoyer	-0.07614889
-3.7395334	dis~	-0.07614889
-3.7395334	distinction	-0.07614889
-3.7395334	contacts	-0.07614889
-3.7395334	classes	-0.07614889
-3.7395334	dirigeantes	-0.07614889
-3.7395334	ouvrier	-0.07614889
-3.7395334	lorsqu'	-0.07614889
-3.7395334	viennent	-0.07614889
-3.7395334	formation	-0.07614889
-3.7395334	paroisse	-0.07614889
-3.7395334	enfants	-0.07614889
-3.7395334	offices	-0.07614889
-3.7395334	cérémonies	-0.07614889
-3.7395334	religieuses	-0.07614889
-3.7395334	baptêmes	-0.07614889
-3.7395334	mariages	-0.07614889
-3.7395334	enterrements	-0.07614889
-3.7395334	but	-0.07614889
-3.7395334	précis	-0.07614889
-3.7395334	trait	-0.07614889
-3.7395334	directs	-0.07614889
-3.7395334	aspects	-0.07614889
-3.7395334	difficiles	-0.07614889
-3.7395334	aborder	-0.07614889
-3.7395334	rapport	-0.07614889
-3.7395334	proportion	-0.07614889
-3.7395334	abordez	-0.07614889
-3.7395334	aspect	-0.07614889
-3.7395334	actuelle	-0.07614889
-3.7395334	traditionnellement	-0.07614889
-3.7395334	particulier	-0.07614889
-3.7395334	éprouvés	-0.07614889
-3.7395334	actuels	-0.07614889
-3.7395334	exposer	-0.07614889
-3.7395334	quelles	-0.07614889
-3.7395334	difficultés	-0.07614889
-3.7395334	églises	-0.07614889
-3.7395334	catholique	-0.07614889
-3.7395334	protestante	-0.07614889
-3.7395334	orthodoxe	-0.07614889
-3.7395334	travailleurs	-0.07614889
-3.7395334	connaissons	-0.07614889
-3.7395334	théo~	-0.07614889
-3.7395334	théories	-0.07614889
-3.7395334	marxisme	-0.07614889
-3.7395334	savons	-0.07614889
-3.7395334	quelle	-0.07614889
-3.7395334	appartenons	-0.07614889

\2-grams:
-0.7684039	euh </s>	0
-1.0326023	place </s>	0
-0.65476334	Tribunal </s>	0
-0.8921043	côté </s>	0
-0.85073096	fontaine </s>	0
-0.9964995	sorte </s>	0
-1.4297571	de </s>	0
-1.1006998	quoi </s>	0
-0.65476334	métallique </s>	0
-0.85073096	rue </s>	0
-0.85073096	Dame </s>	0
-0.61064535	voilà </s>	0
-1.1178447	vous </s>	0
-0.5924897	vie </s>	0
-1.1043837	dit </s>	0
-1.0615504	pourquoi </s>	0
-1.2530538	ne </s>	0
-0.9157266	pas </s>	0
-1.200361	plus </s>	0
-0.5288473	tôt </s>	0
-1.0010003	bien </s>	0
-1.3372711	est </s>	0
-1.3216497	le </s>	0
-0.9964995	cas </s>	0
-1.115289	hui </s>	0
-0.85073096	produit </s>	0
-0.65476334	révolutionnaire </s>	0
-1.1386741	alors </s>	0
-1.0299699	début </s>	0
-0.85073096	Valérie </s>	0
-0.9422898	dur </s>	0
-0.65476334	fer </s>	0
-0.9422898	agit </s>	0
-1.3990314	tout </s>	0
-1.1136948	simplement </s>	0
-1.0930952	lavage </s>	0
-1.4947119	que </s>	0
-0.69511306	linge </s>	0
-1.0326023	machine </s>	0
-0.9964995	route </s>	0
-0.65476334	résultat </s>	0
-0.93078667	ça </s>	0
-0.9964995	incroyable </s>	0
-0.5776881	effectivement </s>	0
-0.65476334	habituels </s>	0
-0.9964995	intérieur </s>	0
-1.1421248	magique </s>	0
-0.38346487	vêtements </s>	0
-0.1747822	hein </s>	0
-0.38346487	regardez </s>	0
-1.2297211	un </s>	0
-0.85073096	raconte </s>	0
-0.98894244	nous </s>	0
-0.41386962	maître </s>	0
-0.65476334	justice </s>	0
-0.62510586	Pierre </s>	0
-1.1052848	voulez </s>	0
-0.98195827	lessive </s>	0
-0.9422898	tambour </s>	0
-1.1052848	également </s>	0
-0.65476334	tiroir </s>	0
-0.65476334	vide </s>	0
-1.1905259	cette </s>	0
-0.85073096	teint </s>	0
-0.65476334	café </s>	0
-0.85073096	sale </s>	0
-0.65476334	grenadine </s>	0
-1.2952641	je </s>	0
-0.65476334	salie </s>	0
-0.5288473	hublot </s>	0
-0.62510586	marche </s>	0
-1.2149715	donc </s>	0
-0.85073096	heure </s>	0
-1.1052848	après </s>	0
-0.65476334	terminé </s>	0
-1.0926282	fait </s>	0
-0.65476334	ouvre </s>	0
-0.85073096	taches </s>	0
-0.5312969	moi </s>	0
-0.7919715	propre </s>	0
-0.65476334	impeccable </s>	0
-0.85073096	chaussures </s>	0
-0.65476334	waouh </s>	0
-0.65476334	blanches </s>	0
-0.9964995	blanc </s>	0
-0.5260435	cela </s>	0
-0.84677577	dire </s>	0
-1.2970911	tous </s>	0
-0.65476334	propres </s>	0
-0.91323286	comment </s>	0
-0.9216637	oui </s>	0
-0.9422898	entend </s>	0
-0.65476334	différents </s>	0
-0.9964995	sûr </s>	0
-0.9422898	eau </s>	0
-0.65476334	nettoyant </s>	0
-0.9964995	niveau </s>	0
-0.65476334	textile </s>	0
-0.65476334	fibres </s>	0
-0.65476334	impuretés </s>	0
-0.65476334	tissu </s>	0
-0.65476334	allergie </s>	0
-0.9760526	faire </s>	0
-0.65476334	économies </s>	0
-1.2673256	par </s>	0
-0.34909886	ans </s>	0
-0.5288473	exceptionnel </s>	0
-0.9964995	Magalie </s>	0
-0.61064535	temps </s>	0
-0.69511306	mois </s>	0
-0.85073096	-nous </s>	0
-0.65476334	génial </s>	0
-0.85073096	douceur </s>	0
-0.65476334	conservées </s>	0
-0.65476334	formidable </s>	0
-1.1006998	crois </s>	0
-0.65476334	fraîcheur </s>	0
-1.4327452	quand </s>	0
-1.2064109	même </s>	0
-0.65476334	agréable </s>	0
-0.85073096	silencieuse </s>	0
-0.85073096	tourne </s>	0
-0.85073096	problème </s>	0
-0.65476334	idéal </s>	0
-1.1396381	monde </s>	0
-0.9964995	an </s>	0
-0.65476334	geste </s>	0
-1.130741	être </s>	0
-0.65476334	plateau </s>	0
-1.0839566	vrai </s>	0
-0.9228935	autres </s>	0
-0.69511306	succès </s>	0
-0.65476334	générique </s>	0
-0.5924897	-là </s>	0
-0.65476334	fabuleux </s>	0
-0.86620164	peu </s>	0
-0.46491188	non </s>	0
-0.38346487	contraire </s>	0
-1.1325669	avais </s>	0
-1.0779095	livre </s>	0
-1.2059546	enfin </s>	0
-0.65476334	remarquez </s>	0
-1.1562383	soit </s>	0
-1.0779095	gens </s>	0
-0.9422898	vague </s>	0
-0.9422898	c~ </s>	0
-1.0326023	bon </s>	0
-0.65476334	pareilles </s>	0
-0.65476334	style </s>	0
-1.0326023	années </s>	0
-0.38346487	retrouvent </s>	0
-0.65476334	fleurs </s>	0
-0.65476334	plaisir </s>	0
-0.85073096	gênant </s>	0
-0.8204691	aussi </s>	0
-0.85073096	journal </s>	0
-1.1236491	toujours </s>	0
-0.65476334	culpabilité </s>	0
-0.85073096	accord </s>	0
-0.65476334	auteurs </s>	0
-0.9422898	Goncourt </s>	0
-0.9038694	lui </s>	0
-0.65476334	statistiques </s>	0
-0.85073096	cinquante </s>	0
-0.65476334	Colin </s>	0
-0.65476334	tomber </s>	0
-0.65476334	regret </s>	0
-0.5288473	gauche </s>	0
-0.65476334	PC </s>	0
-0.9964995	expérience </s>	0
-0.9422898	mère </s>	0
-0.85073096	Amant </s>	0
-0.98195827	quinze </s>	0
-0.65476334	demi </s>	0
-0.7612794	bac </s>	0
-0.65476334	Mekong </s>	0
-0.85073096	noir </s>	0
-0.85073096	pieds </s>	0
-0.85073096	danser </s>	0
-0.65476334	remarquer </s>	0
-0.9422898	remarquerait </s>	0
-0.85073096	peine </s>	0
-0.62510586	noire </s>	0
-0.65476334	croisent </s>	0
-0.85073096	absolue </s>	0
-0.9422898	auto </s>	0
-1.0779095	jeune </s>	0
-0.65476334	indigènes </s>	0
-1.1052848	fois </s>	0
-0.65476334	traversé </s>	0
-0.65476334	donnez </s>	0
-0.65476334	Bollée </s>	0
-0.21175069	longtemps </s>	0
-0.65476334	gigantesque </s>	0
-0.85073096	regarde </s>	0
-0.62510586	riche </s>	0
-0.65476334	chauffeur </s>	0
-0.69511306	choses </s>	0
-0.9422898	douze </s>	0
-1.1052848	premier </s>	0
-0.9422898	suite </s>	0
-0.65476334	avis </s>	0
-0.65476334	milliardaire </s>	0
-0.65476334	cinquante-six </s>	0
-0.65476334	Moere </s>	0
-1.1325669	Szymanoski </s>	0
-0.65476334	représentée </s>	0
-0.65476334	Chopin </s>	0
-0.65476334	wagnérienne </s>	0
-1.0326023	entendu </s>	0
-0.65476334	tristanien </s>	0
-0.65476334	apparaît </s>	0
-0.65476334	musicale </s>	0
-0.65476334	Vienne </s>	0
-0.62510586	Lohengrin </s>	0
-0.65476334	reprises </s>	0
-0.65476334	révélation </s>	0
-0.85073096	sous </s>	0
-0.85073096	près </s>	0
-0.65476334	gare </s>	0
-0.9422898	belle </s>	0
-0.5288473	droite </s>	0
-0.65476334	articulation </s>	0
-0.85073096	Berlin </s>	0
-0.65476334	pèlerine </s>	0
-0.65476334	genre </s>	0
-1.0779095	personne </s>	0
-0.65476334	aussitôt </s>	0
-0.65476334	foncé </s>	0
-0.65476334	élégant </s>	0
-0.85073096	hôtels </s>	0
-0.5288473	guerre </s>	0
-0.65476334	fortune </s>	0
-1.0326023	Pologne </s>	0
-0.85073096	artistique </s>	0
-0.9964995	musique </s>	0
-0.85073096	Rozycki </s>	0
-0.9422898	orchestre </s>	0
-0.65476334	Szeluto </s>	0
-0.85073096	groupe </s>	0
-0.85073096	intéressant </s>	0
-0.85073096	Varsovie </s>	0
-0.9422898	société </s>	0
-0.9422898	Strauss </s>	0
-0.65476334	partition </s>	0
-0.9422898	mains </s>	0
-0.65476334	connu </s>	0
-0.65476334	enchantaient </s>	0
-0.65476334	Kord </s>	0
-0.9422898	dernière </s>	0
-0.85073096	SMS </s>	0
-1.1902759	grippe </s>	0
-0.65476334	assoupissement </s>	0
-0.65476334	alarmer </s>	0
-0.85073096	mauvais </s>	0
-0.5288473	venir </s>	0
-0.9422898	population </s>	0
-0.65476334	contaminé </s>	0
-0.65476334	alarmistes </s>	0
-0.5288473	soir </s>	0
-0.85073096	publique </s>	0
-0.85073096	Rennes </s>	0
-0.9964995	scénario </s>	0
-0.49404225	pays </s>	0
-0.85073096	prochain </s>	0
-0.65476334	Martinière </s>	0
-0.9964995	Jean </s>	0
-0.65476334	virologue </s>	0
-0.65476334	Pasteur </s>	0
-0.85073096	vaccins </s>	0
-0.65476334	laboratoire </s>	0
-0.65476334	Belin </s>	0
-0.65476334	Seine </s>	0
-0.65476334	sanitaires </s>	0
-0.85073096	prévisions </s>	0
-0.65476334	météo </s>	0
-1.0839566	scénarios </s>	0
-0.85073096	possibles </s>	0
-0.7919715	jamais </s>	0
-0.85073096	saisonnière </s>	0
-0.85073096	passées </s>	0
-0.9422898	possible </s>	0
-0.65476334	imaginer </s>	0
-0.85073096	passés </s>	0
-0.65476334	compris </s>	0
-0.65476334	actuellement </s>	0
-0.65476334	devins </s>	0
-0.40592843	grave </s>	0
-0.85073096	l~ </s>	0
-0.69511306	chose </s>	0
-0.65476334	meurtrière </s>	0
-0.9422898	raison </s>	0
-0.65476334	décès </s>	0
-1.0299699	j~ </s>	0
-0.65476334	pervers </s>	0
-0.65476334	de~ </s>	0
-0.65476334	Français </s>	0
-0.65476334	probables </s>	0
-1.058454	dix-huit </s>	0
-0.38346487	effroyable </s>	0
-0.65476334	baignoires </s>	0
-0.65476334	viraux </s>	0
-1.1236491	année </s>	0
-0.9964995	film </s>	0
-0.85073096	question </s>	0
-0.65476334	frappés </s>	0
-0.65476334	affaires </s>	0
-0.65476334	dessus </s>	0
-0.85073096	voyez </s>	0
-0.65476334	gradations </s>	0
-0.65476334	balancier </s>	0
-1.058454	sud </s>	0
-0.65476334	austral </s>	0
-0.65476334	circule </s>	0
-0.65476334	intertropicale </s>	0
-0.65476334	nord </s>	0
-0.85073096	forte </s>	0
-0.85073096	renforcée </s>	0
-0.9422898	arrive </s>	0
-0.65476334	reportage </s>	0
-0.65476334	octobre </s>	0
-0.9964995	veux </s>	0
-0.9422898	automne </s>	0
-0.85073096	augmenter </s>	0
-0.65476334	humeur </s>	0
-0.65476334	funèbres </s>	0
-0.65476334	cumulatif </s>	0
-0.85073096	contagieuse </s>	0
-0.65476334	espérer </s>	0
-0.65476334	Royaume-Uni </s>	0
-0.65476334	locale </s>	0
-0.65476334	précocement </s>	0
-0.85073096	angoisse </s>	0
-1.0326023	humanité </s>	0
-0.65476334	Marchant </s>	0
-1.0779095	évangile </s>	0
-0.65476334	épisode </s>	0
-0.65476334	quitte </s>	0
-0.9422898	malades </s>	0
-1.058454	action </s>	0
-0.65476334	salutaire </s>	0
-0.65476334	châtiment </s>	0
-0.65476334	debout </s>	0
-0.65476334	disciples </s>	0
-0.85073096	dignité </s>	0
-1.0839566	foi </s>	0
-0.65476334	libération </s>	0
-0.65476334	rencontre </s>	0
-0.65476334	-toi </s>	0
-0.65476334	ordonne </s>	0
-0.9422898	nom </s>	0
-0.65476334	démons </s>	0
-0.65476334	scribes </s>	0
-0.65476334	naturelles </s>	0
-0.65476334	oreilles </s>	0
-0.65476334	corvée </s>	0
-0.85073096	manoeuvre </s>	0
-0.65476334	néant </s>	0
-0.9422898	souffrance </s>	0
-0.65476334	répit </s>	0
-0.65476334	agissions </s>	0
-0.65476334	Clara </s>	0
-0.65476334	technologique </s>	0
-0.9422898	sociales </s>	0
-0.65476334	littérature </s>	0
-0.85073096	biologie </s>	0
-0.70818245	italien </s>	0
-0.9422898	choix </s>	0
-0.5288473	psychologie </s>	0
-0.65476334	oral </s>	0
-0.65476334	stupide </s>	0
-0.65476334	bilingue </s>	0
-0.65476334	comprends </s>	0
-0.85073096	fais </s>	0
-0.65476334	psycho </s>	0
-0.85073096	licence </s>	0
-0.21175069	sténodactylo </s>	0
-0.65476334	Express </s>	0
-0.65476334	conduite </s>	0
-0.85073096	Giroud </s>	0
-0.65476334	envient </s>	0
-0.65476334	persuasion </s>	0
-0.85073096	répondre </s>	0
-0.98195827	point </s>	0
-0.85073096	mot </s>	0
-0.69511306	carrière </s>	0
-0.9422898	bourgeoise </s>	0
-0.9422898	Achard </s>	0
-0.65476334	jolie </s>	0
-0.65476334	élégante </s>	0
-0.65476334	caméra </s>	0
-0.9422898	connaissez </s>	0
-0.65476334	règle </s>	0
-0.65476334	regarder </s>	0
-0.65476334	faculté </s>	0
-0.65476334	marchait </s>	0
-0.65476334	étonne </s>	0
-0.9422898	destin </s>	0
-0.5288473	objectives </s>	0
-0.69511306	travailler </s>	0
-0.65476334	normal </s>	0
-0.98195827	père </s>	0
-0.5288473	argent </s>	0
-0.5288473	métier </s>	0
-0.85073096	journaliste </s>	0
-0.65476334	rédaction </s>	0
-0.65476334	ruinée </s>	0
-0.85073096	pauvre </s>	0
-0.65476334	oubliée </s>	0
-0.85073096	vendeuse </s>	0
-0.65476334	importance </s>	0
-0.98195827	apprendre </s>	0
-0.65476334	départ </s>	0
-0.3226336	librairie </s>	0
-0.65476334	trouvée </s>	0
-0.9422898	sérieux </s>	0
-0.65476334	connaissait </s>	0
-0.65476334	surpris </s>	0
-0.65476334	livres </s>	0
-0.65476334	gagnes </s>	0
-0.85073096	loyer </s>	0
-0.85073096	scène </s>	0
-0.65476334	vedette </s>	0
-0.65476334	entraînée </s>	0
-0.65476334	extraverti </s>	0
-0.65476334	comédienne </s>	0
-0.65476334	normaux </s>	0
-0.38346487	Renoir </s>	0
-0.85073096	illusion </s>	0
-0.85073096	Becker </s>	0
-0.65476334	égard </s>	0
-0.65476334	commun </s>	0
-0.65476334	piano </s>	0
-0.65476334	Hermillon </s>	0
-0.65476334	pompiers </s>	0
-0.65476334	continuez </s>	0
-0.5288473	armées </s>	0
-0.65476334	concitoyens </s>	0
-0.85073096	nationale </s>	0
-0.65476334	hommage </s>	0
-0.65476334	instants </s>	0
-1.0779095	Europe </s>	0
-0.85073096	partenaires </s>	0
-0.65476334	amical </s>	0
-0.65476334	rang </s>	0
-0.65476334	existent </s>	0
-0.65476334	autonome </s>	0
-0.65476334	ambitions </s>	0
-0.65476334	combat </s>	0
-0.65476334	engager </s>	0
-0.65476334	dangereux </s>	0
-0.65476334	contexte </s>	0
-0.65476334	ultime </s>	0
-1.0930952	église </s>	0
-0.9964995	chrétienne </s>	0
-1.0615504	Beauce </s>	0
-0.9422898	culture </s>	0
-0.62510586	travail </s>	0
-0.38346487	solide </s>	0
-0.65476334	pousser </s>	0
-0.65476334	fidèle </s>	0
-0.85073096	religieux </s>	0
-0.65476334	familiale </s>	0
-0.85073096	effort </s>	0
-0.85073096	campagne </s>	0
-0.9422898	profondeur </s>	0
-0.65476334	race </s>	0
-0.9964995	Gâtinais </s>	0
-0.65476334	élevage </s>	0
-0.65476334	accueillant </s>	0
-0.65476334	bienveillant </s>	0
-0.65476334	aimable </s>	0
-0.65476334	nombreuses </s>	0
-0.65476334	austérité </s>	0
-0.65476334	ouvrier </s>	0
-0.65476334	actuels </s>	0
-0.85073096	travailleurs </s>	0
-0.65476334	marxisme </s>	0
-0.65476334	appartenons </s>	0
-1.5330026	<s> euh	-0.09438484
-1.8681321	euh euh	-0.034741577
-1.7581809	a euh	-0.034741577
-0.7486949	bifurcation euh	-0.034741577
-1.9810653	à euh	-0.034741577
-1.0089989	fontaine euh	-0.034741577
-1.1760324	avec euh	-0.034741577
-1.9743296	de euh	-0.034741577
-1.7432834	et euh	-0.034741577
-1.488691	voilà euh	-0.034741577
-1.4465555	qui euh	-0.034741577
-1.6465254	vie euh	-0.034741577
-1.6864896	dit euh	-0.034741577
-1.5078553	mais euh	-0.034741577
-1.8574911	pas euh	-0.034741577
-1.3252718	plus euh	-0.034741577
-1.1658347	tôt euh	-0.034741577
-1.8521292	est euh	-0.034741577
-1.4734261	hui euh	-0.034741577
-1.5927025	vraiment euh	-0.034741577
-1.4713452	alors euh	-0.034741577
-1.6978899	comme euh	-0.034741577
-1.4223772	que euh	-0.034741577
-1.1659653	ensuite euh	-0.034741577
-1.478333	effectivement euh	-0.034741577
-1.4370288	voir euh	-0.034741577
-1.3076706	pour euh	-0.034741577
-1.4509338	voulez euh	-0.034741577
-1.8072677	sur euh	-0.034741577
-0.8848036	donc euh	-0.06209349
-1.3924295	vais euh	-0.034741577
-1.6625427	fait euh	-0.034741577
-1.2719641	là euh	-0.034741577
-1.4096692	dire euh	-0.034741577
-1.0733305	oui euh	-0.034741577
-1.5669776	faire euh	-0.034741577
-1.3036355	car euh	-0.034741577
-1.260255	si euh	-0.034741577
-1.7139497	par euh	-0.034741577
-1.5372566	deux euh	-0.034741577
-1.1478579	odeurs euh	-0.034741577
-1.6499532	était euh	-0.034741577
-1.4243636	sait euh	-0.034741577
-0.7486949	quantité euh	-0.034741577
-0.7486949	partout euh	-0.034741577
-1.6465254	-là euh	-0.034741577
-1.6426293	enfin euh	-0.034741577
-1.3036355	bon euh	-0.034741577
-1.5417153	ils euh	-0.034741577
-1.6105608	aussi euh	-0.034741577
-1.3036355	évidemment euh	-0.034741577
-1.4734261	êtes euh	-0.034741577
-0.78789717	certainement euh	-0.034741577
-1.1478579	ouais euh	-0.034741577
-0.7486949	di~ euh	-0.034741577
-1.0089989	Paris euh	-0.034741577
-0.7486949	complètement euh	-0.034741577
-1.4628923	moment euh	-0.034741577
-1.6131512	été euh	-0.034741577
-1.0089989	vingt euh	-0.034741577
-0.8623706	bac euh	-0.034741577
-1.3675668	époque euh	-0.034741577
-1.4734261	cet euh	-0.034741577
-1.4509338	fois euh	-0.034741577
-1.4243636	façon euh	-0.034741577
-1.0089989	Yudina euh	-0.034741577
-1.0089989	tradition euh	-0.034741577
-1.1478579	jouait euh	-0.034741577
-1.1478579	plutôt euh	-0.034741577
-0.7486949	motif euh	-0.034741577
-0.7486949	figé euh	-0.034741577
-1.0089989	près euh	-0.034741577
-1.1478579	attend euh	-0.034741577
-0.7486949	vain euh	-0.034741577
-0.7486949	tuberculose euh	-0.034741577
-0.7486949	dira euh	-0.034741577
-0.7486949	bouiboui euh	-0.034741577
-1.3036355	Pologne euh	-0.034741577
-1.4847527	où euh	-0.034741577
-0.7486949	compositeurs euh	-0.034741577
-0.7486949	inimitiés euh	-0.034741577
-1.1658347	cinq euh	-0.034741577
-1.3036355	voit euh	-0.034741577
-1.1478579	OMS euh	-0.034741577
-1.1658347	venir euh	-0.034741577
-0.7486949	rappelons euh	-0.034741577
-1.4243636	moins euh	-0.034741577
-1.4370288	santé euh	-0.034741577
-1.1478579	population euh	-0.034741577
-0.8578315	épidémies euh	-0.034741577
-1.3532043	virus euh	-0.034741577
-0.7486949	transmissibles euh	-0.034741577
-1.2385057	mieux euh	-0.034741577
-1.3675668	scénarios euh	-0.034741577
-1.0089989	possibles euh	-0.034741577
-1.1478579	pandémie euh	-0.034741577
-1.1658347	dirais euh	-0.034741577
-1.1478579	cyclone euh	-0.034741577
-0.7486949	prévision euh	-0.034741577
-1.0089989	inquiétantes euh	-0.034741577
-0.7486949	égout euh	-0.034741577
-1.3532043	s~ euh	-0.034741577
-0.7486949	projection euh	-0.034741577
-1.4927368	année euh	-0.034741577
-1.0089989	revient euh	-0.034741577
-0.7486949	août euh	-0.034741577
-0.7486949	f~ euh	-0.034741577
-0.7486949	décembre euh	-0.034741577
-0.7486949	largement euh	-0.034741577
-0.7486949	communiqués euh	-0.034741577
-0.7486949	alerte euh	-0.034741577
-1.3036355	humanité euh	-0.034741577
-1.3675668	foi euh	-0.034741577
-1.1478579	choix euh	-0.034741577
-1.0089989	réorienter euh	-0.034741577
-1.0089989	reprendre euh	-0.034741577
-1.2385057	comportement euh	-0.034741577
-0.7486949	différent euh	-0.034741577
-1.0089989	différentes euh	-0.034741577
-0.58515465	cinéma euh	-0.034741577
-0.7486949	bourgeoisie euh	-0.034741577
-0.7486949	utile euh	-0.034741577
-0.7486949	fière euh	-0.034741577
-1.0089989	font euh	-0.034741577
-0.7486949	manière euh	-0.034741577
-0.7486949	passe~ euh	-0.034741577
-0.78789717	Beauce euh	-0.034741577
-1.1478579	culture euh	-0.034741577
-1.0089989	tempérament euh	-0.034741577
-0.7486949	durable euh	-0.034741577
-0.7486949	cultures euh	-0.034741577
-1.0089989	campagne euh	-0.034741577
-1.1478579	profondeur euh	-0.034741577
-0.7486949	joyeux euh	-0.034741577
-0.7486949	lesquelles euh	-0.034741577
-0.7486949	religieuses euh	-0.034741577
-0.7486949	enterrements euh	-0.034741577
-0.7486949	but euh	-0.034741577
-0.7486949	aspects euh	-0.034741577
-1.101344	<s> il	-0.32359558
-2.1928544	euh il	-0.034741577
-2.3339925	il il	-0.034741577
-1.8889865	y il	-0.034741577
-2.3134496	et il	-0.034741577
-1.9135507	- il	-0.034741577
-1.7096789	ben il	-0.034741577
-2.337224	qui il	-0.034741577
-0.50520366	qu' il	-0.18119478
-2.1026397	mais il	-0.034741577
-1.8711635	vraiment il	-0.034741577
-2.0681715	alors il	-0.034741577
-1.3453883	s' il	-0.034741577
-1.7072138	que il	-0.17462902
-1.2430694	ensuite il	-0.15630686
-1.7796391	magique il	-0.034741577
-2.3574176	je il	-0.034741577
-1.7571274	puis il	-0.034741577
-1.9474295	donc il	-0.034741577
-1.8890547	là il	-0.034741577
-1.9084828	beaucoup il	-0.034741577
-0.78002346	secret il	-0.034741577
-1.4284365	jour il	-0.034741577
-1.7772127	mille il	-0.034741577
-1.1216867	quand il	-0.034741577
-1.8888471	-là il	-0.034741577
-1.5981613	façon il	-0.034741577
-1.0678518	Parsifal il	-0.034741577
-1.0678518	lequel il	-0.034741577
-1.1054014	où il	-0.034741577
-0.78002346	jalousies il	-0.034741577
-1.4958475	virus il	-0.034741577
-0.78002346	mécaniquement il	-0.034741577
-1.4958475	dix-huit il	-0.034741577
-1.4958475	journée il	-0.034741577
-1.6787755	Jésus il	-0.034741577
-1.5513345	évangile il	-0.034741577
-0.78002346	texte il	-0.034741577
-1.231131	sérieux il	-0.034741577
-0.78002346	internationale il	-0.034741577
-0.78002346	lorsqu' il	-0.034741577
-0.60097957	il y	-0.6480234
-2.0978801	d' y	-0.034741577
-2.6743236	qui y	-0.034741577
-2.0579736	on y	-0.034741577
-1.3193651	n' y	-0.03474155
-1.8057253	peut y	-0.034741577
-2.4155226	j' y	-0.034741577
-2.1583638	elle y	-0.034741577
-0.7907629	fêtes y	-0.034741577
-1.6869224	il a	-0.071607515
-1.0257149	y a	-0.034741577
-1.7604458	qui a	-0.034741577
-1.5744082	vous a	-0.034741577
-1.3670651	on a	-0.03474155
-2.4399467	les a	-0.034741577
-1.1212367	n' a	-0.071607515
-1.846494	l' a	-0.11189562
-2.3033168	tout a	-0.034741577
-1.6932904	ça a	-0.11189562
-2.509163	un a	-0.034741577
-2.2887402	nous a	-0.034741577
-0.8357221	elle a	-0.07937165
-1.1203201	m' a	-0.034741577
-1.7374824	Szymanoski a	-0.034741577
-1.3711798	France a	-0.034741577
-1.0822364	siècle a	-0.034741577
-1.2522423	Achard a	-0.034741577
-1.0822364	géographique a	-0.034741577
-2.651531	<s> une	-0.034741577
-2.1551147	euh une	-0.034741577
-2.1204224	a une	-0.034741577
-1.6542499	une une	-0.034741577
-2.0753684	à une	-0.034741577
-0.67208093	d' une	-0.07407482
-1.4111164	avec une	-0.034741577
-2.0000606	et une	-0.034741577
-1.9007956	qu' une	-0.034741577
-1.6543628	pas une	-0.034741577
-1.4484206	est une	-0.05015973
-1.9738561	comme une	-0.034741577
-0.7773796	ceci une	-0.034741577
-1.3340229	route une	-0.034741577
-2.087051	pour une	-0.034741577
-1.3411757	Pierre une	-0.034741577
-1.5419855	dans une	-0.034741577
-1.6196972	également une	-0.034741577
-1.913853	donc une	-0.034741577
-1.5039049	dire une	-0.034741577
-1.7539201	ont une	-0.034741577
-0.7773796	chacune une	-0.034741577
-0.7773796	permet une	-0.034741577
-1.2237016	dites une	-0.034741577
-0.7773796	apporte une	-0.034741577
-1.9180782	même une	-0.034741577
-1.9260931	était une	-0.034741577
-1.9092662	enfin une	-0.034741577
-1.8420533	aussi une	-0.034741577
-1.6886543	lui une	-0.034741577
-0.60136783	raté une	-0.034741577
-1.8694929	été une	-0.034741577
-1.062737	fleuve une	-0.034741577
-1.4167916	homme une	-0.034741577
-1.7959399	eu une	-0.034741577
-1.1397978	encore une	-0.15630686
-1.4167916	abord une	-0.034741577
-0.7773796	fondent une	-0.034741577
-1.4822773	avons une	-0.034741577
-0.7773796	finalement une	-0.034741577
-0.7773796	aura une	-0.034741577
-1.4167916	parole une	-0.034741577
-1.4822773	action une	-0.034741577
-0.7773796	humaine une	-0.034741577
-0.4288382	devenue une	-0.15630686
-1.062737	un~ une	-0.034741577
-0.7773796	édu~ une	-0.034741577
-0.7773796	immobilisme une	-0.034741577
-0.7773796	prévisible une	-0.034741577
-2.1269748	une petite	-0.034741577
-2.3850932	la petite	-0.034741577
-1.2682674	dernière petite	-0.034741577
-1.4905499	petite bifurcation	-0.034741577
-3.0547523	euh juste	-0.034741577
-0.79306173	retrouve juste	-0.034741577
-3.3629606	<s> avant	-0.034741577
-1.0889357	juste avant	-0.034741577
-1.7226577	rien avant	-0.034741577
-1.7698145	autre avant	-0.034741577
-1.3856966	parler avant	-0.034741577
-1.9011382	ailleurs avant	-0.034741577
-0.7907629	appelait avant	-0.034741577
-1.8070586	encore avant	-0.034741577
-1.0889357	question avant	-0.034741577
-2.0024066	<s> la	-0.034741577
-1.481641	euh la	-0.034741577
-1.9551215	a la	-0.034741577
-1.0417763	avant la	-0.034741577
-1.5631472	la la	-0.03474155
-0.86470735	à la	-0.12851202
-1.3794197	avec la	-0.11189562
-0.7636231	de la	-0.11762136
-0.7669622	continues la	-0.034741577
-1.0428596	rue la	-0.034741577
-1.8905948	et la	-0.034741577
-1.0428596	tellement la	-0.034741577
-1.790817	les la	-0.034741577
-2.0577664	pas la	-0.034741577
-1.9469439	plus la	-0.034741577
-2.065118	est la	-0.034741577
-1.7354506	vraiment la	-0.034741577
-1.5662907	alors la	-0.034741577
-1.8547065	comme la	-0.034741577
-1.5277765	simplement la	-0.034741577
-1.4622831	que la	-0.06209349
-1.8370782	en la	-0.034741577
-1.5569481	effectivement la	-0.034741577
-1.2976073	intérieur la	-0.034741577
-1.6640135	magique la	-0.034741577
-1.3635783	pour la	-0.034741577
-1.0088477	dans la	-0.034741577
-1.1914591	sur la	-0.034741577
-2.132224	je la	-0.034741577
-1.8007127	donc la	-0.034741577
-1.5519369	après la	-0.034741577
-1.6640135	ont la	-0.034741577
-0.7669622	rouge la	-0.034741577
-0.7669622	abaisse la	-0.034741577
-1.6937883	faire la	-0.034741577
-1.3731034	car la	-0.034741577
-2.0584023	si la	-0.034741577
-1.6640135	deux la	-0.034741577
-1.0428596	silencieuse la	-0.034741577
-0.7669622	préserver la	-0.034741577
-1.6640135	ailleurs la	-0.034741577
-1.3731034	évidemment la	-0.034741577
-1.1951935	Paul la	-0.034741577
-1.7005773	eu la	-0.034741577
-1.5519369	fois la	-0.034741577
-1.0428596	vers la	-0.034741577
-1.4793323	personne la	-0.034741577
-1.5889093	où la	-0.034741577
-1.2976073	musique la	-0.034741577
-0.7669622	abandonner la	-0.034741577
-1.1951935	esprit la	-0.034741577
-1.3731034	voit la	-0.034741577
-0.42529336	entendre la	-0.034741577
-0.7669622	consacrerons la	-0.034741577
-1.5277765	santé la	-0.034741577
-1.0428596	Hommes la	-0.034741577
-0.7669622	À la	-0.034741577
-1.1951935	arrêter la	-0.034741577
-0.7669622	atténuer la	-0.034741577
-1.2976073	déjà la	-0.034741577
-1.431877	sud la	-0.034741577
-0.7669622	évoqué la	-0.034741577
-0.7669622	nouveauté la	-0.034741577
-1.4793323	évangile la	-0.034741577
-0.7669622	lever la	-0.034741577
-0.7669622	fièvre la	-0.034741577
-1.3731034	parole la	-0.034741577
-0.7669622	restaurer la	-0.034741577
-1.1951935	rétablir la	-0.034741577
-1.0428596	donnant la	-0.034741577
-1.1951935	Job la	-0.034741577
-0.7669622	c'est-à-dire la	-0.034741577
-0.7669622	donne la	-0.034741577
-0.714699	aime la	-0.034741577
-0.59553355	apprendre la	-0.15630686
-0.7669622	prenez la	-0.034741577
-0.7669622	rencontrer la	-0.034741577
-1.1951935	salue la	-0.034741577
-1.1951935	laquelle la	-0.034741577
-0.7669622	connais la	-0.034741577
-0.7669622	lorsque la	-0.034741577
-2.9659553	euh place	-0.034741577
-2.898234	la place	-0.034741577
-1.0916446	arrives place	-0.034741577
-2.244995	sur place	-0.034741577
-2.2547843	fait place	-0.034741577
-2.360798	euh du	-0.034741577
-1.4153576	place du	-0.034741577
-1.7140843	du du	-0.034741577
-1.6630073	côté du	-0.034741577
-2.1139374	avec du	-0.034741577
-1.9333587	dit du	-0.034741577
-1.4887056	pas du	-0.35839212
-1.8367213	vraiment du	-0.034741577
-2.4155684	que du	-0.034741577
-2.0443516	ça du	-0.034741577
-1.3328375	intérieur du	-0.034741577
-2.0451632	sur du	-0.034741577
-1.0621018	col du	-0.034741577
-1.9098328	donc du	-0.034741577
-1.538103	fait du	-0.034741577
-1.3328375	niveau du	-0.034741577
-1.0621018	couleurs du	-0.034741577
-1.7508097	deux du	-0.034741577
-1.0621018	douceur du	-0.034741577
-1.6508245	avoir du	-0.034741577
-1.9218264	était du	-0.034741577
-1.8600267	-là du	-0.034741577
-1.5340617	gens du	-0.034741577
-1.4224	chef du	-0.034741577
-0.77705026	membre du	-0.034741577
-1.7926202	eu du	-0.034741577
-1.0621018	vu du	-0.034741577
-0.77705026	chopinien du	-0.034741577
-0.77705026	chromatique du	-0.034741577
-0.77705026	leitmotiv du	-0.034741577
-1.0621018	arrivée du	-0.034741577
-0.77705026	devenu du	-0.034741577
-1.2303196	ouverture du	-0.034741577
-1.2227819	marque du	-0.034741577
-0.42872694	responsable du	-0.034741577
-0.77705026	Amérique du	-0.034741577
-0.77705026	durée du	-0.034741577
-0.77705026	méfier du	-0.034741577
-0.77705026	tour du	-0.034741577
-1.4153576	parole du	-0.034741577
-0.77705026	faisant du	-0.034741577
-0.77705026	emploi du	-0.034741577
-1.0621018	vendeuse du	-0.034741577
-0.77705026	secrétaire du	-0.034741577
-1.578965	église du	-0.034741577
-1.3401191	travail du	-0.034741577
-1.0621018	domaine du	-0.034741577
-0.77705026	chercher du	-0.034741577
-1.0621018	contacts du	-0.034741577
-0.77705026	théories du	-0.034741577
-2.4993372	du Tribunal	-0.034741577
-2.5934305	<s> tu	-0.034741577
-2.7634451	et tu	-0.034741577
-1.8159218	ben tu	-0.034741577
-2.5972004	qu' tu	-0.034741577
-2.3885264	mais tu	-0.034741577
-2.8785608	que tu	-0.034741577
-1.7443842	tu passes	-0.034741577
-2.2724698	<s> à	-0.034741577
-1.5821176	euh à	-0.1428146
-1.9320502	la à	-0.034741577
-1.3286953	place à	-0.034741577
-0.75553375	passes à	-0.034741577
-1.6969535	à à	-0.034741577
-1.0215338	arrives à	-0.034741577
-1.500309	et à	-0.03474155
-1.3230025	- à	-0.15630686
-1.9313055	vous à	-0.034741577
-1.8110557	qu' à	-0.15630686
-1.5426836	mais à	-0.034741577
-1.92306	pas à	-0.034741577
-1.8239532	plus à	-0.034741577
-1.7669483	bien à	-0.034741577
-1.538699	est à	-0.034741577
-0.79890305	tout à	-0.475659
-1.9472369	que à	-0.034741577
-1.4577702	allez à	-0.034741577
-1.4865367	rien à	-0.034741577
-1.5436363	autre à	-0.034741577
-1.3286953	machine à	-0.034741577
-1.6077147	ensuite à	-0.034741577
-1.0215338	mettez à	-0.034741577
-1.5810958	magique à	-0.034741577
-0.75553375	mise à	-0.034741577
-1.2746122	Pierre à	-0.034741577
-1.165211	-vous à	-0.034741577
-0.58906233	lessive à	-0.15630686
-1.4865367	également à	-0.034741577
-0.86591244	difficile à	-0.034741577
-1.0215338	grâce à	-0.034741577
-1.165211	merci à	-0.034741577
-1.0215338	rayonnement à	-0.034741577
-1.6992815	ou à	-0.034741577
-1.9702601	si à	-0.034741577
-1.6897643	ans à	-0.034741577
-1.5208731	temps à	-0.034741577
-1.3423855	mois à	-0.034741577
-0.75553375	grace à	-0.034741577
-1.6083174	suis à	-0.034741577
-1.5321048	sais à	-0.034741577
-1.5810958	ailleurs à	-0.034741577
-1.4577702	mal à	-0.034741577
-1.165211	c~ à	-0.034741577
-1.2746122	passer à	-0.034741577
-1.2677405	aussi à	-0.034741577
-1.3286953	évidemment à	-0.034741577
-1.5599663	peut-être à	-0.034741577
-0.75553375	misé à	-0.034741577
-0.75553375	donner à	-0.034741577
-1.4974409	étais à	-0.034741577
-0.75553375	communiste à	-0.034741577
-1.3089678	été à	-0.034741577
-1.0215338	venons à	-0.034741577
-1.165211	sommes à	-0.034741577
-1.165211	remarquerait à	-0.034741577
-1.4865367	fois à	-0.034741577
-1.2746122	riche à	-0.034741577
-1.0215338	penser à	-0.034741577
-1.0215338	valeurs à	-0.034741577
-0.75553375	psychanalyse à	-0.034741577
-1.165211	attend à	-0.034741577
-0.75553375	discrètement à	-0.034741577
-0.4445713	jusqu' à	-0.034741577
-0.75553375	attaché à	-0.034741577
-0.75553375	jouaient à	-0.034741577
-0.75553375	empêcher à	-0.034741577
-0.75553375	bonsoir à	-0.034741577
-1.0215338	émission à	-0.034741577
-1.0215338	publique à	-0.034741577
-0.75553375	chercheur à	-0.034741577
-0.75553375	tropicales à	-0.034741577
-0.75553375	régulation à	-0.034741577
-1.165211	possible à	-0.034741577
-1.1809064	estimations à	-0.034741577
-1.3813943	dix-huit à	-0.034741577
-0.75553375	raccord à	-0.034741577
-1.5321048	année à	-0.034741577
-1.0215338	commencé à	-0.034741577
-1.3286953	hiver à	-0.034741577
-0.75553375	applique à	-0.034741577
-1.0215338	accrue à	-0.034741577
-0.75553375	qu~ à	-0.034741577
-1.165211	automne à	-0.034741577
-0.42133975	visite à	-0.034741577
-0.75553375	appels à	-0.034741577
-0.86591244	foi à	-0.034741577
-1.0215338	communique à	-0.034741577
-0.75553375	retentit à	-0.034741577
-1.0215338	conduit à	-0.034741577
-0.75553375	conforme à	-0.034741577
-0.75553375	exception à	-0.034741577
-0.75553375	débuté à	-0.034741577
-1.0215338	journaliste à	-0.034741577
-0.75553375	appartenait à	-0.034741577
-1.0215338	rigide à	-0.034741577
-0.75553375	pauvres à	-0.034741577
-0.75553375	tournez à	-0.034741577
-0.75553375	tenais à	-0.034741577
-0.75553375	tenu à	-0.034741577
-0.75553375	résolue à	-0.034741577
-0.75553375	prête à	-0.034741577
-0.75553375	adapté à	-0.034741577
-0.75553375	confrontées à	-0.034741577
-1.4577702	église à	-0.034741577
-0.75553375	long à	-0.034741577
-1.2599877	attachement à	-0.034741577
-0.75553375	vouée à	-0.034741577
-0.75553375	arrivez à	-0.034741577
-0.75553375	attacher à	-0.034741577
-1.2599877	viennent à	-0.034741577
-0.75553375	enfants à	-0.034741577
-0.75553375	offices à	-0.034741577
-0.75553375	trait à	-0.034741577
-0.75553375	difficiles à	-0.034741577
-0.75553375	rapport à	-0.034741577
-1.2805325	du côté	-0.091284536
-2.2640593	à côté	-0.034741577
-3.1073635	de côté	-0.034741577
-2.8403592	le côté	-0.034741577
-1.7983553	un côté	-0.034741577
-2.0337129	euh d'	-0.15630686
-1.9594393	a d'	-0.034741577
-2.0104995	une d'	-0.034741577
-2.1888847	à d'	-0.034741577
-1.0827538	côté d'	-0.034741577
-1.2987003	sorte d'	-0.034741577
-2.1017933	de d'	-0.034741577
-1.5484257	et d'	-0.034741577
-1.4545813	pas d'	-0.034741577
-1.9509112	plus d'	-0.034741577
-1.9110931	est d'	-0.034741577
-1.1960566	agit d'	-0.034741577
-2.017493	tout d'	-0.034741577
-1.6604286	que d'	-0.091284536
-1.5539019	rien d'	-0.034741577
-1.6885521	ensuite d'	-0.034741577
-0.767284	présence d'	-0.034741577
-1.8349841	fait d'	-0.034741577
-0.6672425	beaucoup d'	-0.03474155
-1.1960566	risque d'	-0.034741577
-1.7831995	ou d'	-0.034741577
-1.3744041	jour d'	-0.034741577
-1.6665589	deux d'	-0.034741577
-1.8044469	même d'	-0.034741577
-1.4248271	était d'	-0.034741577
-1.1960566	nombre d'	-0.034741577
-1.6890475	suis d'	-0.034741577
-0.767284	obtenu d'	-0.034741577
-1.6373199	autres d'	-0.034741577
-0.767284	énuméré d'	-0.034741577
-1.7777958	peu d'	-0.034741577
-1.6295922	faut d'	-0.034741577
-0.767284	reviendra d'	-0.034741577
-0.767284	boudée d'	-0.034741577
-1.3744041	années d'	-0.034741577
-0.767284	parution d'	-0.034741577
-1.0434672	certaine d'	-0.034741577
-1.5826151	êtes d'	-0.034741577
-1.3744041	certains d'	-0.034741577
-1.486088	ceux d'	-0.034741577
-1.0434672	venons d'	-0.034741577
-1.0434672	chapeau d'	-0.034741577
-1.1960566	fille d'	-0.034741577
-1.0434672	demande d'	-0.034741577
-0.767284	amène d'	-0.034741577
-1.0434672	valeurs d'	-0.034741577
-1.2987003	France d'	-0.034741577
-0.767284	élèves d'	-0.034741577
-1.1960566	société d'	-0.034741577
-1.3744041	voit d'	-0.034741577
-1.5204899	moins d'	-0.034741577
-0.767284	accepté d'	-0.034741577
-1.0434672	activité d'	-0.034741577
-1.1960566	raison d'	-0.034741577
-1.52952	bonne d'	-0.034741577
-0.767284	niveaux d'	-0.034741577
-0.767284	possibilité d'	-0.034741577
-1.4809942	évangile d'	-0.034741577
-0.767284	chacun d'	-0.034741577
-1.0434672	témoigne d'	-0.034741577
-0.767284	poste d'	-0.034741577
-1.0827538	disons d'	-0.15630686
-1.0434672	conduit d'	-0.034741577
-0.767284	précision d'	-0.034741577
-0.767284	précise d'	-0.034741577
-0.767284	commode d'	-0.034741577
-1.0434672	proposé d'	-0.034741577
-1.2987003	problèmes d'	-0.034741577
-0.767284	lieu d'	-0.034741577
-0.767284	air d'	-0.034741577
-0.767284	matière d'	-0.034741577
-0.767284	remercie d'	-0.034741577
-0.767284	image d'	-0.034741577
-0.767284	repart d'	-0.034741577
-0.767284	bases d'	-0.034741577
-0.4254037	capable d'	-0.034741577
-0.767284	compagnons d'	-0.034741577
-1.0434672	fidélité d'	-0.034741577
-1.1960566	profondeur d'	-0.034741577
-0.767284	boisée d'	-0.034741577
-1.4897304	petite fontaine	-0.034741577
-2.9964514	la fontaine	-0.034741577
-1.0867051	tu arrives	-0.034741577
-1.4784154	place aux	-0.034741577
-2.7005403	et aux	-0.034741577
-2.7343109	est aux	-0.034741577
-2.1298335	même aux	-0.034741577
-1.6742365	mal aux	-0.034741577
-1.2621886	paraître aux	-0.034741577
-1.9551711	eu aux	-0.034741577
-0.7907629	apprend aux	-0.034741577
-0.7907629	défileront aux	-0.034741577
-1.7897325	aux Herbes	-0.034741577
-2.8816748	<s> avec	-0.034741577
-2.178315	euh avec	-0.034741577
-0.77903014	Herbes avec	-0.034741577
-2.2900734	et avec	-0.034741577
-2.3830023	qu' avec	-0.034741577
-2.0511074	est avec	-0.034741577
-2.0510788	alors avec	-0.034741577
-1.3399992	trop avec	-0.034741577
-1.5916678	lavage avec	-0.034741577
-1.5974634	voir avec	-0.034741577
-0.77903014	chemise avec	-0.034741577
-0.42939466	pantalon avec	-0.034741577
-1.8996708	beaucoup avec	-0.034741577
-1.0659267	planète avec	-0.034741577
-1.4240329	peur avec	-0.034741577
-1.0659267	accord avec	-0.034741577
-1.22833	auto avec	-0.034741577
-1.6313094	fois avec	-0.034741577
-0.77903014	assortie avec	-0.034741577
-1.3399992	musique avec	-0.034741577
-0.77903014	découdre avec	-0.034741577
-1.22833	mains avec	-0.034741577
-0.77903014	vigilan~ avec	-0.034741577
-1.22833	arrive avec	-0.034741577
-1.0659267	augmenter avec	-0.034741577
-0.77903014	relations avec	-0.034741577
-0.77903014	enseigne avec	-0.034741577
-0.77903014	travaillent avec	-0.034741577
-0.81780636	travaillé avec	-0.034741577
-0.77903014	détail avec	-0.034741577
-1.4303402	travailler avec	-0.034741577
-0.77903014	monsieur avec	-0.034741577
-1.0659267	collaboré avec	-0.034741577
-0.77903014	subalternes avec	-0.034741577
-0.77903014	habitais avec	-0.034741577
-1.0659267	tourné avec	-0.034741577
-0.77903014	directement avec	-0.034741577
-0.6022865	contact avec	-0.034741577
-0.77903014	passée avec	-0.034741577
-1.2350316	armées avec	-0.034741577
-0.77903014	général avec	-0.034741577
-1.3464975	couches avec	-0.034741577
-1.3399992	prêtre avec	-0.034741577
-0.77903014	particulier avec	-0.034741577
-2.1314788	une sorte	-0.034741577
-1.5697807	quelque sorte	-0.034741577
-2.1369934	<s> de	-0.034741577
-1.5413424	euh de	-0.034741577
-0.945017	avant de	-0.034741577
-1.5676937	la de	-0.034741577
-1.3168375	côté de	-0.034741577
-1.5377042	avec de	-0.034741577
-1.1200113	sorte de	-0.034741577
-1.50486	de de	-0.071607515
-0.85932755	quoi de	-0.034741577
-1.2092644	et de	-0.034741577
-1.3834223	- de	-0.034741577
-0.93530726	Dame de	-0.034741577
-1.0493524	produits de	-0.034741577
-1.5810173	vous de	-0.034741577
-1.4359425	vie de	-0.034741577
-1.2759451	pas de	-0.034741577
-1.0012404	plus de	-0.034741577
-1.5608228	est de	-0.034741577
-1.1200113	cas de	-0.034741577
-1.286244	hui de	-0.034741577
-0.6671478	début de	-0.034741577
-1.5404296	l' de	-0.034741577
-0.7066892	équipe de	-0.034741577
-0.9798408	tout de	-0.27153906
-0.90160936	simplement de	-0.034741577
-0.5677421	boule de	-0.23345336
-1.6832905	que de	-0.034741577
-0.7066892	coeur de	-0.034741577
-0.92560655	effectivement de	-0.034741577
-1.1200113	intérieur de	-0.034741577
-0.6671478	parler de	-0.034741577
-1.4941638	un de	-0.034741577
-0.93530726	huissier de	-0.034741577
-1.4937955	pour de	-0.034741577
-0.40366572	efficacité de	-0.034741577
-1.4956303	notre de	-0.034741577
-0.7066892	compagnie de	-0.034741577
-1.3511164	maître de	-0.034741577
-1.2714953	voulez de	-0.034741577
-0.93530726	fond de	-0.034741577
-0.93530726	partir de	-0.034741577
-0.7066892	tache de	-0.034741577
-0.7066892	paire de	-0.034741577
-0.7066892	quarante-cinq de	-0.034741577
-0.7066892	cycle de	-0.034741577
-1.244173	fait de	-0.034741577
-0.93530726	taches de	-0.034741577
-0.7066892	traces de	-0.034741577
-1.5271713	dire de	-0.034741577
-0.91690636	beaucoup de	-0.11189562
-1.0493524	spécialiste de	-0.034741577
-1.1200113	mouvement de	-0.034741577
-0.7066892	moléculaire de	-0.034741577
-1.0493524	eau de	-0.034741577
-1.0493524	pouvoir de	-0.034741577
-0.7066892	superficielle de	-0.034741577
-1.1200113	niveau de	-0.034741577
-1.1686782	aucun de	-0.034741577
-0.7066892	résidu de	-0.034741577
-0.53651965	ou de	-0.034741577
-1.3563025	faire de	-0.034741577
-1.1686782	jour de	-0.034741577
-1.4801946	ans de	-0.034741577
-0.93530726	combien de	-0.034741577
-1.3230758	temps de	-0.034741577
-1.3266424	deux de	-0.034741577
-1.191819	mois de	-0.034741577
-0.7066892	pensez de	-0.034741577
-0.7066892	odeur de	-0.034741577
-1.2060685	même de	-0.034741577
-0.93530726	problème de	-0.034741577
-1.0493524	nombre de	-0.034741577
-0.7066892	kilos de	-0.034741577
-1.0493524	venue de	-0.034741577
-1.191819	succès de	-0.034741577
-1.3266424	ailleurs de	-0.034741577
-1.191819	celui de	-0.034741577
-1.3924661	peu de	-0.034741577
-0.9848821	non de	-0.034741577
-0.7066892	Maladie de	-0.034741577
-1.1686782	peur de	-0.034741577
-1.32725	soit de	-0.034741577
-0.7066892	attendaient de	-0.034741577
-0.7066892	fautes de	-0.034741577
-1.1686782	années de	-0.034741577
-0.7066892	couvrent de	-0.034741577
-1.3913715	aussi de	-0.034741577
-0.7066892	autour de	-0.034741577
-0.7066892	réflexe de	-0.034741577
-0.7066892	habitude de	-0.034741577
-1.1686782	certains de	-0.034741577
-0.7066892	membres de	-0.034741577
-1.312738	lui de	-0.034741577
-1.0788683	raté de	-0.034741577
